tree
version=v3
num_class=1
num_tree_per_iteration=1
label_index=0
max_feature_idx=520
objective=binary sigmoid:1
feature_names=Column_0 Column_1 Column_2 Column_3 Column_4 Column_5 Column_6 Column_7 Column_8 Column_9 Column_10 Column_11 Column_12 Column_13 Column_14 Column_15 Column_16 Column_17 Column_18 Column_19 Column_20 Column_21 Column_22 Column_23 Column_24 Column_25 Column_26 Column_27 Column_28 Column_29 Column_30 Column_31 Column_32 Column_33 Column_34 Column_35 Column_36 Column_37 Column_38 Column_39 Column_40 Column_41 Column_42 Column_43 Column_44 Column_45 Column_46 Column_47 Column_48 Column_49 Column_50 Column_51 Column_52 Column_53 Column_54 Column_55 Column_56 Column_57 Column_58 Column_59 Column_60 Column_61 Column_62 Column_63 Column_64 Column_65 Column_66 Column_67 Column_68 Column_69 Column_70 Column_71 Column_72 Column_73 Column_74 Column_75 Column_76 Column_77 Column_78 Column_79 Column_80 Column_81 Column_82 Column_83 Column_84 Column_85 Column_86 Column_87 Column_88 Column_89 Column_90 Column_91 Column_92 Column_93 Column_94 Column_95 Column_96 Column_97 Column_98 Column_99 Column_100 Column_101 Column_102 Column_103 Column_104 Column_105 Column_106 Column_107 Column_108 Column_109 Column_110 Column_111 Column_112 Column_113 Column_114 Column_115 Column_116 Column_117 Column_118 Column_119 Column_120 Column_121 Column_122 Column_123 Column_124 Column_125 Column_126 Column_127 Column_128 Column_129 Column_130 Column_131 Column_132 Column_133 Column_134 Column_135 Column_136 Column_137 Column_138 Column_139 Column_140 Column_141 Column_142 Column_143 Column_144 Column_145 Column_146 Column_147 Column_148 Column_149 Column_150 Column_151 Column_152 Column_153 Column_154 Column_155 Column_156 Column_157 Column_158 Column_159 Column_160 Column_161 Column_162 Column_163 Column_164 Column_165 Column_166 Column_167 Column_168 Column_169 Column_170 Column_171 Column_172 Column_173 Column_174 Column_175 Column_176 Column_177 Column_178 Column_179 Column_180 Column_181 Column_182 Column_183 Column_184 Column_185 Column_186 Column_187 Column_188 Column_189 Column_190 Column_191 Column_192 Column_193 Column_194 Column_195 Column_196 Column_197 Column_198 Column_199 Column_200 Column_201 Column_202 Column_203 Column_204 Column_205 Column_206 Column_207 Column_208 Column_209 Column_210 Column_211 Column_212 Column_213 Column_214 Column_215 Column_216 Column_217 Column_218 Column_219 Column_220 Column_221 Column_222 Column_223 Column_224 Column_225 Column_226 Column_227 Column_228 Column_229 Column_230 Column_231 Column_232 Column_233 Column_234 Column_235 Column_236 Column_237 Column_238 Column_239 Column_240 Column_241 Column_242 Column_243 Column_244 Column_245 Column_246 Column_247 Column_248 Column_249 Column_250 Column_251 Column_252 Column_253 Column_254 Column_255 Column_256 Column_257 Column_258 Column_259 Column_260 Column_261 Column_262 Column_263 Column_264 Column_265 Column_266 Column_267 Column_268 Column_269 Column_270 Column_271 Column_272 Column_273 Column_274 Column_275 Column_276 Column_277 Column_278 Column_279 Column_280 Column_281 Column_282 Column_283 Column_284 Column_285 Column_286 Column_287 Column_288 Column_289 Column_290 Column_291 Column_292 Column_293 Column_294 Column_295 Column_296 Column_297 Column_298 Column_299 Column_300 Column_301 Column_302 Column_303 Column_304 Column_305 Column_306 Column_307 Column_308 Column_309 Column_310 Column_311 Column_312 Column_313 Column_314 Column_315 Column_316 Column_317 Column_318 Column_319 Column_320 Column_321 Column_322 Column_323 Column_324 Column_325 Column_326 Column_327 Column_328 Column_329 Column_330 Column_331 Column_332 Column_333 Column_334 Column_335 Column_336 Column_337 Column_338 Column_339 Column_340 Column_341 Column_342 Column_343 Column_344 Column_345 Column_346 Column_347 Column_348 Column_349 Column_350 Column_351 Column_352 Column_353 Column_354 Column_355 Column_356 Column_357 Column_358 Column_359 Column_360 Column_361 Column_362 Column_363 Column_364 Column_365 Column_366 Column_367 Column_368 Column_369 Column_370 Column_371 Column_372 Column_373 Column_374 Column_375 Column_376 Column_377 Column_378 Column_379 Column_380 Column_381 Column_382 Column_383 Column_384 Column_385 Column_386 Column_387 Column_388 Column_389 Column_390 Column_391 Column_392 Column_393 Column_394 Column_395 Column_396 Column_397 Column_398 Column_399 Column_400 Column_401 Column_402 Column_403 Column_404 Column_405 Column_406 Column_407 Column_408 Column_409 Column_410 Column_411 Column_412 Column_413 Column_414 Column_415 Column_416 Column_417 Column_418 Column_419 Column_420 Column_421 Column_422 Column_423 Column_424 Column_425 Column_426 Column_427 Column_428 Column_429 Column_430 Column_431 Column_432 Column_433 Column_434 Column_435 Column_436 Column_437 Column_438 Column_439 Column_440 Column_441 Column_442 Column_443 Column_444 Column_445 Column_446 Column_447 Column_448 Column_449 Column_450 Column_451 Column_452 Column_453 Column_454 Column_455 Column_456 Column_457 Column_458 Column_459 Column_460 Column_461 Column_462 Column_463 Column_464 Column_465 Column_466 Column_467 Column_468 Column_469 Column_470 Column_471 Column_472 Column_473 Column_474 Column_475 Column_476 Column_477 Column_478 Column_479 Column_480 Column_481 Column_482 Column_483 Column_484 Column_485 Column_486 Column_487 Column_488 Column_489 Column_490 Column_491 Column_492 Column_493 Column_494 Column_495 Column_496 Column_497 Column_498 Column_499 Column_500 Column_501 Column_502 Column_503 Column_504 Column_505 Column_506 Column_507 Column_508 Column_509 Column_510 Column_511 Column_512 Column_513 Column_514 Column_515 Column_516 Column_517 Column_518 Column_519 Column_520
feature_infos=[-3.5788025915210353:2.3800494233461764] [-2.4511993854477012:2.8029594938274722] [-4.4336803656360484:2.6704083317824421] [-7.6820154118493376:2.7438158349725863] [-2.2593089999618527:1.9496820717493979] [-1.9987681913704078:4.8311804468101887] [-3.5586190694515767:2.8977287771059212] [-2.7990611459257164:2.0180821144882857] [-3.2709383935115719:3.4007506059592938] [-3.2577461146902276:2.7519656760476869] [-2.5213154850736612:3.6461476419691534] [-5.4737318520005793:4.5418217543450154] [-2.7861013866685216:2.0400792414902815] [-3.8558091101480505:3.7837421310476764] [-1.2097665332985477:2.8849901157827658] [-3.1673419722273355:2.2027213995575803] [-4.9605118155053578:2.3943687615621645] [-2.9126760733989112:3.2728915978937074] [-2.6241789285048549:2.6087772950165911] [-2.7776546400601605:4.5803025659383172] [-4.4149556584397551:3.0123158952333773] [-4.8729160052686336:1.7608414772210772] [-2.7110364600084167:2.7591820770155224] [-5.0719469490269695:2.4501512701741652] [-1.7875397725188562:5.712437109931769] [-2.4156282570323588:4.5326853081601985] [-2.8861602214954476:1.6746269819462491] [-2.4201926934007907:4.0138267570724455] [-2.000960246041823:3.1775237255344004] [-2.2299070700530086:3.0066479570761588] [-5.9193026684654306:2.7309621547790282] [-3.6037351659410173:2.2956637287882042] [-5.2075227524149152:0.94650988600849961] [-2.3940288116340236:2.8944369559905847] [-4.0275647778090411:2.3764109761288497] [-2.9195137920355134:2.6080017055112776] [-2.3575386132278626:3.562802367538525] [-2.5386319149016527:3.4325765387211606] [-4.5548778205679055:2.0070994910255169] [-5.5471270675923225:2.9043057990865457] [-4.3575917504518884:2.56000983991549] [-2.0528254482623027:2.8839544925744427] [-3.5817389714623853:2.4747235807635413] [-3.3539485080155793:1.7802620934976079] [-2.4418116890212396:2.2535171698754044] [-2.1000596853463875:3.2723427486156944] [-3.0813121464970687:3.0555671906958657] [-1.7745123733776889:3.9668859932618084] [-3.7652901783637063:2.0992814724336628] [-3.1390106682267187:2.396953099091363] [-4.2021248552730457:2.8329721377669443] [-4.9824241994665428:2.9075117218282331] [-3.1295097056002028:2.2747213931880572] [-2.3192024730019791:3.2481653226504532] [-1.8005597569087883:4.3906190573101931] [-3.3687948595878452:3.0301254917148057] [-2.7264058593153657:2.710561392998196] [-2.7549392569985467:2.8066995757351871] [-2.8823551909758338:5.1224537782324795] [-4.456678070729315:2.4626251472361309] [-3.7360668738649521:2.7109116332154342] [-1.5590895224184733:4.697862457721012] [-2.6424029190705687:3.3930404297090275] [-2.9212999292394435:4.0920201413424895] [-1.3503931484971479:5.460913203584246] [-3.379525908203092:3.0306556223927861] [-4.2759789800190466:3.8929848816094932] [-4.9515910879519742:2.2858650414865598] [-3.8394605739233518:1.1376710672727837] [-2.629388163580046:2.9360887080905491] [-2.9451847847053276:2.3989175295086529] [-2.0404266931567911:2.9680064475170105] [-5.8764732653542229:1.8220395842964874] [-2.4125356136510967:4.2978952113515758] [-2.9653308516438956:2.436296869114897] [-4.7084590966303184:1.1357158897761592] [-2.6149611822484675:2.4525509896677171] [-2.429043904434034:3.9385458919766854] [-1.7162166367602605:4.3425966395761888] [-2.1996395567293905:3.377577289703352] [-2.8796154849973581:4.1920861235844038] [-1.9010943200205972:4.3025967144522124] [-2.6033671018307016:2.3637652599284964] [-7.9724665019021064:1.7263433374534822] [-1.6161544415906486:4.4979379964999522] [-2.20504374255359:2.3254024526200481] [-2.2607664653833854:2.8037530564964968] [-4.0582851950186489:2.8115852986979597] [-2.3268111141378403:2.9493103282310669] [-4.021011475119459:2.9649325938362341] [-3.0484213379367642:2.6552889018922823] [-2.9123882620651411:2.7146100583318238] [-2.7711796856894511:5.1824096191696363] [-5.3273303847604163:3.1697220116960478] [-2.445187669909624:4.8468998081100443] [-5.4589359154336865:2.6512027737757955] [-2.3066070669850007:3.1438619852766143] [-6.5110456423314691:2.5853952024458891] [-4.884656887174045:6.4307730733205997] [-1.4267223990252942:2.3185165693647032] [-3.3447552532537617:3.223947927775245] [-4.5310275576176933:3.0121508042606324] [-4.081901678923308:2.2761914067464137] [-3.7696605572128861:3.575004557295975] [-1.0447826927434809:4.1556803766449812] [-2.009070898734052:4.8773944411938013] [-1.9804729153631513:0.9732470769853202] [-2.3606707682249586:3.9279507647347978] [-3.1295567907185666:2.2980351526015772] [-3.6775261477469567:2.4600564429453406] [-2.6170871649243939:2.6427864692673433] [-4.9248385079388441:2.1782452777735437] [-2.7552042206132343:2.9200902571121694] [-2.0468519921411108:1.4350794457502787] [-3.5641198181136073:5.4079558595793014] [-3.1870302270748736:3.2306409424621552] [-5.3173786417943472:0.90501113127080379] [-4.0509109010048094:2.4625249778288079] [-2.8919060519941517:3.4416495934735987] [-5.4738334980558419:1.7688099632479037] [-2.2025710679281034:3.1235916862039721] [-2.7177519687362657:3.634040434996495] [-2.7244527648439432:2.6634995945356352] [-4.0521149061597495:3.4335377778232767] [-2.876183443330159:5.4809629899957288] [-3.9627657072445239:3.3981382243910727] [-4.9263797585583022:1.6558821161645649] [-2.0151035908476946:2.3598161908501694] [-2.8310214306393715:4.1678459266914292] [-4.3663898595750243:1.6652789064618068] [-1.1734669727828069:5.5726041165049773] [-3.0636411417289078:2.8673376387263554] [-1.9348274199646296:5.3144506018673336] [-6.2487212423632057:1.0426578352077325] [-6.6510127215959081:1.5135059651430922] [-7.5806993227958381:2.0048308300392388] [-4.6202714665512135:2.980455647317271] [-2.5825247697331655:4.1955059774070147] [-7.4420563419797965:4.8462317603578668] [-7.5044016823842385:2.6741380215214878] [-0.042155033226117432:3.4690198235925136] [-3.0564613109601675:4.3871683762211164] [-2.6421547443503597:3.739598165654527] [-4.1034984426708849:0.37287423048043089] [-4.3022435797838119:3.4162235313504028] [-2.7504517181521373:1.5835112023493343] [-2.8352813041502247:2.5624075652903584] [-5.6933904491490841:2.1071589473241921] [-4.0921725270990272:2.3823967751994455] [-3.3582963564592925:2.3414083615632402] [-2.8228378946845223:2.1922100649324827] [-4.0994899328138779:3.4989598594380569] [-5.7311581958538103:1.9060420350317389] [-3.8012722864992563:1.8711620769825033] [-2.9240968830423499:3.1206969873073325] [-2.292763550771308:3.1306118464678696] [-5.9609953718709559:2.4985054600364496] [-1.7810600999539388:1.764146610720454] [-2.7598669032005039:3.708899305450283] [-1.3167311577668519:6.0824059589057056] [-2.8087199992451897:2.6879470061320769] [-1.5316345307144659:3.0665678283060065] [-5.7885429205525627:2.2391694029678337] [-6.2118998392403428:3.0249616705826599] [-3.5053014251612233:3.8415165388179782] [-7.7477625792257889:2.5512134781044287] [-6.1434586342181676:2.3860587946744212] [-3.3016545065717811:2.6211935515284734] [-2.7597229860797148:2.655847907779453] [-6.9749077456433:2.919075288819394] [-6.9359037839657187:2.9840114941708187] [-3.0252419347831383:2.3001777211886729] [-2.2591866802925114:3.3256411801501105] [-3.7576789770997872:3.2621022739592975] [-3.4996070887171422:3.1747726637256046] [-2.8332921905732991:3.5763903427102428] [-3.4856134163550734:4.8872101980211182] [-3.0346689197149428:4.1931669558645916] [-2.5434436693597324:3.081329021208675] [-2.3702557095619916:2.2010084775376568] [-3.3651071484550372:2.332757530283736] [-3.0052248711192684:2.3184618790154725] [-5.0440712412356579:2.3002954974887109] [-3.5274231792091468:3.014148343052875] [-3.4184675980498245:2.8294631430499804] [-1.9131420384613171:3.7821378186331822] [-2.7461272214217201:4.9399162257972602] [-1.9820997446534356:1.4281385929023209] [-5.2597433769936641:2.382988732823065] [-4.2567073163161036:2.0528392641331514] [-5.7151031802100674:1.1726126765635376] [-1.0202063978940139:2.8794634440639442] [-2.1958263544890384:3.0091785342702955] [-2.8060499030001766:3.6298582788645257] [-1.9132152979733432:1.2960011604902875] [-2.5619344204077836:2.637320105700141] [-5.9333797008839246:2.5473817844851641] [-4.4171445694074922:1.02673852472705] [-1.1803197478380192:2.1132801073081233] [-3.2893016012162137:2.6596133554962069] [-3.3543197072480244:2.1684530888023414] [-3.1736096312033446:3.8965887499614289] [-1.9556953397688694:3.1822189534086283] [-2.8324723134626666:2.3925142663406902] [-2.8995698943151202:3.0380350341528652] [-3.2854456479677547:3.4492276719581758] [-6.5159467936187712:2.3600300940064463] [-6.4872868333120941:1.461016985214163] [-4.657062262203393:1.6248521543357493] [-3.3491404182139299:2.5361285259765327] [-4.9055978675803988:1.0022559125650159] [-2.480007566453784:5.1461489609771185] [-1.0463549385075144:2.0135198745751772] [-3.7200904824281911:2.2448143539484779] [-5.4544654479355064:1.8021470809244853] [-2.3265936489394816:3.0600151902730617] [-4.8655975170871759:3.1955479685878112] [-4.0127109718889367:1.9862366006924459] [-4.3585666524100422:6.9056024532321194] [-6.6004817934788163:1.6611606142697728] [-1.8082461839563961:2.4857620159984912] [-2.4725746220939535:2.6049649134584767] [-2.0068356578699702:2.0494330862358252] [-4.1301887445278496:3.8783606139500653] [-2.2591172265217989:4.2035903935750341] [-3.6162999555544015:2.4402068381752264] [-1.7711514796110723:3.3091469694962057] [-2.8213511095330062:3.6368333700184929] [-3.5546069255116843:2.2957726463794677] [-0.66182485784700162:5.3365052393175985] [-5.3401657538244551:2.3401270137858576] [-2.9491596637818889:2.5387935136020308] [-7.4611278889760033:2.1229004246021419] [-5.0689217539105167:0.7070215839647187] [-1.7491315617355627:2.9884880208656504] [-7.1598478378585719:2.0051587793687413] [-4.8021489118559888:0.4613626129389693] [-6.0077008091266162:2.6325621391228227] [-2.6327412958078957:6.8789381338522748] [-2.9028278458524301:2.6069920379824367] [-6.0365331784809735:3.4520166712644489] [-2.7949852297003681:2.3154650155319798] [-5.011850709314257:2.4009383112769989] [-2.2566741535962551:3.7254891290818692] [-3.3293950499048783:2.6787014413382519] [-6.57030634236102:2.2532633965298117] [-5.1853566752315148:1.9231361783211824] [-4.9525791075703083:2.9949955929288015] [-6.4304418052076731:1.7508833586697707] [-2.6837772533975111:2.3391797482151775] [-5.3639760184722283:2.3175842698737648] [-2.190484932370321:3.516979501281202] [-4.1928861501764159:3.8652008868014405] [-6.218071984394193:2.0339545006971336] [-2.9508814831510639:2.8920190487952184] [-2.5991787644053845:2.8510595349619607] [-1.9555273233691355:2.5255413868498411] [-4.2986138215431033:2.1781973003222852] [-6.4224064064467044:1.4149274345396803] [-2.9358126023988933:2.971377356429028] [-2.8907767824631074:2.0680761130538086] [-5.2298573369978669:2.2984028709067261] [-3.214259412849342:1.0501033740504511] [-5.9237263448161572:1.2231809533469564] [-4.8910680747468103:3.3501635680036248] [-5.5166122183802502:2.0544923163533952] [-6.2987240258485713:0.84140311200321327] [-2.1834058544416779:2.9990932240740631] [-2.1668826726631711:3.8695920926048335] [-4.8907886991888638:2.7028411321004269] [-2.2872049742019618:2.893763093003189] [-1.1888209673168557:2.7910358055260791] [-5.6825656097392478:3.1919834845874675] [-4.7943986319703313:2.0080074320079233] [-2.8321799937252821:3.6391631900256698] [-2.4246899189515272:3.5149706688273574] [-5.5968034957726713:2.787306639081363] [-2.5601087129473328:1.89536654594686] [-2.9142472157521775:2.9139114308447467] [-2.5714903412057133:2.2308875394735481] [-2.8342466439938496:2.8794100048637081] [-1.9542354527307728:1.9608199670994015] [-4.9997168075661547:2.32508165093508] [-7.1692748571773564:3.9914573299901885] [-2.4484140352014729:3.0998157176874099] [-2.687291488788679:2.3588676865894791] [-3.3920757809224811:2.8917518737999095] [-2.8162440769608921:5.3705860120238329] [-3.4163266541150459:2.8999885231950562] [-2.9139681186674991:2.5689872504431115] [-3.2928053608232823:2.4266780146300233] [-5.0809746164096614:2.8560489942888987] [-4.2071883400819035:4.8871380061839611] [-3.3592650330268583:2.5398224523938655] [-3.6453366219594456:1.7491965513494498] [-2.086742399600813:3.3269350995441886] [-3.0823583024955843:2.3391238849214346] [-3.3619003830519851:1.9108225960532541] [-4.3667473449485712:1.7760401550848464] [-3.6880637816895487:2.0867975076196128] [-3.9123249538661482:2.1704095444817764] [-2.467792386114962:4.7879626742989831] [-3.6813913492636279:3.6145682593217892] [-6.5875345630533593:0.60367841649267517] [-7.8489021473652354:0.84293384457383203] [-2.9483683481828535:3.6258407631447214] [-3.7304458327706866:2.5279654878338325] [-4.1176535250979711:2.0087193908243157] [-2.54308954230941:3.1984159912766619] [-1.7302318329261059:2.0899106861131553] [-3.4452309001668957:2.9647067132721916] [-2.6858083272054092:3.0023717738284241] [-3.7157865783777577:2.3153070603889003] [-2.8807938297870641:3.6198683093019874] [-3.5018736152854002:3.0646365972103515] [-2.9963699283490475:2.9852175530370024] [-2.926494686428887:3.426605853711028] [-2.6476716828102718:4.1466935713618271] [-3.2792731815477687:3.5419993779823966] [-2.1629105103756374:3.8558975580722414] [-4.9831267452438004:2.2095184852959151] [-4.6250557707019251:2.6322847391240227] [-3.9316808136790624:2.3938039249689762] [-3.3052707832045347:1.9918462333017222] [-7.0016641050822113:1.4995009298868307] [-3.2603596139690576:2.9768111292347248] [-7.0626154586188159:2.1599056172568756] [-4.1813962689650159:3.8522345326824565] [-4.999646295698386:3.4655990589569368] [-2.81484504680737:2.7472646705951469] [-2.7191057714468996:1.8324713283524428] [-4.0172370274567539:2.2515020811820512] [-2.5609418993812909:2.5751181508086303] [-2.5444001265701681:3.7852041138290797] [-6.0894607563054253:3.0991059473180127] [-3.5607110449741506:2.5720288493607582] [-2.7947383633369807:2.747424475111127] [-2.8135880528589849:2.3950883948892763] [-6.281226593598717:2.1745964294861633] [-4.2838930181945214:2.7964912881895954] [-2.7599250654999463:3.0313447440599508] [-5.0113692337021485:3.1244146100191799] [-4.4875046841507142:2.7935824846097983] [-2.7294509699399403:2.9273500038036198] [-2.5987546095195575:2.3211131729890586] [-2.3064862470724847:2.7869599930090705] [-1.5743026327296896:3.7638323683679364] [-2.7501423829197322:2.3412025413558517] [-6.4068409182549937:1.8508547939106619] [-2.2846483695250024:2.7751993136029736] [-4.2602036250803614:2.1678209339918642] [-6.7702384565956093:1.1522278521737168] [-1.5462826146709605:3.812144096469718] [-4.1212484069008566:1.6758575465753329] [-3.7167978618089395:1.4969079675498576] [-3.7714176047389865:3.2428546541304808] [-5.0397420868756804:1.742153915140966] [-2.7998900469729828:2.0302268898708542] [-2.0468561976070947:3.7241828358818134] [-2.2921017059737823:0.83462865345359383] [-0.97428479735849605:1.8931953430782167] [-4.4395619854776909:2.6423365301839032] [-3.2793867816412603:2.2627184813871746] [-2.7642168127863309:3.264705071372485] [-3.6221573921584906:1.7741933660335045] [-3.2732494703228507:2.0932579954549015] [-1.6284043119525955:7.9655272209804933] [-1.8963637324045708:4.0899184367790582] [-6.153717351615887:2.4967849364642576] [-2.4913078027568325:4.3438335864191613] [-7.0149957146262265:2.3803064307425545] [-3.6028414698230544:2.1797715953327965] [-3.0287016327092182:3.8530258320569875] [-6.3491940117136956:1.6025559266965799] [-3.5649514111574354:6.0790237770605726] [-3.2971491722246671:2.9131763561911299] [-2.5944792255702676:4.9036512819912375] [-1.7587295999975001:4.3352068970423092] [-3.6138833962745136:2.6737382539203662] [-3.116875513814839:2.5780220427782772] [-2.8464454559662711:2.3966470652895695] [-4.3677096240996747:2.5653975732179077] [-2.7983124176521406:2.3332795198691647] [-6.8338870999185071:1.9573865252491554] [-2.1447935255934869:1.0089237992750313] [-6.2271306813883243:3.6184082640930173] [-3.1627070425001764:2.6744359207730821] [-3.4049324736328104:3.0170219249428993] [-2.5636885438635484:2.5604651453569724] [-6.227153556627294:1.9691527747442445] [-2.0416518908302046:2.7448337651595542] [-2.8835430164510294:3.4318549813291694] [-2.6496309505305811:2.4136711655062588] [-3.83677097464279:2.3697234391984665] [-3.501496305083204:3.0459837562280749] [-4.5742844724208842:2.1091767450114371] [-2.5233351811690223:2.4614631664154634] [-2.6171491920789736:3.4588194109513695] [-3.6065694320724577:2.7866273290018362] [-3.4890187714598406:2.1564856440503677] [-4.0110283574186854:3.0581749536169531] [-4.3407705536583778:3.0693176853351503] [-3.1863800264281643:3.0936102158433791] [-2.4451898223813342:4.2986806451278277] [-3.2029848665588236:2.7080156979428276] [-2.9011572853198504:2.6060843091717927] [-3.8442888518345204:2.8485366778365315] [-2.6373641400705115:3.1198352167315382] [-4.4802150822356435:2.6241868984708403] [-4.1967751795909862:5.6352158152239067] [-3.3334575364151866:2.3993177207282357] [-2.5017197653060146:3.3582434539387793] [-2.7106656435700338:2.539927449637883] [-7.2243876144128842:2.277561010605313] [-2.7745408329676025:2.5276866453584015] [-3.183200992243997:2.4908967290889743] [-3.5831508717205058:1.9923361053961519] [-2.9408981339843017:2.2707706641495902] [-2.9990044729187959:2.7669763811075025] [-3.3709660171412668:2.3845287910294939] [-3.41146030974368:2.9001213657377258] [-3.6119374276863701:2.4079257228366635] [-3.3698113444440123:2.5967190412466139] [-4.198196691643405:2.6631150756210644] [-3.2414240800562943:1.0312557308919068] [-3.326199843442422:2.597615297401402] [-3.7516904105234419:3.2713898975541711] [-3.4811372200297193:3.3548049105934155] [-5.7599130277096666:1.2841245089064759] [-3.1898318114591691:3.1245108924752487] [-4.5991248788708745:1.7773290226180287] [-4.1637990930577793:2.9794563226191979] [-3.1869774947639704:3.1403617203467613] [-3.9458822062356136:2.5955449413162306] [-3.5455252221544846:3.0981111944648441] [-4.5392289818529807:1.1740719498224537] [-2.8406969072116497:2.7769439728444194] [-7.5985127319333774:2.0585222345201508] [-3.6046811576220015:2.4652690304819123] [-4.1525044371419746:2.3898423745328436] [-3.6673024219912169:2.0209416991498004] [-3.0029442443539529:2.8509261100440177] [-5.4537006763136535:2.3701986564543125] [-6.6973280040476828:6.6398421649557511] [-5.9604457441868437:1.7150114681948534] [-3.3913267455016576:2.1263809483765019] [-3.1192173556183835:2.3986624763247284] [-5.0543816522290035:2.2782603267050967] [-1.8722944696950747:5.4642387761546365] [-2.8044428580586218:2.3774969437398514] [-1.8600586504098349:3.4766149103471888] [-3.7284455410648509:3.2556280946507328] [-5.3104230935368015:2.6948049117547872] [-3.5316828717189899:0.80579091694864979] [-3.4367591897835368:2.099731377163792] [-2.396542787576708:2.3528490205548782] [-2.5141827591460109:2.3846557137099404] [-2.6200349677049148:2.1237416998736971] [-2.7439866610307844:2.4741173667368979] [-2.9437879954530453:2.2177394240321719] [-3.9135684102548778:1.934370482739139] [-2.4481487165071201:3.9192430880049307] [-3.4256366986791185:3.0462492172379454] [-1.6196336411080192:2.9123590595318074] [-3.1010565114520805:2.6983272157999969] [-2.119961605607283:2.1794116455745605] [-6.7633515016911838:3.4443914300019567] [-1.8584062459206476:1.4797758481052488] [-2.5059003150407877:3.3048713778795871] [-1.2011953008809171:3.7351267249593398] [-4.2307982847887917:2.240815320674912] [-1.9404451664002462:3.3350017394401146] [-3.2027825768827833:4.6417694804727052] [-2.4096012347699713:3.1758287418091635] [-4.0197443494666221:2.3303137666195024] [-3.1520098038643183:2.3737394375140126] [-5.2957054448747849:2.031832579221192] [-1.3013577021408513:1.4548039699579511] [-2.2474502308384747:3.1257795885126929] [-2.6114845975110828:2.8198369249316841] [-2.6615796544885142:2.8356076401447154] [-0.95645225488167118:3.3707644581666871] [-1.9550823123379513:1.875151056572776] [-2.8963225629831761:3.1641406084793577] [-2.9145929930508805:2.7322589074988781] [-3.972699975959848:2.4898611012805718] [-3.0001492378672707:2.6869449938389369] [-3.0439861277577163:3.3949563478518794] [-5.7020721171545405:2.8990559445726793] [-3.3051486271855706:1.150138257470344] [-2.8390232174440673:3.3890587312264366] [-0.17610583525968493:3.0334588040734487] [-2.3094052793285953:3.1518112513979339] [-3.3299909305915425:3.430780313806733] [-3.9613910831684382:4.9657581836168125] [-3.8108982775306588:0.69283076603686178] [-2.9744233327640757:3.2793269624105945] [-3.3956762813874102:2.9400483160764339] [-2.6356038937251114:4.130566846942938] [-1.5280401650731461:1.560885759174282] [-5.3161003151301429:0.79254547895503946] [-4.5054705265008392:2.6988742670407331] [-5.2335964429244255:2.0789115012478288] [-1.3052770394402098:4.8681269503806206] [-3.1544444864745884:2.6193706296062724] [-1.2478277590588351:1.8086339718265088] [-3.4510375178545267:2.6413480085796701] [-6.512475351756053:2.0841551063849608] [-4.6568894511896541:2.3016102743962383] [-3.1812238829365889:2.7973478834041825] [-1.0936842623700034:2.2137901017507167] [-5.8529550819706868:2.8020423083205777] [-3.2748732667229805:2.3392240605845958] [-3.6222039083196833:2.1281247987831731] [-4.4992309988811154:2.2408682346191804] [-4.8678477325572791:3.9162731630894023] [-3.3755375637627072:4.2385886151661509] [-2.1879408071715445:2.8233062878850936] [-2.2500512729183506:3.209954478860678] [-2.2823695732493285:3.4125959013525216] [-2.017737230829646:0.70860389409957547]
tree_sizes=1809 2463 2463 2461 2363 2464 2470 2355 2479 2364 2361 2364 2362 2468 2685 2380 2361 2358 2675 2458 2266 2470 2364 2353 2374 2466

Tree=0
num_leaves=16
num_cat=0
split_feature=362 107 465 490 45 40 126 359 511 136 439 401 141 440 124
split_gain=24.5498 19.2738 17.8496 13.7906 13.5395 11.1158 10.6316 13.7817 9.92882 8.82072 5.37644 8.77617 4.79027 4.40203 0.278423
threshold=-0.95766748637874322 -0.49379022165349923 -0.57873438131783861 -0.13969580164011056 0.7472333936517358 0.23899720379668579 -1.0000000180025095e-35 0.30780565959672507 0.40996860104583016 -0.67401441798185979 0.41382850242560443 -0.1057411503929989 -0.25922393405369287 0.87651946372163747 -0.041139780203309301
decision_type=2 2 2 2 2 2 2 2 2 2 2 2 2 2 2
left_child=6 9 8 4 5 -4 7 -1 12 -2 11 -5 -3 -11 -12
right_child=1 2 3 10 -6 -7 -8 -9 -10 13 14 -13 -14 -15 -16
leaf_value=-0.35909509779399035 -0.30408679681782447 -0.28971597798515403 -0.34145092578276731 -0.39200239438239592 -0.37291545543745608 -0.21067647440546716 -0.21067647440546711 -0.21067647440546716 -0.33911566772245838 -0.41617918371265311 -0.41617918371265317 -0.272327287197623 -0.21067647440546711 -0.34767828061025779 -0.39562891278193441
leaf_weight=4.3795041739940643 2.6763636618852642 3.16297523677349 2.6763636618852598 4.1361983865499496 4.622809961438179 4.1361983865499496 5.1094215363264066 2.4330578744411469 3.8928925991058341 11.921983584761618 5.1094215363264048 2.4330578744411486 4.8661157488822928 2.9196694493293753 2.4330578744411504
leaf_count=18 11 13 11 17 19 17 21 10 16 49 21 10 20 12 10
internal_value=-0.330242 -0.344344 -0.324103 -0.347678 -0.306869 -0.262052 -0.265198 -0.306088 -0.273585 -0.387637 -0.380748 -0.347678 -0.241813 -0.402704 -0.40955
internal_weight=0 54.9871 37.4691 25.5471 11.4354 6.81256 11.922 6.81256 11.922 17.518 14.1117 6.56926 8.02909 14.8417 7.54248
internal_count=275 226 154 105 47 28 49 28 49 72 58 27 33 61 31
is_linear=0
shrinkage=1


Tree=1
num_leaves=22
num_cat=0
split_feature=362 107 465 68 378 125 346 386 32 289 65 81 8 167 39 11 136 439 100 50 1
split_gain=22.0114 17.6033 16.0136 12.6925 13.5264 11.0713 9.4892 9.11069 8.88097 8.61484 5.56209 10.8313 5.36842 4.36948 1.03564 0.00503864 0.0032006 0.00165936 0.000629453 0.000192572 3.55271e-15
threshold=-0.95766748637874322 -0.49379022165349923 -0.57873438131783861 0.39485530039540362 0.33726367681612829 -0.82099299318252761 0.40909132041123325 0.16338556894027215 -0.18301604364996985 -1.2430761753957709 -0.054473940325745325 0.21522741929644731 -0.64848758639130655 -0.44631775180562222 0.040926567403536555 -0.28214345346232406 -0.051512545342167829 0.41382850242560443 -0.55311802791463005 0.4606019619566048 -0.28339022679389497
decision_type=2 2 2 2 2 2 2 2 2 2 2 2 2 2 2 2 2 2 2 2 2
left_child=6 9 7 5 -5 -4 12 8 -3 -2 11 -7 -1 -11 -9 -14 -15 -12 -18 -19 -20
right_child=1 2 3 4 -6 10 -8 14 -10 13 17 -13 15 16 -16 -17 18 19 20 -21 -22
leaf_value=0.030793292349779657 0.027604908472308794 -0.05230110131417285 0.050739226853900921 -0.037080076270455828 0.10209351923616727 -0.073558800558300649 -0.017266361510106295 0.072973601452631764 0.068318696366355028 -0.015088952280737606 -0.084832596327315282 0.050919684862742065 0.11464509541034947 -0.085197090670860676 0.11545419098522131 0.11172564198282804 -0.083920648254112371 -0.083027202783076209 -0.082978106998670739 -0.083613573773778288 -0.08297810699867085
leaf_weight=2.9412782788276663 2.6629370748996761 2.9253107458353043 2.9190056324005154 3.1413968652486792 3.9299456775188446 4.3572407513856879 2.9156002998352042 2.463325709104538 3.1902914792299253 2.8927588611841228 2.419060096144678 2.9178216010332108 2.457056760787963 2.6646510660648355 3.435913935303688 3.7086953222751617 2.4072565734386435 3.3537027984857559 3.3527154624462119 2.4037859588861465 3.3527154624462074
leaf_count=12 11 12 12 13 16 18 12 10 13 12 10 12 10 11 14 15 10 14 14 10 14
internal_value=0 -0.0134682 0.00581104 -0.0166554 0.0402666 -0.0385661 0.0612408 0.0533846 0.0106219 -0.0551307 -0.055437 -0.023634 0.0863748 -0.0701489 0.0977157 0.112889 -0.0836728 -0.0837337 -0.0832271 -0.083272 -0.0829781
internal_weight=0 54.7898 37.4568 25.442 7.07134 18.3706 12.0226 12.0148 6.1156 17.333 15.4516 7.27506 9.10703 14.6701 5.89924 6.16575 11.7773 8.17655 9.11269 5.75749 6.70543
internal_count=275 226 154 105 29 76 49 49 25 72 64 30 37 61 24 25 49 34 38 24 28
is_linear=0
shrinkage=0.05


Tree=2
num_leaves=22
num_cat=0
split_feature=491 257 107 30 439 221 480 420 301 317 263 203 343 386 238 388 457 170 188 53 432
split_gain=20.5848 15.2087 14.3095 13.6772 11.0712 14.4382 9.71579 9.56692 6.90872 6.42915 5.82963 4.41642 4.0054 2.96007 1.13866 0.379851 0.0340525 0.00900031 0.00727075 0.00353302 0.00138569
threshold=2.127953199445487 0.071811285778383707 -0.92836297828599912 1.3450568701919596 -0.19129335303465531 0.63425194868259938 -1.2093851448328465 0.58399820536946379 0.96900077412040864 -0.76256581451025263 0.37058083989909379 -0.72663605185164071 -0.64192509454775848 0.37978248989467051 -0.57058289380924798 -0.35885474899568925 0.21549788475231343 0.087697559991616866 0.025753991853443622 -0.39761275946583868 0.34857005990029
decision_type=2 2 2 2 2 2 2 2 2 2 2 2 2 2 2 2 2 2 2 2 2
left_child=1 2 -1 6 10 7 -3 12 9 -8 11 -4 -6 15 -2 -11 17 -13 20 -16 -17
right_child=14 3 4 -5 5 -7 8 -9 -10 13 -12 16 -14 -15 19 18 -18 -19 -20 -21 -22
leaf_value=-0.056528253551132251 -0.041750829423337688 0.058535099688767168 0.034090699265587228 0.079422664603577872 -0.0018561097481721318 0.09803968924575758 0.01464143748386215 0.052969587122478512 0.036620920181179697 -0.060384784813754568 0.014505381487930503 0.10655901072871184 -0.083198955505111027 -0.025049320987679466 -0.083701543412651569 -0.080580076030750861 0.11494969654803265 0.11039720245238585 -0.084235057230999222 -0.081278013631155444 -0.082290353523290671
leaf_weight=3.8129857778549221 2.3886505514383316 2.6953953951597276 2.4460508376359931 3.2126859277486792 2.4089345484971991 3.7008061856031409 2.9260449707508185 3.176413357257843 2.4320400506258002 2.3678298741579136 2.9301593899726859 3.9831349849700945 4.0707803368568412 3.3660783171653739 2.401568815112114 2.3545444607734538 2.4537847489118576 2.4773207604885101 4.5743774324655533 4.0227188766002637 2.3829349130392075
leaf_count=16 10 11 10 13 10 15 12 13 10 10 12 16 17 14 10 10 10 10 19 17 10
internal_value=0 0.0108124 0.0342737 -0.0172395 0.0467966 0.0140693 -0.0306834 -0.0181131 -0.0424694 -0.0531723 0.077386 0.0936048 -0.0529585 -0.0663605 -0.071225 -0.0782663 0.109935 0.108031 -0.0828132 -0.082184 -0.0814403
internal_weight=0 57.7723 31.4604 26.3119 27.6474 13.3569 23.0992 9.65613 20.4039 17.9718 14.2905 11.3603 6.47971 15.0458 8.81294 11.6797 8.91424 6.46046 9.31186 6.42429 4.73748
internal_count=275 238 129 109 113 55 96 40 85 75 58 46 27 63 37 49 36 26 39 27 20
is_linear=0
shrinkage=0.05


Tree=3
num_leaves=22
num_cat=0
split_feature=491 10 255 165 239 227 429 76 467 490 426 329 436 31 114 55 377 362 52 46 284
split_gain=18.8605 14.0968 15.9361 11.7297 12.3434 10.0025 11.0203 8.84856 8.44337 8.04276 7.89419 12.3416 6.29429 1.16044 0.872962 0.434013 0.0389366 0.00873425 0.00362575 0.00283633 0.00161785
threshold=2.127953199445487 0.45157864147916588 -0.83008945824464164 0.33689924010071443 0.36378091659333939 0.99676483993876352 0.5865074555416403 -0.2789000416690382 0.15787618109079293 -0.85558932830066936 -0.24563569739238425 0.2117765049802153 0.24648077024681994 0.69106922528623549 0.72364540067775318 -0.36947984152356356 0.083993364352475439 0.28740826458059171 -0.05174210863588239 -0.19191694324533454 0.33168856417427722
decision_type=2 2 2 2 2 2 2 2 2 2 2 2 2 2 2 2 2 2 2 2 2
left_child=1 2 10 9 7 6 15 -5 -7 -4 -1 -12 17 19 -9 -3 -17 18 -11 -2 -19
right_child=13 5 3 4 -6 8 -8 14 -10 12 11 -13 -14 -15 -16 16 -18 20 -20 -21 -22
leaf_value=0.10831186437593028 -0.080988719380060706 0.083494765774649315 0.028759123853575833 0.053444941075768609 0.079262130763074534 0.051553014555159926 -0.0023948084534297018 -0.082590982872570148 -0.080962406211010196 -0.081198720320270729 -0.063990386697799134 0.087884198053572823 -0.011720924547837059 -0.038817173059843758 -0.040673256113043156 0.11262759987938889 0.10475687424145677 -0.080608495040893846 -0.083790464511297194 -0.078867935723713173 -0.078932997237371752
leaf_weight=3.7201499342918396 3.3042763918638229 2.4913845360279083 2.937461405992507 2.4444077461957932 4.6722166985273361 2.4548305571079245 3.5995716005563727 2.6180823147296888 2.3554304242134094 3.07273168861866 2.6221561133861524 2.7306395024061203 4.5990401655435553 2.3490052074193954 2.3631714582443237 2.711665019392969 3.7365701198577881 2.3539785146713257 2.4061283767223447 3.0151056200265867 3.7137633562088013
leaf_count=15 14 10 12 10 19 10 15 11 10 13 11 11 19 10 10 11 15 10 10 13 16
internal_value=0 0.0102843 -0.00595423 -0.0229244 0.0155914 0.0479606 0.0714749 -0.0244701 -0.0133355 -0.0473418 0.0523671 0.0134859 -0.0611872 -0.0688232 -0.0627047 0.101219 0.108067 -0.0808897 -0.0823369 -0.0799769 -0.079583
internal_weight=0 57.6034 40.2539 31.181 12.0979 17.3495 12.5392 7.42566 4.81026 19.0831 9.07295 5.3528 16.1456 8.66839 4.98125 8.93962 6.44824 11.5466 5.47886 6.31938 6.06774
internal_count=275 238 167 130 50 71 51 31 20 80 37 22 68 37 21 36 26 49 23 27 26
is_linear=0
shrinkage=0.05


Tree=4
num_leaves=21
num_cat=0
split_feature=491 456 346 10 467 405 200 324 323 139 169 13 440 142 324 483 245 186 167 257
split_gain=17.3119 12.9576 12.5464 13.9235 10.3021 9.84932 8.68856 8.48127 7.98781 7.92452 8.8977 5.58393 4.33529 1.37242 1.17435 0.889724 0.0211984 0.0111137 0.00291157 0.00159062
threshold=2.127953199445487 -1.1865305434262907 -0.60500139564583544 0.45157864147916588 -0.024286369299737969 -0.42994656462785757 -0.10444514100476686 -0.61760883470663641 -0.10794274456132082 -0.5330264890578218 0.1396133030791453 0.89360965966728612 -0.26047248424965025 -0.6775760487536896 -0.090177582539556891 0.57313333559296542 -0.48858837260712823 -0.20494282388255974 0.23051853281154178 0.016768385756507596
decision_type=2 2 2 2 2 2 2 2 2 2 2 2 2 2 2 2 2 2 2 2
left_child=1 12 6 7 15 -6 -3 -4 -8 10 -9 13 -1 -11 -2 -5 -15 -18 -19 -16
right_child=14 2 3 4 5 -7 8 9 -10 11 -12 -13 -14 16 19 -17 17 18 -20 -21
leaf_value=0.10278688180000471 -0.036172081373963362 0.10200885559328826 0.033830180825056982 0.10483522263278491 -0.080435083554926234 0.038341966630678403 -0.06146436442637232 -0.062589775915726717 0.056371915821078755 -0.038390792323714618 0.062192081480913423 0.005453410633393308 0.022187458031746262 -0.08417858925491993 -0.078657835465516454 0.063448396758947423 -0.081334481349643911 -0.079180148036112466 -0.076914438217220327 -0.077045150480138797
leaf_weight=4.485950380563736 2.3082362115383148 4.4919237494468689 4.110462903976436 2.7367611676454544 2.8050963580608368 4.6198164820671064 2.3660108149051666 2.5818083584308615 3.6673427820205671 2.3390583395957938 3.1984248757362366 2.652168169617652 2.6562771201133719 2.6417333334684363 3.4702350795268995 2.4711379706859589 3.5394168198108655 2.3234966844320439 3.6382086724042892 2.7332901060581207
leaf_count=18 10 18 17 11 12 19 10 11 15 10 13 11 11 11 15 10 15 10 16 12
internal_value=0 0.00979932 0.000831245 -0.0120484 0.0312839 -0.00653143 0.0493598 -0.0323042 0.0101618 -0.0441677 0.00645681 -0.061246 0.072811 -0.0734611 -0.0666186 0.0851973 -0.0802167 -0.0791151 -0.0777975 -0.0779473
internal_weight=0 57.3251 50.1829 39.6576 12.6328 7.42491 10.5253 27.0248 6.03335 22.9143 5.78023 17.1341 7.14223 14.4819 8.51176 5.2079 12.1429 9.50112 5.96171 6.20353
internal_count=275 238 209 166 52 31 43 114 25 97 24 73 29 62 37 21 52 41 26 27
is_linear=0
shrinkage=0.05


Tree=5
num_leaves=22
num_cat=0
split_feature=491 257 468 30 107 480 101 351 211 102 324 446 420 423 144 112 55 296 448 456 33
split_gain=15.9164 12.1462 11.4301 11.0134 8.48203 7.92913 7.49906 6.70798 6.91332 8.91679 5.80052 6.43007 9.8388 2.38691 1.15572 0.341907 0.0555219 0.0106048 0.00884194 0.00590694 0.00211969
threshold=2.127953199445487 0.071811285778383707 -1.3679065158931614 1.3450568701919596 -0.92836297828599912 -1.2093851448328465 1.0069293752146937 0.38653788622060176 -0.75492767245442283 -0.6823419824625101 0.653288652936862 -0.17630429292567376 -0.11107539501614254 0.52217306184289491 -1.2132698851326598 -0.46748413536580063 -0.24842653950971358 0.46687280578866813 0.36551606508370704 -0.022864921287748897 1.0000000180025095e-35
decision_type=2 2 2 2 2 2 2 2 2 2 2 2 2 2 2 2 2 2 2 2 2
left_child=1 2 -1 5 -4 -3 7 8 9 -6 11 12 -7 16 -2 -13 19 18 -17 -10 -16
right_child=14 3 4 -5 6 10 -8 -9 13 -11 -12 15 -14 -15 20 17 -18 -19 -20 -21 -22
leaf_value=-0.077434183088711084 -0.034202404148176262 0.05196856352705731 -0.04427404583223362 0.070262591694746954 0.08376602591580902 0.068151843415717991 -0.024807372430623226 -0.0053326740774418974 0.094095327090777531 -0.045863617372675719 0.033023088235064821 -0.056729722867372184 -0.056731432364267691 0.051035852230634816 -0.076939370608106711 -0.078192491667482697 0.10305734976149666 -0.075699526677567075 -0.08210456906208595 0.097248771097791675 -0.075069887968879048
leaf_weight=2.2813821285963085 2.2762575298547745 2.6984954178333345 2.7771517187356975 3.2312975674867621 2.7166518867015839 2.465974435210228 3.1438303887844077 3.5842933952808371 2.7375817596912473 2.5926452428102609 2.4273994863033286 2.266919210553179 4.3756975084543326 3.4221348911523828 2.9552948772907239 3.6823762804269631 4.723820775747285 2.2383864521980286 2.3764896243810654 3.2456378042697906 3.1138127446174622
leaf_count=10 10 11 12 13 11 10 13 15 11 11 10 10 19 14 13 16 19 10 10 13 14
internal_value=0 0.00934928 0.0303167 -0.0160635 0.0388097 -0.0284436 0.0476277 0.0575189 0.0691083 0.0204651 -0.0393844 -0.0494822 -0.0117192 0.0873868 -0.064585 -0.0739387 0.0990052 -0.0786404 -0.0797269 0.0958059 -0.0759802
internal_weight=0 56.9882 31.2251 25.763 28.9437 22.5317 26.1666 23.0228 19.4385 5.3093 19.8332 17.4058 6.84167 14.1292 8.34537 10.5642 10.707 8.29725 6.05887 5.98322 6.06911
internal_count=275 238 129 109 119 96 107 94 79 22 85 75 29 57 37 46 43 36 26 24 27
is_linear=0
shrinkage=0.05


Tree=6
num_leaves=22
num_cat=0
split_feature=491 10 255 165 239 227 429 76 467 490 426 329 436 245 465 55 438 207 164 37 415
split_gain=14.6571 11.0783 13.107 9.84217 9.90075 8.46076 8.65815 7.29377 6.92995 6.64271 6.11627 9.9083 5.47656 1.17333 0.838631 0.368071 0.0303154 0.0116572 0.00605377 0.00446784 0.00117004
threshold=2.127953199445487 0.45157864147916588 -0.83008945824464164 0.33689924010071443 0.36378091659333939 0.99676483993876352 0.5865074555416403 -0.2789000416690382 0.15787618109079293 -0.85558932830066936 -0.24563569739238425 0.2117765049802153 0.24648077024681994 0.28759132002457904 -1.0000000180025095e-35 -0.36947984152356356 0.011160352259500074 0.074557269355227385 0.052521692977253127 0.21606986315704993 0.054467211195838763
decision_type=2 2 2 2 2 2 2 2 2 2 2 2 2 2 2 2 2 2 2 2 2
left_child=1 2 10 9 7 6 15 -5 -7 -4 -1 -12 17 20 -9 -3 -17 18 -11 -19 -2
right_child=13 5 3 4 -6 8 -8 14 -10 12 11 -13 -14 -15 -16 16 -18 19 -20 -21 -22
leaf_value=0.096480068672897504 -0.073638816346440955 0.073781385798534799 0.024826415152625583 0.047523362674154232 0.070764465608237723 0.043484965862179939 -0.0020984640343056703 -0.036408315378692789 -0.077598476317801979 -0.076476812607858546 -0.058987425559152956 0.078804743399993785 -0.01092392077218904 -0.031805315303614128 -0.078309800615705125 0.093531346817335881 0.1004578575791879 -0.075990913786974063 -0.079832588246073088 -0.073139501162516413 -0.07504306459605041
leaf_weight=3.7208671420812607 3.0501090288162214 2.4703975021839142 2.9299154430627814 2.4546326845884323 4.6764612048864365 2.4661948978900901 3.5501955747604361 2.2676624208688736 2.2687661945819855 3.1631246060133034 2.5110017508268339 2.7155574113130569 4.5222705900669089 2.2329422384500504 2.5224115103483182 3.7236805558204669 2.743623360991478 2.9198440909385681 2.3367884159088135 2.5944765955209732 2.8878645151853561
leaf_count=15 14 10 12 10 19 10 15 10 10 14 11 11 19 10 11 15 11 13 10 12 13
internal_value=0 0.00893789 -0.00570485 -0.0213663 0.0140497 0.0423802 0.0639594 -0.0225598 -0.0145324 -0.0442294 0.0474853 0.0126051 -0.0572522 -0.0627029 -0.0584733 0.0901987 0.0964698 -0.0762738 -0.0779026 -0.0746493 -0.0743218
internal_weight=0 56.5579 39.335 30.3876 11.9212 17.2229 12.4879 7.24471 4.73496 18.4664 8.94743 5.22656 15.5365 8.17092 4.79007 8.9377 6.4673 11.0142 5.49991 5.51432 5.93797
internal_count=275 238 167 130 50 71 51 31 20 80 37 22 68 37 21 36 26 49 24 25 27
is_linear=0
shrinkage=0.05


Tree=7
num_leaves=21
num_cat=0
split_feature=491 257 468 30 153 439 57 306 480 506 378 423 470 59 136 367 260 114 199 279
split_gain=13.5156 10.4438 9.82027 9.46594 7.42993 7.50768 7.51271 7.84979 6.78355 5.53782 4.14288 3.6007 2.5835 1.19406 0.312572 0.0452075 0.0226226 0.0178707 0.0079475 0.000982291
threshold=2.127953199445487 0.071811285778383707 -1.3679065158931614 1.3450568701919596 0.80075651177897611 1.084838724214028 -0.27754961334841211 -1.0000000180025095e-35 -1.2093851448328465 -1.0003626419707168 -0.49829616948998601 0.52217306184289491 1.2174043184272978 -0.45790681952119811 -1.0988205196976388 -0.5096955887574165 -0.34420268607716947 -0.63048316402958959 -1.0000000180025095e-35 0.19289990288195411
decision_type=2 2 2 2 2 2 2 2 2 2 2 2 2 2 2 2 2 2 2 2
left_child=1 2 -1 8 5 6 7 -4 -3 -10 -11 14 17 -2 -8 -16 -17 -12 -19 -15
right_child=13 3 4 -5 -6 -7 11 -9 9 10 12 -13 -14 19 15 16 -18 18 -20 -21
leaf_value=-0.074096858535538643 -0.029468905171223098 0.047449800202470312 0.05920066792122769 0.064856331775733675 -0.038287542632203728 -0.032449455435533452 0.076137141479619447 -0.041242813496056879 0.024321547662107083 -0.0076094471340266189 -0.07960939419674587 0.033245615724810891 -0.01647699437209901 -0.073655156560214277 0.10033084960992678 0.088641457473878416 0.095119887189258262 -0.073020429856298238 -0.076339419947610121 -0.072311733284790181
leaf_weight=2.1846663355827358 2.1876124888658524 2.6843080818653169 4.3852061033248901 3.2127111852169028 3.0204224884510031 2.8123836666345587 3.1544650793075633 3.4957941174507239 3.0599910616874757 4.4052791297435858 2.3186343014240345 3.836134359240531 2.2719851732254019 2.1784200072288504 2.4868731945753169 2.4578099846839976 2.9830763339996107 3.8723219037056049 3.3763212710618689 3.6247528940439224
leaf_count=10 10 11 18 13 13 12 13 15 13 19 10 16 10 10 10 10 12 18 15 17
internal_value=0 0.0085613 0.0280846 -0.0153121 0.0358812 0.044628 0.0541358 0.0146467 -0.0270252 -0.037381 -0.049004 0.0749969 -0.0644065 -0.060949 0.0894492 0.094746 0.0921934 -0.0757886 -0.0745664 -0.072816
internal_weight=0 56.0184 30.8168 25.2016 28.6322 25.6117 22.7994 7.881 21.9888 19.3045 16.2445 14.9184 11.8393 7.99079 11.0822 7.92776 5.44089 9.56728 7.24864 5.80317
internal_count=275 238 129 109 119 106 94 33 96 85 72 61 53 37 45 32 22 43 33 27
is_linear=0
shrinkage=0.05


Tree=8
num_leaves=22
num_cat=0
split_feature=362 26 301 147 349 484 337 158 126 359 126 128 465 340 26 56 387 87 19 176 129
split_gain=12.5198 11.0156 9.75208 8.47229 7.98654 7.83908 8.30976 6.48441 6.36612 7.91929 6.05037 4.28057 4.13912 2.3588 0.366411 0.281708 0.271834 0.0257709 0.0255151 0.00814959 0.00184446
threshold=-0.95766748637874322 0.31657115779535977 0.96900077412040864 0.49571537572727953 -0.49566148586900111 0.15931610348033726 -0.1418597143056177 0.66448533067607529 -1.0000000180025095e-35 0.30780565959672507 -0.6670626203171478 -0.34459095109453469 -1.0706303375304909 1.2963195549077045 0.97998109902516528 -1.0000000180025095e-35 0.0079078760003380953 -0.0063248875631443831 0.73506765036650568 -0.21196218960538493 0.022197780743633447
decision_type=2 2 2 2 2 2 2 2 2 2 2 2 2 2 2 2 2 2 2 2 2
left_child=8 2 3 4 -2 10 -7 12 9 -1 -6 -5 -3 14 18 -13 -12 -10 19 -14 -21
right_child=1 7 -4 11 5 6 -8 -9 17 -11 16 15 13 -15 -16 -17 -18 -19 -20 20 -22
leaf_value=-0.02759212441527616 -0.051787271384963578 0.0050924391576815317 0.083905583827133867 0.010468703723344883 -0.0059135725286830962 -0.077016780746183885 0.033710221713747761 0.030947067559437991 0.091952929276150314 0.085899719325661608 0.095887824795351836 -0.053191397648408592 -0.075911491705182257 -0.014864360111184201 -0.052810166823682052 -0.075918039754909267 0.074616174003350313 0.084859779885710057 -0.079211483011544778 -0.073304218924446857 -0.071399246313447254
leaf_weight=4.1883151680231094 3.5948520153760972 2.7342074513435408 3.6988517045974723 2.4906830787658691 2.3562923371791866 2.7112682610750198 4.5179112106561652 2.7843344658613196 2.4712133705615997 2.4282194226980209 3.9671009778976432 2.1370710730552673 2.227303698658945 2.2415708601474771 2.3234043717384329 3.7671360969543439 2.4169197529554367 2.6577057987451536 2.5294819623231888 2.3794811517000163 2.726812869310379
leaf_count=18 16 12 15 11 10 12 19 12 10 10 16 10 10 10 11 17 10 11 11 11 13
internal_value=0 -0.0107278 0.00760893 -0.0024847 0.0155448 0.0307017 -0.0078174 -0.0398308 0.0464679 0.0140585 0.0625611 -0.0445024 -0.0513135 -0.0620028 -0.0706734 -0.067692 0.0878346 0.0882774 -0.0748813 -0.0733878 -0.0722869
internal_weight=0 51.6047 31.6581 27.9592 19.5643 15.9695 7.22918 19.9466 11.7455 6.61653 8.74031 8.39489 17.1623 14.4281 12.1865 5.90421 6.38402 5.12892 9.86308 7.3336 5.10629
internal_count=275 226 136 121 83 67 31 90 49 28 36 38 78 66 56 27 26 21 45 34 24
is_linear=0
shrinkage=0.05


Tree=9
num_leaves=21
num_cat=0
split_feature=491 456 346 10 167 225 324 200 337 462 153 139 440 128 105 468 74 137 117 511
split_gain=11.8777 9.55283 9.15101 9.79388 7.74955 8.35834 6.80113 6.27425 6.34258 6.23848 8.06058 3.31573 2.93484 1.2775 1.2058 0.395423 0.023477 0.0118571 0.00196017 0.00180199
threshold=2.127953199445487 -1.1865305434262907 -0.60500139564583544 0.45157864147916588 -0.38553885784842973 0.16279397222027361 -0.61760883470663641 -0.10444514100476686 0.074603018975641686 0.38252340918402833 0.55240324080327063 -0.95992056072110321 -0.26047248424965025 0.13038971727013493 0.87898849912523469 -1.1866599598466026 -0.64282857351384048 0.50547540346601216 -0.62008167684807469 0.084383874137196752
decision_type=2 2 2 2 2 2 2 2 2 2 2 2 2 2 2 2 2 2 2 2
left_child=1 12 7 6 13 -6 -4 -3 -9 11 -11 -8 -1 -5 18 -13 -17 19 -2 -18
right_child=14 2 3 4 5 -7 9 8 -10 10 -12 15 -14 -15 -16 16 17 -19 -20 -21
leaf_value=0.087622811675572759 -0.071692130401694684 0.087289188743799651 0.030811327946356472 0.090077170218139255 0.045701693429200427 -0.065917870374839357 -0.0047387621833793175 -0.057260555291757387 0.049800849316602364 0.044449543541938613 -0.061041562560092404 -0.050373555247970297 0.020277000514245969 0.041354356127885628 -0.026241908151315316 -0.078699835959443867 -0.070231504688233568 -0.075423869562545071 -0.069788444399956087 -0.072222780339020395
leaf_weight=4.3885602056980133 2.3162708431482315 4.3821644634008408 4.022126585245128 3.1811871379613876 3.328463748097418 3.3806540071964264 2.3245846033096305 2.2671987712383253 3.548652783036232 4.0639314353466025 3.2661623805761337 2.1042194366455051 2.5622084885835639 2.3312572240829468 2.1165380328893661 2.2882070690393412 2.0476297587156438 2.8882002383470535 3.2488193511962882 2.5522762089967728
leaf_count=18 11 18 17 13 14 15 10 10 15 17 15 10 11 10 10 10 10 13 16 12
internal_value=0 0.00801535 7.86339e-05 -0.0112668 0.0255475 -0.0105422 -0.0288715 0.0421082 0.008065 -0.0400185 -0.00255546 -0.05935 0.0627976 0.0694719 -0.058364 -0.0700354 -0.0742674 -0.0729129 -0.0705808 -0.0713364
internal_weight=0 54.9277 47.9769 37.7789 12.2216 6.70912 25.5573 10.198 5.81585 21.5352 7.33009 14.2051 6.95077 5.51244 7.68163 11.8805 9.77631 7.48811 5.56509 4.59991
internal_count=275 238 209 166 52 29 114 43 25 97 32 65 29 23 37 55 45 35 27 22
is_linear=0
shrinkage=0.05


Tree=10
num_leaves=21
num_cat=0
split_feature=491 257 107 149 279 355 19 354 73 439 165 126 437 238 391 120 185 457 181 388
split_gain=10.9821 8.79938 8.40098 8.18958 8.90314 6.83432 6.36769 5.84731 5.60853 5.28591 6.63833 7.13245 3.53116 1.22921 0.974104 0.7557 0.238483 0.0514637 0.0258592 0.0011621
threshold=2.127953199445487 0.071811285778383707 -0.92836297828599912 0.49714987766738045 0.62289137269055972 0.61083822018214073 0.86032749545028986 -0.27550075866861606 -0.1261867732197389 -0.19129335303465531 -0.37674848227114799 -1.0000000180025095e-35 0.57139243274344842 -0.57058289380924798 0.70927269634120838 0.4829094840971046 0.65436846892427736 0.14858366892248506 0.65345349321497903 0.089913509948496409
decision_type=2 2 2 2 2 2 2 2 2 2 2 2 2 2 2 2 2 2 2 2
left_child=1 2 -1 7 5 -5 9 8 -3 12 -11 -12 16 -2 18 -13 17 -4 -9 -15
right_child=13 3 6 4 -6 -7 -8 14 -10 10 11 15 -14 19 -16 -17 -18 -19 -20 -21
leaf_value=-0.047574608873445973 -0.024085042837362458 -0.057301971886007989 0.083927237391038481 0.089748992242688841 -0.048854811870698983 -0.018408378260555608 -0.034217783865741938 -0.071588762340871345 0.040232067300688575 -0.04671999479880326 -0.027538529115227944 0.091734932804216726 0.024902496044253056 -0.069933003480594266 -0.035289706518993068 0.053785467522762698 0.068677638867002497 0.092982335951842951 -0.077986295909472855 -0.068410665071224661
leaf_weight=3.4467644244432476 2.0689887404441833 2.5324476063251495 4.3039096891880089 4.4079466462135297 3.0980403870344162 2.1843590587377548 2.921538993716239 3.7664961069822329 3.5262951552867881 2.8864929974079132 2.5047578513622284 2.9429566711187345 3.7635749578475943 3.4586368799209586 2.1283916383981705 2.3668720573186874 2.3279121816158295 2.4694085717201233 2.7203573286533356 1.966296315193176
leaf_count=16 10 12 18 18 14 10 13 18 15 13 11 12 16 17 10 10 10 10 12 10
internal_value=0 0.00769485 0.025854 -0.0146156 0.0210564 0.0539111 0.0354091 -0.0381726 -0.000535441 0.044041 0.0180768 0.0420109 0.0656383 -0.0568755 -0.0646412 0.0748188 0.0824836 0.0872285 -0.0742717 -0.0693812
internal_weight=0 54.2985 29.9342 24.3643 9.69035 6.59231 26.4874 14.674 6.05874 23.5659 10.7011 7.81459 12.8648 7.49392 8.61525 5.30983 9.10123 6.77332 6.48685 5.42493
internal_count=275 238 129 109 42 28 113 67 27 100 46 33 54 37 40 22 38 28 30 27
is_linear=0
shrinkage=0.05


Tree=11
num_leaves=21
num_cat=0
split_feature=362 107 465 383 54 125 384 278 126 359 24 133 473 364 355 317 0 41 129 36
split_gain=10.3417 9.53306 7.565 8.74177 6.25987 7.47787 6.23902 7.04628 5.16916 6.7338 5.06005 5.00606 3.8563 3.21061 2.33224 0.29815 0.02011 0.0156916 0.00581184 0.00337145
threshold=-0.95766748637874322 -0.71715508322482824 -0.49289474343842715 -0.015863290340055781 0.49590047915390617 0.68490651586690787 0.076393158653706286 -0.15291684050296303 -1.0000000180025095e-35 0.30780565959672507 -0.26873901554217067 0.31607561009213303 -0.057277084429744406 0.036074759311969705 0.10431685833650566 0.88249855610565264 -0.62160091085161773 -0.13975795810184335 0.26002756874001848 -0.35003032567934472
decision_type=2 2 2 2 2 2 2 2 2 2 2 2 2 2 2 2 2 2 2 2
left_child=8 12 6 4 5 13 7 10 9 -1 -3 15 18 -4 -6 17 -10 -5 19 -2
right_child=1 2 3 11 14 -7 -8 -9 16 -11 -12 -13 -14 -15 -16 -17 -18 -19 -20 -21
leaf_value=-0.02566564259760298 -0.072173686393647754 -0.0083806844527475645 0.023278480248756384 -0.069497850242105808 -0.0012433149099272212 -0.041326760334102756 0.079103970983904814 -0.043378062768223591 0.084663079556731441 0.08071721187516688 0.089585805505381977 0.010624713209905207 -0.0032761556211789947 0.090882561733657483 -0.07478160357844052 -0.050415759659118056 0.078277924813730124 -0.074554813503712764 -0.067904027766200067 -0.06960373478993466
leaf_weight=4.0601907223463058 2.3269262760877609 2.4142536073923102 3.2064970433711952 2.6137708723545066 2.1423724889755258 2.4303276091814041 4.5717450678348532 3.9005378782749132 2.4057028889656067 2.3475567996501923 2.9029599875211716 2.7530170679092416 3.0160491615533811 3.8829804360866547 2.1704879403114319 2.0232977122068405 2.5299486964941007 3.71337857842446 2.7101521044969559 2.826079785823822
leaf_count=18 11 11 14 13 10 11 19 18 10 10 12 12 14 16 10 10 11 17 14 14
internal_value=0 -0.00998728 0.00163051 -0.0148032 0.0117204 0.0343599 0.0313482 0.00766273 0.0429319 0.013309 0.0451046 -0.0478461 -0.051342 0.0603059 -0.0382522 -0.0671231 0.0813901 -0.0724658 -0.0697784 -0.0707642
internal_weight=0 49.6048 38.7256 24.9361 13.8327 9.51981 13.7895 9.21775 11.3434 6.40775 5.31721 11.1035 10.8792 7.08948 4.31286 8.35045 4.93565 6.32715 7.86316 5.15301
internal_count=275 226 173 113 61 41 60 41 49 28 23 52 53 30 20 40 21 30 39 25
is_linear=0
shrinkage=0.05


Tree=12
num_leaves=21
num_cat=0
split_feature=491 456 346 167 54 25 290 200 115 339 144 341 440 31 255 136 448 357 343 356
split_gain=9.66925 8.05533 7.65863 7.72905 8.0506 7.44982 6.04525 5.93315 7.04135 5.41854 3.98451 3.6696 2.49175 1.18769 0.752596 0.0422044 0.0189783 0.00692246 0.00213332 0.00106667
threshold=2.127953199445487 -1.1865305434262907 -0.51217028996080194 -0.70055423675344264 1.6281487386576634 1.246390144863627 -0.73075432076354307 -0.11959150110796142 -0.17562432865640276 0.84846934660068529 0.35368440218299885 0.98003877924717986 -0.26047248424965025 0.69106922528623549 -1.0207879958392756 -0.46965465310807025 0.95888723725233982 0.029365227153638672 -0.26731516941356576 -0.41407277737259235
decision_type=2 2 2 2 2 2 2 2 2 2 2 2 2 2 2 2 2 2 2 2
left_child=1 12 7 6 5 9 -4 -3 -9 11 -8 14 -1 19 -5 -16 17 -17 -19 -2
right_child=13 2 3 4 -6 -7 10 8 -10 -11 -12 -13 -14 -15 15 16 -18 18 -20 -21
leaf_value=0.081609354066296769 -0.067999671440865203 0.080709860348703227 -0.043356266782128228 -0.039988692819988354 0.059530903472948739 0.02905872345407964 0.079069545147732012 -0.056249602631348129 0.04826154839024481 0.012747768935178283 -0.0032912357708172247 0.0029178480633188504 0.018815576603141568 -0.022021053888218817 -0.077475675011709697 -0.071468131644260843 -0.074662836019093931 -0.06943939206953284 -0.06728221493660784 -0.066548714774265702
leaf_weight=4.2414616942405701 2.9149316847324371 4.4392339736223221 2.1985859572887421 2.1231345683336285 2.5189838707447043 3.8556372076272956 4.504965320229525 2.698095440864563 4.0023991614580137 3.1886506527662268 2.1786947846412659 2.124021664261817 2.5175600796937934 2.0056146532297134 2.9193655401468304 2.505928799510011 2.1922813802957535 2.0128084719181079 2.6616708636283857 2.2400673925876609
leaf_count=18 15 19 10 10 11 17 19 13 17 14 10 10 11 10 13 12 10 10 14 12
internal_value=0 0.00724318 -0.000226948 -0.0117238 -0.025433 -0.0345081 0.028564 0.0358793 0.00617793 -0.0469317 0.0522221 -0.0584375 0.0582203 -0.0546676 -0.067478 -0.0722261 -0.070591 -0.0693478 -0.0682111 -0.0673692
internal_weight=0 52.8835 46.1245 34.9847 26.1025 23.5835 8.88225 11.1397 6.70049 19.7279 6.68366 16.5392 6.75902 7.16061 14.4152 12.2921 9.37269 7.18041 4.67448 5.155
internal_count=275 238 209 160 121 110 39 49 30 93 29 79 29 37 69 59 46 36 24 27
is_linear=0
shrinkage=0.05


Tree=13
num_leaves=22
num_cat=0
split_feature=382 107 14 514 345 262 284 326 195 58 167 402 262 444 141 92 461 490 498 402 197
split_gain=9.15871 7.7001 8.34573 6.78813 6.74575 7.08265 5.69085 6.73288 5.42573 4.73726 4.41644 3.67005 3.32743 1.85015 1.30695 0.22539 0.0428725 0.0346263 0.0302338 0.00910836 0.00282852
threshold=-0.39906139119461975 -0.49379022165349923 0.31379467403886241 -0.69909389162583346 0.66759621325799812 0.49484549716510629 -0.15607409141783699 0.50211174758317723 -0.49753068472050693 0.6993521370961614 -0.44631775180562222 -0.89629282049335746 0.018893201579098681 -0.28921007662658688 -0.08308566816578318 0.72012691413918051 0.13725827421779116 0.1808272548278104 -0.33564830021022912 -0.80270122123265242 0.073706710898016406
decision_type=2 2 2 2 2 2 2 2 2 2 2 2 2 2 2 2 2 2 2 2 2
left_child=3 10 4 -1 5 9 13 12 -4 14 -2 -10 -8 -5 -3 19 -16 -13 -15 -12 -21
right_child=1 2 8 6 -6 -7 7 -9 11 -11 15 17 -14 18 16 -17 -18 -19 -20 20 -22
leaf_value=-0.032311866489031275 0.012602108760225859 0.040442277256539698 0.032879635266209954 0.026879199144039995 -0.047050178804097356 -0.033244075169369731 -0.071556985354071609 0.075068028073030105 0.0011432611170501649 -0.0069561768738921658 -0.07093068473324414 -0.075531365658517535 0.015321702082528036 0.075431947399601074 0.089091834655691413 -0.048691850987681855 0.080791219724548877 -0.06811201835992739 0.082064207877331818 -0.068492567672253174 -0.066098929904118656
leaf_weight=3.8365871161222485 2.3569943606853476 2.2322743684053412 2.4309611171483985 2.1944170296192205 2.8598281592130652 2.8137830793857566 2.2834945619106266 2.3550656735897064 2.3978912234306327 2.3520158678293219 2.0336699336767188 2.8640549331903449 2.1302406042814255 2.8867262452840841 3.1830826699733796 1.8837626725435255 3.042494922876358 3.4874958395957947 4.2454902231693232 1.9688403755426396 3.3075859248638153
leaf_count=18 11 10 11 10 13 13 11 10 11 11 10 13 10 13 13 10 13 18 18 10 18
internal_value=0 -0.0141715 0.00014524 0.0274533 0.022763 0.037418 0.0416992 0.00680018 -0.0332006 0.0558111 -0.0484596 -0.0515604 -0.0296259 0.0670272 0.0732659 -0.0641137 0.0850353 -0.0714576 0.0793798 -0.0680878 -0.0669921
internal_weight=0 39.2147 27.6639 19.932 16.4835 13.6237 16.0954 6.7688 11.1804 10.8099 11.5509 8.74944 4.41374 9.32663 8.45785 9.19386 6.22558 6.35155 7.13222 7.3101 5.27643
internal_count=275 185 126 90 73 60 72 31 53 47 59 42 21 41 36 48 26 31 31 38 28
is_linear=0
shrinkage=0.05


Tree=14
num_leaves=24
num_cat=0
split_feature=491 257 171 468 223 153 439 371 481 149 223 209 453 69 328 372 324 250 510 47 78 506 498
split_gain=8.5476 7.11239 6.83463 6.81956 6.31154 5.06148 4.76374 5.32186 5.55675 4.80218 4.71894 4.37834 4.01824 5.22555 3.51988 5.13041 1.21458 0.471848 0.0843845 0.0260798 0.0126857 0.00429487 0.000924899
threshold=2.127953199445487 0.071811285778383707 -0.071286629916170199 -1.3679065158931614 0.0406777599128866 0.80075651177897611 1.084838724214028 0.047166548151882731 0.3323478344608814 -0.15961121458230917 -0.59809803972346065 -0.60334999720564686 0.10983483848640609 0.020330411084094741 0.15976840354805827 -0.013952985029234212 -0.090177582539556891 0.77392033173365304 0.36967899775820345 -0.30046725358008325 1.1068785662938958 0.021965168323061127 -0.13660980310187223
decision_type=2 2 2 2 2 2 2 2 2 2 2 2 2 2 2 2 2 2 2 2 2 2 2
left_child=1 3 12 -1 10 6 7 8 14 -10 -4 -6 20 -14 19 -16 -2 -13 -9 -5 21 -3 -18
right_child=16 2 4 5 11 -7 -8 18 9 -11 -12 17 13 -15 15 -17 22 -19 -20 -21 -22 -23 -24
leaf_value=-0.067612505584116633 -0.018963850900173013 -0.069161582791531673 0.026291553872130113 0.074154154422223922 -0.012174708793662101 -0.034245000875636887 -0.026728704892111928 0.076226563867683381 0.030251666879671336 -0.072883397767560767 -0.070588711170398097 0.086252352956943543 0.036781807644766615 -0.069513992020982032 0.068362167885722844 -0.039359287392172843 -0.065099937354814036 0.054368152804753739 0.087277566164930279 0.081283372042570592 -0.072452691613398096 -0.065877205054618262 -0.066473836531887723
leaf_weight=1.9095049202442194 1.9232882112264631 2.1902323663234728 2.1604262441396713 2.8366535007953715 2.399621918797493 2.7289282083511344 2.5612499713897696 3.8135695606470099 2.4248250275850296 2.1114875972270957 3.0055970400571805 2.4232958108186722 2.7428688406944275 1.9987755268812177 2.3030502200126648 2.1253598481416702 2.3113917112350464 2.2264544367790222 3.1578153371810913 2.3418496549129504 2.1164567619562149 1.824550464749336 2.6061455607414237
leaf_count=10 10 11 10 13 11 13 12 17 11 10 15 10 12 10 10 10 13 10 13 10 10 10 14
internal_value=0 0.00684115 -0.0137553 0.0236361 0.0119102 0.0302349 0.0376669 0.0454783 0.0278546 -0.0177539 -0.0300735 0.0426773 -0.0425898 -0.00802574 0.0493907 0.0166626 -0.0526523 0.0709851 0.0812323 0.0773782 -0.0693203 -0.067669 -0.0658281
internal_weight=0 51.4026 23.0883 28.3143 12.2154 26.4048 23.6759 21.1146 14.1432 4.53631 5.16602 7.04937 10.8729 4.74164 9.60691 4.42841 6.84083 4.64975 6.97138 5.1785 6.13124 4.01478 4.91754
internal_count=275 238 109 129 56 119 106 94 64 21 25 31 53 22 43 20 37 20 30 23 31 21 27
is_linear=0
shrinkage=0.05


Tree=15
num_leaves=21
num_cat=0
split_feature=362 107 465 383 16 384 278 54 126 515 133 24 520 223 399 381 346 415 491 161
split_gain=8.01974 7.45482 6.18358 7.22628 5.38375 5.11874 5.59563 5.08157 4.22399 5.43601 4.13482 3.96197 3.42161 2.97201 0.271079 0.185594 0.0138738 0.0136578 0.00456464 0.00296548
threshold=-0.95766748637874322 -0.71715508322482824 -0.49289474343842715 -0.015863290340055781 -0.32682753266995024 0.076393158653706286 -0.15291684050296303 0.49590047915390617 -1.0000000180025095e-35 -0.20563888850380005 0.31607561009213303 -0.26873901554217067 0.30298437573881226 1.0000000180025095e-35 0.54838026997476275 -0.38584255752630109 -0.40599364168064583 0.06978905152574473 2.0934365295591424 1.0000000180025095e-35
decision_type=2 2 2 2 2 2 2 2 2 2 2 2 2 2 2 2 2 2 2 2
left_child=8 12 5 4 -4 6 11 13 9 -1 14 -3 15 -6 17 -2 -10 -5 19 -17
right_child=1 2 3 10 7 -7 -8 -9 16 -11 -12 -13 -14 -15 -16 18 -18 -19 -20 -21
leaf_value=0.051512287624840204 -0.048251292728094947 -0.0078573176934726204 -0.041877298952873968 -0.066048149746930393 0.010448319786463533 0.072945432507816793 -0.040410916842778165 -0.023303892523730899 0.07206257924358779 -0.044643027620266312 0.0087516843833265433 0.081418480024106538 0.0099760207167084499 0.080435555016391339 -0.04704415116265992 -0.06604917513612206 0.077569705459713506 -0.070961931490073349 -0.064426746146720199 -0.068660401574232574
leaf_weight=3.5326337814331055 1.7802276015281675 2.2734890133142462 3.5616587549447951 2.3804437667131495 2.3873069584369677 4.3848680555820456 3.6536142379045442 3.0403539091348648 2.1102832853794098 2.5172064453363419 2.6439450234174728 2.7411177605390549 2.054874375462532 4.1603679209947586 1.8564363270997999 2.0164543986320478 2.4966270774602872 3.483589842915535 1.7354029119014738 2.3596241176128387
leaf_count=16 10 11 17 13 11 19 18 15 10 12 12 12 10 18 10 11 11 17 10 12
internal_value=0 -0.00911387 0.00132585 -0.0139934 0.0106147 0.0289222 0.00665283 0.0301139 0.0389737 0.0115042 -0.0452145 0.0409432 -0.047494 0.0549179 -0.0636957 -0.0624583 0.0750471 -0.0689672 -0.0665967 -0.0674572
internal_weight=0 46.5138 36.5672 23.5141 13.1497 13.0531 8.66822 9.58803 10.6568 6.04984 10.3644 5.01461 9.94658 6.54767 7.72047 7.89171 4.60691 5.86403 6.11148 4.37608
internal_count=275 226 173 113 61 60 41 44 49 28 52 23 53 29 40 43 21 30 33 23
is_linear=0
shrinkage=0.05


Tree=16
num_leaves=21
num_cat=0
split_feature=491 456 346 167 54 25 90 359 339 176 341 394 448 238 255 198 162 18 368 249
split_gain=7.53612 6.46246 6.0025 6.21253 6.23421 5.98238 4.82871 4.77875 4.54007 3.40625 3.3212 3.15659 2.17817 1.23007 0.631858 0.16843 0.0317527 0.0130588 0.00484388 0.00103361
threshold=2.127953199445487 -1.1865305434262907 -0.51217028996080194 -0.70055423675344264 1.6281487386576634 1.246390144863627 -0.39245925167019186 0.36911408258289646 0.84846934660068529 -0.36450930535367626 0.98003877924717986 0.35231136359244092 -0.11510808699483657 -0.57058289380924798 -1.0207879958392756 -1.0791138094006762 0.6448668963749179 -0.19459918953938857 -0.36198837620918484 1.0000000180025095e-35
decision_type=2 2 2 2 2 2 2 2 2 2 2 2 2 2 2 2 2 2 2 2
left_child=1 12 7 6 5 8 -4 9 10 -3 14 -8 -1 -2 -5 -11 17 -16 -19 -15
right_child=13 2 3 4 -6 -7 11 -9 -10 15 -12 -13 -14 19 16 -17 -18 18 -20 -21
leaf_value=0.017871162011576357 -0.016154914538055211 -0.0027034822116583173 -0.030046108306221883 -0.037779159302162364 0.053277043829843607 0.025951507923147401 0.079704144267473145 -0.028916574909251893 0.011822933788870307 0.059436970594400673 0.004576224478248331 0.0031327052781130529 0.077317619971022433 -0.065329974532719021 -0.06957808958030362 0.077268025183492128 -0.073661236369615329 -0.067296954521829253 -0.064322287565776029 -0.063800248614342012
leaf_weight=2.5813597589731216 1.8441441208124159 2.1365327388048172 2.6334334313869476 1.9658615291118611 2.3755830079317084 3.7092960625886908 3.6681903600692696 2.4181642383337021 3.0704215615987769 2.0290584564208984 2.0409598946571341 2.1260221004486084 3.8230682462453833 1.7933622002601612 3.3912382870912534 3.8132760077714902 2.3537854403257361 2.4561135470867139 3.0906179398298423 2.8737922757863998
leaf_count=12 10 10 13 10 11 17 16 12 14 10 10 10 17 10 17 17 11 13 18 17
internal_value=0 0.00648004 -0.000456915 -0.0109277 -0.0236864 -0.0319675 0.0260934 0.0326578 -0.0436633 0.0513192 -0.0547993 0.0516084 0.0533572 -0.0507274 -0.06394 0.0710753 -0.0684945 -0.0671339 -0.0656395 -0.064388
internal_weight=0 49.683 43.2786 32.8815 24.4539 22.0783 8.42765 10.397 18.369 7.97887 15.2986 5.79421 6.40443 6.5113 13.2576 5.84233 11.2918 8.93797 5.54673 4.66715
internal_count=275 238 209 160 121 110 39 49 93 37 79 26 29 37 69 27 59 48 31 27
is_linear=0
shrinkage=0.05


Tree=17
num_leaves=21
num_cat=0
split_feature=382 107 14 514 345 262 222 195 221 167 58 402 442 254 129 385 155 89 490 370
split_gain=7.38713 6.10493 6.64226 5.56361 5.45814 5.64702 4.65536 4.38612 4.17791 3.77907 3.77853 3.28677 2.23365 1.10821 0.244741 0.203267 0.117429 0.0269242 0.0237097 0.00655189
threshold=-0.39906139119461975 -0.49379022165349923 0.31379467403886241 -0.69909389162583346 0.66759621325799812 0.49484549716510629 -1.9091734441972936 -0.49753068472050693 -0.54472576752761415 -0.44631775180562222 0.6993521370961614 -0.89629282049335746 -0.87783930281345102 -0.3256194508162788 -0.3962387030638323 -0.62821730809125631 0.069887408971745266 0.23299654161429395 0.1808272548278104 -0.25593333836255122
decision_type=2 2 2 2 2 2 2 2 2 2 2 2 2 2 2 2 2 2 2 2
left_child=3 9 4 -1 5 10 -5 -4 -8 -2 13 -9 -10 -3 -14 -11 -16 -15 -13 -17
right_child=1 2 7 6 -6 -7 8 11 12 15 -12 18 14 17 16 19 -18 -19 -20 -21
leaf_value=-0.030291418311313673 0.012265242833591105 0.035836052032717308 0.030066945242390147 -0.032790721217944262 -0.043836614236399701 -0.030899647053457869 -0.016979224559026531 0.0026042841315209214 0.019598822756737841 -0.045392071800205547 -0.0065448397735774419 -0.071539391074279618 0.060832779333327626 0.075286573986962688 0.07356542062546001 -0.066352144057687398 0.087896659182610581 0.08217813610096858 -0.065161121677072761 -0.063198517544852437
leaf_weight=3.6105387359857586 2.2415787875652304 2.1102172732353175 2.2878324687480918 1.972207218408587 2.7293911278247824 2.6611467450857154 1.995770752429961 2.2842069268226615 2.4617200940847388 1.6821810454130162 2.2399610728025436 2.69532486796379 2.6157275736331913 3.5149445533752495 3.6638403683900806 3.480990305542945 2.343769446015358 2.3747828006744385 3.1713071763515472 3.1259752362966537
leaf_count=18 11 10 11 10 13 13 10 11 12 10 11 13 13 16 17 19 10 10 18 19
internal_value=0 -0.0132037 -0.000224853 0.0254499 0.0204005 0.0339908 0.0388196 -0.0311085 0.0496164 -0.0453333 0.0508545 -0.0482796 0.0616064 0.0669261 0.0735984 -0.0609093 0.0791565 0.0780653 -0.0680915 -0.0648601
internal_weight=0 36.5998 26.0691 18.6636 15.6304 12.9011 15.053 10.4387 13.0808 10.5307 10.2399 8.15084 11.0851 7.99994 8.62334 8.28915 6.00761 5.88973 5.86663 6.60697
internal_count=275 185 126 90 73 60 72 53 62 59 47 42 52 36 40 48 27 26 31 38
is_linear=0
shrinkage=0.05


Tree=18
num_leaves=24
num_cat=0
split_feature=382 108 353 263 298 53 374 61 14 239 50 402 388 176 482 506 423 401 136 136 9 463 394
split_gain=6.78231 5.74094 6.17299 5.3069 5.51308 5.08266 5.01728 7.50268 5.71871 5.21378 4.73884 3.43061 3.04076 2.57692 1.00303 0.937833 0.848704 0.142508 0.0265772 0.0166052 0.0152794 0.0113107 0.00378572
threshold=-0.39906139119461975 0.89455902295514711 -1.1427695432576568 0.37058083989909379 -1.0105183707283156 -1.1256554705009381 0.094932402368573268 -0.64429621406091464 -0.084926399638209041 -0.24734909048339723 0.83902435145426202 0.35734092990842869 -0.22627744794546992 -0.45243314280764385 0.54522533056705591 0.543720063233326 0.69569948359249978 0.15428225514078325 -0.34903071506689753 1.0000000180025095e-35 -0.22242075877142764 0.067373434996687312 0.3016214917893047
decision_type=2 2 2 2 2 2 2 2 2 2 2 2 2 2 2 2 2 2 2 2 2 2 2
left_child=3 2 -2 4 -1 -6 8 -8 9 -4 11 21 -11 -7 17 19 18 20 -10 -3 -15 -9 -20
right_child=1 15 6 -5 5 13 7 10 16 12 -12 -13 -14 14 -16 -17 -18 -19 22 -21 -22 -23 -24
leaf_value=-0.041106586356093822 0.065377145828869151 -0.069342772387581963 -0.049285427023641054 -0.052307334799174543 -0.032418709080445439 0.01120425783462101 -0.065583118629911827 0.076037474399846913 -0.072253800042604635 0.077259152978686685 -0.033446786709419134 0.00040020717888823048 -0.005289014338570916 0.074941101697662924 0.036386392133484921 -0.023843794447158343 -0.028381893987821979 0.08642262789846028 -0.063914938143619537 -0.063476572225937777 0.069595737898541662 0.08088917971527898 -0.066973184514775741
leaf_weight=2.1307673603296342 2.9431428611278561 2.3472269773483267 2.9654713720083237 2.0024952143430701 1.8410708904266382 2.4981559664011028 2.2983246296644202 2.4572362601757032 2.1002010107040423 2.2455893009901047 1.9179918467998502 1.9938807189464567 2.216983765363695 2.1967828869819659 2.001580223441124 1.77702260017395 1.7667396068572996 2.3191210329532623 2.1891016811132413 2.4818909466266632 3.4153109937906159 2.3502439111471176 1.88175393640995
leaf_count=11 14 12 16 10 10 12 13 11 10 10 10 10 11 10 10 10 10 10 13 15 17 10 10
internal_value=0 -0.012791 -0.00330554 0.0245335 0.0339144 0.0451148 -0.0109673 0.0147824 -0.0294304 0.00210178 0.0359658 0.0555403 0.0362496 0.0565979 0.0680146 -0.0548998 -0.0589376 0.0759965 -0.0676855 -0.0663279 0.0716881 0.0784093 -0.0653286
internal_weight=0 35.9328 29.3267 18.4053 16.4028 14.272 26.3835 11.0177 15.3658 7.42804 8.71935 6.80136 4.46257 12.431 9.9328 6.60614 7.9378 7.93121 6.17106 4.82912 5.61209 4.80748 4.07086
internal_count=275 185 148 90 80 69 134 54 80 37 41 31 21 59 47 37 43 37 33 27 27 21 23
is_linear=0
shrinkage=0.05


Tree=19
num_leaves=22
num_cat=0
split_feature=491 257 149 279 468 355 448 8 354 73 58 492 190 458 31 78 212 40 31 154 356
split_gain=6.45023 5.6847 5.52618 5.52237 5.40102 4.93901 3.93252 5.39974 3.84316 3.69425 3.53453 4.4346 3.27116 2.19838 1.49299 0.74284 0.731141 0.0535526 0.0124695 0.0111228 0.000916188
threshold=2.127953199445487 0.071811285778383707 0.49714987766738045 0.62289137269055972 -1.3679065158931614 0.61083822018214073 0.68915072078506989 0.37387340575176714 -0.27550075866861606 -0.1261867732197389 0.31659954496639431 -0.1107909477631374 0.11224662695556718 0.63151228340612586 0.92218248613469023 -0.43772605209783177 -1.0052250765477249 -0.36032560783309325 -0.29935465148345669 0.82948792157502771 -0.41407277737259235
decision_type=2 2 2 2 2 2 2 2 2 2 2 2 2 2 2 2 2 2 2 2 2
left_child=1 4 8 5 -1 -4 10 12 9 -3 13 -12 -8 16 20 -10 -6 -18 -19 -17 -2
right_child=14 2 3 -5 6 -7 7 -9 15 -11 11 -13 -14 -15 -16 19 17 18 -20 -21 -22
leaf_value=-0.064305983221601318 -0.063188523206993349 -0.052488842567265874 0.076540799125814699 -0.041602434668278503 0.041303225043352196 -0.020769897857004106 -0.06770591494237703 0.062770439186601953 -0.029571597242891698 0.032231202798923074 -0.046147022755238409 0.046492482533380231 0.015452695861131589 0.014547816681447801 -0.0042532420009762104 -0.064989316163495611 0.080717028721905434 0.069257991858489396 0.074298802216514609 -0.069575317309860205 -0.061777651369003622
leaf_weight=1.7017506957054163 2.4702397882938385 2.1571756154298782 3.9914373308420164 2.6922789812088013 2.1678925156593367 1.9366039633750913 2.8238811939954749 2.1189656555652618 1.7677693068981168 3.1889552921056747 2.2732522785663605 2.9921981692314139 2.0346204191446304 2.560424029827117 1.4415559172630308 3.3175256848335284 2.2897560000419661 2.7859525829553649 2.192223921418182 2.1982533186674118 2.1540480554103842
leaf_count=10 15 12 18 14 11 10 15 10 10 15 12 14 10 13 8 19 10 14 10 11 14
internal_value=0 0.00609198 -0.0130818 0.0177812 0.0217985 0.0447508 0.0278437 -0.00383301 -0.0341471 -0.00195352 0.0406479 0.00649724 -0.0328811 0.0556375 -0.0486815 -0.0577773 0.0667872 0.0743886 0.0714778 -0.066817 -0.0625313
internal_weight=0 47.1909 21.25 8.62032 25.9409 5.92804 24.2392 6.97747 12.6297 5.34613 17.2617 5.26545 4.8585 11.9962 6.06584 7.28355 9.43583 7.26793 4.97818 5.51578 4.62429
internal_count=275 238 109 42 129 28 119 35 67 27 84 26 25 58 37 40 45 34 24 30 29
is_linear=0
shrinkage=0.05


Tree=20
num_leaves=20
num_cat=0
split_feature=362 107 465 383 16 386 141 54 272 133 473 141 207 39 362 512 26 90 346
split_gain=6.14602 5.76123 4.92897 5.71722 4.24917 4.12264 4.75514 4.07529 3.47616 3.34601 3.05619 3.00514 2.39124 1.35032 0.222907 0.0286526 0.00888559 0.00638267 0.00172885
threshold=-0.95766748637874322 -0.71715508322482824 -0.49289474343842715 -0.015863290340055781 -0.32682753266995024 0.16338556894027215 -0.17848991730932665 0.49590047915390617 -0.41621146107389445 0.31607561009213303 -0.057277084429744406 0.34000779001724696 0.26487530046622954 -0.043191262893056172 0.83039633003668456 0.057752260273874811 0.31657115779535977 -0.33215858037950352 -0.4922173853446915
decision_type=2 2 2 2 2 2 2 2 2 2 2 2 2 2 2 2 2 2 2
left_child=8 10 5 4 -4 6 -3 12 -1 14 17 15 -6 -7 16 -10 -5 -2 -19
right_child=1 2 3 9 7 13 -8 -9 11 -11 -12 -13 -14 -15 -16 -17 -18 18 -20
leaf_value=-0.023950057233076822 -0.065455882027696907 -0.053718819372936599 -0.039283647301398397 -0.066994700965246443 0.071657870975671431 0.021644298951187232 0.036166239349690772 -0.022636275439905169 0.074683994340255064 0.0076335370823784185 0.0012063746634370922 0.0029964431500986719 0.0045513909975827228 0.072165446603666042 -0.044296297386764022 0.067434125299739661 -0.062727248484101231 -0.063191217374708744 -0.06116409476193635
leaf_weight=1.9528766572475431 1.9478237777948377 2.5896907597780228 3.2817252725362716 3.3500228375196528 4.1508403271436709 1.9533340483903883 3.4073646217584557 2.8027656972408295 2.6277986466884595 2.4447502046823502 2.6211345940828306 2.3202761560678482 1.951669320464134 4.0960606932640076 1.6327056139707563 2.8311130553483963 1.9182791113853452 1.8037631809711454 2.5230622440576553
leaf_count=10 11 14 17 18 19 10 17 15 12 12 14 12 10 19 10 15 12 11 17
internal_value=0 -0.00836045 0.00111757 -0.0132107 0.00935102 0.026729 -0.00264856 0.0272736 0.0356912 -0.0426314 -0.0441375 0.0506635 0.0501963 0.0558523 -0.0604383 0.0709241 -0.0654408 -0.0630791 -0.0620092
internal_weight=0 42.475 33.5792 21.5328 12.187 12.0465 5.99706 8.90528 9.73206 9.34576 8.89578 7.77919 6.10251 6.04939 6.90101 5.45891 5.2683 6.27465 4.32683
internal_count=275 226 173 113 61 60 31 44 49 52 53 39 29 29 40 27 30 39 28
is_linear=0
shrinkage=0.05


Tree=21
num_leaves=22
num_cat=0
split_feature=491 257 171 468 465 416 366 102 32 260 453 69 107 105 347 273 481 510 250 160 498
split_gain=5.75819 5.0175 5.14868 4.74685 4.5313 3.76829 3.56045 3.93559 4.81573 3.94643 3.04167 3.9499 2.86691 1.47317 0.648357 0.468058 0.339373 0.0263746 0.0188705 0.00679385 0.00105415
threshold=2.127953199445487 0.071811285778383707 -0.071286629916170199 -1.3679065158931614 0.49845358942161905 0.21076197767698354 -0.74872190378638048 -0.58520434298711443 -0.27926583969230967 -0.99683279385761769 0.10983483848640609 0.020330411084094741 -0.62437852094744961 1.3000277937652782 0.47780816179549152 0.45806605097005909 -0.40725160246264719 0.31660560745157967 0.39825184257635377 -0.10822138701901873 -0.13660980310187223
decision_type=2 2 2 2 2 2 2 2 2 2 2 2 2 2 2 2 2 2 2 2 2
left_child=1 3 10 -1 5 -4 -5 15 -9 -10 19 -12 -11 20 -7 17 -14 -8 -18 -3 -2
right_child=13 2 4 6 -6 14 7 8 9 12 11 -13 16 -15 -16 -17 18 -19 -20 -21 -22
leaf_value=-0.062745615517607684 -0.060641135800824024 -0.062873398246648574 0.025353629083681575 -0.024211214120305219 0.054162524232964797 -0.068011760776263738 0.069983354460186775 -0.044074920827834291 -0.020149838476463077 -0.0043994563044956201 0.032443776644909571 -0.06522890358064605 0.046503691878052589 -0.0023195734372860165 -0.026119920228973355 0.045234311207504062 0.075214806516533506 0.077481515495301079 0.06892681007507552 -0.066455792502381275 -0.062198221400762636
leaf_weight=1.589947029948237 2.0169067829847336 2.7295546680688858 3.356697201728819 3.0117862969636944 3.898255318403244 1.9155014604330065 2.2154877632856431 2.5031506270170274 2.6850516647100493 1.9147972315549884 2.5060159713029861 1.7634909898042677 1.7778576612472559 1.3855672180652616 1.7836929261684416 2.0309381186962128 2.4058020412921666 2.4918637722730637 2.3671527653932571 2.5691258311271685 2.3575044572353354
leaf_count=10 14 17 17 16 19 10 11 13 14 10 12 10 10 8 10 11 11 11 12 14 15
internal_value=0 0.0058121 -0.0125082 0.0208549 0.0108979 -0.013005 0.0265343 0.0340291 0.0185981 0.0326673 -0.0393048 -0.00789926 0.0494194 -0.0472491 -0.0478122 0.0652968 0.0651506 0.0739525 0.0720963 -0.0646104 -0.0614803
internal_weight=0 45.5162 20.5223 24.9938 10.9541 7.05589 23.4039 20.3921 13.6538 11.1507 9.56819 4.26951 8.46561 5.75998 3.69919 6.73829 6.55081 4.70735 4.77295 5.29868 4.37441
internal_count=275 238 109 129 56 37 119 103 70 57 53 22 43 37 20 33 33 22 23 31 29
is_linear=0
shrinkage=0.05


Tree=22
num_leaves=21
num_cat=0
split_feature=382 108 310 324 195 514 3 209 261 485 60 137 203 118 225 193 161 485 299 162
split_gain=5.56775 4.73656 5.10072 5.53693 4.55098 4.40559 3.99275 3.71899 4.36679 3.11722 3.24497 2.48801 2.2103 0.838647 0.619588 0.282716 0.208089 0.0917889 0.0144667 0.0110674
threshold=-0.39906139119461975 0.89455902295514711 -0.76615076132882953 0.64270920447083979 -0.66106832832483209 -0.69909389162583346 -0.77620100512742107 -0.37173687843253495 -0.1447753518074856 -0.69836279701511506 -0.19991444100494063 0.47847031925941402 -0.27087510111901553 -0.72485256891608407 -0.84368320556323362 -0.52369845860259423 0.57067730218426294 0.23809857715219979 0.52892300118600899 -0.16467796713600932
decision_type=2 2 2 2 2 2 2 2 2 2 2 2 2 2 2 2 2 2 2 2
left_child=5 2 16 4 12 -1 -6 8 -7 -8 -11 14 -4 -3 -9 -12 -2 -16 -17 -15
right_child=1 13 3 -5 6 7 9 11 -10 10 15 -13 -14 19 17 18 -18 -19 -20 -21
leaf_value=-0.028716824936901926 -0.064157903295547936 -0.021671899774050856 -0.0004327147556681247 0.060359408935864826 0.044563889327715669 -0.065258809299420323 0.012266205003326083 0.040472118775089098 0.043879707340855431 0.0068115222233408783 -0.041911497044824109 0.0106572291627718 0.073488218578378728 -0.061497349157474568 0.069022725195849538 -0.063526695243797573 -0.040522240357773291 0.08206324610664234 -0.068725198936848295 -0.066554954974054878
leaf_weight=3.3267520219087627 2.5170129239559205 1.6212024390697477 1.7866027653217313 3.8679227083921424 2.1888935267925325 1.738837391138077 3.447053968906407 1.7850919067859647 1.9380731135606772 2.4135155826807058 1.6094868481159244 2.7836247086524963 2.3301427662372651 2.393414244055748 3.3351357132196391 3.12345204502342 1.4780655503273008 2.2663778364658356 2.3416013270616531 1.9736169576644886
leaf_count=18 15 10 10 19 11 10 19 10 10 13 10 15 11 16 17 19 9 10 12 11
internal_value=0 -0.0121378 -0.00324635 0.0057724 -0.0052011 0.0229495 -0.017888 0.0353623 -0.00773268 -0.0284562 -0.0432508 0.0509427 0.0414077 -0.0523823 0.0661241 -0.0603298 -0.0554134 0.0742989 -0.0657541 -0.0637831
internal_weight=0 33.092 27.1038 23.1087 19.2407 17.1739 15.124 13.8471 3.67691 12.9351 9.48806 10.1702 4.11675 5.98823 7.38661 7.07454 3.99508 5.60151 5.46505 4.36703
internal_count=275 185 148 124 105 90 84 72 20 73 54 52 21 37 37 41 24 27 31 27
is_linear=0
shrinkage=0.05


Tree=23
num_leaves=21
num_cat=0
split_feature=107 439 47 193 59 74 38 51 451 363 169 491 25 480 517 171 362 198 193 499
split_gain=5.30288 4.87429 6.94171 5.62908 4.68359 3.42222 3.80525 3.49788 3.11862 2.97991 2.77001 1.99354 1.9342 1.84389 0.33232 0.316989 0.153426 0.0111933 0.00826666 0.00456271
threshold=-1.0543353147410928 -0.33553374486690396 0.26978835697769493 -0.13002343815584763 -0.15339093845579269 -0.75357289538399896 0.38721260107000305 0.053583124170885996 0.19875359280107902 -0.2255917126927092 0.07299131422661885 1.4292691901060783 1.1087180622958963 0.40088230586698409 0.33023805251072008 -0.24520600737688228 0.93535541067933037 0.17232119002881638 -0.38910664027399927 0.3740511488429033
decision_type=2 2 2 2 2 2 2 2 2 2 2 2 2 2 2 2 2 2 2 2
left_child=14 2 11 -4 8 -6 12 -8 10 -10 -3 15 16 -5 -1 -2 18 -17 -7 -20
right_child=1 4 3 13 5 6 7 -9 9 -11 -12 -13 -14 -15 -16 17 -18 -19 19 -21
leaf_value=-0.062517488414415109 0.046115375822990308 0.0076861310457525985 0.045714483890308112 -0.066684578460835989 0.030960163459011581 -0.061482913935753017 -0.045738429302874625 0.051828561887217829 -0.063985300827673661 0.01801891654272102 0.075125588038335842 0.013458673811953221 -0.003407104410531363 -0.0024435672148066679 -0.032237732379254161 0.067247180930541148 -0.046126336976936959 0.071605426785319587 -0.06673228181934053 -0.063557103670062412
leaf_weight=2.9814290553331366 1.875468015670777 3.1229629814624804 2.7627521753311157 3.1182818412780753 2.2996680140495327 2.3926686942577353 1.6555667221546166 2.0637344568967819 1.8080992251634596 2.8603941798210144 2.9713176637887955 2.590016171336174 1.7837899327278126 1.7404333651065824 1.3017765581607816 2.6408076286315927 1.4806333929300306 3.3321764320135117 2.2232954651117316 2.3038494363427162
leaf_count=19 11 17 14 17 12 16 10 10 11 15 14 14 10 10 9 14 10 16 12 14
internal_value=0 0.00490551 0.0250078 -0.0112703 -0.00855757 -0.0255405 -0.0348858 0.00839872 0.01701 -0.0137412 0.0405668 0.0514956 -0.0506934 -0.0436729 -0.0533147 0.0640479 -0.0607344 0.0696785 -0.0638601 -0.0651164
internal_weight=0 45.0259 18.0599 7.62147 26.966 16.2032 13.9035 3.7193 10.7628 4.66849 6.09428 10.4385 10.1842 4.85872 4.28321 7.84845 8.40045 5.97298 6.91981 4.52714
internal_count=275 247 96 41 151 94 82 20 57 26 31 55 62 27 28 41 52 30 42 26
is_linear=0
shrinkage=0.05


Tree=24
num_leaves=21
num_cat=0
split_feature=491 456 257 222 149 322 12 150 153 459 169 123 305 440 431 388 179 95 267 164
split_gain=4.98682 4.29894 4.29409 4.95389 4.77079 3.85744 3.65235 3.79343 3.60644 3.63097 2.6409 2.33959 2.20336 1.6475 1.38564 0.18688 0.0496569 0.00691604 0.00558362 0.000768915
threshold=2.127953199445487 -1.1865305434262907 0.52437466966366808 1.0000000180025095e-35 0.66020295216737168 -0.095623126453449073 0.011861340599838793 -0.36194679512033473 -0.058709444417638181 -0.27238269271138321 -1.0000000180025095e-35 -0.041523877413175633 0.21653410869749612 -0.26047248424965025 0.46357893637820097 -0.18508569459667376 0.32714639975767484 -0.66298249543710075 0.92949380374701474 -0.3097539155263509
decision_type=2 2 2 2 2 2 2 2 2 2 2 2 2 2 2 2 2 2 2 2
left_child=1 13 3 5 15 12 10 -8 -7 -10 11 -5 17 -1 19 -4 -12 -3 -17 -2
right_child=14 2 4 6 -6 8 7 -9 9 -11 16 -13 -14 -15 -16 18 -18 -19 -20 -21
leaf_value=0.067893763233154353 -0.059234416218264099 -0.060408940073829791 -0.043914789663612938 0.057366460731202051 0.02142405910221035 0.05330418533530782 -0.064989685121272331 0.02887993704082439 0.030309778426545531 -0.053365123939469086 0.06621477641153363 -0.017863640371745638 -0.0027054646348165391 0.011988507878517797 -0.0011792519129715476 -0.062449827553268326 0.075952285580789675 -0.064587291311863734 -0.066161705099525694 -0.060674381331820661
leaf_weight=3.4395263493061066 1.4412100762128828 1.6839099824428556 1.5565456151962278 1.9354690760374067 2.78402379155159 3.1297842562198595 1.7476963400840757 2.8014928549528113 2.4160110652446702 2.7979634851217412 3.2384492754936209 2.217555306851863 2.4244765043258667 2.1363594383001319 1.3214967697858808 2.0359199941158277 2.1977836042642593 2.4044786691665605 2.016725167632103 2.5987401008605948
leaf_count=18 11 12 10 10 15 16 10 14 13 17 18 13 13 11 8 13 10 14 11 18
internal_value=0 0.00551896 -0.000588868 0.00852788 -0.0320834 -0.0116336 0.0297134 -0.00718266 0.0108759 -0.0145925 0.0472171 0.0171965 -0.0404709 0.0464741 -0.0456229 -0.0586409 0.0701515 -0.0628663 -0.064297 -0.0601607
internal_weight=0 42.9642 37.3883 28.9951 8.39321 14.8566 14.1384 4.54919 8.34376 5.21397 9.58926 4.15302 6.51287 5.57589 5.36145 5.60919 5.43623 4.08839 4.05265 4.03995
internal_count=275 238 209 160 49 85 75 24 46 30 51 23 39 29 37 34 28 26 24 29
is_linear=0
shrinkage=0.05


Tree=25
num_leaves=22
num_cat=0
split_feature=107 439 47 435 59 303 446 331 6 505 350 491 328 387 437 160 227 198 518 245 80
split_gain=4.73442 4.32694 6.13763 5.10047 4.24213 3.22 3.72022 2.81372 4.04582 2.80142 3.26439 1.81081 1.63053 0.99666 0.318579 0.302421 0.149157 0.0117505 0.00485338 0.00445877 0.0020397
threshold=-1.0543353147410928 -0.33553374486690396 0.26978835697769493 -0.04277983544836117 -0.15339093845579269 0.12745029833333962 0.29381869299661467 0.70190988889436601 -0.065008425558375993 0.9370726144865491 -0.52683204961856378 1.4292691901060783 0.41111109226214004 0.15136290960545781 -0.032412531448228581 -0.55617633916517095 -0.43687543292194869 0.65628597432068148 -0.25123244102938769 -0.053856133235083085 0.49173362195642861
decision_type=2 2 2 2 2 2 2 2 2 2 2 2 2 2 2 2 2 2 2 2 2
left_child=14 2 11 -4 9 7 -7 16 -9 10 -3 15 -12 -5 -1 -2 -6 19 -18 -17 -20
right_child=1 4 3 13 5 6 -8 8 -10 -11 12 -13 -14 -15 -16 17 18 -19 20 -21 -22
leaf_value=-0.061316123735628759 0.043061601886396343 -0.019525922167547345 0.038650044974907032 -0.015598687121010049 -0.045281962700278927 0.049374618456738573 -0.040334080049393026 0.038277774312516263 -0.062269402086469999 -0.031125771676343894 0.073295157790415524 0.013020102145903562 0.01908498470905555 -0.065194663440026918 -0.030895488918179465 0.06394828620736652 -0.065157563945968736 0.07039747700545719 -0.063203669480689256 0.067392202802727799 -0.060673816808398208
leaf_weight=2.7929279059171677 1.6462528556585319 2.3141419291496268 3.0509093105792999 1.652490198612212 1.4653623849153499 2.6217358261346808 2.0667142122983932 2.2341693639755249 1.8118236884474752 2.3857686892151824 3.3512778133153942 2.5308773666620255 2.3666679114103317 2.6174292862415314 1.2439662441611279 1.8635787218809137 2.1094738990068418 2.0410347133874893 1.7822118103504201 1.8960264623165131 1.4408921897411344
leaf_count=19 10 13 16 10 10 14 13 12 12 15 16 14 13 15 9 11 12 10 11 10 10
internal_value=0 0.00467636 0.0240467 -0.010723 -0.00823606 -0.0247923 0.00983015 -0.0397615 -0.00674795 0.0164483 0.0305792 0.0495578 0.0508575 -0.0460007 -0.051942 0.0619754 -0.0594106 0.0673432 -0.063293 0.0656851 -0.0620727
internal_weight=0 43.2488 17.2986 7.32083 25.9502 15.5324 4.68845 10.8439 4.04599 10.4179 8.03209 9.97777 5.71795 4.26992 4.03689 7.44689 6.79794 5.80064 5.33258 3.75961 3.2231
internal_count=275 247 96 41 151 94 27 67 24 57 42 55 29 25 28 41 43 31 33 21 21
is_linear=0
shrinkage=0.05


end of trees

feature_importances:
Column_491=17
Column_107=13
Column_257=9
Column_362=9
Column_439=8
Column_465=8
Column_167=7
Column_346=7
Column_126=6
Column_136=6
Column_324=6
Column_456=6
Column_468=6
Column_54=5
Column_440=5
Column_490=5
Column_10=4
Column_31=4
Column_141=4
Column_149=4
Column_153=4
Column_255=4
Column_359=4
Column_382=4
Column_388=4
Column_402=4
Column_448=4
Column_480=4
Column_14=3
Column_25=3
Column_26=3
Column_30=3
Column_47=3
Column_55=3
Column_58=3
Column_59=3
Column_129=3
Column_133=3
Column_165=3
Column_169=3
Column_171=3
Column_176=3
Column_193=3
Column_195=3
Column_198=3
Column_200=3
Column_223=3
Column_227=3
Column_238=3
Column_239=3
Column_245=3
Column_262=3
Column_279=3
Column_355=3
Column_383=3
Column_386=3
Column_423=3
Column_467=3
Column_498=3
Column_506=3
Column_514=3
Column_8=2
Column_16=2
Column_19=2
Column_24=2
Column_32=2
Column_39=2
Column_40=2
Column_50=2
Column_53=2
Column_69=2
Column_73=2
Column_74=2
Column_76=2
Column_78=2
Column_90=2
Column_102=2
Column_105=2
Column_108=2
Column_114=2
Column_125=2
Column_128=2
Column_137=2
Column_139=2
Column_144=2
Column_160=2
Column_161=2
Column_162=2
Column_164=2
Column_203=2
Column_207=2
Column_209=2
Column_221=2
Column_222=2
Column_225=2
Column_250=2
Column_260=2
Column_263=2
Column_278=2
Column_284=2
Column_301=2
Column_317=2
Column_328=2
Column_329=2
Column_337=2
Column_339=2
Column_341=2
Column_343=2
Column_345=2
Column_354=2
Column_356=2
Column_378=2
Column_384=2
Column_387=2
Column_394=2
Column_401=2
Column_415=2
Column_420=2
Column_426=2
Column_429=2
Column_436=2
Column_437=2
Column_446=2
Column_453=2
Column_457=2
Column_473=2
Column_481=2
Column_485=2
Column_510=2
Column_511=2
Column_0=1
Column_1=1
Column_3=1
Column_6=1
Column_9=1
Column_11=1
Column_12=1
Column_13=1
Column_18=1
Column_33=1
Column_36=1
Column_37=1
Column_38=1
Column_41=1
Column_45=1
Column_46=1
Column_51=1
Column_52=1
Column_56=1
Column_57=1
Column_60=1
Column_61=1
Column_65=1
Column_68=1
Column_80=1
Column_81=1
Column_87=1
Column_89=1
Column_92=1
Column_95=1
Column_100=1
Column_101=1
Column_112=1
Column_115=1
Column_117=1
Column_118=1
Column_120=1
Column_123=1
Column_124=1
Column_142=1
Column_147=1
Column_150=1
Column_154=1
Column_155=1
Column_158=1
Column_170=1
Column_179=1
Column_181=1
Column_185=1
Column_186=1
Column_188=1
Column_190=1
Column_197=1
Column_199=1
Column_211=1
Column_212=1
Column_249=1
Column_254=1
Column_261=1
Column_267=1
Column_272=1
Column_273=1
Column_289=1
Column_290=1
Column_296=1
Column_298=1
Column_299=1
Column_303=1
Column_305=1
Column_306=1
Column_310=1
Column_322=1
Column_323=1
Column_326=1
Column_331=1
Column_340=1
Column_347=1
Column_349=1
Column_350=1
Column_351=1
Column_353=1
Column_357=1
Column_363=1
Column_364=1
Column_366=1
Column_367=1
Column_368=1
Column_370=1
Column_371=1
Column_372=1
Column_374=1
Column_377=1
Column_381=1
Column_385=1
Column_391=1
Column_399=1
Column_405=1
Column_416=1
Column_431=1
Column_432=1
Column_435=1
Column_438=1
Column_442=1
Column_444=1
Column_451=1
Column_458=1
Column_459=1
Column_461=1
Column_462=1
Column_463=1
Column_470=1
Column_482=1
Column_483=1
Column_484=1
Column_492=1
Column_499=1
Column_505=1
Column_512=1
Column_515=1
Column_517=1
Column_518=1
Column_520=1

parameters:
[boosting: gbdt]
[objective: binary]
[metric: binary_logloss]
[tree_learner: serial]
[device_type: cpu]
[linear_tree: 0]
[data: ]
[valid: ]
[num_iterations: 10000]
[learning_rate: 0.05]
[num_leaves: 63]
[num_threads: 0]
[deterministic: 0]
[force_col_wise: 0]
[force_row_wise: 0]
[histogram_pool_size: -1]
[max_depth: -1]
[min_data_in_leaf: 10]
[min_sum_hessian_in_leaf: 0.001]
[bagging_fraction: 0.9]
[pos_bagging_fraction: 1]
[neg_bagging_fraction: 1]
[bagging_freq: 0]
[bagging_seed: 29216]
[feature_fraction: 1]
[feature_fraction_bynode: 1]
[feature_fraction_seed: 17795]
[extra_trees: 0]
[extra_seed: 19650]
[early_stopping_round: 50]
[first_metric_only: 0]
[max_delta_step: 0]
[lambda_l1: 0]
[lambda_l2: 0]
[linear_lambda: 0]
[min_gain_to_split: 0]
[drop_rate: 0.1]
[max_drop: 50]
[skip_drop: 0.5]
[xgboost_dart_mode: 0]
[uniform_drop: 0]
[drop_seed: 24198]
[top_rate: 0.2]
[other_rate: 0.1]
[min_data_per_group: 100]
[max_cat_threshold: 32]
[cat_l2: 10]
[cat_smooth: 10]
[max_cat_to_onehot: 4]
[top_k: 20]
[monotone_constraints: ]
[monotone_constraints_method: basic]
[monotone_penalty: 0]
[feature_contri: ]
[forcedsplits_filename: ]
[refit_decay_rate: 0.9]
[cegb_tradeoff: 1]
[cegb_penalty_split: 0]
[cegb_penalty_feature_lazy: ]
[cegb_penalty_feature_coupled: ]
[path_smooth: 0]
[interaction_constraints: ]
[verbosity: -1]
[saved_feature_importance_type: 0]
[max_bin: 255]
[max_bin_by_feature: ]
[min_data_in_bin: 3]
[bin_construct_sample_cnt: 200000]
[data_random_seed: 45]
[is_enable_sparse: 1]
[enable_bundle: 1]
[use_missing: 1]
[zero_as_missing: 0]
[feature_pre_filter: 1]
[pre_partition: 0]
[two_round: 0]
[header: 0]
[label_column: ]
[weight_column: ]
[group_column: ]
[ignore_column: ]
[categorical_feature: ]
[forcedbins_filename: ]
[objective_seed: 29484]
[num_class: 1]
[is_unbalance: 0]
[scale_pos_weight: 1]
[sigmoid: 1]
[boost_from_average: 1]
[reg_sqrt: 0]
[alpha: 0.9]
[fair_c: 1]
[poisson_max_delta_step: 0.7]
[tweedie_variance_power: 1.5]
[lambdarank_truncation_level: 30]
[lambdarank_norm: 1]
[label_gain: ]
[eval_at: ]
[multi_error_top_k: 1]
[auc_mu_weights: ]
[num_machines: 1]
[local_listen_port: 12400]
[time_out: 120]
[machine_list_filename: ]
[machines: ]
[gpu_platform_id: -1]
[gpu_device_id: -1]
[gpu_use_dp: 0]
[num_gpu: 1]

end of parameters

pandas_categorical:null
