tree
version=v3
num_class=1
num_tree_per_iteration=1
label_index=0
max_feature_idx=520
objective=binary sigmoid:1
feature_names=Column_0 Column_1 Column_2 Column_3 Column_4 Column_5 Column_6 Column_7 Column_8 Column_9 Column_10 Column_11 Column_12 Column_13 Column_14 Column_15 Column_16 Column_17 Column_18 Column_19 Column_20 Column_21 Column_22 Column_23 Column_24 Column_25 Column_26 Column_27 Column_28 Column_29 Column_30 Column_31 Column_32 Column_33 Column_34 Column_35 Column_36 Column_37 Column_38 Column_39 Column_40 Column_41 Column_42 Column_43 Column_44 Column_45 Column_46 Column_47 Column_48 Column_49 Column_50 Column_51 Column_52 Column_53 Column_54 Column_55 Column_56 Column_57 Column_58 Column_59 Column_60 Column_61 Column_62 Column_63 Column_64 Column_65 Column_66 Column_67 Column_68 Column_69 Column_70 Column_71 Column_72 Column_73 Column_74 Column_75 Column_76 Column_77 Column_78 Column_79 Column_80 Column_81 Column_82 Column_83 Column_84 Column_85 Column_86 Column_87 Column_88 Column_89 Column_90 Column_91 Column_92 Column_93 Column_94 Column_95 Column_96 Column_97 Column_98 Column_99 Column_100 Column_101 Column_102 Column_103 Column_104 Column_105 Column_106 Column_107 Column_108 Column_109 Column_110 Column_111 Column_112 Column_113 Column_114 Column_115 Column_116 Column_117 Column_118 Column_119 Column_120 Column_121 Column_122 Column_123 Column_124 Column_125 Column_126 Column_127 Column_128 Column_129 Column_130 Column_131 Column_132 Column_133 Column_134 Column_135 Column_136 Column_137 Column_138 Column_139 Column_140 Column_141 Column_142 Column_143 Column_144 Column_145 Column_146 Column_147 Column_148 Column_149 Column_150 Column_151 Column_152 Column_153 Column_154 Column_155 Column_156 Column_157 Column_158 Column_159 Column_160 Column_161 Column_162 Column_163 Column_164 Column_165 Column_166 Column_167 Column_168 Column_169 Column_170 Column_171 Column_172 Column_173 Column_174 Column_175 Column_176 Column_177 Column_178 Column_179 Column_180 Column_181 Column_182 Column_183 Column_184 Column_185 Column_186 Column_187 Column_188 Column_189 Column_190 Column_191 Column_192 Column_193 Column_194 Column_195 Column_196 Column_197 Column_198 Column_199 Column_200 Column_201 Column_202 Column_203 Column_204 Column_205 Column_206 Column_207 Column_208 Column_209 Column_210 Column_211 Column_212 Column_213 Column_214 Column_215 Column_216 Column_217 Column_218 Column_219 Column_220 Column_221 Column_222 Column_223 Column_224 Column_225 Column_226 Column_227 Column_228 Column_229 Column_230 Column_231 Column_232 Column_233 Column_234 Column_235 Column_236 Column_237 Column_238 Column_239 Column_240 Column_241 Column_242 Column_243 Column_244 Column_245 Column_246 Column_247 Column_248 Column_249 Column_250 Column_251 Column_252 Column_253 Column_254 Column_255 Column_256 Column_257 Column_258 Column_259 Column_260 Column_261 Column_262 Column_263 Column_264 Column_265 Column_266 Column_267 Column_268 Column_269 Column_270 Column_271 Column_272 Column_273 Column_274 Column_275 Column_276 Column_277 Column_278 Column_279 Column_280 Column_281 Column_282 Column_283 Column_284 Column_285 Column_286 Column_287 Column_288 Column_289 Column_290 Column_291 Column_292 Column_293 Column_294 Column_295 Column_296 Column_297 Column_298 Column_299 Column_300 Column_301 Column_302 Column_303 Column_304 Column_305 Column_306 Column_307 Column_308 Column_309 Column_310 Column_311 Column_312 Column_313 Column_314 Column_315 Column_316 Column_317 Column_318 Column_319 Column_320 Column_321 Column_322 Column_323 Column_324 Column_325 Column_326 Column_327 Column_328 Column_329 Column_330 Column_331 Column_332 Column_333 Column_334 Column_335 Column_336 Column_337 Column_338 Column_339 Column_340 Column_341 Column_342 Column_343 Column_344 Column_345 Column_346 Column_347 Column_348 Column_349 Column_350 Column_351 Column_352 Column_353 Column_354 Column_355 Column_356 Column_357 Column_358 Column_359 Column_360 Column_361 Column_362 Column_363 Column_364 Column_365 Column_366 Column_367 Column_368 Column_369 Column_370 Column_371 Column_372 Column_373 Column_374 Column_375 Column_376 Column_377 Column_378 Column_379 Column_380 Column_381 Column_382 Column_383 Column_384 Column_385 Column_386 Column_387 Column_388 Column_389 Column_390 Column_391 Column_392 Column_393 Column_394 Column_395 Column_396 Column_397 Column_398 Column_399 Column_400 Column_401 Column_402 Column_403 Column_404 Column_405 Column_406 Column_407 Column_408 Column_409 Column_410 Column_411 Column_412 Column_413 Column_414 Column_415 Column_416 Column_417 Column_418 Column_419 Column_420 Column_421 Column_422 Column_423 Column_424 Column_425 Column_426 Column_427 Column_428 Column_429 Column_430 Column_431 Column_432 Column_433 Column_434 Column_435 Column_436 Column_437 Column_438 Column_439 Column_440 Column_441 Column_442 Column_443 Column_444 Column_445 Column_446 Column_447 Column_448 Column_449 Column_450 Column_451 Column_452 Column_453 Column_454 Column_455 Column_456 Column_457 Column_458 Column_459 Column_460 Column_461 Column_462 Column_463 Column_464 Column_465 Column_466 Column_467 Column_468 Column_469 Column_470 Column_471 Column_472 Column_473 Column_474 Column_475 Column_476 Column_477 Column_478 Column_479 Column_480 Column_481 Column_482 Column_483 Column_484 Column_485 Column_486 Column_487 Column_488 Column_489 Column_490 Column_491 Column_492 Column_493 Column_494 Column_495 Column_496 Column_497 Column_498 Column_499 Column_500 Column_501 Column_502 Column_503 Column_504 Column_505 Column_506 Column_507 Column_508 Column_509 Column_510 Column_511 Column_512 Column_513 Column_514 Column_515 Column_516 Column_517 Column_518 Column_519 Column_520
feature_infos=[-3.4625701960167969:3.192726175709518] [-2.7422247989741302:2.8029594938274722] [-4.4336803656360484:1.9558952501311915] [-7.6820154118493376:2.4467234680150165] [-2.2718654763252535:1.9550080803518151] [-1.9631204699027933:4.8311804468101887] [-3.5586190694515767:2.936521948458283] [-2.7990611459257164:2.0180821144882857] [-2.8040789993023294:3.4007506059592938] [-3.2577461146902276:1.9464252440699015] [-2.7771196643603218:3.4971691877053619] [-5.4737318520005793:4.5418217543450154] [-2.7861013866685216:6.553702045531538] [-3.8558091101480505:3.7837421310476764] [-1.2119416256304916:2.8849901157827658] [-2.8064727770810012:2.2027213995575803] [-4.9605118155053578:2.3943687615621645] [-2.9126760733989112:3.2728915978937074] [-2.6533448125191748:2.6087772950165911] [-5.4249127206368417:4.5803025659383172] [-2.7570424472992432:3.0123158952333773] [-4.8729160052686336:1.7258677019864954] [-2.561558505034764:2.9397189815306777] [-4.648410721992672:2.4501512701741652] [-1.5245810553056296:5.712437109931769] [-2.4156282570323588:5.4935616717260096] [-2.8861602214954476:1.6746269819462491] [-2.4136658292884956:4.0138267570724455] [-2.3948227687176007:3.1775237255344004] [-2.0328940625048717:3.0066479570761588] [-5.9193026684654306:2.7309621547790282] [-3.6037351659410173:2.1698385881637909] [-5.2075227524149152:1.2364493884682433] [-2.391001733469523:2.8944369559905847] [-4.0275647778090411:2.3764109761288497] [-3.1527111518289117:2.6080017055112776] [-2.3575386132278626:3.562802367538525] [-2.5386319149016527:3.4325765387211606] [-4.5548778205679055:3.2584016422524438] [-5.5471270675923225:2.9043057990865457] [-4.3575917504518884:2.56000983991549] [-3.3662428176666856:2.9304198492701965] [-3.5817389714623853:1.9475962755658118] [-3.2917533233800698:2.3452761006112532] [-2.4418116890212396:2.0950106563107029] [-2.1000596853463875:3.8787591590676005] [-3.0813121464970687:3.5510303914708046] [-1.6790621279663944:3.9668859932618084] [-3.7652901783637063:3.1690769597872195] [-3.599648096542968:2.45498159054483] [-4.2021248552730457:2.7060656744638285] [-4.803115797774506:3.2368535976387767] [-4.8344763605812684:2.2447075721052498] [-2.3192024730019791:3.2481653226504532] [-1.8005597569087883:4.5225251692936288] [-3.3687948595878452:2.6773551121960355] [-2.7264058593153657:2.710561392998196] [-2.7549392569985467:2.7766349452450938] [-1.6809846353964621:5.1224537782324795] [-4.456678070729315:2.1494258764035794] [-3.7360668738649521:2.7109116332154342] [-1.5590895224184733:3.3777997953948171] [-2.8088736313185878:3.3930404297090275] [-2.1124427175281961:4.0920201413424895] [-1.3503931484971479:5.460913203584246] [-3.379525908203092:2.7819455737146055] [-4.2759789800190466:3.8929848816094932] [-4.9515910879519742:2.0661926582475969] [-3.859510898154483:1.1376710672727837] [-2.629388163580046:2.9360887080905491] [-2.9451847847053276:2.2025795038053722] [-2.0404266931567911:2.9680064475170105] [-6.3085297839567094:1.3746005800880938] [-2.6720797199349775:4.2978952113515758] [-3.9210153606871123:2.436296869114897] [-4.7084590966303184:2.0855149641682256] [-2.6149611822484675:2.3123233961506759] [-2.429043904434034:3.9385458919766854] [-1.7162166367602605:4.3425966395761888] [-2.1996395567293905:3.377577289703352] [-3.2783259738507815:4.1920861235844038] [-1.9010943200205972:4.3262474146678978] [-2.6033671018307016:2.7590709327688216] [-7.9724665019021064:1.7263433374534822] [-1.480195223330171:5.3847785056610462] [-2.20504374255359:2.3254024526200481] [-2.2607664653833854:3.5601111863085149] [-4.0582851950186489:2.9695884905875238] [-2.1503347892425002:3.3198061412086459] [-4.021011475119459:2.9649325938362341] [-3.2743362231156099:2.5721687280214485] [-3.282611935976822:2.7146100583318238] [-4.2640980643299349:5.2171878746279479] [-5.3273303847604163:3.1697220116960478] [-4.8509194156739479:3.6053658379351989] [-5.4589359154336865:2.6512027737757955] [-2.3066070669850007:3.0916567017436343] [-6.5110456423314691:2.8889159072455666] [-4.884656887174045:6.4307730733205997] [-1.4267223990252942:2.4343895983925656] [-3.3447552532537617:4.3299973160736123] [-4.5310275576176933:3.0121508042606324] [-4.081901678923308:2.2911843998172396] [-3.7696605572128861:3.575004557295975] [-1.0447826927434809:4.0351831535215519] [-2.4571932460902399:4.3542286410859274] [-1.9849335611922911:0.9732470769853202] [-2.3606707682249586:3.9279507647347978] [-2.6759412706831429:2.2980351526015772] [-3.6775261477469567:2.4600564429453406] [-2.6791272117680296:2.6427864692673433] [-4.9248385079388441:2.1158686778399076] [-2.7517917565215497:2.9200902571121694] [-2.0468519921411108:1.5597998029134599] [-2.0499240520471971:3.6460329326437497] [-2.4995502118235939:2.7769762951006784] [-5.3173786417943472:0.90501113127080379] [-4.0109987169779089:2.4625249778288079] [-2.8919060519941517:3.4416495934735987] [-6.1761508499794022:2.0840332743882803] [-2.0185963819154487:3.3409256634034383] [-2.7177519687362657:3.634040434996495] [-3.098124811741755:2.6634995945356352] [-4.0521149061597495:4.7866190064696976] [-2.8037273876169149:2.235835213623433] [-3.9627657072445239:3.3981382243910727] [-4.9263797585583022:2.0054597646714636] [-2.1300265915801302:2.1786154169781011] [-2.8462481524275782:5.2825891445527535] [-2.9748782166137375:1.6652789064618068] [-1.0161665055331208:5.5726041165049773] [-3.9056979122926125:2.8673376387263554] [-1.829847742380224:5.3144506018673336] [-6.2487212423632057:1.0426578352077325] [-6.6510127215959081:1.3865911033441183] [-7.5026274958551031:2.0048308300392388] [-4.6365640212470991:2.980455647317271] [-2.5825247697331655:4.1955059774070147] [-7.4420563419797965:4.8462317603578668] [-7.5044016823842385:2.6741380215214878] [-0.049587793791080026:3.4690198235925136] [-1.9371955276722566:4.9739982435191417] [-2.6421547443503597:3.0778725363474009] [-4.1171186094932359:0.37287423048043089] [-4.3022435797838119:3.4162235313504028] [-2.7504517181521373:1.5835112023493343] [-2.8352813041502247:2.5624075652903584] [-5.6933904491490841:2.1071589473241921] [-4.0921725270990272:2.3823967751994455] [-3.3582963564592925:2.3414083615632402] [-2.8567412553284406:2.1922100649324827] [-4.0994899328138779:3.4989598594380569] [-5.7676267441074307:1.9060420350317389] [-7.0416060190462124:1.8711620769825033] [-2.9240968830423499:4.0062675247168622] [-2.292763550771308:3.1306118464678696] [-3.2084939716254177:2.4985054600364496] [-1.7810600999539388:1.764146610720454] [-2.7598669032005039:3.708899305450283] [-1.3167311577668519:6.0824059589057056] [-2.9141497520569812:4.7804819879732108] [-1.5316345307144659:3.0665678283060065] [-5.7885429205525627:1.9686053730135633] [-6.2118998392403428:3.0249616705826599] [-3.5053014251612233:2.8705033276916758] [-3.6502949178207142:3.0539698563547253] [-6.1434586342181676:2.3860587946744212] [-3.2662588118886728:2.040342742311986] [-2.7597229860797148:2.655847907779453] [-6.9749077456433:2.8024261939017094] [-1.9326834847886716:2.9840114941708187] [-3.9842106168653362:2.3001777211886729] [-2.2591866802925114:2.7394166355240386] [-3.7576789770997872:3.2621022739592975] [-3.4996070887171422:3.1747726637256046] [-2.8332921905732991:3.5763903427102428] [-3.599906384739326:7.0024366308775932] [-3.1507728041426435:4.1931669558645916] [-2.5434436693597324:3.081329021208675] [-2.3702557095619916:2.2010084775376568] [-3.3575923713901976:2.3630984792831486] [-2.9849080066334839:2.3184618790154725] [-5.0440712412356579:2.1101487362328077] [-3.5274231792091468:3.014148343052875] [-3.4184675980498245:2.6317249632370014] [-1.9131420384613171:3.7821378186331822] [-2.7461272214217201:4.9399162257972602] [-1.9820997446534356:2.7007774246049183] [-5.2597433769936641:2.3175917398824373] [-4.2567073163161036:2.0528392641331514] [-5.7151031802100674:1.1726126765635376] [-0.807082973493496:2.8794634440639442] [-2.1990234624341949:3.0091785342702955] [-2.8060499030001766:3.6298582788645257] [-1.9132152979733432:1.1101569425575128] [-2.5619344204077836:2.6170917038388799] [-5.9333797008839246:2.0397987913032116] [-4.4171445694074922:1.0391188243136928] [-1.1803197478380192:1.793011889881418] [-3.2893016012162137:3.1463086345152838] [-3.3543197072480244:2.1684530888023414] [-3.1736096312033446:3.8965887499614289] [-2.2456096786916495:3.1822189534086283] [-2.8312687503479581:2.3925142663406902] [-3.2237412306659858:3.0380350341528652] [-3.2854456479677547:3.2268543448642899] [-6.5159467936187712:2.3600300940064463] [-6.4872868333120941:1.5636899831294886] [-4.657062262203393:1.6248521543357493] [-3.1892314511373736:2.5361285259765327] [-4.9055978675803988:1.0022559125650159] [-2.480007566453784:4.119241059833918] [-1.0464627474136121:2.0135198745751772] [-3.1527928223267212:2.6586839143793233] [-5.4544654479355064:1.8021470809244853] [-2.5190975719312525:3.0600151902730617] [-4.6388520415222709:2.7420605939575884] [-4.0007903068002939:2.8863134253022631] [-4.3745269397433653:6.9056024532321194] [-6.5818325339016273:1.2086147325763039] [-1.8082461839563961:2.9153318826048706] [-2.474343375619354:2.5353310535025226] [-2.0068356578699702:2.0494330862358252] [-4.1301887445278496:3.7944333782006878] [-2.0109773866191123:4.6264372341691224] [-3.6162999555544015:2.4402068381752264] [-2.3847417279089509:3.3091469694962057] [-2.8213511095330062:3.9263680023508769] [-3.5546069255116843:2.2957726463794677] [-0.66182485784700162:5.3365052393175985] [-5.3401657538244551:2.2765641809625476] [-2.9491596637818889:2.5387935136020308] [-4.4155738707831027:2.1229004246021419] [-5.0666693917473911:0.64654874579605959] [-1.3249503221242036:2.9884880208656504] [-7.2002810832037873:2.8225234069551273] [-4.8109193104694699:0.56017601286225449] [-6.08488610306454:2.6325621391228227] [-2.6581882030639061:6.6759077016150519] [-2.9028278458524301:2.5477918344343644] [-6.0365331784809735:3.4520166712644489] [-4.8955268063261075:2.3154650155319798] [-5.011850709314257:2.4009383112769989] [-1.807233013568798:3.7254891290818692] [-2.9029039444598603:3.2392342746202156] [-6.57030634236102:2.3302496052650223] [-5.1894172639775142:3.1986477914496798] [-2.6589243429814875:2.9949955929288015] [-2.9634941482467174:1.7508833586697707] [-2.871355082643869:2.3391797482151775] [-5.3639760184722283:2.5876145867835176] [-2.1483160065917271:3.4735822340519342] [-4.1928861501764159:3.8652008868014405] [-5.3412947366854731:1.9225702050497619] [-2.9508814831510639:2.8920190487952184] [-2.5991787644053845:2.8510595349619607] [-1.9555273233691355:1.9542036061777197] [-4.2986138215431033:2.8570884052505532] [-6.3946857991225547:1.6928986644412005] [-2.9358126023988933:2.971377356429028] [-4.3050228294082169:2.0680761130538086] [-3.2242573949524287:2.546637280196014] [-3.8710135260296696:1.0501033740504511] [-5.9237263448161572:1.2231809533469564] [-4.8910680747468103:2.2766903990959508] [-5.5166122183802502:2.0544923163533952] [-6.2987240258485713:1.4519900511404231] [-2.1834058544416779:2.9990932240740631] [-2.1668826726631711:3.8695920926048335] [-5.3519361203668296:2.7028411321004269] [-3.8808066803021477:2.893763093003189] [-1.1888209673168557:2.7910358055260791] [-5.6825656097392478:3.1919834845874675] [-4.7943986319703313:2.0080074320079233] [-2.8321799937252821:3.6391631900256698] [-2.4246899189515272:3.5149706688273574] [-2.735801015926957:2.787306639081363] [-2.5601087129473328:1.8902341827413813] [-2.9142472157521775:2.9139114308447467] [-2.5714903412057133:2.5501146695618142] [-2.8342466439938496:2.8794100048637081] [-1.9659983776231487:1.9608199670994015] [-5.3088133019389208:2.32508165093508] [-7.1692748571773564:3.9914573299901885] [-2.9970046019012391:3.0998157176874099] [-2.687291488788679:2.3588676865894791] [-3.3920757809224811:2.8917518737999095] [-3.131922913247231:3.8055607794229629] [-3.4163266541150459:2.7204865233604423] [-2.9251406510345941:1.8171327938593869] [-3.2928053608232823:1.9882909707344052] [-5.0809746164096614:2.8560489942888987] [-4.2071883400819035:6.2361252100557669] [-3.3592650330268583:2.5398224523938655] [-3.6453366219594456:1.9189757092615833] [-2.087718241126804:3.3269350995441886] [-3.0307286056002938:2.3913335119286239] [-3.3619003830519851:1.9108225960532541] [-4.3667473449485712:1.7760401550848464] [-2.838336374752902:2.0867975076196128] [-3.2721572239271199:2.1704095444817764] [-2.467792386114962:4.7879626742989831] [-3.3257629807613203:3.6145682593217892] [-6.5875345630533593:0.53163399480314988] [-7.8489021473652354:0.78839273856145464] [-2.9483683481828535:3.6258407631447214] [-3.7304458327706866:2.2394572260287924] [-4.1176535250979711:2.4719900067777187] [-2.9123054612081569:2.9801448978532319] [-1.7325097869664166:2.0899106861131553] [-3.302011346928738:3.0413150939594757] [-2.8545851659545201:3.0023717738284241] [-3.7019219757860515:3.2114780078706389] [-2.3821743825711579:3.6198683093019874] [-2.5643627054969405:3.3446794826303821] [-2.9963699283490475:2.7153033437107554] [-2.6824911014409722:5.4030161533085952] [-3.2006648706966851:4.1466935713618271] [-3.2792731815477687:3.0924934849639842] [-2.1629105103756374:4.1895081064088515] [-4.9831267452438004:2.1005112511323585] [-4.6250557707019251:2.6322847391240227] [-3.9316808136790624:2.3938039249689762] [-3.3052707832045347:1.9918462333017222] [-6.5931045836937949:1.6620661607293425] [-3.2603596139690576:2.9768111292347248] [-7.0626154586188159:2.7333253262421038] [-4.1813962689650159:3.8522345326824565] [-5.010787557373436:3.4655990589569368] [-2.81484504680737:2.7472646705951469] [-2.7191057714468996:2.2863417408111415] [-3.1114272401075169:2.2375709732812443] [-2.9518728314046339:2.2512657367685933] [-2.1342661435449926:3.7852041138290797] [-6.0894607563054253:3.1448146196386473] [-3.5607110449741506:2.6787305977573479] [-4.8986308028517644:2.5006100015944237] [-2.8135880528589849:2.3950883948892763] [-6.281226593598717:2.1745964294861633] [-4.2838930181945214:2.7964912881895954] [-4.119617368229636:3.5629460027441207] [-5.0113692337021485:2.7110222969784834] [-4.4875046841507142:2.1901972530556266] [-2.8615012799640605:3.071366159655248] [-2.8402788966801955:2.3374551161270714] [-2.3064862470724847:2.622418607640105] [-1.6185017708886091:3.7638323683679364] [-2.7610479276152708:1.7418418408483631] [-6.4068409182549937:2.0794588930634017] [-2.2846483695250024:4.7376916654939638] [-4.2602036250803614:2.1678209339918642] [-6.7702384565956093:1.2692928501701153] [-1.5462826146709605:3.812144096469718] [-3.9743101035418671:2.7166428980863677] [-3.7167978618089395:1.8681289597427166] [-2.1808636092163378:3.2428546541304808] [-3.1750028839235691:2.9345451054236906] [-3.1236727893000151:2.0456650946674615] [-2.0468561976070947:3.7241828358818134] [-2.2921017059737823:0.86566576561804653] [-0.96933064036669936:1.8931953430782167] [-2.9698215044207399:2.6423365301839032] [-3.05681064232405:2.2627184813871746] [-2.7642168127863309:3.264705071372485] [-3.6221573921584906:1.7741933660335045] [-2.4191135379113415:2.5604563483720866] [-1.6549316664585616:7.9655272209804933] [-1.8963637324045708:3.2725341675526818] [-6.153717351615887:2.4967849364642576] [-3.9911077172958755:4.3438335864191613] [-7.1569387504019817:2.3803064307425545] [-3.2098798863363256:2.1797715953327965] [-3.0287016327092182:3.8530258320569875] [-6.3491940117136956:1.4913972896420826] [-3.5510813687146268:6.0790237770605726] [-3.2971491722246671:2.9131763561911299] [-2.5944792255702676:4.9036512819912375] [-1.7701779254721894:4.3352068970423092] [-3.7860669819812598:2.3989546719289505] [-3.116875513814839:2.4554016492668223] [-2.8686221449673748:1.9346553398179853] [-4.3677096240996747:3.3639309096309127] [-2.7983124176521406:2.3332795198691647] [-6.8338870999185071:1.7063800291240876] [-2.1447935255934869:0.85044626785070154] [-6.2271306813883243:3.6184082640930173] [-3.1627070425001764:2.6744359207730821] [-3.4049324736328104:3.0170219249428993] [-2.5636885438635484:2.7147855087385908] [-6.227153556627294:1.9691527747442445] [-2.0416518908302046:2.5350503266150861] [-2.8835430164510294:3.4318549813291694] [-2.6496309505305811:2.243802266410801] [-2.1114198708113543:5.2032012533531473] [-3.5256731285033274:3.0459837562280749] [-4.5742844724208842:2.16731758967626] [-4.8756546281723887:2.4614631664154634] [-2.6171491920789736:3.4588194109513695] [-3.6065694320724577:2.7866273290018362] [-6.7899048924235412:2.1564856440503677] [-4.0110283574186854:2.7127443630104446] [-4.3407705536583778:2.4693665584632858] [-3.1863800264281643:2.9887070311454402] [-2.0633571627045297:4.7439422072294883] [-3.2029848665588236:2.7080156979428276] [-2.9011572853198504:2.8185177246376933] [-3.5401148339940334:2.3526039805364589] [-2.3778412515862257:3.1491819799243252] [-3.2329106168168216:2.6241868984708403] [-4.1967751795909862:5.6352158152239067] [-3.3334575364151866:2.9661816204768092] [-3.918638356131166:3.3582434539387793] [-3.2455030699755167:4.0451649410904098] [-6.2535483489523545:1.7889642854353802] [-3.6639105968834729:2.0861594408338275] [-3.183200992243997:3.3196982351535747] [-3.125343001086097:2.6471761333979873] [-2.9408981339843017:2.2686264805876108] [-3.0784030022338369:2.7669763811075025] [-3.3709660171412668:2.8690214032924608] [-3.41146030974368:3.2503594553891397] [-3.3907974720484386:2.2883306009786364] [-3.3698113444440123:2.5476438951789615] [-4.2593958078262153:2.8192644108543061] [-3.2414240800562943:1.0205552889596692] [-3.326199843442422:2.597615297401402] [-3.7425998864525472:3.2713898975541711] [-3.4811372200297193:3.845600764299471] [-5.7599130277096666:1.2596547561246112] [-3.135527132760858:3.1245108924752487] [-4.5991248788708745:2.285425516821483] [-4.1637990930577793:2.9794563226191979] [-2.6651906811252166:3.1403617203467613] [-3.9458822062356136:2.5955449413162306] [-3.5455252221544846:3.0981111944648441] [-3.5911967926992494:1.2330161098834993] [-2.5385576592807002:2.9800316291014397] [-7.5985127319333774:2.0585222345201508] [-3.6046811576220015:2.4652690304819123] [-4.1525044371419746:2.4619248708941881] [-3.6673024219912169:2.0209416991498004] [-3.0029442443539529:3.0514293844245834] [-3.9970982820460335:2.2820150225030127] [-2.6368985006092514:6.6398421649557511] [-5.9604457441868437:2.0719679912672309] [-4.324646675848931:2.1263809483765019] [-3.1192173556183835:2.1086272118767009] [-5.0543816522290035:2.1797352092562519] [-2.2683258309139349:5.4642387761546365] [-2.8044428580586218:2.4597895055372723] [-1.8600586504098349:3.4766149103471888] [-3.7284455410648509:3.2556280946507328] [-5.3104230935368015:2.6948049117547872] [-3.5377268835016227:0.74970696851013252] [-3.4367591897835368:2.183152501813165] [-2.9964180235628821:2.3528490205548782] [-2.9418732380125974:2.3846557137099404] [-3.0276374267477224:2.7150796645842568] [-3.1499893599997582:2.8066242984683414] [-5.5387786833583306:2.2177394240321719] [-3.9135684102548778:1.934370482739139] [-1.611598078620829:3.9192430880049307] [-2.7763834258770337:3.4736727716282312] [-1.6196336411080192:2.9123590595318074] [-3.1010565114520805:2.6983272157999969] [-2.7323896955139855:2.1794116455745605] [-5.5627896264262331:3.4443914300019567] [-1.8584062459206476:1.4797758481052488] [-2.5059003150407877:4.2835711685623901] [-1.2011953008809171:3.7351267249593398] [-4.2307982847887917:2.240815320674912] [-1.9404451664002462:3.3350017394401146] [-3.5186514740618144:4.6417694804727052] [-2.7018723277400931:2.2606054157098585] [-4.0197443494666221:2.3303137666195024] [-3.1520098038643183:2.4809381415937484] [-4.7745841873712758:2.031832579221192] [-1.3014405540367275:1.496110706763943] [-2.2146050596026132:3.1257795885126929] [-2.5619267923785585:2.8198369249316841] [-2.6615796544885142:2.1653711333579033] [-0.95645225488167118:3.3707644581666871] [-1.9623952719140745:1.875151056572776] [-3.2062737784099546:3.5094087058214742] [-2.9145929930508805:2.2332642318245512] [-3.972699975959848:2.4898611012805718] [-3.2091710696997122:2.4286070185141293] [-3.0439861277577163:3.3949563478518794] [-5.7020721171545405:3.0339109712917525] [-3.2219339765446495:1.2099143925520635] [-2.8390232174440673:3.3890587312264366] [-0.17610583525968493:3.0334588040734487] [-2.3331752960301806:3.1518112513979339] [-3.3299909305915425:3.430780313806733] [-3.9613910831684382:4.9657581836168125] [-3.8108982775306588:0.69418139038018156] [-2.9744233327640757:3.2793269624105945] [-3.3956762813874102:2.9400483160764339] [-2.6356038937251114:2.7316645651094964] [-1.5280401650731461:1.624749821211015] [-5.3161003151301429:0.79254547895503946] [-4.5054705265008392:2.6988742670407331] [-5.2335964429244255:2.0789115012478288] [-1.3277019106100223:3.6078354068312661] [-3.1544444864745884:2.6193706296062724] [-1.2478277590588351:1.8086339718265088] [-3.5738868398327135:2.6413480085796701] [-6.512475351756053:3.3353009140767882] [-4.19346621542718:2.3016102743962383] [-3.1812238829365889:2.7973478834041825] [-1.0936842623700034:2.0032760460935708] [-5.8529550819706868:2.8020423083205777] [-2.4462757888865276:2.6424743474576524] [-3.6222039083196833:1.9962418156604875] [-2.9324774181391118:2.5281672321399746] [-3.1853615530631094:3.9162731630894023] [-3.1297566623244726:2.9372906786058959] [-2.2793916817141064:2.8233062878850936] [-2.4776650091059982:3.209954478860678] [-2.2823695732493285:3.4125959013525216] [-2.017737230829646:0.70860389409957547]
tree_sizes=2332 2349 2468 2462 2474 2254 2591 2572 2466 2355 2476 2584 2464 2580 2366 2573 2581 2578 2572 2361 2475 2679 2467 2358 2466 2468 2568 2582 2568 2374 2469 2575 2572 2359 2585 2679 2474 2256 2572 2262 2578 2580 2462 2813 2585 2362 2694 2585 2590 2798 2584

Tree=0
num_leaves=21
num_cat=0
split_feature=107 440 197 16 236 382 374 82 64 459 120 167 1 3 1 1 61 0 0 0
split_gain=23.422 16.5176 16.1646 13.9063 13.0777 12.8254 12.3464 10.8188 10.4151 9.90857 9.51037 4.97735 1.23429 1.07823 0.897662 0.330756 0.274286 7.10543e-15 3.55271e-15 1.77636e-15
threshold=-0.48777289988983097 0.47474272669784096 -0.18531279740810674 -0.7633716132106193 0.065001294882008634 -0.37475455861125134 0.27306582798050644 0.21510546970347247 0.097811806213597377 0.37838233184926301 0.75925290888436014 -0.66392405286722689 0.91401643991717862 0.48718331913309249 -0.6130810374323965 -1.0879334373495273 -1.0000000180025095e-35 0.50009721174806476 0.065753710724717668 1.0000000180025095e-35
decision_type=2 2 2 2 2 2 2 2 2 2 2 2 2 2 2 2 2 2 2 2
left_child=5 2 3 -2 6 -1 9 8 -3 16 14 -7 17 -9 -6 -13 19 -5 -17 -4
right_child=1 7 4 12 10 11 -8 13 -10 -11 -12 15 -14 -15 -16 18 -18 -19 -20 -21
leaf_value=-0.30790080902292127 -0.360472236743828 -0.23704366731213378 -0.42218652145967522 -0.21647223907351809 -0.25761509555074957 -0.33990080850521232 -0.28504366653557045 -0.42218652145967506 -0.3747139947551773 -0.29875795202798094 -0.33990080850521232 -0.40161509322105937 -0.25761509555074957 -0.38104366498244369 -0.21647223907351809 -0.42218652145967517 -0.40161509322105921 -0.21647223907351817 -0.42218652145967506 -0.42218652145967506
leaf_weight=4.3749999403953579 2.4305555224418631 2.4305555224418622 2.4305555224418596 4.3749999403953534 2.430555522441864 2.4305555224418667 4.3749999403953543 4.6180554926395416 3.1597221791744232 2.430555522441864 3.645833283662796 2.4305555224418631 2.430555522441864 2.430555522441864 2.916666626930235 6.0763888061046547 2.4305555224418702 2.9166666269302368 3.8888888359069824 2.430555522441864
leaf_count=18 10 10 10 18 10 10 18 19 13 10 15 10 10 10 12 25 10 12 16 10
internal_value=-0.336472 -0.317763 -0.300177 -0.253501 -0.324743 -0.383127 -0.354797 -0.366802 -0.314857 -0.386187 -0.277631 -0.405325 -0.226758 -0.407999 -0.235174 -0.418153 -0.415329 -0.216472 -0.422187 -0.422187
internal_weight=0 47.8819 35.2431 12.1528 23.0903 19.2014 14.0972 12.6389 5.59028 9.72222 8.99306 14.8264 9.72222 7.04861 5.34722 12.3958 7.29167 7.29167 9.96528 4.86111
internal_count=276 197 145 50 95 79 58 52 23 40 37 61 40 29 22 51 30 30 41 20
is_linear=0
shrinkage=1


Tree=1
num_leaves=21
num_cat=0
split_feature=107 137 485 382 338 487 40 314 337 236 143 465 167 65 18 13 227 395 459 1
split_gain=21.2591 15.0946 13.0369 11.7683 10.5563 12.3497 9.7969 8.63078 8.50537 8.14891 6.61899 9.929 4.6269 2.46329 1.21018 0.338635 0.28301 0.00846979 0.0034939 0.000272997
threshold=-0.48777289988983097 0.16077218776047728 -0.71645267405103652 -0.37475455861125134 -0.60725882071393211 0.86942993290142445 0.25981378743697553 0.16445578137097919 -1.0239353179803634 0.092261292671727155 -0.10078772285850504 -0.59006970471946607 -0.66392405286722689 -0.25762765868728515 -0.02611516533382403 0.41988475605925685 -0.014835809636155111 0.069668613810798655 0.33517806740211903 -1.0339491172063278
decision_type=2 2 2 2 2 2 2 2 2 2 2 2 2 2 2 2 2 2 2 2
left_child=3 2 13 -1 8 10 9 -8 -4 14 11 -6 -5 17 -3 19 -12 -2 -16 -14
right_child=1 6 4 12 5 -7 7 -9 -10 -11 16 -13 15 -15 18 -17 -18 -19 -20 -21
leaf_value=0.027015987646797884 0.11234405007542336 -0.042395406878928031 0.036714518579167486 -0.0032590634983165633 0.099026720467628795 -0.040717718991589713 -0.021620252301187883 0.087230864009394532 -0.08418479062581323 0.015569056317829184 0.093662361037319911 -0.034238397269282288 -0.083394034658082095 0.054099424856562696 -0.083539476189570208 -0.061953200280341306 0.11623828093838631 0.11631599240272471 -0.086027414566821642 -0.082780586069221451
leaf_weight=4.395009487867358 2.4697432518005371 2.4055660367012024 2.434238612651825 2.4291601777076748 2.6859536617994335 3.3866293579339972 3.8853127211332312 3.4275804311037064 3.615311533212668 3.9026647955179206 2.460685595870018 2.9141237139701843 2.4008388966321936 2.4533475041389492 3.3625709563493746 2.3928281515836707 3.1850269883870999 2.9397668540477753 2.4315948486328125 7.4146631062030748
leaf_count=18 10 10 10 10 11 14 16 14 15 16 10 12 10 10 14 10 13 12 10 31
internal_value=0 0.0177194 0.0408533 -0.0447356 0.0200186 0.0429872 -0.0162926 0.0293987 -0.0355369 -0.0439017 0.0681946 0.0296793 -0.0662795 0.0956558 -0.0722068 -0.0788191 0.106399 0.114503 -0.0845836 -0.0829306
internal_weight=0 47.9601 28.5448 19.0325 20.682 14.6324 19.4153 7.31289 6.04955 12.1024 11.2458 5.60008 14.6375 7.86286 8.19973 12.2083 5.64571 5.40951 5.79417 9.8155
internal_count=276 197 117 79 85 60 80 30 25 50 46 23 61 32 34 51 23 22 24 41
is_linear=0
shrinkage=0.05


Tree=2
num_leaves=22
num_cat=0
split_feature=439 47 250 244 233 303 322 216 275 132 421 112 117 218 86 348 121 234 90 220 107
split_gain=19.7932 16.0803 11.4237 12.0113 10.3168 10.3823 11.7578 10.2631 11.6742 9.32947 6.58388 6.51369 4.4108 2.30451 1.33249 0.349678 0.292449 0.0131507 0.010399 0.00438779 0.00240313
threshold=-0.33553374486690396 -0.37207866078844803 -0.41605608505343522 -0.52431865336002048 0.25651707699751064 -0.17102677067373484 0.41726757219798266 0.61337785431267844 -0.33159912526156937 -0.24255264130209084 -0.11004788114036126 0.86344270320051186 -0.52901587634468827 -0.12289413655738939 0.71896275327493953 -0.42895158498063723 0.25666709449115477 -0.16493299690672478 -0.29260718875447317 0.53077449976873203 -0.33604348171974741
decision_type=2 2 2 2 2 2 2 2 2 2 2 2 2 2 2 2 2 2 2 2 2
left_child=1 13 11 9 5 6 -5 8 -3 -4 16 14 -7 -1 18 -14 -10 -15 -2 -17 -20
right_child=2 7 3 4 -6 12 -8 -9 10 -11 -12 -13 15 17 -16 19 -18 -19 20 -21 -22
leaf_value=0.052509647756929061 -0.084775098037909016 0.056109091563034223 -0.010884414420012523 -0.050411912789811768 0.048848847717317616 -0.0019470434575977824 0.094627017206502018 0.083984528403999503 -0.061732189071863758 0.11376570465399832 0.016336952708248583 0.016403575304679428 -0.060795716570751314 0.11299201183904591 -0.040510763152324741 -0.081814124054792395 -0.084307201753868466 0.10818093052634443 -0.080319247689286999 -0.08427736096449874 -0.082382846176723992
leaf_weight=2.4537570178508759 3.3808604478836042 4.1562801301479366 2.6599008440971375 2.891015872359282 4.3962655365467063 2.4068190306425139 2.7044731825590134 3.441106215119361 2.379338353872301 3.4456503987312344 2.9087835848331416 2.4235817342996588 2.3714120835065877 2.7124715447425842 2.3760460317134848 4.2744102030992401 3.6131415367126465 2.9817857444286364 3.0547820925712568 3.1330429166555405 2.621518090367319
leaf_count=10 14 17 11 12 18 10 11 14 10 14 12 10 10 11 10 18 15 12 13 13 11
internal_value=0 0.0355478 -0.020861 -0.00263894 -0.0197355 -0.0366925 0.0196899 0.00716603 -0.0130783 0.0594615 -0.045384 -0.0580538 -0.0625824 0.0930173 -0.073837 -0.0775063 -0.0753437 0.110473 -0.0825798 -0.082856 -0.0812723
internal_weight=0 24.6467 42.1398 28.283 22.1774 17.7812 5.59549 16.4986 13.0575 6.10555 8.90126 13.8568 12.1857 8.14801 11.4332 9.77887 5.99248 5.69426 9.05716 7.40745 5.6763
internal_count=276 101 175 117 92 74 23 68 54 25 37 58 51 33 48 41 25 23 38 31 24
is_linear=0
shrinkage=0.05


Tree=3
num_leaves=22
num_cat=0
split_feature=107 440 368 46 382 115 178 195 375 46 488 214 120 483 442 313 120 519 37 345 346
split_gain=18.5262 14.0005 12.3455 11.0238 10.874 10.0798 8.52456 14.7562 9.46114 7.71426 6.29337 4.17386 3.87463 0.975557 0.359731 0.329845 0.0274914 0.00607634 0.00601677 0.00157426 0.000472674
threshold=-0.50393836251437807 0.44773598462615477 0.62942568537437049 -0.57844016729852488 -0.37475455861125134 0.9338103304021621 -0.072796380383822648 0.19629833573434483 0.3539409281307091 -0.67573603922255476 1.0319463131244875 0.19654317656755868 -0.069096432762561957 0.097796038693623424 0.67333674129085719 -0.55446369087050063 -0.05724932782476367 0.15652143517219452 -0.36767726217387336 -0.15219263158355328 -0.48543913504554609
decision_type=2 2 2 2 2 2 2 2 2 2 2 2 2 2 2 2 2 2 2 2 2
left_child=4 2 6 -3 -1 12 9 8 13 -2 15 18 -4 -8 16 -5 -11 -17 -6 -20 -21
right_child=1 3 5 10 11 -7 7 -9 -10 14 -12 -13 -14 -15 -16 17 -18 -19 19 20 -22
leaf_value=0.02478950045484531 0.0054246288502166956 0.05390648434587645 -0.001489146352443841 -0.059069872563737316 -0.08139847221424143 0.054226643762089938 0.067970465557261259 -0.059312823872442536 -0.017172417422145841 0.10394968114562141 0.01777418091744325 -0.011656057462930178 -0.081779090012151001 0.10848768517670085 0.085073131968431248 -0.08006801428493962 0.1101288148205895 -0.08343363385150665 -0.07997709462091479 -0.077877331730338104 -0.078888978808210719
leaf_weight=4.4146679043769863 2.6651002317666999 3.1644561141729346 2.3955520242452621 2.3306548595428458 3.7824957668781281 3.4371649473905563 2.4718786031007784 3.8522652685642234 2.8946492373943329 3.49267953634262 2.4029671102762222 2.8421709090471259 4.0311948806047422 3.7235571593046188 2.4849671423435211 3.0466343015432349 3.7142978906631461 2.3955486118793488 2.3415611386299133 2.2982251346111298 2.3204064071178419
leaf_count=18 11 13 10 10 16 14 10 16 12 14 10 12 17 15 10 13 15 10 10 10 10
internal_value=0 0.0160137 0.0325596 -0.0275994 -0.0433837 -0.0148875 0.0510587 0.022699 0.0574545 0.0807616 -0.052946 -0.0655379 -0.0518512 0.092322 0.101478 -0.0748091 0.107134 -0.0815495 -0.0797933 -0.078921 -0.0783856
internal_weight=0 48.5036 35.1633 13.3403 17.9995 9.86391 25.2994 12.9424 9.09008 12.357 10.1758 13.5849 6.42675 6.19544 9.69194 7.77284 7.20698 5.44218 10.7427 6.96019 4.61863
internal_count=276 200 144 56 76 41 103 53 37 50 43 58 27 25 39 33 29 23 46 30 20
is_linear=0
shrinkage=0.05


Tree=4
num_leaves=22
num_cat=0
split_feature=107 440 197 16 382 46 236 374 459 437 351 57 264 108 221 382 369 108 488 435 390
split_gain=16.8959 12.6753 11.6999 10.1234 10.0398 10.0385 9.55686 10.5765 8.06095 7.15314 6.05573 3.94513 0.883087 0.320297 0.313514 0.299285 0.0184701 0.00543467 0.00468567 0.00415631 0.00220468
threshold=-0.50393836251437807 0.44773598462615477 -0.18531279740810674 -0.6003411447093846 -0.37475455861125134 -0.57844016729852488 0.065001294882008634 0.27306582798050644 0.37838233184926301 0.49805674185217447 -0.4985218469915082 0.73620207748729605 1.0000000180025095e-35 0.030171015957665696 -0.09466548729088399 0.75367717666147593 -0.075432025097768376 0.21685840512662083 0.067148547953848114 0.18671113711928788 0.2566054783568229
decision_type=2 2 2 2 2 2 2 2 2 2 2 2 2 2 2 2 2 2 2 2 2
left_child=4 2 3 -2 -1 -3 7 8 14 12 -7 17 -8 16 -4 19 -5 -6 -16 -12 -19
right_child=1 5 6 13 11 10 9 -9 -10 -11 15 -13 -14 -15 18 -17 -18 20 -20 -21 -22
leaf_value=0.023474856519081089 -0.0075086682939873644 0.050857638698663624 -0.058171412018554108 0.10546255118555213 -0.079520806635177285 0.018346972982099391 0.10405332110239958 0.045920616461506164 0.032177258503278093 -0.0088488255725119435 -0.078008919632143889 -0.012996556870457391 0.063694214001232582 0.082168392491048764 -0.082193748320512863 -0.057675523936737777 0.1001100345899499 -0.078083063621684184 -0.07903635104122575 -0.08081803185112435 -0.07622404355782153
leaf_weight=4.4284351468086269 3.1328637450933448 3.1858664602041236 2.3200879096984819 2.9890974611043921 3.9597896486520749 2.3959950804710379 2.9914731383323652 4.6781767755746833 2.4467583745718002 3.1468520015478134 2.9889988452196112 3.0068355947732917 2.4782042503356934 2.7324640601873398 2.3783153146505418 2.3003565520048141 3.4977198690176001 3.2213230282068253 2.3225100338459015 2.3536360263824463 3.1586568057537079
leaf_count=18 13 13 10 12 17 10 12 19 10 13 13 13 10 11 10 10 14 14 10 10 14
internal_value=0 0.0152493 0.0309619 0.0701411 -0.041761 -0.0264709 0.00970112 -0.0155843 -0.0459752 0.0512125 -0.0510111 -0.0634064 0.0857674 0.0965278 -0.073211 -0.0727541 0.102576 -0.0780658 -0.0806338 -0.0792464 -0.0771627
internal_weight=0 48.3394 35.1145 12.3521 17.775 13.2249 22.7624 14.1458 9.46767 8.61653 10.039 13.3466 5.46968 9.21928 7.02091 7.64299 6.48682 10.3398 4.70083 5.34263 6.37998
internal_count=276 200 144 50 76 56 94 59 40 35 43 58 22 37 30 33 26 45 20 23 28
is_linear=0
shrinkage=0.05


Tree=5
num_leaves=20
num_cat=0
split_feature=439 47 142 128 227 361 116 216 275 488 421 418 397 87 422 373 350 399 246
split_gain=15.7925 12.7112 10.0103 9.64366 10.7567 8.56904 8.85978 8.14999 9.80413 6.46566 5.83803 5.38139 3.57937 3.19709 1.80415 0.328722 0.0273885 0.0260666 0.00825134
threshold=-0.33553374486690396 -0.37207866078844803 0.11540668822575979 -0.14354285857614274 -0.26077587986456779 -0.56691082449258512 0.16050916973941948 0.61337785431267844 -0.33159912526156937 0.76193142248899737 -0.11004788114036126 0.27246906047817965 0.39212898658524536 0.35643397409188843 -0.045847107956131145 -0.56845022123006184 -0.45325630761044872 0.50701201898621306 0.050952753806608513
decision_type=2 2 2 2 2 2 2 2 2 2 2 2 2 2 2 2 2 2 2
left_child=1 14 3 4 -2 -4 11 8 -3 -8 15 -7 -6 17 16 -10 -1 18 -5
right_child=2 7 5 13 12 6 9 -9 10 -11 -12 -13 -14 -15 -16 -17 -18 -19 -20
leaf_value=0.10186039270109265 0.057162932093389546 0.050803303698721637 -0.06291680775317661 -0.076001643802867919 -0.07724863453102121 0.10415439501501222 -0.064847620683380722 0.074296350702141481 -0.056590165407132076 0.040211739081678292 0.015733407889374145 0.019832535676348965 0.002133839117159191 -0.023033481954715038 0.046627908109536584 -0.080992599224145312 0.094888771333624347 -0.082325264543757881 -0.079702425452986433
leaf_weight=2.4932149797677994 4.3516375720500946 4.1721770018339184 3.1854585558176067 4.2721784859895688 3.6331749707460421 3.9754709452390653 3.2566444128751755 3.4598872661590567 2.2711255252361315 2.6611897498369217 2.8763539791107142 3.6106487363576889 2.3311684429645538 3.2937623411416999 2.4457934647798556 3.5175517052412033 3.2388838529586792 4.2555408477783203 2.3263513445854187
leaf_count=10 18 17 14 19 16 16 14 14 10 11 12 15 10 14 10 15 13 18 10
internal_value=0 0.0317136 -0.0190062 -0.0393743 -0.00261062 0.0108499 0.0282507 0.00618842 -0.0121681 -0.0176035 -0.0424885 0.064021 -0.0462219 -0.0661807 0.0825807 -0.0714186 0.0979211 -0.0792741 -0.0773064
internal_weight=0 24.475 41.1532 24.4638 10.316 16.6894 13.504 16.2971 12.8372 5.91783 8.66503 7.58612 5.96434 14.1478 8.17789 5.78868 5.7321 10.8541 6.59853
internal_count=276 101 175 105 44 70 56 68 54 25 37 31 26 61 33 25 23 47 29
is_linear=0
shrinkage=0.05


Tree=6
num_leaves=23
num_cat=0
split_feature=107 137 491 386 382 211 182 298 342 195 99 214 169 364 197 328 467 59 233 478 259 49
split_gain=14.6951 11.1361 11.228 8.94307 8.93646 8.42517 10.3265 8.20306 8.73767 6.34335 5.6158 3.90418 3.45287 2.80681 2.14547 0.057905 0.0144558 0.0123368 0.00971672 0.00573215 0.00441963 0.00117929
threshold=-0.50393836251437807 0.34851682526933464 1.3487835528466163 0.62942079440476328 -0.37475455861125134 -0.027538513666244092 -0.055084880458193368 -0.043732305719339414 -0.3135798262578901 -0.36861738829409663 -0.012415100489974672 0.19654317656755868 0.47662951033555512 0.092527887971216582 -0.10235127721326191 0.17214571743784471 -0.28333190970287719 -1.0000000180025095e-35 -0.073173773698863784 -1.1635908315629551 -0.53485186967563159 0.64089927472609942
decision_type=2 2 2 2 2 2 2 2 2 2 2 2 2 2 2 2 2 2 2 2 2 2
left_child=4 2 7 9 -1 14 13 8 -2 -4 -10 19 15 -7 -3 16 -9 -16 -11 -6 -21 -22
right_child=1 5 3 -5 11 6 -8 12 10 18 -12 -13 -14 -15 17 -17 -18 -19 -20 20 21 -23
leaf_value=0.021808467458128374 -0.050505627356851483 -0.020360866296664448 0.020139110350024789 0.050570492556727131 -0.077046042192672762 -0.001592199713359701 0.065128056941497522 0.090925533979288445 -0.0040375416358361359 -0.075114408224633222 0.09740376733672057 -0.0079091874990459676 0.028814834917834015 -0.079273571483190655 -0.081127316730847776 0.10152955771754785 0.096090752603453067 -0.076064734134458509 -0.079734586038832794 -0.076070452343019651 -0.072822550045284679 -0.074282883479796863
leaf_weight=4.4291179329156902 3.0497263222932816 2.3277193009853363 2.6222721338272095 4.125605508685112 2.2697802186012268 2.3338196873664865 4.6395814120769474 2.9682820290327081 2.3567322790622711 2.2229820638895035 3.2400147616863286 2.7743501365184775 2.3870123028755197 2.3175959140062332 2.594721719622612 3.4884908050298691 2.4916496276855442 2.2441322207450893 2.3316081315278989 2.2466498166322708 3.2259274721145612 2.4192265421152115
leaf_count=18 13 10 11 17 10 10 19 12 10 10 13 12 10 10 11 14 10 10 10 10 15 11
internal_value=0 0.0142226 0.0317374 -0.00809059 -0.0394908 -0.0190714 0.0123482 0.0542656 0.0175847 -0.0418118 0.0546879 -0.0604789 0.0822451 -0.0402974 -0.0598049 0.0964977 0.0932827 -0.0787794 -0.0774796 -0.0748317 -0.0741948 -0.0734484
internal_weight=0 47.7419 31.2844 11.3025 17.3651 16.4576 9.291 19.9819 8.64647 7.17686 5.59675 12.9359 11.3354 4.65142 7.16657 8.94842 5.45993 4.83885 4.55459 10.1616 7.8918 5.64515
internal_count=276 200 130 48 76 70 39 82 36 31 23 58 46 20 31 36 22 21 20 46 36 26
is_linear=0
shrinkage=0.05


Tree=7
num_leaves=23
num_cat=0
split_feature=439 47 386 142 440 128 227 238 10 232 440 232 265 58 218 377 234 350 413 306 335 246
split_gain=13.5912 10.7615 9.03483 8.31176 9.95955 7.47482 8.64566 7.39467 7.10463 6.98212 6.9719 5.98493 2.3632 2.00814 1.72652 1.30425 0.0239241 0.0230348 0.0181038 0.0127557 0.00880237 0.00708367
threshold=-0.33553374486690396 -0.37207866078844803 1.2614696144811586 0.11540668822575979 0.35937091488357886 -0.14354285857614274 -0.26077587986456779 -0.25770755676570228 0.44246302816843647 0.098911574336446387 -1.4303916049978009 0.45995562665328843 -1.0043572128905376 -0.554714722164381 -0.12289413655738939 -0.33660341223870177 -0.1314716645669253 -0.67449512912600895 0.12089517249024025 -0.11333733816873189 0.26546139171890348 0.035556159274670533
decision_type=2 2 2 2 2 2 2 2 2 2 2 2 2 2 2 2 2 2 2 2 2 2
left_child=1 14 3 5 7 6 -2 -5 10 20 -3 12 -12 -8 -1 -7 -16 -17 -14 -19 -6 -21
right_child=2 8 -4 4 9 15 13 -9 -10 -11 11 -13 18 -15 16 17 -18 19 -20 21 -22 -23
leaf_value=0.041166496277380352 0.047114285939623413 0.054378131077106977 0.063479885930907073 -0.023310873209121813 -0.07772821400035021 -0.034471949816679046 -0.013752204485387982 0.086646451836589145 0.06429804823378299 0.016767673100595844 -0.016457896505199254 0.034290786901617 -0.075517416722691577 -0.075059736192081727 0.094682119400896644 -0.080621826129238267 0.088184275869486212 -0.078315170023173328 -0.081809703636934267 -0.072467772592763588 -0.073274100825662797 -0.076085821112694393
leaf_weight=2.420381173491478 3.8562147468328476 2.910672768950465 3.1463685631752005 2.3297409862279892 2.2730522751808149 2.237836450338361 2.2377322465181351 4.4486894458532324 3.9264788925647727 3.8016243577003479 2.2819557934999484 2.3601019978523254 2.2260496467351878 3.3135120868682844 2.982714831829071 2.5687884986400569 2.6978343576192874 2.3008253574371302 2.3497851341962814 3.4183392226696121 2.1663856655359268 2.2389338165521622
leaf_count=10 16 12 13 10 10 10 10 18 16 16 10 10 10 15 12 11 11 10 10 16 10 10
internal_value=0 0.0295467 -0.0178763 -0.0247589 0.00396012 -0.0442133 -0.0103962 0.0488542 0.00584082 -0.0329661 -0.013084 -0.0343861 -0.0580212 -0.0503464 0.0765289 -0.0691361 0.0915961 -0.0765051 -0.0787486 -0.0751763 -0.0755547 -0.0738997
internal_weight=0 24.156 40.338 37.1917 15.0195 22.1722 9.40746 6.77843 16.055 8.24106 12.1286 9.21789 6.85779 5.55124 8.10093 12.7647 5.68055 10.5269 4.57583 7.9581 4.43944 5.65727
internal_count=276 101 175 162 64 98 41 28 68 36 52 40 30 25 33 57 23 47 20 36 20 26
is_linear=0
shrinkage=0.05


Tree=8
num_leaves=22
num_cat=0
split_feature=107 456 401 279 108 444 252 382 30 355 424 90 167 123 514 445 82 168 186 420 56
split_gain=12.819 9.56335 9.23674 7.95234 8.13015 8.09696 10.4307 7.77329 7.13774 7.02285 7.83293 4.85023 3.93516 3.44018 2.52636 0.721676 0.426465 0.257719 0.00998767 0.00793296 0.00416686
threshold=-0.48777289988983097 -1.2017892686860747 0.60431661786110358 1.3282886568106831 1.1782756097291018 0.59443486789296773 0.39304505740606049 -0.37475455861125134 0.5587116267612493 -0.066298950909623774 -0.25745091856727698 0.4655974765931995 -0.66392405286722689 -0.49904423388927949 1.0031371856862694 0.44050420886920105 0.84041830255496086 -0.97077836800143602 -0.17293247858492714 -0.35538165440673369 -0.11495776354815035
decision_type=2 2 2 2 2 2 2 2 2 2 2 2 2 2 2 2 2 2 2 2 2
left_child=7 14 3 4 5 6 8 -1 9 -3 -11 -8 -9 -4 -2 -7 19 -10 -15 -14 -21
right_child=1 2 13 -5 -6 15 11 12 17 10 -12 -13 16 18 -16 -17 -18 -19 -20 20 -22
leaf_value=0.021044391836373553 0.090735545800407366 0.068828705961234291 0.00057277204339087676 -0.063067606825866471 -0.051639022756998922 0.094382069492827986 -0.075924807640756764 0.0035380726186735076 0.072966836243454167 0.045067806372098958 -0.075266146708528742 0.016821014369201501 -0.075624703904163176 -0.072573993610783802 0.026654662528377948 0.05963735678807032 -0.047917456032345075 0.094967092631837557 -0.077334925562193166 -0.073360089878575604 -0.070839321842516331
leaf_weight=4.4112755656242397 4.4354530423879615 3.3864370882511166 2.2834230363368988 2.9518681913614264 3.2526492178440085 3.9655846357345572 3.5713001191616049 2.3177572935819652 2.4059647917747498 2.401167884469035 3.0960533618927037 2.3289247751235962 2.2184409350156775 2.1330865472555161 2.3545648902654648 2.3984435945749283 2.0910245329141608 2.9798275828361502 2.2780400961637488 3.4638089239597312 3.1125322431325877
leaf_count=18 18 14 10 13 14 16 16 10 10 10 14 10 10 10 10 10 10 12 10 16 15
internal_value=0 0.0137068 0.00426935 0.0152123 0.0229699 0.0321159 0.016601 -0.0364197 0.0397221 0.0121877 -0.0227047 -0.0393164 -0.0556183 -0.0492447 0.0685143 0.0812877 -0.0682136 0.085139 -0.0750327 -0.0730392 -0.072167
internal_weight=0 46.2228 39.4328 32.7382 29.7864 26.5337 20.1697 17.6148 14.2695 8.88366 5.49722 5.90022 13.2036 6.69455 6.79002 6.36403 10.8858 5.38579 4.41113 8.79478 6.57634
internal_count=276 197 169 139 126 112 86 79 60 38 24 26 61 30 28 26 51 22 20 41 31
is_linear=0
shrinkage=0.05


Tree=9
num_leaves=21
num_cat=0
split_feature=107 440 368 46 382 115 102 137 373 491 351 143 57 120 266 330 403 108 162 464
split_gain=11.7525 9.09486 8.2665 7.82631 7.57462 7.3563 5.6461 8.65102 5.23255 8.27106 4.89002 3.89844 3.84175 3.10305 1.60846 0.292146 0.0306352 0.00882361 0.00801501 0.0042605
threshold=-0.50393836251437807 0.44773598462615477 0.62942568537437049 -0.57844016729852488 -0.37475455861125134 0.9338103304021621 0.5025085647833355 0.34851682526933464 0.20281663462899052 1.2438097839457416 -0.4985218469915082 -0.14450390441201763 0.73620207748729605 -0.069096432762561957 0.20924915227589347 0.54359737320337564 -0.17220839443368063 0.21685840512662083 -0.22049530830674016 -0.37197967971886953
decision_type=2 2 2 2 2 2 2 2 2 2 2 2 2 2 2 2 2 2 2 2
left_child=4 2 6 -3 -1 13 7 8 9 11 -5 -2 17 -4 16 18 -8 -6 -12 -19
right_child=1 3 5 10 12 -7 14 -9 -10 -11 15 -13 -14 -15 -16 -17 -18 19 -20 -21
leaf_value=0.019954183047535386 0.0080839023630134375 0.044798043326444513 -0.00064002708362394505 0.016007620471880563 -0.07364275342096524 0.045521798436342298 0.084466269844904074 -0.050138146763688309 0.086738763441568445 -0.058208714193213398 -0.071696740184100466 0.088837499999239455 -0.0051875233809514001 -0.074752143681323158 0.039541994782336512 -0.051414159277867737 0.091559125908210137 -0.072155285433312608 -0.075710673868108438 -0.069382457937323588
leaf_weight=4.4194541126489666 2.8160852789878792 3.1461089104413977 2.2697792053222656 2.3625442683696738 3.6749910563230497 3.3715940117835999 2.8961742520332336 3.147729665040969 4.3765930980443946 2.4419034868478775 2.5237081050872794 3.1847083419561457 2.8177137225866309 3.7389523237943632 2.3536499887704849 2.0942408591508865 3.2093457877635938 2.328887477517128 2.451989009976387 3.4193075150251389
leaf_count=18 12 13 10 10 17 14 12 14 18 11 12 13 13 17 10 10 13 11 11 17
internal_value=0 0.0128042 0.0263092 -0.0234922 -0.0361546 -0.0135887 0.041631 0.0241338 0.042371 0.0193713 -0.0462697 0.050941 -0.0564121 -0.0467565 0.0746577 -0.0670808 0.0881946 -0.0717292 -0.0736748 -0.0705059
internal_weight=0 46.3851 33.8065 12.5786 16.6604 9.38033 24.4262 15.967 12.8193 8.4427 9.43248 6.00079 12.2409 6.00873 8.45917 7.06994 6.10552 9.42319 4.9757 5.74819
internal_count=276 200 144 56 76 41 103 68 54 36 43 25 58 27 35 33 25 45 23 28
is_linear=0
shrinkage=0.05


Tree=10
num_leaves=22
num_cat=0
split_feature=439 47 250 244 233 303 322 432 423 132 345 112 117 435 335 79 289 61 331 503 252
split_gain=11.1411 8.75243 7.81485 8.19405 6.57106 6.90212 7.88525 5.99865 7.1747 5.47624 4.97604 4.89806 3.4251 1.39333 1.16245 0.310658 0.030236 0.0184434 0.0121118 0.00598438 0.00399934
threshold=-0.33553374486690396 -0.37207866078844803 -0.41605608505343522 -0.52431865336002048 0.25651707699751064 -0.17102677067373484 0.41726757219798266 0.33211783323051158 -0.65626518568041092 -0.24255264130209084 -1.0000000180025095e-35 0.86344270320051186 -0.52901587634468827 0.29328121997666262 -0.61768988706860706 -0.83904341423758699 -0.36710103868389632 -0.21030856844604387 -0.75518587739730225 0.025395772063340913 0.42541440628963539
decision_type=2 2 2 2 2 2 2 2 2 2 2 2 2 2 2 2 2 2 2 2 2
left_child=1 13 11 9 5 6 -5 8 -3 -4 -10 14 -7 17 -2 -14 -16 -1 -17 -18 -20
right_child=2 7 3 4 -6 12 -8 -9 10 -11 -12 -13 15 -15 16 18 19 -19 20 -21 -22
leaf_value=0.087127132380804662 -0.03108896297084604 -0.032882219961333441 -0.0059879465081382234 -0.044522003552586495 0.039254036034723404 0.0018289909049334094 0.07688354902570485 -0.046768757059674933 0.0026245201171754551 0.091688037358207797 0.0842814440822756 0.01691656252079372 -0.050676976061070481 0.037913742874365518 -0.077444837503698474 -0.075969378292070455 -0.069397795246784508 0.08129788586669065 -0.069960397605040303 -0.072719567647943822 -0.072980353152950914
leaf_weight=2.428738534450531 2.1021230071783057 3.7556815892457962 2.4699042141437531 2.6879823058843675 4.2444564253091803 2.2272018492221877 2.6619513630867004 4.0732067823410025 3.1284902840852737 3.4246808588504818 4.6220611631870252 2.2801897823810569 2.047768190503124 2.3550416827201843 2.4787632524967176 2.2248655110597646 3.2034702450037003 3.0748122632503536 2.2370257079601146 2.3508974760770798 2.1498818248510361
leaf_count=10 10 17 11 12 18 10 11 18 14 14 19 10 10 10 11 10 16 13 11 11 10
internal_value=0 0.0270775 -0.0165845 -0.00118725 -0.0161381 -0.0306183 0.0158854 0.00537701 0.0238366 0.0507606 0.0513208 -0.0492948 -0.053471 0.0700982 -0.0641908 -0.067694 -0.072853 0.0838704 -0.0729644 -0.0708037 -0.0714404
internal_weight=0 23.438 38.7912 26.3757 20.4811 16.2367 5.34993 15.5794 11.5062 5.89459 7.75055 12.4154 10.8867 7.85859 10.1353 8.65954 8.03313 5.50355 6.61177 5.55437 4.38691
internal_count=276 101 175 117 92 74 23 68 50 25 33 58 51 33 48 41 38 23 31 27 21
is_linear=0
shrinkage=0.05


Tree=11
num_leaves=23
num_cat=0
split_feature=107 137 491 214 58 292 444 211 182 245 169 516 364 352 395 237 328 362 120 22 464 132
split_gain=10.3662 8.0987 7.88467 7.04612 6.86551 6.42671 7.56097 6.34588 7.5809 6.18513 5.16366 3.97067 2.32415 1.82771 0.820002 0.725967 0.0513775 0.048183 0.0235673 0.0153726 0.00605963 0.00164465
threshold=-0.50393836251437807 0.34851682526933464 1.3487835528466163 0.19654317656755868 0.40099797543214133 -0.40487283587407724 0.66466373897346254 -0.027538513666244092 -0.055084880458193368 -0.39206584002582018 0.53922593161025623 -1.0340131823557057 0.092527887971216582 0.55640741040339436 -0.42709855873907449 0.24275539957106168 0.26260286784510123 0.017074018665562633 0.39079903612874939 -0.062828060171735714 -0.3075489785979979 -0.1366690381663879
decision_type=2 2 2 2 2 2 2 2 2 2 2 2 2 2 2 2 2 2 2 2 2 2
left_child=3 2 5 11 9 6 -2 13 12 -4 14 -1 -9 19 -7 -6 18 -13 -16 -3 -19 -22
right_child=1 7 4 -5 15 10 -8 8 -10 -11 -12 17 -14 -15 16 -17 -18 20 -20 -21 21 -23
leaf_value=-0.0067786746425893109 -0.060093562066969898 -0.075569248869805219 0.084940344262841028 0.021754969473909199 -0.073256500918321144 0.05186390969990317 0.057461847152288331 -0.00046846553589463221 0.055955669456961246 -0.016180640336317817 -0.0050250916162925445 -0.077684826854447761 -0.073339156214070195 -0.016617222269085432 0.079853199938234268 -0.032944912396454619 0.090343198264271743 -0.07140494531092062 0.086262669190800917 -0.069687688273896597 -0.069206075259593436 -0.0672772011662158
leaf_weight=3.268771544098855 2.6378581672906902 2.2246797233819962 2.6442958414554596 4.1451645344495764 2.3610729277133942 2.3069797903299323 2.8409970253705978 2.2168928980827323 4.5052438378334019 3.5320660471916181 2.2079764455556861 2.2288178652524948 2.1606401205062866 2.1660917699337006 3.5035741627216357 2.119389221072197 3.1931526362895966 2.0782115757465363 2.4281461089849472 2.2192096412181863 1.9947365224361417 2.4779137223958969
leaf_count=15 12 10 11 18 11 10 12 10 19 16 10 10 10 10 15 10 13 10 10 11 10 13
internal_value=0 0.0121387 0.0273938 -0.034475 -0.00706878 0.0466033 0.000863436 -0.0171801 0.0104242 0.0271125 0.0649761 -0.0538204 -0.0364356 -0.054276 0.0784963 -0.0541879 0.0852296 -0.0713346 0.0824769 -0.0726321 -0.069174 -0.0681375
internal_weight=0 45.2683 29.7755 16.1936 10.6568 19.1187 5.47886 15.4928 8.88278 6.17636 13.6398 12.0485 4.37753 6.60998 11.4319 4.48046 9.12487 8.77968 5.93172 4.44389 6.55086 4.47265
internal_count=276 200 130 76 48 82 24 70 39 27 58 58 20 31 48 21 38 43 25 21 33 23
is_linear=0
shrinkage=0.05


Tree=12
num_leaves=22
num_cat=0
split_feature=439 47 250 222 50 195 276 10 509 166 112 357 294 61 218 335 440 392 208 289 244
split_gain=9.76537 7.52516 6.97366 7.323 8.29307 6.58417 5.88466 5.52076 5.48284 5.77045 4.40588 3.87265 3.20731 2.75522 1.31304 1.0837 0.0389535 0.0225044 0.0181301 0.0166279 0.00700442
threshold=-0.33553374486690396 -0.37207866078844803 -0.41605608505343522 -0.10958766137479016 0.91976829865590304 0.64609132612008913 0.32392309604290975 0.44246302816843647 0.11284177545431072 -0.24931917099619461 0.86344270320051186 -0.54512939998141496 0.34003934186665125 0.42682730584873901 -0.12289413655738939 -0.61768988706860706 0.37309508553687171 0.19660638215463044 -0.36021105250671642 -0.36710103868389632 0.01045290096386879
decision_type=2 2 2 2 2 2 2 2 2 2 2 2 2 2 2 2 2 2 2 2 2
left_child=1 14 10 6 5 12 13 8 11 -10 15 -3 16 17 -1 -2 -5 -4 -16 -17 -21
right_child=2 7 3 4 -6 -7 -8 -9 9 -11 -12 -13 -14 -15 18 19 -18 -19 -20 20 -22
leaf_value=0.034655117458722233 -0.029547460827038248 0.0081548508176860473 -0.068037720289363182 0.083858496722520007 -0.056026190064480612 -0.020417504187521772 0.023152492537523339 0.05745797015602086 0.077415623135385303 -0.02654515508928619 0.0156530370470357 -0.074487323650466661 0.023044640213605434 -0.0054885517535043704 0.082984129036400442 -0.073955113069492776 0.092397030303396355 -0.074209670147129911 0.077117473329218034 -0.067100886907807022 -0.070733007773032194
leaf_weight=2.3182068318128586 2.0476430505514136 2.2316869646310806 2.7072626501321775 2.6258620321750623 2.6700357198715219 3.0854495316743842 3.5715823918581018 3.8092515468597403 2.6473007798194885 2.6922099590301514 2.2577733248472205 3.885908439755438 2.9208322614431381 2.1601454615592957 2.3737075626850128 2.3781243711709967 2.7186870276927948 3.2499274015426636 2.9580088853836086 2.644054964184761 2.6655062884092331
leaf_count=10 10 10 14 11 13 14 16 16 11 13 10 18 13 10 10 11 11 15 13 14 13
internal_value=0 0.0255944 -0.0157922 -0.00110531 0.0232596 0.0419099 -0.030331 0.00531216 -0.0120252 0.024998 -0.0472767 -0.0443396 0.0651765 -0.0538635 0.0660702 -0.061871 0.0882019 -0.0714048 0.0797293 -0.0704805 -0.0689243
internal_weight=0 22.9163 37.7029 25.7098 14.0209 11.3508 11.6889 15.2664 11.4571 5.33951 11.9931 6.1176 8.26538 8.11734 7.64992 9.73533 5.34455 5.95719 5.33172 7.68769 5.30956
internal_count=276 101 175 117 62 49 55 68 52 24 58 28 35 39 33 48 22 29 23 38 27
is_linear=0
shrinkage=0.05


Tree=13
num_leaves=23
num_cat=0
split_feature=107 485 516 386 299 120 330 277 340 209 0 516 13 97 240 436 143 275 126 233 196 170
split_gain=9.09712 8.44779 7.07696 6.97597 7.5526 6.66972 6.40837 5.86457 5.1819 6.54166 5.23193 4.81563 2.02286 1.80769 0.809968 0.376229 0.196896 0.0436642 0.023566 0.0188552 0.0123888 0.00506933
threshold=-1.0543353147410928 -0.73503693143953475 0.2446377031695233 0.60032540902935183 0.43899717798244114 -0.66270616963079687 0.30530280752811462 -1.478230483780014 0.013520020458350195 0.62388933086502973 -0.079378034684970455 -0.35027484705088813 0.44255373959939298 -0.70164359437998003 -0.2951644940696927 0.21120393436529911 -0.20684053750101727 -0.025447465490526951 -0.49370002937385987 -0.017537722786333646 -0.20398506705988192 -0.37850492273288788
decision_type=2 2 2 2 2 2 2 2 2 2 2 2 2 2 2 2 2 2 2 2 2 2
left_child=15 2 13 5 6 -3 -5 -7 12 10 11 -10 18 -2 -12 -1 -15 -18 -9 -16 -20 -22
right_child=1 3 -4 4 -6 7 -8 8 9 -11 14 -13 -14 16 19 -17 17 -19 20 -21 21 -23
leaf_value=-0.070453860436020629 0.024972318751326411 0.049394997951159536 -0.015294257071144086 -0.056991229423734302 0.086106693592669439 0.032644078070584948 0.045658547620611521 -0.076096479794016708 0.062688753761361363 0.058703205764246195 -0.033253051031221829 -0.040075032652686304 -0.018877418711465491 0.06548213209097381 -0.068019773982040996 -0.043013805334980622 0.088145179575943491 0.07853647496415482 -0.073113315230258977 -0.074652514869205253 -0.070105894026395443 -0.066491623726931459
leaf_weight=3.6590408682823172 2.1206012070178977 3.412951633334159 3.8749025762081137 2.9023838788270933 3.8682139813899994 3.8485202342271796 3.1932865977287292 2.2083401232957831 2.2530195564031601 2.5575401335954657 2.0048645436763763 2.3077215999364853 2.3262600302696219 2.2415799647569647 1.937910810112953 1.8966931551694868 2.4305390119552603 2.3022308498620996 2.141100585460662 2.3965394496917707 2.0283130109310146 1.859695374965679
leaf_count=18 10 15 18 14 16 17 14 10 10 11 10 11 11 10 10 10 10 10 10 11 10 10
internal_value=0 0.00609326 0.04129 -0.00497422 0.0314606 -0.0165791 -0.00321697 -0.0246583 -0.0338389 -0.0132638 -0.0301498 0.0106906 -0.0600504 0.0653977 -0.059532 -0.061086 0.0776894 0.0834711 -0.0716776 -0.071687 -0.0700591 -0.0683771
internal_weight=0 54.2165 12.9699 41.2467 9.96388 31.2828 6.09567 27.8698 24.0213 13.4576 10.9001 4.56074 10.5637 9.09495 6.33931 5.55573 6.97435 4.73277 8.23745 4.33445 6.02911 3.88801
internal_count=276 248 58 190 44 146 28 131 114 63 52 21 51 40 31 28 30 20 40 21 30 20
is_linear=0
shrinkage=0.05


Tree=14
num_leaves=21
num_cat=0
split_feature=107 456 400 126 137 435 424 282 169 318 254 80 486 110 191 39 109 106 68 28
split_gain=8.57384 6.97322 6.9034 6.57616 6.41022 6.18522 6.10433 5.48023 5.20278 5.00971 4.93332 4.5782 2.01122 1.9744 0.409558 0.224746 0.0366059 0.0328938 0.0110964 0.00518082
threshold=-0.48777289988983097 -1.2017892686860747 1.0909856039554422 0.53163162174600909 0.16077218776047728 -1.8449398558131829 0.079691682018293006 0.16319067416924576 -0.099769420542597562 -0.37632551201655901 0.71306992572477468 -0.19516267738802359 -0.3423233334424583 -0.55778012963607737 -0.25626523351942143 -1.0000000180025095e-35 0.44643455657109049 -0.28715268753099227 -0.027802095259555456 -0.57084661695747119
decision_type=2 2 2 2 2 2 2 2 2 2 2 2 2 2 2 2 2 2 2 2
left_child=5 12 3 4 6 -1 8 -8 -3 -7 13 -5 -2 -6 -11 -10 19 -13 -15 -16
right_child=1 2 -4 11 10 9 7 -9 15 14 -12 17 -14 18 16 -17 -18 -19 -20 -21
leaf_value=0.029170209112691432 0.02072122373062147 -0.00057172219092718616 -0.059987617425940366 -0.00061829122230233798 -0.013042045621824833 0.0093221113458257007 -0.070174474637371823 0.035235619462644599 0.083291232118234387 -0.043677137058448785 0.01676492300534797 0.077642330484893052 0.08007731237086621 -0.073407756015354361 -0.069267836129848076 0.062772583209160002 -0.075152103810666171 0.086019135315323958 -0.068761364531593969 -0.066213658235866557
leaf_weight=3.3521288037300137 2.1637790650129318 3.8458711802959407 3.8735205978155127 2.6146751642227173 2.0480183362960815 3.0013289600610742 2.8256401121616355 2.1876737326383591 3.332124382257458 1.8921394646167753 3.6587485074996948 2.280224546790123 4.1921264678239814 2.5844206959009171 2.3922831416130066 2.2261388301849454 2.1493431329727173 2.4110919684171668 2.5555839985609037 3.309238508343693
leaf_count=15 10 18 19 12 10 14 14 10 14 10 17 10 18 12 12 10 10 10 13 18
internal_value=0 0.0115434 0.00311502 0.0106197 -0.00146211 -0.0312637 0.0203833 -0.0241764 0.0441379 -0.0471596 -0.0304988 0.0523988 0.0598704 -0.0545564 -0.0645587 0.0750733 -0.0695914 0.0819476 -0.0710976 -0.0674952
internal_weight=0 42.7996 36.4437 32.5702 25.2642 16.0965 14.4174 5.01331 9.40413 12.7443 10.8468 7.30599 6.35591 7.18802 9.743 5.55826 7.85086 4.69132 5.14 5.70152
internal_count=276 197 169 150 118 79 66 24 42 64 52 32 28 35 50 24 40 20 25 30
is_linear=0
shrinkage=0.05


Tree=15
num_leaves=23
num_cat=0
split_feature=382 107 353 308 234 178 381 386 163 357 57 148 476 406 311 449 367 401 179 178 381 249
split_gain=8.34586 8.64201 6.81206 7.57962 6.03915 5.83373 8.36948 7.04407 5.65754 4.86853 3.59682 3.1099 2.29353 2.22828 2.09275 0.0645853 0.0235859 0.0229269 0.0101452 0.00713301 0.00282761 0.00218092
threshold=-0.46422172850206767 -0.50393836251437807 0.23622348891125847 -0.27346326489827527 0.39280971111960616 -0.1244854180436334 0.76640145715364416 0.37100531956395794 -0.51716222327147177 0.16373511155095966 0.73620207748729605 0.32148072910465081 0.26489802152175873 0.4601609485546635 0.059489078162062468 -0.40227440257820352 0.027214498459481328 -0.86583164649903865 -0.23500891707010449 0.33208136769290791 0.11515445223589012 0.15900113187871601
decision_type=2 2 2 2 2 2 2 2 2 2 2 2 2 2 2 2 2 2 2 2 2 2
left_child=2 10 4 -4 13 6 8 11 -3 -9 18 19 -11 15 -10 -1 -16 -17 -2 -7 21 -20
right_child=1 5 3 -5 -6 7 -8 9 14 12 -12 -13 -14 -15 16 17 -18 -19 20 -21 -22 -23
leaf_value=0.087360395126965751 -0.069400423512425188 -0.019491331984137741 -0.070600113684807453 0.039938869515050761 -0.025815569191809662 -0.067944947911845674 -0.055894123856490723 -0.041628970103370466 0.022390466641277904 0.082593446783511493 0.00040373617589060267 -0.0067528276494942105 0.011135093142018545 0.023432694875132946 0.074916818910009148 0.07354556935759958 0.08135615134281915 0.080393490791483058 -0.065190138643478723 -0.071512196188740246 -0.064136429539081677 -0.067619287964960625
leaf_weight=2.4220733195543289 2.569525182247161 2.6571688950061789 3.0366778969764709 3.1693711578845969 2.116242602467536 2.3158952891826612 2.5794340074062356 2.2269121110439309 2.2080686092376691 2.3707243949174881 2.6177650839090338 2.8928515017032623 2.1333636045455933 2.2089408934116364 2.2060881853103638 2.1701502650976181 4.0011954307556152 2.7983717769384402 1.7838437110185617 3.5486133694648743 2.0579157471656799 1.916944235563278
leaf_count=10 13 13 15 14 10 12 13 11 10 10 13 14 10 10 10 10 17 12 10 17 12 10
internal_value=0 -0.0128398 0.0282053 -0.0141489 0.050641 0.00138872 0.0252175 -0.0196147 0.0441131 0.0188467 -0.0507188 -0.0491766 0.0487472 0.067496 0.0641963 0.0806659 0.0790676 0.0774025 -0.0667879 -0.0701035 -0.0656222 -0.0664484
internal_weight=0 40.0863 17.9218 6.20605 11.7158 29.1403 13.652 15.4884 11.0725 6.731 10.946 8.75736 4.50409 9.59954 8.41535 7.3906 6.20728 4.96852 8.32823 5.86451 5.7587 3.70079
internal_count=276 195 81 29 52 137 63 74 50 31 58 43 20 42 37 32 27 22 45 29 32 20
is_linear=0
shrinkage=0.05


Tree=16
num_leaves=23
num_cat=0
split_feature=439 309 142 128 227 25 318 203 382 440 245 434 22 507 87 30 114 303 188 113 246 66
split_gain=7.68427 6.43739 5.795 6.25058 6.39919 4.95051 4.86611 6.42159 4.33901 3.92299 5.78508 4.41684 3.62019 2.36952 2.19859 1.38561 0.189017 0.115015 0.0655214 0.0175576 0.00782184 0.00215006
threshold=-0.33553374486690396 0.82055540298257457 0.11540668822575979 -0.14354285857614274 -0.17608162280069908 -0.33148339607194421 0.61216775386127409 -0.25241236720389409 1.0000000180025095e-35 0.47474272669784096 0.107029174962028 -0.065851864608401825 -0.85769568702970156 0.50104138818446009 0.35643397409188843 -0.33628495952994503 -0.58855248869291221 0.056955272711103504 -0.50473056569351227 -0.88886838488494002 0.076334017835149384 -0.18771284958058718
decision_type=2 2 2 2 2 2 2 2 2 2 2 2 2 2 2 2 2 2 2 2 2 2
left_child=1 6 3 4 8 -4 12 -8 -2 11 -11 -7 -1 16 19 -6 -14 -13 -18 -5 21 -21
right_child=2 -3 5 14 15 9 7 -9 -10 10 -12 17 13 -15 -16 -17 18 -19 -20 20 -22 -23
leaf_value=0.0059819853404316763 0.087919493283542635 -0.057252922451277256 -0.066860230408745655 -0.071387338020449484 -0.011044292608482494 -0.007338912575103624 -0.069986172624824622 0.041835724739795459 -0.0094983259064846393 -0.067928423421169268 0.035848182662025975 0.064638205125005052 0.063752008751136652 0.020684505597070378 -0.01756219109735491 -0.067837076405889804 0.087529613563355202 0.080238213587168095 0.076697132486792483 -0.063718841487594644 -0.068449934172040386 -0.066133925626315412
leaf_weight=3.801757991313937 2.3865715116262436 2.2224349826574317 1.853006765246392 2.4639685302972767 1.8917462676763532 2.6668121218681327 2.3497438579797745 2.8304309695959082 2.1936372667551041 2.4840402901172638 2.9233277291059494 2.1909105032682392 2.1303270310163525 2.5089797526597977 2.8853718191385278 2.4844487607479095 2.383993253111842 2.5645474940538406 3.368160337209698 1.8536290377378439 2.7314360439777374 1.8327580392360721
leaf_count=18 10 11 10 12 10 13 12 13 11 13 13 10 10 12 14 13 10 11 15 11 14 10
internal_value=0 0.0233458 -0.0144977 -0.0315243 -4.91786e-05 0.00953413 0.0325918 -0.00888705 0.0412624 0.0205679 -0.0118248 0.044167 0.0477305 0.0630044 -0.0554811 -0.0432866 0.0764748 0.0730511 0.0811867 -0.0677995 -0.0664221 -0.0649195
internal_weight=0 21.5958 35.4062 20.7236 8.9564 14.6826 19.3734 5.18017 4.58021 12.8296 5.40737 7.42227 14.1932 10.3915 11.7672 4.3762 7.88248 4.75546 5.75215 8.88179 6.41782 3.68639
internal_count=276 101 175 105 44 70 90 25 21 60 26 34 65 47 61 23 35 21 25 47 35 21
is_linear=0
shrinkage=0.05


Tree=17
num_leaves=23
num_cat=0
split_feature=382 107 353 308 234 178 381 386 163 357 57 148 99 406 311 496 426 82 420 111 179 335
split_gain=7.36524 7.73816 5.83858 6.68357 5.29827 5.26057 7.34153 6.30145 4.95907 4.16265 3.37094 2.866 2.09839 1.99567 1.94461 0.0375257 0.0180795 0.0134754 0.00972678 0.00665052 0.0021023 0.000922378
threshold=-0.46422172850206767 -0.50393836251437807 0.23622348891125847 -0.27346326489827527 0.39280971111960616 -0.1244854180436334 0.76640145715364416 0.37100531956395794 -0.51716222327147177 0.16373511155095966 0.73620207748729605 0.32148072910465081 0.093494954335987007 0.4601609485546635 0.059489078162062468 -0.60693441174017215 0.038486677062921651 -0.48339080708245519 -0.39353579672318945 0.15316989256827779 0.035716340301963426 0.097115320165276728
decision_type=2 2 2 2 2 2 2 2 2 2 2 2 2 2 2 2 2 2 2 2 2 2
left_child=2 10 4 -4 13 6 8 11 -3 -9 18 19 -11 15 -10 -1 -16 -17 -2 -7 -20 -22
right_child=1 5 3 -5 -6 7 -8 9 14 12 -12 -13 -14 -15 16 17 -18 -19 20 -21 21 -23
leaf_value=0.081599340755508246 -0.067969126232970342 -0.018076793649574107 -0.068128284177102941 0.037521968456399768 -0.024518197879549026 -0.066933246111912495 -0.053650065957615289 -0.039243878363641412 0.020611092332142294 0.009593388494549342 0.00065162719117584501 -0.0064950393860249301 0.078770630028893979 0.022150410245480912 0.072477177652877353 0.076806233667907828 0.078103385183720633 0.07136011276415416 -0.065415164181537172 -0.070511435335865888 -0.064154916027269179 -0.06256373045958924
leaf_weight=2.5866416841745377 2.281967356801033 2.596170410513877 2.8710468709468842 3.1277425438165656 2.0661561340093604 3.5630085766315442 2.4585093855857858 2.1443623602390298 2.1629559248685819 2.0982007682323456 2.5760210752487183 2.8274562805891037 2.2955538928508759 2.1825038641691208 2.3415628373622894 2.248431071639061 3.6594200432300568 2.295296862721445 1.9674603641033153 2.0432794690132141 1.8879230022430422 1.7596565037965772
leaf_count=11 12 13 15 14 10 19 13 11 10 10 13 14 10 10 11 10 16 11 11 10 11 11
internal_value=0 -0.0123162 0.0268733 -0.0130427 0.0479162 0.0013178 0.0243047 -0.0189772 0.0421161 0.0178642 -0.0490151 -0.0475379 0.0457356 0.0639865 0.0612577 0.0767919 0.0759081 0.0740551 -0.0652165 -0.0682374 -0.0640978 -0.0633873
internal_weight=0 38.6635 17.3778 5.99879 11.379 28.1905 13.2186 14.9719 10.7601 6.53812 10.473 8.43374 4.39375 9.31287 8.16394 7.13037 6.00098 4.54373 7.89701 5.60629 5.61504 3.64758
internal_count=276 195 81 29 52 137 63 74 50 31 58 43 20 42 37 32 27 21 45 29 33 22
is_linear=0
shrinkage=0.05


Tree=18
num_leaves=23
num_cat=0
split_feature=107 446 439 324 257 271 172 317 128 99 233 414 14 273 63 144 76 107 440 304 52 176
split_gain=6.7955 6.36472 6.92386 5.87818 5.59162 4.78099 4.59026 5.47444 4.17752 4.12709 3.4559 3.08004 2.96735 1.43135 1.33974 0.325995 0.195858 0.0722013 0.0137202 0.0107651 0.00890484 0.00452799
threshold=-1.0543353147410928 0.36306673711072063 0.71875880058225639 0.58917303529150644 0.58221744081946758 0.86403964123393007 0.68832394716623357 -0.16305871785407663 0.023740310703428753 0.79375174221223566 0.12753561794580395 -1.1582963286271262 0.77742920695161022 0.47302923822850129 -0.58020744414318037 -0.40579489012805142 -0.81270504643967101 -0.40038977813561066 -0.52626416570155754 0.11124877451145075 -0.45870396481183978 0.051741703247231978
decision_type=2 2 2 2 2 2 2 2 2 2 2 2 2 2 2 2 2 2 2 2 2 2
left_child=15 2 4 9 6 20 12 -8 -5 11 -6 -3 14 19 -2 -1 -16 -18 -19 21 -4 -13
right_child=1 3 5 8 10 -7 7 -9 -10 -11 -12 13 -14 -15 16 -17 17 18 -20 -21 -22 -23
leaf_value=-0.038610876291526132 0.028701554618757681 0.0093566410349272214 -0.068389645583007488 0.068263124098496608 -0.067903166405177351 0.026086898571587615 -0.056558438242287012 0.040573497171066175 -0.02876362891237131 0.027625405161626627 0.023673419775915097 -0.067316873779823899 0.0097594218000075436 -0.019534899890572468 0.059762143956748053 -0.065598177278402225 0.084356023322122345 0.071589663014310481 0.076434465233049004 -0.069550558130659204 -0.06338071540174163 -0.064078035352423124
leaf_weight=1.7179643958806989 1.9882966279983563 2.0773316621780387 1.9160250723361971 2.8722851276397696 2.0963058024644843 2.3237410485744476 2.3062775135040283 3.9099475741386405 1.8074703216552732 2.2804531008005133 2.0258021205663681 2.2827773839235324 2.8654990047216407 1.9547611624002454 2.062199398875241 3.2095806896686545 2.3710701316595104 2.9232327491045025 2.9221067279577184 3.382276326417923 1.6526588946580876 2.0465626567602158
leaf_count=10 10 10 10 13 11 11 12 18 10 11 10 12 14 10 10 18 10 14 13 17 10 12
internal_value=0 0.00534968 0.0191167 -0.0177352 0.0304162 -0.0297269 0.0407104 0.00453664 0.0307883 -0.0339271 -0.022898 -0.0458797 0.0555702 -0.0577501 0.0662714 -0.0561892 0.073539 0.0769968 0.0740116 -0.067437 -0.06607 -0.0657858
internal_weight=0 50.0671 31.3632 18.7039 25.4707 5.89243 21.3486 6.21623 4.67976 14.0242 4.12211 11.7437 15.1324 9.66638 12.2669 4.92755 10.2786 8.21641 5.84534 7.71162 3.56868 4.32934
internal_count=276 248 153 95 122 31 101 30 23 72 21 61 71 51 57 28 47 37 27 41 20 24
is_linear=0
shrinkage=0.05


Tree=19
num_leaves=21
num_cat=0
split_feature=382 107 467 456 401 81 401 99 353 473 99 178 214 124 266 63 398 167 514 167
split_gain=6.56535 6.84125 5.22265 4.7425 4.66617 4.8165 5.66034 4.53886 4.42209 6.02134 4.33451 4.28643 3.21015 2.79228 1.32643 0.643482 0.03127 0.00670695 0.00258356 0.0015458
threshold=-0.46422172850206767 -0.50393836251437807 0.46068602147627058 -1.2017892686860747 0.60431661786110358 0.22813109338540369 0.15605558655378932 0.070562123337792201 0.23622348891125847 0.16199063767269914 -1.3574475488228479 -0.031182959485236441 0.19654317656755868 -0.51170544639729043 -0.027528044147013254 -0.47435804076639371 -0.12364828481022513 0.13021497177276528 0.53213933301466732 0.28572909249089379
decision_type=2 2 2 2 2 2 2 2 2 2 2 2 2 2 2 2 2 2 2 2
left_child=2 12 8 14 5 6 10 11 13 -10 -5 -7 18 -1 -3 -6 -15 -12 19 -2
right_child=1 3 -4 4 15 7 -8 -9 9 -11 17 -13 -14 16 -16 -17 -18 -19 -20 -21
leaf_value=0.0080585785460324938 -0.063592678482194728 0.018676794614433036 -0.029421476991430343 0.015819914868538298 -0.027831729267353684 0.043502644941750608 0.045288455920790699 0.075189216928529354 -0.068004111365996073 0.054530438980450763 -0.068557215931543111 -0.054705087396934117 0.0026747321301370938 0.070141323086136187 0.073815983381380748 -0.065596229013411361 0.076705750054808203 -0.064955733618384665 -0.064512200016773893 -0.061759082039613639
leaf_weight=2.1105375736951828 2.1575404256582242 2.0058741718530655 3.4144030809402457 2.2966053187847182 1.7899113297462461 2.467757061123848 2.5222194045782089 3.5093288570642471 1.9201033860445011 2.0980693250894547 2.5379825830459604 2.0210136026144019 2.4336253255605698 3.6547389179468155 2.390588745474818 3.0502892136573783 3.6022480428218859 2.6346780359745026 2.9392054229974747 2.4600430876016617
leaf_count=10 13 10 17 11 10 12 12 16 10 10 13 10 12 18 11 17 16 15 17 16
internal_value=0 -0.01188 0.0257764 0.00110578 -0.0080518 0.0036734 -0.0194741 0.03259 0.0398562 -0.00402329 -0.0413431 -0.000714175 -0.0472692 0.0586782 0.0486589 -0.0516309 0.0733998 -0.0667228 -0.0633534 -0.0626158
internal_weight=0 37.2167 16.8001 27.2262 22.8298 17.9896 9.99149 7.9981 13.3857 4.01817 7.46927 4.48877 9.99041 9.36752 4.39646 4.8402 7.25699 5.17266 7.55679 4.61758
internal_count=276 195 81 137 116 89 51 38 64 20 39 22 58 44 21 27 34 28 46 29
is_linear=0
shrinkage=0.05


Tree=20
num_leaves=22
num_cat=0
split_feature=382 107 272 353 473 178 381 386 163 123 57 148 500 454 286 336 439 122 210 217 409
split_gain=6.05334 6.37085 4.91219 5.40357 5.38612 4.36167 6.15743 5.13456 4.12993 3.765 3.14331 2.6555 2.16504 1.87978 1.74512 0.0406823 0.0186527 0.00847422 0.00487376 0.00141521 0.000524514
threshold=-0.46422172850206767 -0.50393836251437807 -0.69204036028535254 0.23622348891125847 0.16199063767269914 -0.1244854180436334 0.76640145715364416 0.37100531956395794 -0.51716222327147177 0.74405612399668719 0.73620207748729605 0.32148072910465081 -0.35060520589950639 0.38072896154107494 -0.30420736719307429 0.044066617602064713 -0.16289006308108325 0.0208927195193221 0.060514361346850974 -0.31471722985953493 0.11244750426609047
decision_type=2 2 2 2 2 2 2 2 2 2 2 2 2 2 2 2 2 2 2 2 2
left_child=2 10 -1 12 -5 6 8 11 -3 13 17 18 -4 -9 -10 -14 -16 19 -7 -2 -21
right_child=1 5 3 4 -6 7 -8 9 14 -11 -12 -13 15 -15 16 -17 -18 -19 -20 20 -22
leaf_value=-0.043398943113847295 -0.063125311792381941 -0.016823060797611353 0.021557463572209012 -0.067927389849846462 0.039044754573701136 -0.064327659717690736 -0.051257330939329021 0.0077841629002483956 0.020282407984501125 -0.038928739117261538 0.0019036930235227731 -0.0047141242728984331 0.0698568435141457 0.075119671725144777 0.069618152569400293 0.077733455958152065 0.075456364719522176 -0.065854788342126755 -0.067415565084299814 -0.061965942210826457 -0.060731225211547238
leaf_weight=2.2668108642101314 1.7998442649841306 2.4909899383783332 2.8673395067453384 2.0796350836753836 2.7102948278188705 2.9158300459384918 2.3066425174474725 1.9584285467863081 2.2650792002677909 2.0829265117645264 2.5146652907133102 2.7230962961912155 3.4211568087339383 2.2017060369253159 2.8074355125427237 3.1475673615932465 2.6685344278812417 1.9392053931951521 2.2747134566307068 1.865937247872351 1.5956704318523405
leaf_count=12 11 13 14 11 13 17 13 10 11 11 13 14 17 10 14 14 12 11 12 12 11
internal_value=0 -0.0115533 0.0249598 0.0358522 -0.00739915 0.00106397 0.022539 -0.0179566 0.0391751 0.0159458 -0.0462225 -0.0447021 0.0578075 0.0434207 0.0571948 0.0736311 0.0724632 -0.0630294 -0.0656809 -0.0619881 -0.0613968
internal_weight=0 36.4107 16.4928 14.226 4.78993 26.6954 12.5387 14.1567 10.232 6.24306 9.71532 7.91364 9.43606 4.16013 7.74105 6.56872 5.47597 7.20066 5.19054 5.26145 3.46161
internal_count=276 195 81 69 24 137 63 74 50 31 58 43 45 20 37 31 26 45 29 34 23
is_linear=0
shrinkage=0.05


Tree=21
num_leaves=24
num_cat=0
split_feature=439 497 142 128 227 30 90 239 269 25 382 467 195 87 116 30 147 445 270 47 113 67 115
split_gain=5.63447 5.3171 4.59168 5.03173 5.27246 4.53991 4.64684 4.09698 3.98459 3.87278 3.24988 3.11268 4.5505 1.90889 1.87329 1.16791 0.776395 0.445172 0.160553 0.0209122 0.0120233 0.00436625 0.0014625
threshold=-0.33553374486690396 1.2954531501242292 0.11540668822575979 -0.14354285857614274 -0.17608162280069908 0.46430931353680183 -0.3728572808574932 0.13332300563391705 0.24641804451937624 -0.33148339607194421 1.0000000180025095e-35 0.67174236304571699 0.64609132612008913 0.35643397409188843 0.19382261001781706 -0.33628495952994503 -1.2356481645990811 0.28077795685855672 -0.19753548031584309 0.20230661108142814 -0.88886838488494002 0.025781582167445086 -0.22175771133645988
decision_type=2 2 2 2 2 2 2 2 2 2 2 2 2 2 2 2 2 2 2 2 2 2 2
left_child=1 5 3 4 10 6 -1 17 -9 -4 -2 12 14 20 18 -6 -7 -8 -11 -18 -5 22 -22
right_child=2 -3 9 13 15 16 7 8 -10 11 -12 -13 -14 -15 -16 -17 19 -19 -20 -21 21 -23 -24
leaf_value=-0.054854932797463146 0.080434744187904458 -0.056837228057817948 -0.063307147332893596 -0.067359975688462956 -0.0097808930082962566 0.034209155119286787 0.043301514869394916 -0.0562655038116208 0.038851536030206031 0.058122611047745111 -0.0077546161986495488 -0.036762939568949014 -0.026055232454594058 -0.015294947208633903 0.014306139907693503 -0.064780390991605388 0.068754759480245259 0.07574042113549348 0.076549206237397222 0.075259262374983829 -0.060634906279263726 -0.064632460448590751 -0.062781625684736372
leaf_weight=2.2303324788808849 2.2452626079320908 1.9803271442651738 1.6198994815349586 2.2450235486030561 1.6932163983583453 1.8887313455343244 1.9390787184238449 2.1586354076862335 2.2473477721214294 2.0154004991054517 1.9536289274692533 2.0577640235424051 2.5807464569807053 2.6617120802402496 2.3148544728755951 2.2450487613677979 2.5635692179203025 2.3266752362251282 2.8592372834682429 2.385615199804306 1.4332627803087219 2.4301995486021042 1.777122184634212
leaf_count=13 10 10 10 12 10 10 10 12 11 10 11 11 14 14 12 13 13 11 13 11 10 14 11
internal_value=0 0.0208695 -0.0130816 -0.0291167 0.000424126 0.0295439 0.00951194 0.0260668 -0.00774942 0.00919747 0.0394027 0.0191273 0.0308987 -0.0519072 0.0513429 -0.0411339 0.0614821 0.0609947 0.0689308 0.0718901 -0.0642653 -0.0630336 -0.0618232
internal_weight=0 19.7203 32.1324 18.6845 8.13716 17.74 10.9021 8.67174 4.40598 13.4479 4.19889 11.828 9.77024 10.5473 7.18949 3.93827 6.83792 4.26575 4.87464 4.94918 7.88561 5.64058 3.21038
internal_count=276 101 175 105 44 91 57 44 23 70 21 60 49 61 35 23 34 21 23 24 47 35 21
is_linear=0
shrinkage=0.05


Tree=22
num_leaves=22
num_cat=0
split_feature=107 446 439 324 257 335 503 197 211 116 243 379 263 302 99 104 465 79 437 358 149
split_gain=5.36023 5.41063 5.35927 4.68713 4.55195 4.04678 3.96816 3.44275 4.83928 3.40799 3.06225 2.72545 4.51419 1.58156 0.936416 0.383305 0.162454 0.1382 0.0681587 0.00777866 0.00423659
threshold=-1.0543353147410928 0.36306673711072063 0.71875880058225639 0.58917303529150644 0.58221744081946758 0.66916021077170706 -0.73388799724390885 -0.0039851273179591232 0.22006420219570924 0.028733689280337527 0.68572506095397512 0.82568362825013886 -0.23172789303513489 -0.29501141538450765 0.018664994633058919 0.10930043422278109 -0.51817266580353938 0.50614553315595001 -0.40988740904277121 0.035450813040291775 0.32546417483292461
decision_type=2 2 2 2 2 2 2 2 2 2 2 2 2 2 2 2 2 2 2 2 2
left_child=15 2 4 7 6 -4 -2 8 14 -5 -6 13 -13 -8 -3 -1 -9 18 -15 -20 -18
right_child=1 3 5 9 10 -7 11 16 -10 -11 -12 12 -14 17 -16 -17 20 -19 19 -21 -22
leaf_value=-0.062769853052894967 -0.0096297267158024554 -0.066735165656093956 -0.063864736215036175 -0.017916580697420883 -0.065638001168733126 0.023814773728374282 0.03109794335672672 -0.046590292511731017 0.039177252359251784 0.070608723789047007 0.024121592987029764 0.062255506494438922 -0.047525758139689581 0.081090898786963128 -0.017712594249263993 -0.031041399657057579 -0.066277360033437455 0.058543011645930489 0.072322586459581964 0.068306633719905654 -0.063056190668467099
leaf_weight=3.0290312319993964 3.5978892147541108 2.1873051971197142 3.1236961334943762 2.1131252199411383 1.9467476606369012 2.2740199267864227 3.4966716319322666 1.6291349083185194 3.023310199379921 2.2392679005861282 1.8562459349632261 2.0093903988599782 1.7536118179559697 2.2449672669172358 1.7563131898641584 1.3881090134382246 2.757670685648919 1.8500990867614744 2.7658333182334793 2.1377346068620682 1.6206791698932645
leaf_count=19 19 12 19 12 11 12 18 10 15 11 10 10 10 10 10 9 15 10 13 11 10
internal_value=0 0.0048436 0.0180306 -0.0172709 0.0282872 -0.026926 0.0378852 -0.0323329 -0.00841605 0.0276289 -0.0218262 0.0484001 0.0110959 0.0596344 -0.0449027 -0.052799 -0.0600695 0.070723 0.0738753 0.0705718 -0.065085
internal_weight=0 46.3837 29.0569 17.3268 23.6592 5.39772 19.8562 12.9744 6.96693 4.35239 3.80299 16.2583 3.763 12.4953 3.94362 4.41714 6.00748 8.99863 7.14854 4.90357 4.37835
internal_count=276 248 153 95 122 31 101 72 37 23 21 82 20 62 22 28 35 44 34 24 25
is_linear=0
shrinkage=0.05


Tree=23
num_leaves=21
num_cat=0
split_feature=382 107 467 456 401 81 401 292 387 353 473 214 124 314 33 160 398 453 92 311
split_gain=5.27017 5.37725 4.3471 3.88056 3.78073 3.82793 4.49351 4.01955 3.4503 3.41714 4.85928 2.9336 2.3949 1.16611 0.862417 0.591817 0.0176949 0.0058671 0.00190771 0.001589
threshold=-0.46422172850206767 -0.50393836251437807 0.46068602147627058 -1.2017892686860747 0.60431661786110358 0.29219942969395124 0.15605558655378932 0.855797564884614 1.0000000180025095e-35 0.23622348891125847 0.16199063767269914 0.19654317656755868 -0.51170544639729043 -1.0000000180025095e-35 0.63441967012754519 -0.49729080160988964 -0.20969997038484531 0.25673867627286912 0.22870467605559419 0.099682130126219723
decision_type=2 2 2 2 2 2 2 2 2 2 2 2 2 2 2 2 2 2 2 2
left_child=2 11 9 13 5 6 8 14 -5 12 -11 18 -1 -3 -7 -6 -14 -10 19 -2
right_child=1 3 -4 4 15 7 -8 -9 17 10 -12 -13 16 -15 -16 -17 -18 -19 -20 -21
leaf_value=0.006624482049406008 -0.060743091309861968 0.016308168746909546 -0.027696925617209184 0.0058667543736995974 -0.025247663899163827 0.071177744238271973 0.042682358292398914 -0.02951684029278541 -0.062953327324034455 -0.064473618557060172 0.050155959381670681 0.0041642042493256932 0.066236549336677941 0.069883703745301076 0.028452894655565976 -0.063183711963715347 0.071399629247616073 -0.066647828608678086 -0.05980453890479847 -0.06262263846434328
leaf_weight=2.0024949759244901 2.4541236162185651 1.8777449429035185 3.2383137196302405 2.8746344745159238 1.6338583827018736 3.1074409186840048 2.3521257042884827 1.9596084356307981 2.5877484530210495 1.7159889340400689 2.0044845193624496 2.3237766772508621 3.1223026365041715 2.2122299820184699 1.9053365439176557 2.772790700197219 3.5420284569263476 1.83778840303421 2.1814808771014214 2.0754917114973068
leaf_count=10 17 10 17 15 10 15 12 11 16 10 10 12 17 11 10 17 17 10 16 13
internal_value=0 -0.0111733 0.0238829 0.000724233 -0.00794185 0.0029726 -0.017419 0.0312019 -0.0367837 0.037367 -0.00271449 -0.044254 0.0545731 0.0452867 0.0549382 -0.0491181 0.0689807 -0.0644875 -0.0610193 -0.0616043
internal_weight=0 34.1562 15.6256 25.1213 21.0313 16.6247 9.6523 6.97239 7.30017 12.3873 3.72047 9.03487 8.66683 4.08997 5.01278 4.40665 6.66433 4.42554 6.7111 4.52962
internal_count=276 195 81 137 116 89 53 36 41 64 20 58 44 21 25 27 34 26 46 30
is_linear=0
shrinkage=0.05


Tree=24
num_leaves=22
num_cat=0
split_feature=382 107 272 353 335 456 400 279 178 228 357 57 90 500 486 387 362 336 122 28 18
split_gain=4.86667 5.0155 4.10902 4.25576 4.48892 3.57084 3.60367 3.62276 3.94443 4.43085 5.16155 2.91037 2.12439 1.87796 1.14858 0.9773 0.265138 0.0281734 0.00716497 0.000812394 0.000329956
threshold=-0.46422172850206767 -0.50393836251437807 -0.69204036028535254 0.23622348891125847 0.54557873019045788 -1.2017892686860747 1.0909856039554422 0.65540356986023596 -0.1244854180436334 0.27009138049333192 0.16373511155095966 0.73620207748729605 -0.1648071164931745 -0.35060520589950639 -0.074911315556065047 -1.0000000180025095e-35 0.63618979491052652 0.044066617602064713 0.0208927195193221 -0.84551040744051009 0.34304911784085573
decision_type=2 2 2 2 2 2 2 2 2 2 2 2 2 2 2 2 2 2 2 2 2
left_child=2 11 -1 13 -5 14 7 8 12 10 -10 18 -7 -4 -3 -9 -14 -15 19 -2 -21
right_child=1 5 3 4 -6 6 -8 15 9 -11 -12 -13 16 17 -16 -17 -18 -19 -20 20 -22
leaf_value=-0.041771039551987348 -0.060739662014702461 0.015151133655945863 0.01926368141704915 -0.054977070657304797 0.045329557305380151 -0.0015450821788346005 -0.062970393154850798 -0.013926352856598724 -0.03814710608105313 -0.062253654445605461 0.064662618815373704 0.0039363922290760953 0.045323911214155257 0.066009162554754683 0.068739896915303259 -0.064716070842397264 0.070248716333917494 0.072848053852973813 -0.063562153110239494 -0.05877887121366128 -0.059825098843866532
leaf_weight=2.1009992212057123 1.5920608192682264 1.8696058243513105 2.714761555194853 2.2939607799053201 2.1709468364715576 2.0379721224308014 2.580717757344245 1.6687641292810442 2.298531159758574 2.8143114000558853 2.6037569940090179 2.3761707544326782 1.7941844463348413 3.085446491837498 2.1494538336992255 2.1902956068515769 2.6323787719011307 2.9417501389980316 1.7742608040571211 1.3925116211175903 1.642493277788162
leaf_count=12 11 10 14 13 11 11 16 10 12 18 13 13 10 17 11 13 13 14 11 11 12
internal_value=0 -0.0108649 0.0231774 0.0335097 -0.00620554 0.000696351 -0.00770683 0.000198833 0.0118872 -0.0122486 0.0164583 -0.0433194 0.0406977 0.053794 0.0438112 -0.0427532 0.0601461 0.0693471 -0.0608608 -0.0598249 -0.0593451
internal_weight=0 33.4175 15.3079 13.2069 4.46491 24.64 20.6209 18.0402 14.1811 7.7166 4.90229 8.7775 6.46454 8.74196 4.01906 3.85906 4.42656 6.0272 6.40133 4.62707 3.035
internal_count=276 195 81 69 24 137 116 100 77 43 25 58 34 45 21 23 23 31 45 34 23
is_linear=0
shrinkage=0.05


Tree=25
num_leaves=22
num_cat=0
split_feature=382 107 467 456 400 279 178 228 357 135 214 90 243 238 13 234 362 43 57 37 18
split_gain=4.4942 4.67225 3.87646 3.28868 3.39012 3.34679 3.62473 4.15919 4.76324 3.02795 2.8829 1.99664 1.98551 1.13546 0.951213 0.3866 0.265519 0.0261182 0.00198736 0.00120614 0.000264479
threshold=-0.46422172850206767 -0.50393836251437807 0.46068602147627058 -1.2017892686860747 1.0909856039554422 0.65540356986023596 -0.1244854180436334 0.27009138049333192 0.16373511155095966 -0.33214707974496177 0.19654317656755868 -0.1648071164931745 1.1187652136085477 0.059476123198078761 -0.083968077044880476 0.15567081006263125 0.63618979491052652 -0.46076288604455568 0.67115209033986467 -0.68184725586966122 0.34304911784085573
decision_type=2 2 2 2 2 2 2 2 2 2 2 2 2 2 2 2 2 2 2 2 2
left_child=2 10 9 13 5 6 11 8 -8 -1 18 -5 15 -3 -7 17 -13 -11 19 -2 -21
right_child=1 3 -4 4 -6 14 7 -9 -10 12 -12 16 -14 -15 -16 -17 -18 -19 -20 20 -22
leaf_value=-0.0087306554137217707 -0.060574006559333093 0.013871685337626985 -0.026631195057102763 -0.0014679477817348824 -0.062184404009781896 -0.013231850714932162 -0.036740604024843596 -0.061518138261939248 0.06291873989629708 0.065860085684424016 0.0057457424079429657 0.043684212689698326 0.0034228892244682696 0.067604291581933262 -0.063794515063100132 0.041748094928272111 0.068889632552913679 0.073018208160293696 -0.061522364843494326 -0.058344923055685428 -0.059267570180327384
leaf_weight=2.9042941927909842 1.5633361637592313 1.8517511487007134 3.1704132109880439 2.0378103405237198 2.4850929379463187 1.6607043892145159 2.2679877877235475 2.7082481682300568 2.5436620116233826 3.2383170425891854 2.2796848714351654 1.7691024988889719 1.819272994995117 2.0961267948150635 2.1144798099994651 1.7761515378952024 2.5521306991577148 2.1011966317892079 1.5038095265626905 1.3437991514801964 1.8405313864350317
leaf_count=16 11 10 17 11 16 10 12 18 13 18 12 10 10 11 13 10 13 10 10 11 14
internal_value=0 -0.010589 0.0224716 0.000672967 -0.00750696 0.000189744 0.0115438 -0.0119536 0.015944 0.0356208 -0.0423863 0.0393307 0.0500372 0.042401 -0.041552 0.0619552 0.0585706 0.0686769 -0.0599383 -0.0594366 -0.0588782
internal_weight=0 32.6183 15.0096 24.0871 20.1392 17.6541 13.8789 7.5199 4.81165 11.8392 8.53116 6.35904 8.93494 3.94788 3.77518 7.11567 4.32123 5.33951 6.25148 4.74767 3.18433
internal_count=276 195 81 137 116 100 77 43 25 64 58 34 48 21 23 38 23 28 46 36 25
is_linear=0
shrinkage=0.05


Tree=26
num_leaves=23
num_cat=0
split_feature=491 301 456 137 236 453 304 498 452 299 450 124 193 201 484 430 480 353 437 92 417 22
split_gain=4.24588 5.31773 4.796 4.61595 4.84048 4.07827 3.72256 4.04514 3.18766 4.54162 3.05086 1.69589 1.31961 1.18346 1.0948 0.157989 0.107557 0.0458301 0.0118365 0.00778153 0.00769659 0.00145066
threshold=1.8137949222328413 0.9889544060565606 1.0228349910070909 0.27171155782174344 0.065001294882008634 0.48020293808687292 0.083221705065334647 -0.27356703236934193 0.75128480668085096 -0.64464650808281665 0.071456429472090563 1.0492921872904051 0.53375857204566912 -0.34467680253782212 0.73766092086934443 0.50677015168403294 0.31882147291340307 0.10227774659564369 0.61350949149405098 0.2116293282829165 -0.6824378096006265 -0.18657691836994808
decision_type=2 2 2 2 2 2 2 2 2 2 2 2 2 2 2 2 2 2 2 2 2 2
left_child=1 2 3 5 13 8 12 -8 9 -1 -9 15 18 -5 -4 17 -3 20 21 -15 -11 -2
right_child=6 16 14 4 -6 -7 7 10 -10 11 -12 -13 -14 19 -16 -17 -18 -19 -20 -21 -22 -23
leaf_value=-0.024196445306158658 -0.061659040358740681 0.055212959664933586 -0.063255762137340688 -0.011368027200099155 0.027056551556877723 -0.049812793976456826 -0.061642404765344772 0.072671829313417452 -0.013661949231284769 0.064445886522911042 -0.018112931431945124 0.01375031271231133 -0.0096686182137613024 -0.060785637091510886 -0.01061732473039087 0.052962168813442845 0.072039308410072708 0.075943148317713663 -0.065560881031060364 -0.065237566114080672 0.068612822787113878 -0.059611741689243915
leaf_weight=2.04290843009949 1.5238847434520719 1.7479164451360696 3.0071249529719344 1.550810784101486 3.4790449887514114 1.6396043151617039 1.5780179128050802 2.1546115428209309 2.9534332305192939 1.7121051400899876 1.6221211850643156 1.8489911854267109 1.5523189082741735 2.0178884118795382 1.4710060060024259 1.7338814437389372 2.0797661393880844 2.1281725019216537 1.7150148153305051 1.9111768454313276 3.1415306925773683 2.0019347742199884
leaf_count=13 10 10 19 10 19 10 11 11 18 10 10 10 10 14 9 10 10 10 10 11 16 15
internal_value=0 0.00879046 0.0018485 0.0100334 -0.019069 0.0251914 -0.0255864 0.00558857 0.0330943 0.0440473 0.0336794 0.0572437 -0.0501603 -0.0483531 -0.0459647 0.0664707 0.0643555 0.0698254 -0.0621538 -0.0629511 0.0671429 -0.0604966
internal_weight=0 34.4654 30.6377 26.1595 8.95892 17.2006 12.1479 5.35475 15.561 12.6076 3.77673 10.5647 6.79315 5.47988 4.47813 8.71569 3.82768 6.98181 5.24083 3.92907 4.85364 3.52582
internal_count=276 199 179 151 54 97 77 32 87 69 21 56 45 35 28 46 20 36 35 25 26 25
is_linear=0
shrinkage=0.05


Tree=27
num_leaves=23
num_cat=0
split_feature=107 108 131 197 519 38 99 90 301 211 408 176 509 138 342 435 116 76 306 224 438 107
split_gain=4.02965 4.27031 4.95532 5.02843 3.47971 2.76223 3.22378 2.60484 2.96873 2.5612 2.52878 2.35444 2.23412 1.44873 0.390797 0.190865 0.130496 0.113547 0.0400379 0.0123367 0.00584405 0.00195643
threshold=-1.0543353147410928 1.1433635486553697 0.14633142585229611 -0.031683860952137717 -0.79518966503947841 0.26739305476315112 0.16265511732488402 0.19173449146482774 -0.29535795107682583 0.062897312525910395 -0.084310177811218079 0.35547515552492043 0.1515088835547922 0.27195086429361004 0.68743817984741129 0.046851040440316592 -0.17145657816888074 -0.58651148004723119 0.55943843968194529 0.18547070628652176 -0.040833796219381061 -0.27553343432496219
decision_type=2 2 2 2 2 2 2 2 2 2 2 2 2 2 2 2 2 2 2 2 2 2
left_child=14 2 3 5 -4 6 12 16 -9 -7 -3 13 -2 17 -1 -11 -5 -6 21 -12 -18 -19
right_child=1 10 4 7 11 9 -8 8 -10 15 19 -13 -14 -15 -16 -17 20 18 -20 -21 -22 -23
leaf_value=-0.060176633840538042 -0.064805779626544519 0.0046997110602202408 -0.016551549714034608 -0.044966612815297298 0.054675525051964657 -0.0072128886387520163 0.040745415613678004 0.040315742152584856 -0.03858604440201191 0.052629405913770112 -0.060560758358331357 -0.0021637703731864954 0.011219482909321331 0.018429884493727174 -0.025863147153902824 0.074494672032858783 -0.060942348769215837 0.067626935579512396 0.075140769615193503 -0.066642160137351303 -0.065129900550072742 0.065329099615248229
leaf_weight=2.6108758822083469 2.3289080709218966 2.2516762986779213 2.800949662923812 1.4057188630104063 1.6179768145084361 1.8287554234266279 2.334608219563961 2.0400864481925964 2.868350937962532 1.8861748129129408 1.5599881485104554 2.1111590787768355 1.6516749411821363 1.9968380928039549 1.2163517549633978 2.1196878701448441 1.5972466990351677 1.9214712232351283 2.1137964129447937 1.7917672544717786 1.7416825592517871 1.7886080294847508
leaf_count=19 14 14 18 10 10 11 14 12 17 11 11 13 10 12 9 10 11 10 10 10 10 10
internal_value=0 0.00433356 0.0106284 -0.00438955 0.0334449 0.0170136 -0.00590183 -0.0313285 -0.00579221 0.0418165 -0.0362812 0.0455695 -0.0332604 0.056246 -0.0492713 0.0641993 -0.0577463 0.0663931 0.0696484 -0.0638117 -0.0631267 0.0665192
internal_weight=0 41.7571 36.1537 21.8029 14.3508 12.1498 6.31519 9.65309 4.90844 5.83462 5.60343 11.5498 3.98058 9.43869 3.82723 4.00586 4.74465 7.44185 5.82388 3.35176 3.33893 3.71008
internal_count=276 248 213 130 83 70 38 60 29 32 35 65 24 52 28 21 31 40 30 21 21 20
is_linear=0
shrinkage=0.05


Tree=28
num_leaves=23
num_cat=0
split_feature=439 497 250 446 236 334 216 30 90 203 239 269 306 61 33 289 499 333 163 318 485 122
split_gain=3.89884 4.10308 3.20871 4.14618 4.44213 4.6552 3.35712 3.20337 3.35162 2.91281 2.88267 2.95002 1.76536 1.55405 1.14083 0.616908 0.361189 0.0126264 0.00517649 0.00444747 0.0039109 0.00242674
threshold=-0.33553374486690396 1.2954531501242292 -0.41605608505343522 0.73091336031002496 0.1419316823545623 0.96741743600369356 0.35314740134887335 0.46430931353680183 -0.3728572808574932 1.0628326949689848 0.13332300563391705 0.24641804451937624 -0.24506750929437973 0.42682730584873901 0.71171292700232558 0.2898628289225984 0.16458314479473654 0.097917382291022287 0.99741377536471731 0.031778173473096687 -0.42019163712719554 -0.60440154865185625
decision_type=2 2 2 2 2 2 2 2 2 2 2 2 2 2 2 2 2 2 2 2 2 2
left_child=1 7 9 4 5 6 12 8 -1 14 16 -12 -4 19 18 17 -10 -9 21 -5 -14 -2
right_child=2 -3 3 13 -6 -7 -8 15 10 -11 11 -13 20 -15 -16 -17 -18 -19 -20 -21 -22 -23
leaf_value=-0.051280701869349465 -0.058362002035972332 -0.053639347653275493 0.00018846452147525393 -0.063946804833594648 0.06355097627777595 0.048273636729132888 0.028481641474008834 0.062791663311286022 0.037804769547517991 0.026846095930071374 -0.052525301139055014 0.035583372496035763 -0.063113527014434692 -0.0017491539483220184 -0.0092229783434637277 0.030020156195819121 0.069280837456789313 0.068332787392164807 -0.063015481957359662 -0.060122277543611692 -0.059933990699881826 -0.060801315134038469
leaf_weight=1.8578353673219679 1.9393436908721913 1.7583170682191838 1.649825587868692 1.6838071793317788 3.3209347501397124 3.2357193157076836 2.2749668434262276 1.7580709308385838 1.6454395279288312 1.4602328687906263 1.8301483094692232 1.9754281193017957 1.6067814528942124 1.6248626857995985 1.3360907211899755 1.6537459418177602 2.043063685297966 2.4759245961904526 1.5783686041831968 1.3857285901904104 2.4294624552130681 2.1498858407139805
leaf_count=13 16 10 10 10 18 18 13 11 10 8 12 11 10 10 9 10 11 13 10 10 18 15
internal_value=0 0.0186818 -0.0117421 -0.000442019 0.0127663 -0.00229632 -0.0228502 0.027026 0.008837 -0.037392 0.0237406 -0.00678917 -0.0433878 -0.0412895 -0.0507853 0.055917 0.0552394 0.066032 -0.0605833 -0.0622202 -0.0611997 -0.0596445
internal_weight=0 16.998 27.676 19.2121 14.5177 11.1968 7.96104 15.2397 9.35192 8.46392 7.49408 3.80558 5.68607 4.6944 7.00369 5.88774 3.6885 4.234 5.6676 3.06954 4.03624 4.08923
internal_count=276 101 175 117 87 69 51 91 57 58 44 23 38 30 50 34 21 24 41 20 28 31
is_linear=0
shrinkage=0.05


Tree=29
num_leaves=21
num_cat=0
split_feature=382 107 126 467 276 353 486 456 451 24 295 214 165 387 432 416 26 57 408 204
split_gain=3.63814 3.86282 3.29277 3.88033 2.91202 2.84949 2.70722 3.99936 3.54901 4.7697 2.77314 2.61035 2.56064 1.4204 0.397771 0.358536 0.00727003 0.00127751 0.000727288 0.000205833
