tree
version=v3
num_class=1
num_tree_per_iteration=1
label_index=0
max_feature_idx=520
objective=binary sigmoid:1
feature_names=Column_0 Column_1 Column_2 Column_3 Column_4 Column_5 Column_6 Column_7 Column_8 Column_9 Column_10 Column_11 Column_12 Column_13 Column_14 Column_15 Column_16 Column_17 Column_18 Column_19 Column_20 Column_21 Column_22 Column_23 Column_24 Column_25 Column_26 Column_27 Column_28 Column_29 Column_30 Column_31 Column_32 Column_33 Column_34 Column_35 Column_36 Column_37 Column_38 Column_39 Column_40 Column_41 Column_42 Column_43 Column_44 Column_45 Column_46 Column_47 Column_48 Column_49 Column_50 Column_51 Column_52 Column_53 Column_54 Column_55 Column_56 Column_57 Column_58 Column_59 Column_60 Column_61 Column_62 Column_63 Column_64 Column_65 Column_66 Column_67 Column_68 Column_69 Column_70 Column_71 Column_72 Column_73 Column_74 Column_75 Column_76 Column_77 Column_78 Column_79 Column_80 Column_81 Column_82 Column_83 Column_84 Column_85 Column_86 Column_87 Column_88 Column_89 Column_90 Column_91 Column_92 Column_93 Column_94 Column_95 Column_96 Column_97 Column_98 Column_99 Column_100 Column_101 Column_102 Column_103 Column_104 Column_105 Column_106 Column_107 Column_108 Column_109 Column_110 Column_111 Column_112 Column_113 Column_114 Column_115 Column_116 Column_117 Column_118 Column_119 Column_120 Column_121 Column_122 Column_123 Column_124 Column_125 Column_126 Column_127 Column_128 Column_129 Column_130 Column_131 Column_132 Column_133 Column_134 Column_135 Column_136 Column_137 Column_138 Column_139 Column_140 Column_141 Column_142 Column_143 Column_144 Column_145 Column_146 Column_147 Column_148 Column_149 Column_150 Column_151 Column_152 Column_153 Column_154 Column_155 Column_156 Column_157 Column_158 Column_159 Column_160 Column_161 Column_162 Column_163 Column_164 Column_165 Column_166 Column_167 Column_168 Column_169 Column_170 Column_171 Column_172 Column_173 Column_174 Column_175 Column_176 Column_177 Column_178 Column_179 Column_180 Column_181 Column_182 Column_183 Column_184 Column_185 Column_186 Column_187 Column_188 Column_189 Column_190 Column_191 Column_192 Column_193 Column_194 Column_195 Column_196 Column_197 Column_198 Column_199 Column_200 Column_201 Column_202 Column_203 Column_204 Column_205 Column_206 Column_207 Column_208 Column_209 Column_210 Column_211 Column_212 Column_213 Column_214 Column_215 Column_216 Column_217 Column_218 Column_219 Column_220 Column_221 Column_222 Column_223 Column_224 Column_225 Column_226 Column_227 Column_228 Column_229 Column_230 Column_231 Column_232 Column_233 Column_234 Column_235 Column_236 Column_237 Column_238 Column_239 Column_240 Column_241 Column_242 Column_243 Column_244 Column_245 Column_246 Column_247 Column_248 Column_249 Column_250 Column_251 Column_252 Column_253 Column_254 Column_255 Column_256 Column_257 Column_258 Column_259 Column_260 Column_261 Column_262 Column_263 Column_264 Column_265 Column_266 Column_267 Column_268 Column_269 Column_270 Column_271 Column_272 Column_273 Column_274 Column_275 Column_276 Column_277 Column_278 Column_279 Column_280 Column_281 Column_282 Column_283 Column_284 Column_285 Column_286 Column_287 Column_288 Column_289 Column_290 Column_291 Column_292 Column_293 Column_294 Column_295 Column_296 Column_297 Column_298 Column_299 Column_300 Column_301 Column_302 Column_303 Column_304 Column_305 Column_306 Column_307 Column_308 Column_309 Column_310 Column_311 Column_312 Column_313 Column_314 Column_315 Column_316 Column_317 Column_318 Column_319 Column_320 Column_321 Column_322 Column_323 Column_324 Column_325 Column_326 Column_327 Column_328 Column_329 Column_330 Column_331 Column_332 Column_333 Column_334 Column_335 Column_336 Column_337 Column_338 Column_339 Column_340 Column_341 Column_342 Column_343 Column_344 Column_345 Column_346 Column_347 Column_348 Column_349 Column_350 Column_351 Column_352 Column_353 Column_354 Column_355 Column_356 Column_357 Column_358 Column_359 Column_360 Column_361 Column_362 Column_363 Column_364 Column_365 Column_366 Column_367 Column_368 Column_369 Column_370 Column_371 Column_372 Column_373 Column_374 Column_375 Column_376 Column_377 Column_378 Column_379 Column_380 Column_381 Column_382 Column_383 Column_384 Column_385 Column_386 Column_387 Column_388 Column_389 Column_390 Column_391 Column_392 Column_393 Column_394 Column_395 Column_396 Column_397 Column_398 Column_399 Column_400 Column_401 Column_402 Column_403 Column_404 Column_405 Column_406 Column_407 Column_408 Column_409 Column_410 Column_411 Column_412 Column_413 Column_414 Column_415 Column_416 Column_417 Column_418 Column_419 Column_420 Column_421 Column_422 Column_423 Column_424 Column_425 Column_426 Column_427 Column_428 Column_429 Column_430 Column_431 Column_432 Column_433 Column_434 Column_435 Column_436 Column_437 Column_438 Column_439 Column_440 Column_441 Column_442 Column_443 Column_444 Column_445 Column_446 Column_447 Column_448 Column_449 Column_450 Column_451 Column_452 Column_453 Column_454 Column_455 Column_456 Column_457 Column_458 Column_459 Column_460 Column_461 Column_462 Column_463 Column_464 Column_465 Column_466 Column_467 Column_468 Column_469 Column_470 Column_471 Column_472 Column_473 Column_474 Column_475 Column_476 Column_477 Column_478 Column_479 Column_480 Column_481 Column_482 Column_483 Column_484 Column_485 Column_486 Column_487 Column_488 Column_489 Column_490 Column_491 Column_492 Column_493 Column_494 Column_495 Column_496 Column_497 Column_498 Column_499 Column_500 Column_501 Column_502 Column_503 Column_504 Column_505 Column_506 Column_507 Column_508 Column_509 Column_510 Column_511 Column_512 Column_513 Column_514 Column_515 Column_516 Column_517 Column_518 Column_519 Column_520
feature_infos=[-3.5788025915210353:3.192726175709518] [-2.7422247989741302:2.6092056920404736] [-4.4336803656360484:2.6704083317824421] [-7.4230993991807894:2.7438158349725863] [-2.2718654763252535:1.9550080803518151] [-1.9987681913704078:4.2007609244933439] [-3.5586190694515767:2.936521948458283] [-2.7990611459257164:1.9161468434872437] [-3.2709383935115719:3.2080848130681652] [-2.5881805715951391:2.7519656760476869] [-2.7771196643603218:3.6461476419691534] [-5.4737318520005793:4.5418217543450154] [-2.7861013866685216:6.553702045531538] [-3.8558091101480505:3.3026751017955793] [-1.2119416256304916:2.8061472242759553] [-3.1673419722273355:2.2027213995575803] [-3.4051229027007239:2.3943687615621645] [-2.6238050097336147:3.2728915978937074] [-2.6533448125191748:2.3326745865719838] [-5.4249127206368417:4.5803025659383172] [-4.4149556584397551:3.0123158952333773] [-4.8729160052686336:1.7608414772210772] [-2.7110364600084167:2.9397189815306777] [-5.0719469490269695:2.4501512701741652] [-1.7875397725188562:5.712437109931769] [-1.7917691746590807:5.4935616717260096] [-2.820556498999145:1.5377125474680646] [-2.4201926934007907:3.405226612888447] [-2.3948227687176007:3.0040323920260761] [-2.2299070700530086:2.9173972757180628] [-5.9193026684654306:2.7309621547790282] [-2.2726974765781494:2.2956637287882042] [-5.159834105094987:1.2364493884682433] [-2.3940288116340236:2.3656571351619839] [-4.0275647778090411:2.3764109761288497] [-3.1527111518289117:2.6080017055112776] [-2.3575386132278626:3.562802367538525] [-2.5386319149016527:3.4325765387211606] [-4.5548778205679055:3.2584016422524438] [-5.0339128003750782:2.9043057990865457] [-4.2390467366307121:2.4887087504580339] [-3.3662428176666856:2.9304198492701965] [-3.0016360076819382:2.4747235807635413] [-3.3539485080155793:2.3452761006112532] [-1.9617586043221864:2.2535171698754044] [-2.1000596853463875:3.8787591590676005] [-3.0813121464970687:3.5510303914708046] [-1.7745123733776889:3.9668859932618084] [-3.3546225196626636:3.1690769597872195] [-3.599648096542968:2.45498159054483] [-4.2021248552730457:2.8329721377669443] [-4.9824241994665428:3.2368535976387767] [-4.8344763605812684:2.2747213931880572] [-2.2993423089127618:2.8286966505572626] [-1.8005597569087883:4.5225251692936288] [-3.3687948595878452:3.0301254917148057] [-2.4852640536784807:2.0185784048578324] [-2.7549392569985467:2.8066995757351871] [-2.8823551909758338:5.1224537782324795] [-3.1032344690528619:2.4626251472361309] [-3.7360668738649521:2.7109116332154342] [-1.5590895224184733:4.697862457721012] [-2.8088736313185878:2.629227443230941] [-2.9212999292394435:4.0920201413424895] [-1.3503931484971479:5.460913203584246] [-3.0187240642244708:3.0306556223927861] [-4.2759789800190466:3.3243063892861331] [-3.861066587795972:2.2858650414865598] [-3.859510898154483:1.1300051750838083] [-2.4375411442640642:2.4439753712768715] [-2.3508603913397561:2.3989175295086529] [-1.8644201315580373:2.9680064475170105] [-6.3085297839567094:1.8220395842964874] [-2.6720797199349775:4.2978952113515758] [-3.9210153606871123:2.436296869114897] [-4.7084590966303184:2.0855149641682256] [-2.6149611822484675:2.4525509896677171] [-2.2711584280598087:3.9385458919766854] [-1.2849664779563503:3.8965637779199911] [-2.1996395567293905:3.1597947088409741] [-3.2783259738507815:3.0535269047498472] [-1.8805903428668478:4.3262474146678978] [-1.9574015139966927:2.7590709327688216] [-3.9614531396108603:1.7263433374534822] [-1.6161544415906486:5.3847785056610462] [-2.1857832271772137:2.3254024526200481] [-2.2607664653833854:3.5601111863085149] [-4.0582851950186489:2.9695884905875238] [-2.3268111141378403:3.3198061412086459] [-3.9727150304613001:2.8202508986677652] [-3.2743362231156099:2.6552889018922823] [-3.282611935976822:2.330384161658674] [-4.2640980643299349:5.2171878746279479] [-2.4230952330379418:3.1697220116960478] [-4.8509194156739479:4.8468998081100443] [-5.42599569072049:2.6512027737757955] [-2.3066070669850007:3.1438619852766143] [-6.5110456423314691:2.8889159072455666] [-4.884656887174045:6.4307730733205997] [-1.4004188726228679:2.4343895983925656] [-1.8527656370156673:4.3299973160736123] [-4.5310275576176933:3.0121508042606324] [-4.081901678923308:2.2911843998172396] [-3.7696605572128861:3.575004557295975] [-1.0383836143253353:4.1556803766449812] [-2.4571932460902399:4.8773944411938013] [-1.9849335611922911:0.9732470769853202] [-2.3606707682249586:3.9279507647347978] [-3.1295567907185666:2.1714462665283794] [-3.6775261477469567:2.4600564429453406] [-2.6791272117680296:2.4809537104187909] [-3.9095694381027992:2.1782452777735437] [-2.7552042206132343:2.9200902571121694] [-2.0399032034853182:1.5597998029134599] [-3.5641198181136073:5.4079558595793014] [-3.1870302270748736:3.2306409424621552] [-5.3173786417943472:0.90501113127080379] [-4.0509109010048094:2.4625249778288079] [-2.8919060519941517:3.323207003232886] [-6.1761508499794022:2.0840332743882803] [-2.2025710679281034:3.3409256634034383] [-2.473145438331791:3.5802337565985933] [-3.098124811741755:2.6634995945356352] [-4.0521149061597495:4.7866190064696976] [-2.876183443330159:5.4809629899957288] [-3.9627657072445239:3.3981382243910727] [-4.9263797585583022:2.0054597646714636] [-2.1300265915801302:2.3598161908501694] [-2.8462481524275782:5.2825891445527535] [-4.3663898595750243:1.6652789064618068] [-1.1734669727828069:5.5726041165049773] [-3.9056979122926125:2.8673376387263554] [-1.9348274199646296:5.3144506018673336] [-6.2487212423632057:0.93111329447717461] [-6.6510127215959081:1.5135059651430922] [-7.5806993227958381:1.8070193290210783] [-4.6365640212470991:2.980455647317271] [-2.5825247697331655:4.1955059774070147] [-7.4420563419797965:4.1995817301217429] [-7.5044016823842385:2.0526108880854403] [-0.049587793791080026:3.4690198235925136] [-3.0564613109601675:4.9739982435191417] [-2.3354491183138899:3.739598165654527] [-4.1171186094932359:0.37287423048043089] [-4.3022435797838119:3.4162235313504028] [-2.7504517181521373:1.5835112023493343] [-2.6596541628583457:2.5624075652903584] [-3.7255930763641705:1.9632043348059787] [-3.0349035608534791:2.3823967751994455] [-3.0915720644809928:2.3414083615632402] [-2.8567412553284406:2.0391812151330933] [-3.4819161126942562:3.4989598594380569] [-5.7676267441074307:1.9060420350317389] [-7.0416060190462124:1.849504407851551] [-2.9240968830423499:4.0062675247168622] [-2.292763550771308:2.6979643569336709] [-5.9609953718709559:1.9926146617030269] [-1.7667804953802615:1.764146610720454] [-2.6513850706968292:3.708899305450283] [-1.3167311577668519:6.0824059589057056] [-2.9141497520569812:4.7804819879732108] [-1.5316345307144659:3.0665678283060065] [-3.5062068683893894:2.2391694029678337] [-6.2118998392403428:3.0249616705826599] [-3.5053014251612233:3.8415165388179782] [-7.7477625792257889:3.0539698563547253] [-6.1434586342181676:2.3860587946744212] [-3.3016545065717811:2.6211935515284734] [-2.7597229860797148:2.655847907779453] [-6.6718741021652868:2.919075288819394] [-6.9359037839657187:2.9052865151284113] [-3.9842106168653362:1.809129084608285] [-2.2591866802925114:3.3256411801501105] [-2.4469518286383183:3.2621022739592975] [-3.4826213232749521:3.1747726637256046] [-2.5346664411546316:3.506013720387684] [-3.599906384739326:7.0024366308775932] [-3.1507728041426435:4.1931669558645916] [-2.5434436693597324:3.081329021208675] [-1.974191598315723:2.0906350507406755] [-3.3651071484550372:2.3630984792831486] [-3.0052248711192684:2.3184618790154725] [-4.6411635756877816:2.3002954974887109] [-2.5861529817092714:3.014148343052875] [-3.4184675980498245:2.8294631430499804] [-1.9131420384613171:3.7821378186331822] [-1.9315411484578844:4.9399162257972602] [-1.6507112084861142:2.7007774246049183] [-5.2597433769936641:2.382988732823065] [-4.2567073163161036:1.578632606190276] [-5.7151031802100674:1.1726126765635376] [-1.0202063978940139:2.875351528809583] [-2.1990234624341949:3.0091785342702955] [-2.8060499030001766:3.6298582788645257] [-1.9115648293218932:1.2960011604902875] [-2.5619344204077836:2.637320105700141] [-5.0969067603155969:2.5473817844851641] [-4.4171445694074922:1.0391188243136928] [-1.1628188898429364:2.1132801073081233] [-2.87277741905109:3.1463086345152838] [-3.3227137758983982:2.1684530888023414] [-3.1736096312033446:3.8965887499614289] [-2.2456096786916495:3.1822189534086283] [-2.8324723134626666:2.3925142663406902] [-3.2237412306659858:3.0380350341528652] [-3.0910767354665056:3.4492276719581758] [-6.5159467936187712:1.8902259169814282] [-3.3506457857295824:1.5636899831294886] [-4.657062262203393:1.4510866657846169] [-3.3491404182139299:2.5361285259765327] [-4.8511469564094085:1.0022559125650159] [-1.9417089515555059:5.1461489609771185] [-1.0464627474136121:2.0135198745751772] [-3.7200904824281911:2.6586839143793233] [-5.4544654479355064:1.8021470809244853] [-2.5190975719312525:3.0600151902730617] [-4.8655975170871759:3.1955479685878112] [-4.0127109718889367:2.8863134253022631] [-4.3745269397433653:6.9056024532321194] [-6.6004817934788163:1.6611606142697728] [-1.529610010207421:2.9153318826048706] [-2.474343375619354:2.6049649134584767] [-1.9902937768198377:2.0494330862358252] [-4.1301887445278496:3.8783606139500653] [-2.2591172265217989:4.6264372341691224] [-3.3423936635248079:2.4402068381752264] [-2.3847417279089509:3.3091469694962057] [-2.8213511095330062:3.9263680023508769] [-3.2027305609065304:2.2957726463794677] [-0.64528553472109207:5.3365052393175985] [-5.3401657538244551:2.3401270137858576] [-2.9491596637818889:2.5387935136020308] [-7.4611278889760033:2.1229004246021419] [-5.0689217539105167:0.7070215839647187] [-1.7491315617355627:2.9884880208656504] [-7.2002810832037873:2.8225234069551273] [-4.8109193104694699:0.56017601286225449] [-6.08488610306454:2.6325621391228227] [-2.6581882030639061:6.8789381338522748] [-2.7147000350734078:2.6069920379824367] [-4.3835388101055157:3.198627060217051] [-4.8955268063261075:1.9206238274645424] [-3.6951765264737335:2.2034707415013419] [-2.2566741535962551:3.1590582136866643] [-3.3293950499048783:3.2392342746202156] [-6.57030634236102:2.3302496052650223] [-5.1894172639775142:3.1986477914496798] [-4.9525791075703083:2.8140426413936166] [-6.4304418052076731:1.7508833586697707] [-2.871355082643869:2.3391797482151775] [-5.3639760184722283:2.5876145867835176] [-2.190484932370321:3.516979501281202] [-4.1928861501764159:3.8652008868014405] [-6.218071984394193:2.0339545006971336] [-2.7618515544054651:2.8920190487952184] [-2.5991787644053845:2.8510595349619607] [-1.9555273233691355:2.5255413868498411] [-4.2986138215431033:2.8570884052505532] [-6.4224064064467044:1.6928986644412005] [-2.9358126023988933:2.971377356429028] [-4.3050228294082169:1.6573157652208426] [-5.2298573369978669:2.546637280196014] [-3.8710135260296696:1.0501033740504511] [-5.9237263448161572:1.2231809533469564] [-4.8910680747468103:3.3501635680036248] [-3.3288662719269193:2.0544923163533952] [-6.2987240258485713:1.4519900511404231] [-2.1834058544416779:2.9990932240740631] [-2.151895618471221:3.0715030411424986] [-5.3519361203668296:2.7028411321004269] [-3.8808066803021477:2.3768901078202176] [-1.1293643341357538:2.7910358055260791] [-2.0331059512239875:3.0867966687090562] [-4.7943986319703313:1.890912270179145] [-2.8321799937252821:3.6391631900256698] [-2.4246899189515272:3.0258596301289864] [-5.5968034957726713:2.7648714619406056] [-2.5601087129473328:1.89536654594686] [-2.6238944592836728:2.8532925580938131] [-2.1037197410255608:2.5501146695618142] [-2.8342466439938496:2.8794100048637081] [-1.9659983776231487:1.9608199670994015] [-5.3088133019389208:2.32508165093508] [-7.0757437757070587:3.9914573299901885] [-2.9970046019012391:3.0998157176874099] [-2.6350936933548939:2.3588676865894791] [-3.1890763695523789:2.8917518737999095] [-3.131922913247231:5.3705860120238329] [-3.4163266541150459:2.8999885231950562] [-2.9251406510345941:2.5689872504431115] [-3.2928053608232823:2.4266780146300233] [-5.0809746164096614:2.8560489942888987] [-4.2071883400819035:6.2361252100557669] [-3.3592650330268583:2.5398224523938655] [-3.6453366219594456:1.9189757092615833] [-2.087718241126804:3.3269350995441886] [-3.0823583024955843:2.3913335119286239] [-3.0093004884483547:1.8658940151298746] [-4.3667473449485712:1.7760401550848464] [-3.6880637816895487:2.0867975076196128] [-3.9123249538661482:2.1704095444817764] [-2.467792386114962:4.3932758142697184] [-3.6813913492636279:3.6145682593217892] [-6.5875345630533593:0.60367841649267517] [-7.8489021473652354:0.84293384457383203] [-2.9483683481828535:3.6258407631447214] [-2.6057004916567914:2.5279654878338325] [-3.7710950050508387:2.4719900067777187] [-2.9123054612081569:3.1984159912766619] [-1.7325097869664166:1.6895446597923462] [-3.4452309001668957:3.0413150939594757] [-2.8545851659545201:3.0023717738284241] [-3.7157865783777577:3.2114780078706389] [-2.8807938297870641:3.2721952335237279] [-3.5018736152854002:3.3446794826303821] [-2.9963699283490475:2.9852175530370024] [-2.926494686428887:5.4030161533085952] [-3.2006648706966851:3.4941551788901193] [-3.2218176421067248:3.5419993779823966] [-2.0687012472498036:4.1895081064088515] [-3.9812692040493669:2.2095184852959151] [-4.6250557707019251:2.6322847391240227] [-3.9316808136790624:2.2396165082921295] [-3.3052707832045347:1.9918462333017222] [-7.0016641050822113:1.6620661607293425] [-3.2603596139690576:2.9768111292347248] [-7.0626154586188159:2.7333253262421038] [-4.1813962689650159:3.8522345326824565] [-5.010787557373436:3.4655990589569368] [-2.81484504680737:2.7472646705951469] [-2.7191057714468996:2.2863417408111415] [-4.0172370274567539:2.2515020811820512] [-2.9518728314046339:2.5751181508086303] [-2.5444001265701681:3.7852041138290797] [-6.0894607563054253:3.1448146196386473] [-3.5607110449741506:2.6787305977573479] [-4.8986308028517644:2.747424475111127] [-2.8135880528589849:2.3950883948892763] [-2.7416264872658647:2.1745964294861633] [-4.2838930181945214:2.7964912881895954] [-4.119617368229636:3.5629460027441207] [-4.6349840265098141:3.1244146100191799] [-4.4875046841507142:2.7935824846097983] [-2.8615012799640605:3.071366159655248] [-2.8402788966801955:2.3374551161270714] [-2.3064862470724847:2.7869599930090705] [-1.6185017708886091:3.3435835379480712] [-2.7610479276152708:2.3412025413558517] [-6.4068409182549937:2.0794588930634017] [-2.1751459113434137:4.7376916654939638] [-3.2462119606202471:2.0368314302861115] [-6.7702384565956093:1.2692928501701153] [-1.5462826146709605:3.812144096469718] [-4.1212484069008566:2.7166428980863677] [-3.7167978618089395:1.8681289597427166] [-3.7714176047389865:2.4943470726672672] [-5.0397420868756804:2.9345451054236906] [-3.1236727893000151:2.0456650946674615] [-2.0468561976070947:3.7241828358818134] [-2.2921017059737823:0.86566576561804653] [-0.97428479735849605:1.8931953430782167] [-4.4395619854776909:2.5425499207151576] [-3.2793867816412603:2.2627184813871746] [-2.7642168127863309:3.264705071372485] [-3.6221573921584906:1.7741933660335045] [-3.2732494703228507:2.5604563483720866] [-1.6549316664585616:6.4611112483105684] [-1.8963637324045708:4.0899184367790582] [-6.153717351615887:2.4484217417878757] [-3.9911077172958755:2.8666778919506348] [-7.1569387504019817:2.3803064307425545] [-3.6028414698230544:2.049565224650864] [-2.4321002821404853:3.8530258320569875] [-6.3491940117136956:1.6025559266965799] [-3.5649514111574354:6.0790237770605726] [-2.6485036674420859:2.9131763561911299] [-2.5944792255702676:4.9036512819912375] [-1.7701779254721894:4.3352068970423092] [-3.7860669819812598:2.6737382539203662] [-3.116875513814839:2.5780220427782772] [-2.8686221449673748:2.3966470652895695] [-4.3677096240996747:3.3639309096309127] [-2.6005155033098797:2.0971057477526083] [-6.8338870999185071:1.9573865252491554] [-2.1447935255934869:1.0089237992750313] [-6.2271306813883243:3.4196793398620851] [-3.1627070425001764:2.6744359207730821] [-3.4049324736328104:3.0100154507335306] [-2.5636885438635484:2.7147855087385908] [-6.227153556627294:1.8592578366408248] [-2.0416518908302046:2.7448337651595542] [-2.8835430164510294:3.1467623981673998] [-2.6496309505305811:2.4136711655062588] [-3.83677097464279:5.2032012533531473] [-3.5256731285033274:3.0459837562280749] [-4.5742844724208842:2.16731758967626] [-4.8756546281723887:2.4614631664154634] [-2.6171491920789736:3.4588194109513695] [-3.6065694320724577:2.5743716980180329] [-6.7899048924235412:2.1564856440503677] [-2.6762536552710547:3.0581749536169531] [-3.5193439428631628:3.0693176853351503] [-3.1863800264281643:3.0936102158433791] [-2.4451898223813342:4.7439422072294883] [-3.0842604499540185:2.7080156979428276] [-2.2364939721826502:2.8185177246376933] [-3.8442888518345204:2.8485366778365315] [-2.6373641400705115:3.1491819799243252] [-4.4802150822356435:2.5099547519346297] [-4.1967751795909862:5.6352158152239067] [-3.3334575364151866:2.9661816204768092] [-3.918638356131166:2.9691742007672168] [-3.2455030699755167:4.0451649410904098] [-7.2243876144128842:2.277561010605313] [-3.6639105968834729:2.5276866453584015] [-3.183200992243997:3.3196982351535747] [-3.5831508717205058:2.6471761333979873] [-2.9408981339843017:2.2707706641495902] [-3.0784030022338369:2.7669763811075025] [-3.2868076273892655:2.8690214032924608] [-3.41146030974368:3.2503594553891397] [-3.6119374276863701:2.4079257228366635] [-3.3698113444440123:2.5967190412466139] [-4.2593958078262153:2.8192644108543061] [-3.1940512124918721:1.0312557308919068] [-2.8476431282485115:2.597615297401402] [-3.7516904105234419:3.2713898975541711] [-3.4811372200297193:3.845600764299471] [-5.7599130277096666:1.2841245089064759] [-3.1898318114591691:3.1245108924752487] [-3.6128969297134033:2.285425516821483] [-4.1637990930577793:2.2587472997622706] [-3.1869774947639704:3.1403617203467613] [-3.9458822062356136:2.5955449413162306] [-3.5455252221544846:3.0981111944648441] [-4.5392289818529807:1.2330161098834993] [-2.8406969072116497:2.9800316291014397] [-7.5985127319333774:1.5594340999621066] [-3.6046811576220015:2.3742878892876615] [-4.1525044371419746:2.4619248708941881] [-3.492597928831326:2.0209416991498004] [-3.0029442443539529:3.0514293844245834] [-5.4537006763136535:2.3701986564543125] [-6.6973280040476828:6.6398421649557511] [-5.5338192759109575:2.0719679912672309] [-4.324646675848931:1.8363583230546767] [-3.1192173556183835:2.3986624763247284] [-3.7553891352943496:2.2782603267050967] [-2.2683258309139349:5.4642387761546365] [-2.8044428580586218:2.4597895055372723] [-1.8600586504098349:3.2572878359207937] [-3.7284455410648509:3.2057375445400931] [-5.3104230935368015:1.9931083067407949] [-3.5377268835016227:0.80579091694864979] [-3.4367591897835368:2.183152501813165] [-2.9964180235628821:2.31602115815069] [-2.9418732380125974:2.3846557137099404] [-3.0276374267477224:2.7150796645842568] [-3.1499893599997582:2.8066242984683414] [-5.5387786833583306:2.2177394240321719] [-3.9135684102548778:1.7799272693886177] [-2.4481487165071201:3.9192430880049307] [-3.4256366986791185:3.4736727716282312] [-1.6196336411080192:2.8291003393858132] [-3.1010565114520805:2.6983272157999969] [-2.7323896955139855:2.1517305310734924] [-6.7633515016911838:2.8562658047372835] [-1.8431206966759073:1.3171473948388068] [-2.3034450111443951:4.2835711685623901] [-1.008418772940135:3.7351267249593398] [-4.2307982847887917:2.1713449170846228] [-1.9404451664002462:3.2267091002969681] [-3.5186514740618144:3.3381515677884921] [-2.7018723277400931:3.1758287418091635] [-4.0197443494666221:2.3303137666195024] [-3.1520098038643183:2.4809381415937484] [-5.2957054448747849:2.031832579221192] [-1.3014405540367275:1.496110706763943] [-2.2474502308384747:3.1257795885126929] [-2.6114845975110828:2.7913836793823279] [-2.6615796544885142:2.8356076401447154] [-0.94395026243000058:3.3407795514376266] [-1.9623952719140745:1.875151056572776] [-3.2062737784099546:3.5094087058214742] [-2.9145929930508805:2.7322589074988781] [-3.972699975959848:2.4697337106117883] [-3.2091710696997122:2.6869449938389369] [-2.584477717365433:3.3949563478518794] [-5.6779716740160602:3.0339109712917525] [-3.3051486271855706:1.2099143925520635] [-2.8390232174440673:3.3890587312264366] [-0.16247254954170848:2.8216920183515706] [-2.3331752960301806:2.9535263044367168] [-3.3299909305915425:3.430780313806733] [-3.9613910831684382:4.9657581836168125] [-3.7931305221745126:0.69418139038018156] [-2.9744233327640757:3.2793269624105945] [-3.3956762813874102:2.5114464365429443] [-2.435729679843631:4.130566846942938] [-1.5280401650731461:1.624749821211015] [-5.3161003151301429:0.7790975005359484] [-4.5054705265008392:2.445494359916855] [-5.2335964429244255:2.0789115012478288] [-1.3277019106100223:4.8681269503806206] [-2.5322577639064554:2.6193706296062724] [-1.2425826837247256:1.8086339718265088] [-3.5738868398327135:2.6413480085796701] [-6.512475351756053:3.3353009140767882] [-4.6568894511896541:2.12857881355017] [-3.0365273867711702:2.7973478834041825] [-1.0887715029748248:2.2137901017507167] [-5.8529550819706868:2.4269746080317103] [-3.2748732667229805:2.6424743474576524] [-3.3331439708229338:2.1281247987831731] [-4.4992309988811154:2.5281672321399746] [-4.8678477325572791:3.9162731630894023] [-3.3755375637627072:4.2385886151661509] [-2.2793916817141064:2.8233062878850936] [-2.4776650091059982:3.209954478860678] [-2.2702539647219613:3.3129122388133538] [-2.0048797338275928:0.66591962034765262]
tree_sizes=2225 2356 2465 2355 2580 2463 2360 2360 2463 2576 2472 2587 2362 2476 2359 2578 2471 2357 2351

Tree=0
num_leaves=20
num_cat=0
split_feature=135 382 485 466 88 317 10 251 155 70 22 367 435 2 1 1 0 0 0
split_gain=29.063 18.9074 15.0659 12.9335 13.3954 12.3012 12.1775 11.4102 10.998 9.06844 6.14542 6.08103 10.5756 0.898987 0.332798 0.269954 7.10543e-15 3.55271e-15 1.77636e-15
threshold=-0.33833511654046849 -0.53647690823798044 -0.69836279701511506 -0.18985147817798059 -0.34910567634785283 0.85116762981040262 0.11991487557845508 -0.043079171976986054 0.94060550455523895 -1.0238255983546511 -0.7056580140705998 0.31195665434079928 0.01356987078550225 -0.59309966623409272 -1.6218693538867335 0.59357758209497968 0.11220118074425545 0.53472013769849336 0.53472013769849336
decision_type=2 2 2 2 2 2 2 2 2 2 2 2 2 2 2 2 2 2 2
left_child=9 5 6 15 -5 7 -3 -2 10 -1 -6 14 -13 -8 -11 -4 -9 -16 -12
right_child=1 2 3 4 8 -7 13 16 -10 11 18 12 -14 -15 17 -17 -18 -19 -20
leaf_value=-0.32760076394053306 -0.32760076394053306 -0.3672195628793759 -0.43060964118152445 -0.25402299448268212 -0.33696520732607771 -0.37442298086825643 -0.22459188669954161 -0.22459188669954158 -0.28077854701280969 -0.41000786573332609 -0.43060964118152462 -0.28639721304413646 -0.43060964118152445 -0.26579543759593821 -0.43060964118152451 -0.41000786573332615 -0.22459188669954161 -0.43060964118152445 -0.43060964118152445
leaf_weight=4.3685553967952755 3.8831603527069083 3.1550677865743655 4.6112529188394573 3.3977653086185482 2.6696727424860001 2.6696727424859992 2.9123702645301819 5.824740529060362 2.6696727424860001 2.4269752204418209 2.6696727424859947 2.4269752204418173 2.6696727424860001 2.4269752204418182 7.7663207054138166 2.4269752204418182 2.9123702645301819 2.4269752204418182 2.4269752204418182
leaf_count=18 16 13 19 14 11 11 12 24 11 10 11 10 11 10 32 10 12 10 10
internal_value=-0.345206 -0.322002 -0.345478 -0.368325 -0.340251 -0.276914 -0.28934 -0.256287 -0.368325 -0.392123 -0.398419 -0.408032 -0.361937 -0.243321 -0.426648 -0.423506 -0.224592 -0.43061 -0.43061
internal_weight=0 44.6563 29.3664 20.872 13.8338 15.2899 8.49441 12.6203 10.436 22.0855 7.76632 17.7169 5.09665 5.33935 12.6203 7.03823 8.73711 10.1933 5.09665
internal_count=275 184 121 86 57 63 35 52 43 91 32 73 21 22 52 29 36 42 21
is_linear=0
shrinkage=1


Tree=1
num_leaves=21
num_cat=0
split_feature=135 382 467 485 466 88 303 155 70 394 196 95 152 262 4 128 392 29 13 259
split_gain=26.3679 16.8343 14.7679 13.5426 11.8864 11.9596 11.4168 9.95841 8.37242 6.96073 8.16925 6.03932 5.97415 1.35654 0.355139 0.281122 0.0201996 0.00282992 0.000835642 0.000319384
threshold=-0.33833511654046849 -0.53647690823798044 0.46315379754757652 -0.69836279701511506 -0.18985147817798059 -0.34910567634785283 0.05357056963574431 0.94060550455523895 -1.4033598625953316 -0.62076747967541002 0.10652029905421477 1.0542157918111055 0.45911265649840138 -0.29821584177198834 -0.60301967407038504 0.27606864741960763 -0.17812517716601933 0.071747047435600605 -0.18870541330177695 -0.48187174628599228
decision_type=2 2 2 2 2 2 2 2 2 2 2 2 2 2 2 2 2 2 2 2
left_child=8 2 11 6 15 -6 -3 12 -1 10 -10 14 18 -11 -2 -5 -16 19 -7 -15
right_child=1 3 -4 4 5 7 -8 -9 9 13 -12 -13 -14 17 16 -17 -18 -19 -20 -21
leaf_value=0.033792463893746343 0.0929793968559567 -0.00052134113080028839 -0.027659064550061771 -0.082826856006801064 0.08542524436477783 -0.083795671355646958 0.1153506702648667 0.06058043495829072 0.059149082827929217 -0.041867660807171331 -0.06552209914202467 0.02422909324986856 0.0095668970775721115 -0.083202102129178404 0.11259058821186048 -0.061640968337988156 0.11802711345667503 -0.084421021450457615 -0.082505633965172631 -0.082505633965172659
leaf_weight=2.9209265112876919 2.4652740359306318 4.6344900280237216 3.4077974259853354 4.5456269234418896 3.4441400766372707 2.4047017991542816 3.927205353975296 2.6965041160583496 2.4226529598236128 2.3999649882316634 2.8713019341230392 2.6893968433141699 2.656288668513298 2.3973545134067562 3.7031058222055417 2.388620138168335 3.1722742468118685 3.6179831027984619 2.6263591200113243 5.2527182400226478
leaf_count=12 10 19 14 19 14 10 16 11 10 10 12 11 11 10 15 10 13 15 11 22
internal_value=0 0.0219633 0.0642236 -0.000284952 -0.0221048 0.00468552 0.0526286 -0.0220944 -0.0450073 -0.0571457 -0.00846929 0.0902515 -0.0510944 -0.0759992 0.109261 -0.075529 0.115099 -0.0832688 -0.0831222 -0.0827239
internal_weight=0 44.7618 15.4378 29.3239 20.7622 13.828 8.5617 10.3839 21.8829 18.962 5.29395 12.0301 7.68735 13.668 9.34065 6.93425 6.87538 11.2681 5.03106 7.65007
internal_count=275 184 63 121 86 57 35 43 91 79 22 49 32 57 38 29 28 47 21 32
is_linear=0
shrinkage=0.05


Tree=2
num_leaves=22
num_cat=0
split_feature=135 382 10 402 8 406 443 212 29 258 407 159 47 504 458 147 107 126 102 310 404
split_gain=23.971 15.0489 12.0678 13.4276 10.9977 10.2593 10.1276 7.85393 8.77641 6.11896 7.16006 6.06847 5.46406 5.06516 0.358365 0.24169 0.0127524 0.0127037 0.00693193 0.00180884 0.00018628
threshold=-0.33833511654046849 -0.53647690823798044 -0.093959728049486949 -0.4550397769961726 0.70811809187366437 0.37413621549392068 0.77901629409013484 0.85975687409237544 -0.53130912768909033 0.2566317157470886 0.25636537168480555 0.79758959286549058 0.39714878833219702 -0.34894988062214355 0.17140263129863037 0.25611812324965738 0.61880275452646238 -0.040603473971579408 -1.099449018342632 1.0000000180025095e-35 0.10956659115829059
decision_type=2 2 2 2 2 2 2 2 2 2 2 2 2 2 2 2 2 2 2 2 2
left_child=7 5 6 13 11 12 14 9 -9 18 -11 15 16 -4 17 -5 -2 -3 -1 20 -20
right_child=1 2 3 4 -6 -7 -8 8 -10 10 -12 -13 -14 -15 -16 -17 -18 -19 19 -21 -22
leaf_value=-0.083747830320654151 0.10653968684956233 -0.086856117136743252 0.029314620779958341 -0.081562336048905934 0.068056767895046277 -0.0096494123974924587 0.034176801332912586 -0.06158473512818257 0.067786304090700911 -0.080557931580870518 0.036966611029244645 0.017204759010520414 0.036264010778123378 0.11130541023546732 -0.060545996407017411 -0.060297570022091379 0.11061201816633986 -0.081715067208396483 -0.080514555533449828 -0.081890573932869581 -0.079969073092925724
leaf_weight=2.4004974514246014 3.7353549599647504 2.4363294839859009 3.4150096476078033 3.0801037698984128 3.182442218065261 3.8933669477701178 2.9051947891712189 2.3801613301038742 2.9182457178831092 2.3527577668428412 2.8853277266025543 2.9013332724571228 3.9449218213558197 4.2006960660219219 2.3647299557924271 2.3600759506225586 3.9608655124902725 2.3710417151451129 3.5300478488206881 2.3745090514421463 2.811749204993248
leaf_count=10 15 10 14 13 13 16 12 10 12 10 12 12 16 17 10 10 16 10 15 10 12
internal_value=0 0.0208479 -0.0002943 0.0230227 -0.0110226 0.0606117 -0.0445799 -0.0432358 0.00966998 -0.0603753 -0.0158211 -0.0411928 0.0841104 0.0745394 -0.0764818 -0.0723372 0.108636 -0.0843205 -0.0813687 -0.0807134 -0.0802727
internal_weight=0 44.7515 29.217 19.1397 11.524 15.5345 10.0773 21.6533 5.29841 16.3549 5.23809 8.34151 11.6411 7.61571 7.1721 5.44018 7.69622 4.80737 11.1168 8.71631 6.3418
internal_count=275 184 121 79 48 63 42 91 22 69 22 35 47 31 30 23 31 20 47 37 27
is_linear=0
shrinkage=0.05


Tree=3
num_leaves=21
num_cat=0
split_feature=362 81 446 256 235 69 122 318 20 54 109 391 480 497 169 191 514 426 99 398
split_gain=21.9353 15.9467 11.9277 11.7708 10.3483 13.8207 9.9098 11.191 9.19849 6.68961 9.90009 6.42773 4.9155 2.22395 0.98993 0.0279502 0.0231076 0.0131484 0.00376058 0.000896513
threshold=-0.77868112075414875 0.27466145876930842 0.41779463900552777 0.31658746249214115 0.1798146850317319 0.32871670282527116 0.27558147311850023 -0.29423753306770428 -0.061553600837938101 -0.52468910059397167 -0.45409418960486087 -0.6446083849138281 0.38436239196730898 0.76614029104767012 -0.75070292817003403 -0.0059975966578069357 0.17647597336277063 -0.6047600831767731 -1.3373233434000105 -0.70698667694108253
decision_type=2 2 2 2 2 2 2 2 2 2 2 2 2 2 2 2 2 2 2 2
left_child=2 6 12 4 16 -6 9 -8 -5 10 -2 -9 14 17 -1 -16 -3 -11 -19 -20
right_child=1 3 -4 8 5 -7 7 11 -10 13 -12 -13 -14 -15 15 -17 -18 18 19 -21
leaf_value=0.068651729609910325 0.061887465527857677 0.11185135094137817 -0.018755823671094823 -0.081275038741926944 -0.082091939241848058 0.080254106497822691 0.091370260476647494 0.034607824825822489 0.025344220071866583 -0.082701674613886555 -0.065896244230637821 -0.068623265043861834 0.015371959565394753 -0.031492662600423778 0.10894813885533738 0.10235719027968136 0.10502611707707375 -0.080302094066444119 -0.079135099396650976 -0.077907894603836861
leaf_weight=2.4638355076313001 2.6678747832775116 2.4691186994314211 4.3661249727010718 3.7665484845638275 2.3629634231328964 2.9445548355579376 2.7246129661798477 2.4247735887765884 4.3700117915868741 3.3313651680946377 3.5098987966775921 3.9879145771265012 2.4264818280935279 2.8567770123481742 3.4719068557023984 2.9970630854368228 2.491422638297081 3.9859263151884106 2.3240568041801479 4.1378999799489939
leaf_count=10 11 10 18 16 10 12 11 10 18 14 15 17 10 12 14 12 10 17 10 18
internal_value=0 -0.0161655 0.0514826 0.0209078 0.0565025 0.00797593 -0.0375206 0.00647905 -0.0240116 -0.0551432 -0.0107128 -0.0295894 0.0784798 -0.0716424 0.0956223 0.105895 0.108423 -0.0799664 -0.0790943 -0.0783493
internal_weight=0 50.3557 15.7254 18.4046 10.2681 5.30752 31.9511 9.1373 8.13656 22.8138 6.17777 6.41269 11.3593 16.636 8.93281 6.46897 4.96054 13.7792 10.4479 6.46196
internal_count=275 211 64 76 42 22 135 38 34 97 26 27 46 71 36 26 20 59 45 28
is_linear=0
shrinkage=0.05


Tree=4
num_leaves=23
num_cat=0
split_feature=135 382 467 485 466 88 10 155 70 494 108 367 435 247 137 402 467 297 354 144 304 224
split_gain=20.3109 12.2913 11.58 10.9804 9.66581 9.7444 9.00999 8.35354 7.00091 5.20247 5.08515 5.0496 8.65211 0.89568 0.350959 0.34322 0.325635 0.0207668 0.00630552 0.00500399 0.00142766 0.000106537
threshold=-0.33833511654046849 -0.53647690823798044 0.46315379754757652 -0.69836279701511506 -0.18985147817798059 -0.34910567634785283 0.11991487557845508 0.94060550455523895 -1.0238255983546511 -0.023837325762222281 -0.77180446306999007 0.31195665434079928 -1.0000000180025095e-35 0.041151285225359192 -0.79427229069243677 -1.0183898211307409 -0.24842180580196591 0.49223769885716878 0.45694693174861839 0.18157500102464863 0.23100988673415915 -0.097574118486196418
decision_type=2 2 2 2 2 2 2 2 2 2 2 2 2 2 2 2 2 2 2 2 2 2
left_child=8 2 10 6 16 -6 -3 9 -1 -7 -2 14 -13 -8 -10 -12 -5 -17 20 -11 21 -16
right_child=1 3 -4 4 5 7 13 -9 11 19 15 12 -14 -15 18 17 -18 -19 -20 -21 -22 -23
leaf_value=0.015991621094003636 0.017289004421001036 -0.020719934691920273 -0.026960069813357856 -0.05444349105059812 0.075908887790607588 0.0083108608919630796 0.063622040586080161 0.054134552996673614 -0.055185691732309972 -0.077264760528608561 0.078941231177638627 0.054341721544097388 -0.077772264507590297 0.10423528194117795 -0.076074691063387462 0.098523546105172111 -0.077822566656276196 0.10421388881325473 -0.079330706310916196 -0.080475557380276452 -0.07730231773866951 -0.07559891927314305
leaf_weight=4.3624630272388485 2.7175889462232581 3.1134234815835971 3.3833934068679801 2.2625404000282288 3.486991927027705 2.6463596373796463 2.4855011403560638 2.7232441157102585 2.2671453058719662 2.5084123760461754 2.4923182129859907 2.4401092380285263 2.518180936574935 2.9914624691009521 2.2525375038385418 4.4954851418733597 4.358788430690768 2.4922573864459991 2.3286680281162262 2.3506150394678116 2.5095876902341843 2.4634466767311052
leaf_count=18 11 13 14 10 14 11 10 11 10 11 10 10 11 12 10 18 19 10 10 10 11 11
internal_value=0 0.0190825 0.0548842 -0.000201338 -0.0202224 0.00372786 0.0471968 -0.020879 -0.0404369 -0.0480968 0.0775863 -0.0551075 -0.0127554 0.0858046 -0.0728714 0.0948713 -0.0698338 0.100553 -0.0770681 -0.078818 -0.0763389 -0.0758262
internal_weight=0 44.5084 15.581 28.9273 20.337 13.7156 8.59039 10.2286 21.1421 7.50539 12.1976 16.7797 4.95829 5.47696 11.8214 9.48006 6.62133 6.98774 9.55424 4.85903 7.22557 4.71598
internal_count=275 184 63 121 86 57 35 43 91 32 49 73 21 22 52 38 29 28 42 21 32 21
is_linear=0
shrinkage=0.05


Tree=5
num_leaves=22
num_cat=0
split_feature=135 446 324 453 252 493 380 40 226 465 62 5 146 519 168 348 209 143 496 354 473
split_gain=18.5585 11.2945 14.2175 13.4189 9.99192 7.4446 10.859 7.41757 6.81263 11.4789 4.96691 4.20225 3.35804 2.16207 0.367458 0.0788841 0.0259434 0.0181635 0.0139478 0.00667764 0.00486724
threshold=-0.33833511654046849 0.17873776517314591 0.57126975977115146 0.36721685963715561 -1.0863873421218935 0.52838885833128668 0.52490828609417617 0.40984138266910547 -0.16927121274522552 -0.57565010195824551 -0.8736757978372417 -0.15945569053583616 -0.84936700471868798 0.47780677711087144 -0.66854792145252284 -0.54937292123126269 0.51552306715157037 -0.11037477381180402 0.020024145332030962 0.4147043864452048 -0.31385143757547967
decision_type=2 2 2 2 2 2 2 2 2 2 2 2 2 2 2 2 2 2 2 2 2
left_child=8 3 4 5 -3 10 -7 13 14 -10 -2 -11 -12 17 -1 -14 -17 -6 -16 -13 -19
right_child=1 2 -4 -5 7 6 -8 -9 9 11 12 19 15 -15 18 16 -18 20 -20 -21 -22
leaf_value=-0.054020184323352011 0.013481908158397643 0.065716965851583375 0.080567606630982322 -0.064805012244819701 -0.081625974229678044 0.067087459892973059 -0.077906815364417736 0.019009969617870437 0.051049819339105296 0.0046741756072046 0.036640241055584451 -0.074808037757742488 0.10763778434379999 -0.031237924270201681 -0.075646251007734922 0.099568878595559851 0.09345460562975226 -0.074850671509646916 -0.080310942589471898 -0.078422432338202203 -0.078061579088338509
leaf_weight=2.2282489836215973 2.8514756560325649 2.4617109298706117 3.6933755725622168 2.6050095856189719 2.8249588906765011 2.9773740619420996 2.2802695631980896 3.626805141568183 4.3088565319776535 2.3111674338579178 2.6591289639472988 2.8779840767383558 2.4707591533660906 3.5682345181703568 4.240462079644205 4.7448250651359523 2.7349111288785934 2.2154113501310375 2.5760008543729782 2.2984386384487152 2.5258384197950292
leaf_count=10 12 10 15 11 12 12 10 15 18 10 11 13 10 15 19 19 11 10 11 10 11
internal_value=0 0.018227 -0.00845091 0.0421513 -0.0275405 0.0555991 0.00420263 -0.0430929 -0.0389999 -0.0139683 0.0730768 -0.051384 0.0865533 -0.0633216 -0.071647 0.0998919 0.0973332 -0.0784522 -0.0774091 -0.0764129 -0.0765612
internal_weight=0 44.2401 20.9163 23.3238 17.223 20.7187 5.25764 14.7612 20.8412 11.7964 15.4611 7.48759 12.6096 11.1344 9.04471 9.9505 7.47974 7.56621 6.81646 5.17642 4.74125
internal_count=275 184 88 96 73 85 22 63 91 51 63 33 51 48 40 40 30 33 30 23 21
is_linear=0
shrinkage=0.05


Tree=6
num_leaves=21
num_cat=0
split_feature=135 382 467 10 402 8 506 70 95 367 26 371 504 176 240 16 209 354 499 20
split_gain=16.9598 10.4132 10.1572 9.47447 9.91573 8.60273 7.65233 6.42945 4.7076 4.64483 6.81697 4.50032 3.98537 0.356953 0.353683 0.325312 0.0246615 0.00509323 0.00122037 0.000424772
threshold=-0.33833511654046849 -0.53647690823798044 0.46315379754757652 -0.093959728049486949 -0.4550397769961726 0.70811809187366437 0.60597509647074388 -1.0238255983546511 1.0542157918111055 0.31195665434079928 0.23173377727390024 0.13625386933531838 -0.34894988062214355 -0.22483763870731927 -0.88507114984174806 -0.40412368270668814 -0.37173687843253495 0.45694693174861839 -0.56874367936321224 -0.49086866899210507
decision_type=2 2 2 2 2 2 2 2 2 2 2 2 2 2 2 2 2 2 2 2
left_child=7 2 8 6 12 11 15 -1 13 14 -11 -6 -5 -2 -9 -3 -15 18 -16 -20
right_child=1 3 -4 4 5 -7 -8 9 -10 10 -12 -13 -14 16 17 -17 -18 -19 19 -21
leaf_value=0.016469364033029236 0.07208459746109018 -0.055588648264042195 -0.026481342707945943 0.023762465780351679 -0.076703210683866041 0.059806852204535889 0.024549201735128642 -0.051481297061537049 0.013678832907741627 0.043207052331400861 -0.07562221256054058 -0.0016494268415939905 0.096492690482354274 0.098215727127706542 -0.07420465271151537 -0.079035785741851938 0.092006256668515224 -0.075970342967759952 -0.073248505477406231 -0.07230066285498804
leaf_weight=4.3354298174381283 2.4639636874198896 2.2383933961391449 3.3633032441139212 3.3959984332323074 3.8202013075351697 3.1743762493133536 3.0621805787086487 2.1764570772647884 2.7123372852802268 2.6363639980554572 2.2260112017393112 4.1855789870023727 4.2292969077825573 2.4925370812416059 2.1956866085529354 4.3622258603572863 4.4605060815811175 2.2466828674077988 2.3822528570890453 2.3460907638072896
leaf_count=18 10 10 14 14 17 13 13 10 11 11 10 18 17 10 10 19 18 10 11 11
internal_value=0 0.0174142 0.0504014 -0.00053778 0.0201387 -0.00984566 -0.0407777 -0.0376152 0.07172 -0.0520807 -0.0111934 -0.0374636 0.0641016 0.0884373 -0.0696014 -0.0710844 0.0942322 -0.0739018 -0.0732305 -0.0727782
internal_weight=0 43.9609 15.4926 28.4683 18.8055 11.1802 9.6628 20.545 12.1293 16.2095 4.86238 8.00578 7.6253 9.41701 11.3472 6.60062 6.95304 9.17071 6.92403 4.72834
internal_count=275 184 63 121 79 48 42 91 49 73 21 35 31 38 52 29 28 42 32 22
is_linear=0
shrinkage=0.05


Tree=7
num_leaves=21
num_cat=0
split_feature=362 485 63 126 299 245 10 211 256 226 381 369 6 150 53 407 135 443 488 461
split_gain=16.2667 11.7586 11.4551 10.3957 8.94571 10.5559 8.62607 6.77133 6.9396 7.88798 5.73327 2.99725 2.56794 0.931233 0.879332 0.0732425 0.0326862 0.0209184 0.0139148 0.00556413
threshold=-0.77868112075414875 -0.69836279701511506 -0.062198860506846983 0.053494914333948922 0.62251406906730333 -0.09325073648445964 0.26706262837919503 1.4117967270243217 -0.30144347392823007 -0.31736562599373391 0.21470947503786988 0.36254236554011993 -0.51069741359943033 0.65714257440757584 -0.16109057224990117 -0.51227324590321988 -0.26269104629170792 0.068438308039965881 0.10891656151247038 0.16778463551926107
decision_type=2 2 2 2 2 2 2 2 2 2 2 2 2 2 2 2 2 2 2 2
left_child=3 2 -2 6 7 -6 -1 8 9 14 -11 -4 -10 15 -3 -5 19 18 -18 -14
right_child=1 4 11 13 5 -7 -8 -9 12 10 -12 -13 16 -15 -16 -17 17 -19 -20 -21
leaf_value=-0.048106744830717245 -0.035064187053914869 -0.033704149366222541 0.094726512856102771 0.088045103295814636 -0.045820109446472052 0.077686955956854445 0.06018396472386997 0.034366264450246271 -0.028280750012807804 0.085567241210468839 -0.022280219094535744 0.025537185595551817 -0.071599509649152057 0.057559681101050711 -0.075806271420827062 0.099500166162031028 -0.077198433884908851 -0.074797196980831801 -0.082674115891135547 -0.074665653278615365
leaf_weight=4.0080165416002265 4.1023382097482681 2.1766944080591202 4.4703468233346921 2.4526285529136649 3.1003174930810928 3.9142026901245108 3.398036852478981 2.8110845088958731 3.5831085890531567 2.4436067193746549 2.4860245585441589 2.408609002828598 3.36747731268406 2.424958199262619 2.8824885934591293 3.237304061651229 2.2689242213964507 3.3119542002677917 2.3743361681699753 2.6393040865659714
leaf_count=17 18 10 18 10 14 16 14 12 16 10 11 10 16 10 13 13 10 15 10 12
internal_value=0 -0.0144205 0.0310641 0.0444128 -0.0277901 0.0230986 0.00157907 -0.0395535 -0.0471004 -0.0138326 0.0311795 0.0705004 -0.0660404 0.083505 -0.057692 0.0945625 -0.0757308 -0.077833 -0.0799984 -0.0729467
internal_weight=0 48.3408 10.9813 15.5209 37.3595 7.01452 7.40605 30.345 27.5339 9.98881 4.92963 6.87896 17.5451 8.11489 5.05918 5.68993 13.962 7.95521 4.64326 6.00678
internal_count=275 211 46 64 165 30 31 135 123 44 21 28 79 33 23 23 63 35 20 28
is_linear=0
shrinkage=0.05


Tree=8
num_leaves=22
num_cat=0
split_feature=362 81 126 256 10 235 69 122 195 203 54 109 374 497 308 499 514 426 141 29 35
split_gain=14.8025 11.5891 9.45427 8.832 7.82056 7.64721 10.4941 7.44173 7.38761 7.14382 5.60458 7.47039 5.4609 1.8462 0.868307 0.0471529 0.0461689 0.0202299 0.00625364 0.00370677 0.00113396
threshold=-0.77868112075414875 0.27466145876930842 0.053494914333948922 0.31658746249214115 0.26706262837919503 0.1798146850317319 0.32871670282527116 0.27558147311850023 0.21526660877956141 0.69649446404624371 -0.52468910059397167 -0.45409418960486087 0.086306462730891417 0.76614029104767012 -0.49577951803131465 -0.13961600885964651 0.17647597336277063 -0.86498690972316006 0.32080459410266554 0.056091657504418822 -0.23845910263536604
decision_type=2 2 2 2 2 2 2 2 2 2 2 2 2 2 2 2 2 2 2 2 2
left_child=2 7 4 5 -1 16 -7 10 -5 12 11 -2 -9 17 -4 -16 -3 -12 19 20 -19
right_child=1 3 14 8 -6 6 -8 9 -10 -11 13 -13 -14 -15 15 -17 -18 18 -20 -21 -22
leaf_value=-0.046151126366808411 0.055350837754235077 0.098174420411370034 0.056400739947976966 0.03146279496424155 0.057196810119979027 -0.076332513214985256 0.067918887129865768 -0.074079071212619557 -0.066553344462123673 0.078114490435002362 -0.077216251839799868 -0.058326453145937665 0.019505316306273387 -0.027458825680701418 0.087034167954994371 0.096397348744554398 0.088499144578743069 -0.071356060919130035 -0.074353536009676507 -0.073016336302435481 -0.069955964322934966
leaf_weight=3.9699363410472861 2.6225413084030151 2.4804286956787127 2.6484366655349723 3.5177848935127249 3.396736741065979 2.2020253539085388 2.9496494680643082 2.8205496221780759 4.2389507442712784 2.4592320173978806 2.2505732029676428 3.2193284034729031 3.48471300303936 2.7145822644233695 2.9252765029668799 2.4884688556194305 2.4517323076725006 2.9333447664976102 2.196017012000083 2.3619627207517624 2.8525023311376607
leaf_count=17 11 10 11 15 14 10 12 13 19 10 10 15 15 12 12 10 10 14 10 11 14
internal_value=0 -0.0138853 0.0424477 0.0180098 0.0015021 0.0488645 0.00626025 -0.0329065 -0.0221017 0.00583358 -0.0489596 -0.00729427 -0.022358 -0.064859 0.0798611 0.091338 0.0933649 -0.0729202 -0.0719854 -0.0713472 -0.0706658
internal_weight=0 47.7559 15.4289 17.8406 7.36667 10.0838 5.15167 29.9153 7.75674 8.76449 21.1509 5.84187 6.30526 15.309 8.06218 5.41375 4.93216 12.5944 10.3438 8.14781 5.78585
internal_count=275 211 64 76 31 42 22 135 34 38 97 26 28 71 33 22 20 59 49 39 28
is_linear=0
shrinkage=0.05


Tree=9
num_leaves=23
num_cat=0
split_feature=135 446 324 453 252 491 40 226 465 298 502 146 218 168 448 101 520 362 279 451 70 75
split_gain=13.801 8.74223 11.1925 10.1308 7.89765 7.48196 6.23882 5.69744 9.21148 5.66644 3.82558 2.86947 1.98737 0.368449 0.330648 0.2897 0.031623 0.0280082 0.0262325 0.0142532 0.0130413 0.005345
threshold=-0.33833511654046849 0.17873776517314591 0.57126975977115146 0.36721685963715561 -1.0863873421218935 2.0619614312679579 0.40984138266910547 -0.16927121274522552 -0.57565010195824551 -0.61760964631695503 0.16315917089031237 -0.84936700471868798 -0.49089725384043975 -0.66854792145252284 -0.35109150955151597 -0.69664884501811419 0.27645286749524783 -0.060341150214169997 -0.14456936128655873 0.75558945803585709 -0.27343332653438795 -0.15621111305671906
decision_type=2 2 2 2 2 2 2 2 2 2 2 2 2 2 2 2 2 2 2 2 2 2
left_child=7 3 4 5 -3 9 12 13 -9 -2 19 -11 -6 -1 -14 -13 18 -16 -17 -10 -15 -22
right_child=1 2 -4 -5 6 -7 -8 8 10 11 -12 15 14 20 17 16 -18 -19 -20 -21 21 -23
leaf_value=-0.047711496294421868 -0.0085903598872501177 0.057590112540557341 0.071196586709847826 -0.058411744052513259 -0.017046782838870265 -0.029473166324649431 0.017394595512090393 0.046471388086990972 -0.069399081817767327 0.031439192153407763 0.0073667464969480387 0.068498847917183761 -0.053366169265506018 -0.075234966578927448 -0.080254889109397376 0.086867925581241554 0.083786575462732341 -0.073439150909357084 0.093270118057918239 -0.074866177598753622 -0.068597699767931161 -0.072213012994965894
leaf_weight=2.044092208147049 2.5195009112358173 2.4316021800041243 3.6432123631238928 2.4691022336482993 2.2032820135355022 2.6443653255701056 3.5449540615081796 4.2471909672021866 2.6111455261707288 3.3159254789352479 2.2283158600330353 2.3530048877000853 2.1161816418170947 2.2100138366222382 2.5620592683553713 3.1700388640165373 2.8749461024999619 3.6613112837076098 3.2305595576762984 2.1937841475009918 1.9752502292394636 2.1191754192113894
leaf_count=10 11 10 15 11 10 12 15 18 13 14 10 10 10 10 11 13 12 17 13 10 10 10
internal_value=0 0.0157998 -0.00812937 0.0371696 -0.025624 0.048906 -0.0399871 -0.0348459 -0.0116718 0.060774 -0.0467829 0.0724682 -0.0592813 -0.0661585 -0.0704395 0.0841678 0.0881427 -0.0762451 0.0900993 -0.0718952 -0.0721396 -0.0704689
internal_weight=0 42.74 20.1626 22.5774 16.5194 20.1083 14.0878 19.629 11.2804 17.464 7.03325 14.9445 10.5428 8.34853 8.33955 11.6285 9.27554 6.22337 6.4006 4.80493 6.30444 4.09443
internal_count=275 184 88 96 73 85 63 91 51 73 33 62 48 40 38 48 38 28 26 23 30 20
is_linear=0
shrinkage=0.05


Tree=10
num_leaves=22
num_cat=0
split_feature=491 30 236 174 505 396 37 90 387 515 46 273 13 325 137 135 383 396 81 384 285
split_gain=12.9134 11.0673 10.651 7.96911 7.53083 7.51132 6.76885 6.05744 4.37402 4.08787 2.29536 2.20084 1.89637 0.729815 0.044689 0.038923 0.0286323 0.0217364 0.0137882 0.0124039 0.00336974
threshold=1.1872179906737841 1.2873375826842588 0.06989136569429906 -0.75758105566802081 -1.2157052556609973 1.1124436675542437 -0.59844047899852049 -0.43442107766768578 -0.42037738885640208 -0.64228501755935641 -0.19202597044381578 0.58034534513654534 0.57787788916689975 -0.60520103606073461 -0.27438464209253638 -0.11382104092739258 0.33957138499298667 -0.45603144493899328 0.020497648548708006 -0.38626426308570988 -0.078476186954824778
decision_type=2 2 2 2 2 2 2 2 2 2 2 2 2 2 2 2 2 2 2 2 2
left_child=1 2 4 -2 -1 9 -6 -4 -8 -5 -9 17 15 -3 -12 19 -17 -10 -19 -11 -21
right_child=3 13 7 5 6 -7 8 10 11 12 14 -13 -14 -15 -16 16 -18 18 -20 20 -22
leaf_value=0.04590157304651242 0.038668945778076037 0.054416969005123807 -0.023244312194360059 0.0027220421343201245 0.035686557207858065 0.020042424986830936 0.016019242590422575 0.027805483627653668 -0.07785096071577878 -0.073374837844538146 0.083181297979602997 -0.017717397706836967 -0.025256146481337477 0.089168151761912423 0.092362161674281615 -0.079589040375974293 -0.071686727259466551 -0.069967011100342563 -0.075018428799891679 -0.067886308199838638 -0.070467731586249721
leaf_weight=3.9499015808105495 3.8858986198902157 2.3049339950084686 2.2943254113197327 2.7112713903188768 3.0157341659069088 4.3080087006092063 2.2037987858057031 2.3128525763750076 2.4819882810115814 2.148511499166494 2.8458487391471863 2.225197970867157 2.5898722261190406 4.3852174431085578 2.4810529351234418 2.5235112011432577 2.1003133058547974 3.0427930355071986 2.4295002520084381 3.2951740175485664 2.0511339157819695
leaf_count=17 17 10 10 12 13 19 10 10 11 10 12 10 12 18 10 11 10 15 11 17 10
internal_value=0 0.0191736 0.00591762 -0.0272789 -0.0156893 -0.0390734 -0.0314876 0.0480021 -0.0478467 -0.053693 0.0693984 -0.0616733 -0.0640922 0.0771955 0.0874574 -0.0723919 -0.0759995 -0.0739699 -0.0722097 -0.0701662 -0.0688767
internal_weight=0 35.9731 29.283 25.6137 19.3489 21.7278 15.399 9.93408 12.3833 17.4198 7.63975 10.1795 14.7085 6.69015 5.3269 12.1186 4.62382 7.95428 5.47229 7.49482 5.34631
internal_count=275 157 129 118 87 101 70 42 57 82 32 47 70 28 22 58 21 37 26 37 27
is_linear=0
shrinkage=0.05


Tree=11
num_leaves=23
num_cat=0
split_feature=135 443 136 190 58 70 438 289 322 242 387 367 435 169 265 185 456 365 3 86 499 147
split_gain=12.3763 7.81775 8.23377 8.27992 5.32157 5.32092 5.16378 5.31014 5.08007 6.0158 6.15522 3.8661 6.46431 1.22962 0.925188 0.37128 0.0718718 0.0213289 0.0126495 0.00985865 0.00806915 0.00149332
threshold=-0.33833511654046849 0.3046845244519667 -0.52448499167115326 0.6046240433249358 0.42835086062907884 -1.0238255983546511 1.0425031317137152 0.48446452290629349 0.51283841105181271 -0.44328946258573071 -0.036833292567554785 0.31195665434079928 -1.0000000180025095e-35 -0.49102303112051732 -1.0528703186823383 -0.66110135378254853 0.13786736533840663 -1.0000000180025095e-35 1.0000000180025095e-35 -0.20762223189408943 -0.56874367936321224 0.36354162887900382
decision_type=2 2 2 2 2 2 2 2 2 2 2 2 2 2 2 2 2 2 2 2 2 2
left_child=5 2 4 8 -2 -1 7 13 9 10 -4 15 -13 -3 -11 -7 19 -16 -19 -15 -17 -22
right_child=1 6 3 -5 -6 11 -8 -9 -10 14 -12 12 -14 16 17 20 -18 18 -20 -21 21 -23
leaf_value=0.016105409394561704 0.083081843602912389 0.043415091079861655 0.059515417034958273 0.061529208234333437 -0.00043454004175347478 -0.044917370989652892 -0.022228599590993561 -0.0074231037642703201 0.028067818238887016 -0.037520494847803454 -0.055482733261879282 0.048097871534258881 -0.070468316777581516 0.079796477046265954 -0.071314440193665354 -0.071136882198831838 0.09267131356242897 -0.079662311390243767 -0.074484455960146301 0.084356629765954386 -0.067258622447612895 -0.068998010177457381
leaf_weight=4.2188705056905773 4.0357004255056408 2.260005518794058 2.3707498461008072 2.8443684577941886 3.6167443841695786 1.9558607935905445 2.36759328842163 2.4207331687211981 3.0294763892889014 2.1251580268144643 2.28520587086678 2.3704317063093185 2.2320649772882453 2.3334255963563901 2.4864214658737218 3.1125594824552527 2.4415150582790375 2.3261545747518468 2.3929603546857834 2.4086447805166262 3.2369636148214331 1.9941329061985014
leaf_count=18 17 10 10 12 16 10 11 11 13 10 11 10 11 10 12 15 10 10 11 10 17 10
internal_value=0 0.0151069 -0.000455382 -0.0174341 0.0436098 -0.0334663 0.0451916 0.0586457 -0.0306334 -0.043348 0.00307277 -0.0475004 -0.00940297 0.0755815 -0.0665117 -0.0645249 0.0857013 -0.0750621 -0.0770367 0.0821127 -0.0691211 -0.0679217
internal_weight=0 41.7449 27.5129 19.8605 7.65244 19.1209 14.2319 11.8643 17.0161 13.9867 4.65596 14.902 4.6025 9.44359 9.33069 10.2995 7.18359 7.20554 4.71911 4.74207 8.34366 5.2311
internal_count=275 184 122 89 33 91 62 51 77 64 21 73 21 40 43 52 30 33 21 20 42 27
is_linear=0
shrinkage=0.05


Tree=12
num_leaves=21
num_cat=0
split_feature=135 446 324 453 252 491 40 226 27 34 85 108 84 139 203 101 241 131 274 451
split_gain=11.373 7.13126 9.15298 8.22659 6.60117 5.98157 5.54446 5.29376 7.87961 3.96847 3.14945 2.77404 1.75749 0.373931 0.337953 0.038913 0.0137608 0.0137413 0.0106796 0.0103042
threshold=-0.33833511654046849 0.17873776517314591 0.57126975977115146 0.36721685963715561 -1.0863873421218935 2.0619614312679579 0.40984138266910547 -0.16927121274522552 -1.0000000180025095e-35 -0.55691111230351964 0.17148622077572459 -0.78838221142885201 -0.14061755036657828 -0.38523740668096579 -0.30191939281689673 -0.12015312480467286 0.02147379744684369 -0.10462542779690313 0.38434408571790984 0.71178881112402104
decision_type=2 2 2 2 2 2 2 2 2 2 2 2 2 2 2 2 2 2 2 2
left_child=7 3 4 5 -3 9 12 13 -9 -2 19 -11 -6 -1 -14 -13 -15 -16 -17 -10
right_child=1 2 -4 -5 6 -7 -8 8 10 11 -12 15 14 16 17 18 -18 -19 -20 -21
leaf_value=-0.044413893170228834 0.012834713815417682 0.053196059027527436 0.065100422246816655 -0.054235545647635865 -0.015593805721836943 -0.026798044518207421 0.017324487242659815 0.042324781517299848 -0.066823544968028628 0.024426566916895057 0.0044117642346755111 0.077164956283311936 -0.04899595812614807 -0.067583643612946873 -0.075517625222260229 0.085163946964565668 -0.072402266793587147 -0.070682335298269491 0.080937149711473311 -0.07169678028174778
leaf_weight=1.9180400669574735 4.1227962523698887 2.370914191007615 3.5462419539690009 2.3505029380321494 2.1161902993917456 2.5380872488021842 3.4594820886850366 4.3490470498800287 2.2510372102260563 2.7219218015670839 2.185734823346138 3.6416039913892799 1.9803789407014836 3.2337156087160137 2.6583940833806983 4.1129070669412489 2.73452989757061 3.2850682884454736 2.3472995609045029 2.0935853123664856
leaf_count=10 18 10 15 11 10 12 15 19 12 12 10 16 10 17 12 17 13 16 10 10
internal_value=0 0.0145231 -0.00752256 0.0341269 -0.0237501 0.0447864 -0.0372642 -0.0324278 -0.00981765 0.0555076 -0.0445431 0.0692268 -0.0560737 -0.0636193 -0.0668845 0.0812982 -0.0697914 -0.0728451 0.0836282 -0.0691719
internal_weight=0 41.2518 19.4167 21.8351 15.8704 19.4846 13.4995 18.7657 10.8794 16.9465 6.53036 12.8237 10.04 7.88629 7.92384 10.1018 5.96825 5.94346 6.46021 4.34462
internal_count=275 184 88 96 73 85 63 91 51 73 32 55 48 40 38 43 30 28 27 22
is_linear=0
shrinkage=0.05


Tree=13
num_leaves=22
num_cat=0
split_feature=362 485 95 13 511 446 367 344 282 8 56 456 110 497 311 442 145 466 244 328 309
split_gain=11.1757 8.29225 9.38963 6.78572 7.04676 6.65946 6.11722 8.59111 4.82857 6.50033 3.35416 2.83836 0.25656 0.242973 0.195692 0.0528646 0.0177818 0.016679 0.009241 0.00645735 0.00233894
threshold=-0.77868112075414875 -0.69836279701511506 -0.33830327271675398 1.7975014126917157 -1.6119394773193008 0.41779463900552777 0.86948219564198026 -0.038910462483437207 0.35686690287069112 0.32089994718698034 0.59232797087924072 0.30927482213213969 -1.0314838152826014 -0.31772680785712942 -0.26793753399414538 -0.1525993381383757 -0.27255150400401024 -0.52948670033203704 -0.046968961705558553 -0.082907046491622408 -0.42655833359708656
decision_type=2 2 2 2 2 2 2 2 2 2 2 2 2 2 2 2 2 2 2 2 2
left_child=5 2 -2 4 -3 11 8 -8 12 14 17 13 -6 -1 -10 -15 -14 -4 20 -20 -18
right_child=1 3 10 -5 6 -7 7 -9 9 -11 -12 -13 16 15 -16 -17 18 -19 19 -21 -22
leaf_value=0.062815030747947476 -0.045726546081064995 0.043138996744166234 0.084238742924212837 0.057582301699980992 -0.05009043293746103 -0.016868145531532413 -0.05736291965659527 0.061305131286346931 -0.047976872300337203 0.029063146026538492 0.0075146658229159795 0.021522956219652195 -0.072414332359649378 0.088127036798327479 -0.069395239249995674 0.077767233739546401 -0.065932313206944995 0.078422387554415829 -0.072051389377126351 -0.068054655229998762 -0.068200059910533378
leaf_weight=2.1886953860521308 3.1166941970586777 2.9496377408504477 2.4067331254482269 2.3484518975019446 1.9314938932657266 4.0381772816181174 2.8411498814821243 3.2928436249494544 1.8298255354166029 3.7710887938737869 2.242945984005928 3.4699205458164215 3.9877471923828116 2.4105764627456656 2.5563115328550321 2.5173725932836533 2.7421020716428748 2.5264171659946424 2.1067069917917252 1.9424041956663192 1.9424812644720075
leaf_count=10 15 13 10 10 10 18 14 14 10 17 10 15 19 10 13 11 15 11 10 10 10
internal_value=0 -0.0126144 0.0267379 -0.0244432 -0.0304831 0.0377617 -0.0379857 0.00634033 -0.0499057 -0.0190733 0.0582103 0.0585999 -0.0670699 0.0766779 -0.0604598 0.0828349 -0.0696479 0.08126 -0.0683847 -0.0701341 -0.0668726
internal_weight=0 44.535 10.2928 34.2422 31.8938 14.6247 28.9442 6.13399 22.8102 8.15723 7.1761 10.5866 14.6529 7.11664 4.38614 4.92795 12.7214 4.93315 8.73369 4.04911 4.68458
internal_count=275 211 46 165 155 64 142 28 114 40 31 46 74 31 23 21 64 21 45 20 25
is_linear=0
shrinkage=0.05


Tree=14
num_leaves=21
num_cat=0
split_feature=362 81 126 121 256 20 235 69 63 144 435 467 471 99 391 489 298 107 446 402
split_gain=10.2211 8.28421 6.69767 6.61901 6.38473 5.60826 5.5448 7.56702 5.54351 6.12673 6.25904 4.1245 2.95744 0.961742 0.788609 0.0487712 0.0425365 0.0161806 0.0111171 0.00712125
threshold=-0.77868112075414875 0.27466145876930842 0.053494914333948922 -0.28041976271747221 0.31658746249214115 -0.061553600837938101 0.1798146850317319 0.32871670282527116 0.29277494551026167 -0.087045567868376292 0.57562608467606546 -1.7844598739593514 0.61165782226120702 -1.367881569776743 -0.27715073663660927 -0.22528184055315995 0.16070669578311869 -0.43359070514264642 -0.24430903034757809 0.014288519236151017
decision_type=2 2 2 2 2 2 2 2 2 2 2 2 2 2 2 2 2 2 2 2
left_child=2 8 3 -1 6 -6 15 -8 11 -10 -11 -2 13 -13 -4 -3 -16 19 -19 -15
right_child=1 4 14 -5 5 -7 7 -9 9 10 -12 12 -14 17 16 -17 -18 18 -20 -21
leaf_value=0.059953306144265854 0.0052088800827312289 0.086632090860611535 0.044107313925096564 -0.039330225903104227 -0.069477587624645329 0.019492608749045195 -0.070020884018874144 0.05759182224020605 -0.068933210294937555 0.073977177460620824 -0.036015178089144832 -0.0298445330842672 0.00067790116185886037 -0.067703710073790196 0.083301148246928927 0.076364516998724055 0.074190507778322728 -0.072649944632361282 -0.068006805189772215 -0.064401444670143318
leaf_weight=2.823257640004158 3.5901878923177746 2.3969932496547699 2.2383771985769272 4.1409454494714719 3.1800418347120285 3.9981879293918601 1.976835176348686 2.8170443177223206 1.9563115686178205 3.5487430393695822 2.035069614648819 1.9390862137079281 2.1368654966354361 3.437296554446224 3.0896195024251938 2.2349159121513384 2.188770592212677 2.1240375638008118 3.2798063009977305 3.1094158291816711
leaf_count=12 17 10 10 19 16 18 10 12 10 15 10 10 10 18 13 10 10 10 17 18
internal_value=0 -0.0122149 0.0362464 0.000918886 0.0156069 -0.0199223 0.0426642 0.00496862 -0.0292255 0.00721179 0.0338895 -0.0432311 -0.0540824 -0.062507 0.0689769 0.0816779 0.0795233 -0.0678068 -0.0698318 -0.0661353
internal_weight=0 43.7608 14.481 6.9642 16.604 7.17823 9.42579 4.79388 27.1568 7.54012 5.58381 19.6167 16.0265 13.8896 7.51677 4.63191 5.27839 11.9506 5.40384 6.54671
internal_count=275 211 64 31 76 34 42 22 135 35 25 100 83 73 33 20 23 63 27 36
is_linear=0
shrinkage=0.05


Tree=15
num_leaves=23
num_cat=0
split_feature=362 59 73 61 232 63 126 106 16 136 458 256 444 96 437 338 476 283 386 163 107 296
split_gain=9.37633 7.68804 7.34132 7.55128 6.69345 6.94003 6.19636 6.0645 5.7664 4.05206 3.12123 2.92674 2.72985 0.778249 0.490613 0.282094 0.242173 0.0260195 0.0207231 0.0103509 0.00797886 0.00347175
threshold=-0.77868112075414875 -0.30798513827176571 -0.416474560586232 -0.45258956989370436 -0.02989657643642548 0.29277494551026167 0.053494914333948922 0.081723308972685163 -0.082920238434587276 -0.52448499167115326 0.60892905509151085 -1.1983414131434731 0.59862648124498485 1.1507555626986272 -0.17312173385852245 -0.40494760795695933 -0.36763775519561465 -0.05030334179383162 -0.48835633818082408 -0.37733986278416076 -0.27529611250665359 0.12076525549774904
decision_type=2 2 2 2 2 2 2 2 2 2 2 2 2 2 2 2 2 2 2 2 2 2
left_child=6 2 -2 -4 11 9 7 -1 -7 -6 16 -3 20 17 -10 -13 -5 -8 -17 -20 21 -11
right_child=1 4 3 10 5 8 13 -9 14 12 -12 15 -14 -15 -16 18 -18 -19 19 -21 -22 -23
leaf_value=0.036710759436076483 -0.052293579588098216 0.0010969585093748959 -0.042108214483651832 0.062916375597597926 0.026094940526582296 -0.036631003120069942 0.08034418655882461 -0.06038670809770455 0.080692349646124983 -0.066510284085195298 0.0061137897063528613 -0.047625833678492664 -7.3283017469583217e-05 0.041858612219965195 0.048058619778605732 -0.072480024978580415 0.08321243532993812 0.073154699549160401 -0.064398991042948842 -0.069018712263859749 -0.068816401863396034 -0.06344000042894847
leaf_weight=4.3577284216880781 2.8721097111701974 1.9745831340551365 2.3413013368844977 2.2394646108150464 2.3388054221868506 2.018231064081192 3.0254902541637421 2.5486401617527008 2.3522212207317352 1.8544467538595193 2.0978233367204666 1.8341193944215763 2.1127646714448929 2.2001478374004364 2.2566259354352942 3.1453855782747242 4.2761533558368665 2.1547475159168243 1.8992242366075491 3.3534521907568009 2.154833421111114 1.828651040792465
leaf_count=19 15 10 12 10 11 10 13 12 10 10 10 10 10 10 10 15 18 10 11 17 11 11
internal_value=0 -0.0118412 0.0188599 0.0375149 -0.0264172 -0.00605526 0.0349189 0.000879121 0.03385 -0.0317568 0.059158 -0.0546355 -0.0487746 0.0667723 0.0647139 -0.0653906 0.0762365 0.0773537 -0.0692704 -0.0673483 -0.0663998 -0.0649859
internal_weight=0 42.9502 13.8269 10.9547 29.1233 16.9166 14.2868 6.90637 6.62708 10.2895 8.61344 12.2068 7.9507 7.38039 4.60885 10.2322 6.51562 5.18024 8.39806 5.25268 5.83793 3.6831
internal_count=275 211 65 50 146 83 64 31 30 53 38 63 42 33 20 53 28 23 43 28 32 21
is_linear=0
shrinkage=0.05


Tree=16
num_leaves=22
num_cat=0
split_feature=491 30 446 409 67 174 396 189 139 515 163 13 193 325 12 484 87 384 520 377 229
split_gain=9.02435 7.87961 7.57243 7.13181 6.83335 5.96429 5.93335 4.31215 3.64613 3.18659 2.70561 1.60407 0.92902 0.639197 0.294803 0.0802793 0.0322728 0.0162011 0.0141178 0.00496007 0.00195972
threshold=1.1872179906737841 1.2873375826842588 0.28393627820235384 0.59267494055547199 0.70800501873739186 -0.75758105566802081 1.1124436675542437 0.83423075260321533 -0.89965852215737863 -0.64228501755935641 -0.63857017108539715 0.57787788916689975 -0.18411822050145715 -0.60520103606073461 -0.14153198179927562 -0.070952371325976968 -0.66001933889376574 0.048782965334086457 0.29704546017960803 0.34748472617109322 -0.56891396667596983
decision_type=2 2 2 2 2 2 2 2 2 2 2 2 2 2 2 2 2 2 2 2 2
left_child=1 2 3 7 8 -2 9 10 -4 -7 -1 16 -12 -3 -10 -14 -11 -16 19 20 -18
right_child=5 13 4 -5 -6 6 -8 -9 14 11 12 -13 15 -15 17 -17 18 -19 -20 -21 -22
leaf_value=0.0067286228256831365 0.034917309155437413 0.045247456985592932 0.0088717130574004401 -0.04451008642966868 0.042326535234374199 0.0021543730577859954 0.019394481199105449 -0.021135775552290664 -0.047747484499324394 -0.072928849587122077 0.041544673409597478 -0.021442495939966891 0.07550520493288071 0.079188989208276453 -0.067450399589837534 0.087039584095647993 -0.062721049459503186 -0.073354569061173006 -0.069643780617541701 -0.06665083294145667 -0.064879845195461444
leaf_weight=2.0659189820289585 3.604920610785487 2.1092318892478943 2.246997892856597 2.7442999482154837 2.8642473220825186 2.540163770318034 3.9771054536104193 2.0756713449954978 1.871456205844878 2.0525134056806591 2.0455661416053736 2.323378548026084 3.5328031182289088 4.0516096651554099 1.8927007019519804 2.6327292472124206 2.0962447673082361 3.0091665387153625 1.9893059581518171 2.4043291211128235 2.1088336706161437
leaf_count=10 17 10 11 14 13 12 19 10 10 10 10 12 16 18 10 11 13 14 10 13 12
internal_value=0 0.0165483 0.00489858 0.0284004 -0.0249558 -0.0241643 -0.0350912 0.0445983 -0.0463201 -0.0490582 0.0578748 -0.0590846 0.0707432 0.0675687 -0.0646296 0.0804305 -0.0672956 -0.0710749 -0.0659509 -0.0648394 -0.0638037
internal_weight=0 33.1424 26.9816 15.097 11.8846 23.0968 19.4919 12.3527 9.02032 15.5148 10.277 12.9746 8.2111 6.16084 6.77332 6.16553 10.6512 4.90187 8.59871 6.60941 4.20508
internal_count=275 157 129 71 58 118 101 57 45 82 47 70 37 28 34 27 58 24 48 38 25
is_linear=0
shrinkage=0.05


Tree=17
num_leaves=21
num_cat=0
split_feature=135 443 136 190 58 74 367 322 324 311 407 341 392 254 100 65 30 102 496 175
split_gain=8.59566 5.73872 5.98178 6.20303 4.19287 4.16359 5.03268 3.87348 6.5441 3.79099 2.24004 3.43314 2.23381 0.933541 0.478951 0.0344263 0.0177584 0.0173536 0.00442171 0.00165968
threshold=-0.33833511654046849 0.3046845244519667 -0.52448499167115326 0.6046240433249358 0.42835086062907884 -1.0152722983188454 1.0163921140591772 0.51283841105181271 -0.47792387730485547 0.59735998310937843 0.64726480118116425 0.084543230734372241 1.3157070232907004 0.63121722267421876 -0.48252442302875187 -0.12538951883438018 0.054323108347803788 -0.86561014029460659 0.10751397948302668 -0.38793589423540104
decision_type=2 2 2 2 2 2 2 2 2 2 2 2 2 2 2 2 2 2 2 2
left_child=5 2 4 7 -2 -1 10 8 -4 12 17 -12 14 16 -3 -16 -10 -7 19 -19
right_child=1 9 3 -5 -6 6 -8 -9 13 -11 11 -13 -14 -15 15 -17 -18 18 -20 -21
leaf_value=0.03580272890004306 0.074838993219048883 0.048753565344059814 0.020722354533951711 0.054294344921221704 -0.0021489080617690995 -0.069220387936195157 0.030551143470191916 0.024693792298754708 -0.066816726783170993 -0.0038662585185605908 0.025100400333363262 -0.06538564000987232 0.010587586757202234 -0.03013142043152808 0.073430508960264609 0.081458619427438983 -0.071706318768936253 -0.064303343425207202 -0.065882091584327312 -0.062231396143715562
leaf_weight=2.1322830170393017 3.699136137962344 2.032250151038169 3.2719270735979089 2.6649927347898474 3.3884967118501663 2.3282507210969916 2.2246892899274817 2.818027287721633 3.5070000290870667 3.5780331194400778 2.0589470118284217 2.1354769170284271 2.0646485686302185 1.8984280079603193 2.7957735806703559 2.5564316809177399 3.9467087239027023 1.720358490943908 2.3483650833368301 2.2056744396686554
leaf_count=10 17 10 16 12 16 12 10 13 19 18 10 12 10 10 13 11 19 10 13 14
internal_value=0 0.0130227 -0.000908549 -0.0161511 0.0380322 -0.0295793 -0.0388601 -0.0283085 -0.04014 0.0399661 -0.0509268 -0.0209681 0.0565638 -0.0614333 0.0694185 0.0772651 -0.0694057 -0.0655338 -0.0641659 -0.0631393
internal_weight=0 38.2219 25.1947 18.1071 7.08763 17.154 15.0218 15.4421 12.6241 13.0271 12.7971 4.19442 9.4491 9.35214 7.38446 5.35221 7.45371 8.60265 6.2744 3.92603
internal_count=275 184 122 89 33 91 81 77 64 62 71 22 44 48 34 24 38 49 37 24
is_linear=0
shrinkage=0.05


Tree=18
num_leaves=21
num_cat=0
split_feature=362 81 256 126 121 78 235 69 122 203 54 109 374 93 150 192 451 21 222 6
split_gain=7.95884 6.65398 5.30058 5.29342 5.28411 5.04181 4.63203 6.11149 4.52381 4.79543 4.2711 5.05342 3.44865 1.3792 0.726965 0.0326415 0.0245781 0.0144852 0.00429818 0.00241406
threshold=-0.77868112075414875 0.27466145876930842 0.31658746249214115 0.053494914333948922 -0.28041976271747221 0.44414102766022051 0.1798146850317319 0.32871670282527116 0.27558147311850023 0.69649446404624371 -0.52468910059397167 -0.45409418960486087 0.086306462730891417 0.2950196476764787 0.65714257440757584 0.65154661866358865 -0.37023501040751799 0.23225174250687752 -0.10288137388876685 -0.55648029961945744
decision_type=2 2 2 2 2 2 2 2 2 2 2 2 2 2 2 2 2 2 2 2
left_child=3 8 6 4 -1 -4 15 -8 10 12 11 -2 -10 17 16 -3 -5 18 19 -12
right_child=1 2 5 14 -6 -7 7 -9 9 -11 13 -13 -14 -15 -16 -17 -18 -19 -20 -21
leaf_value=0.054302696279609666 0.049487415051850878 0.080547128951734367 0.018664765104679584 0.069439840871744929 -0.036331081689305045 -0.068513318835585743 -0.066762300767035918 0.052436172520424498 -0.066261450046894599 0.06608711504290174 -0.064219820886781909 -0.050093005743879461 0.0142452267136684 -0.022791807187059188 0.03851280489094594 0.071904388617649723 0.076635042432374262 -0.067915815794524145 -0.06528333158001022 -0.061762575395141364
leaf_weight=2.7292222231626511 2.4350290894508362 2.29980920255184 3.850922778248786 2.0045928955078125 3.915113762021063 2.9130574613809586 1.8100662529468534 2.6491957157850266 2.3461863547563544 2.2599495500326157 1.6830630302429188 2.6720698177814493 3.0719353258609772 2.3911611586809167 2.0930735617876053 2.0809843242168427 2.9095215797424316 3.0539492815732956 2.8490847647190121 2.4610710293054581
leaf_count=12 11 10 19 10 19 15 10 12 13 10 10 15 15 13 10 10 13 16 16 16
internal_value=0 -0.0112291 0.0144346 0.0328713 0.000897578 -0.0188804 0.0399256 0.00405213 -0.0271054 0.00490387 -0.041113 -0.00261376 -0.0206162 -0.0569205 0.0631894 0.0764416 0.0736999 -0.0650429 -0.0637883 -0.0627605
internal_weight=0 40.8275 15.604 13.6515 6.64434 6.76398 8.84006 4.45926 25.2235 7.67807 17.5454 5.1071 5.41812 12.4383 7.00719 4.38079 4.91411 10.0472 6.99322 4.14413
internal_count=275 211 76 64 31 34 42 22 135 38 97 26 28 71 33 20 23 58 42 26
is_linear=0
shrinkage=0.05


end of trees

feature_importances:
Column_135=12
Column_362=8
Column_446=7
Column_10=6
Column_70=6
Column_126=6
Column_256=6
Column_367=6
Column_81=5
Column_382=5
Column_467=5
Column_485=5
Column_13=4
Column_69=4
Column_226=4
Column_235=4
Column_324=4
Column_402=4
Column_435=4
Column_443=4
Column_466=4
Column_491=4
Column_0=3
Column_8=3
Column_20=3
Column_29=3
Column_30=3
Column_40=3
Column_54=3
Column_63=3
Column_88=3
Column_95=3
Column_107=3
Column_109=3
Column_122=3
Column_136=3
Column_155=3
Column_203=3
Column_252=3
Column_354=3
Column_396=3
Column_407=3
Column_451=3
Column_453=3
Column_497=3
Column_499=3
Column_1=2
Column_6=2
Column_16=2
Column_58=2
Column_99=2
Column_101=2
Column_102=2
Column_108=2
Column_121=2
Column_137=2
Column_139=2
Column_144=2
Column_146=2
Column_147=2
Column_150=2
Column_163=2
Column_168=2
Column_169=2
Column_174=2
Column_190=2
Column_209=2
Column_298=2
Column_311=2
Column_322=2
Column_325=2
Column_374=2
Column_384=2
Column_387=2
Column_391=2
Column_392=2
Column_426=2
Column_456=2
Column_458=2
Column_465=2
Column_496=2
Column_504=2
Column_514=2
Column_515=2
Column_520=2
Column_2=1
Column_3=1
Column_4=1
Column_5=1
Column_12=1
Column_21=1
Column_22=1
Column_26=1
Column_27=1
Column_34=1
Column_35=1
Column_37=1
Column_46=1
Column_47=1
Column_53=1
Column_56=1
Column_59=1
Column_61=1
Column_62=1
Column_65=1
Column_67=1
Column_73=1
Column_74=1
Column_75=1
Column_78=1
Column_84=1
Column_85=1
Column_86=1
Column_87=1
Column_90=1
Column_93=1
Column_96=1
Column_100=1
Column_106=1
Column_110=1
Column_128=1
Column_131=1
Column_141=1
Column_143=1
Column_145=1
Column_152=1
Column_159=1
Column_175=1
Column_176=1
Column_185=1
Column_189=1
Column_191=1
Column_192=1
Column_193=1
Column_195=1
Column_196=1
Column_211=1
Column_212=1
Column_218=1
Column_222=1
Column_224=1
Column_229=1
Column_232=1
Column_236=1
Column_240=1
Column_241=1
Column_242=1
Column_244=1
Column_245=1
Column_247=1
Column_251=1
Column_254=1
Column_258=1
Column_259=1
Column_262=1
Column_265=1
Column_273=1
Column_274=1
Column_279=1
Column_282=1
Column_283=1
Column_285=1
Column_289=1
Column_296=1
Column_297=1
Column_299=1
Column_303=1
Column_304=1
Column_308=1
Column_309=1
Column_310=1
Column_317=1
Column_318=1
Column_328=1
Column_338=1
Column_341=1
Column_344=1
Column_348=1
Column_365=1
Column_369=1
Column_371=1
Column_377=1
Column_380=1
Column_381=1
Column_383=1
Column_386=1
Column_394=1
Column_398=1
Column_404=1
Column_406=1
Column_409=1
Column_437=1
Column_438=1
Column_442=1
Column_444=1
Column_448=1
Column_461=1
Column_471=1
Column_473=1
Column_476=1
Column_480=1
Column_484=1
Column_488=1
Column_489=1
Column_493=1
Column_494=1
Column_502=1
Column_505=1
Column_506=1
Column_511=1
Column_519=1

parameters:
[boosting: gbdt]
[objective: binary]
[metric: binary_logloss]
[tree_learner: serial]
[device_type: cpu]
[linear_tree: 0]
[data: ]
[valid: ]
[num_iterations: 10000]
[learning_rate: 0.05]
[num_leaves: 63]
[num_threads: 0]
[deterministic: 0]
[force_col_wise: 0]
[force_row_wise: 0]
[histogram_pool_size: -1]
[max_depth: -1]
[min_data_in_leaf: 10]
[min_sum_hessian_in_leaf: 0.001]
[bagging_fraction: 0.9]
[pos_bagging_fraction: 1]
[neg_bagging_fraction: 1]
[bagging_freq: 0]
[bagging_seed: 29216]
[feature_fraction: 0.9]
[feature_fraction_bynode: 1]
[feature_fraction_seed: 17795]
[extra_trees: 0]
[extra_seed: 19650]
[early_stopping_round: 50]
[first_metric_only: 0]
[max_delta_step: 0]
[lambda_l1: 0]
[lambda_l2: 0]
[linear_lambda: 0]
[min_gain_to_split: 0]
[drop_rate: 0.1]
[max_drop: 50]
[skip_drop: 0.5]
[xgboost_dart_mode: 0]
[uniform_drop: 0]
[drop_seed: 24198]
[top_rate: 0.2]
[other_rate: 0.1]
[min_data_per_group: 100]
[max_cat_threshold: 32]
[cat_l2: 10]
[cat_smooth: 10]
[max_cat_to_onehot: 4]
[top_k: 20]
[monotone_constraints: ]
[monotone_constraints_method: basic]
[monotone_penalty: 0]
[feature_contri: ]
[forcedsplits_filename: ]
[refit_decay_rate: 0.9]
[cegb_tradeoff: 1]
[cegb_penalty_split: 0]
[cegb_penalty_feature_lazy: ]
[cegb_penalty_feature_coupled: ]
[path_smooth: 0]
[interaction_constraints: ]
[verbosity: -1]
[saved_feature_importance_type: 0]
[max_bin: 255]
[max_bin_by_feature: ]
[min_data_in_bin: 3]
[bin_construct_sample_cnt: 200000]
[data_random_seed: 45]
[is_enable_sparse: 1]
[enable_bundle: 1]
[use_missing: 1]
[zero_as_missing: 0]
[feature_pre_filter: 1]
[pre_partition: 0]
[two_round: 0]
[header: 0]
[label_column: ]
[weight_column: ]
[group_column: ]
[ignore_column: ]
[categorical_feature: ]
[forcedbins_filename: ]
[objective_seed: 29484]
[num_class: 1]
[is_unbalance: 0]
[scale_pos_weight: 1]
[sigmoid: 1]
[boost_from_average: 1]
[reg_sqrt: 0]
[alpha: 0.9]
[fair_c: 1]
[poisson_max_delta_step: 0.7]
[tweedie_variance_power: 1.5]
[lambdarank_truncation_level: 30]
[lambdarank_norm: 1]
[label_gain: ]
[eval_at: ]
[multi_error_top_k: 1]
[auc_mu_weights: ]
[num_machines: 1]
[local_listen_port: 12400]
[time_out: 120]
[machine_list_filename: ]
[machines: ]
[gpu_platform_id: -1]
[gpu_device_id: -1]
[gpu_use_dp: 0]
[num_gpu: 1]

end of parameters

pandas_categorical:null
