tree
version=v3
num_class=1
num_tree_per_iteration=1
label_index=0
max_feature_idx=520
objective=binary sigmoid:1
feature_names=Column_0 Column_1 Column_2 Column_3 Column_4 Column_5 Column_6 Column_7 Column_8 Column_9 Column_10 Column_11 Column_12 Column_13 Column_14 Column_15 Column_16 Column_17 Column_18 Column_19 Column_20 Column_21 Column_22 Column_23 Column_24 Column_25 Column_26 Column_27 Column_28 Column_29 Column_30 Column_31 Column_32 Column_33 Column_34 Column_35 Column_36 Column_37 Column_38 Column_39 Column_40 Column_41 Column_42 Column_43 Column_44 Column_45 Column_46 Column_47 Column_48 Column_49 Column_50 Column_51 Column_52 Column_53 Column_54 Column_55 Column_56 Column_57 Column_58 Column_59 Column_60 Column_61 Column_62 Column_63 Column_64 Column_65 Column_66 Column_67 Column_68 Column_69 Column_70 Column_71 Column_72 Column_73 Column_74 Column_75 Column_76 Column_77 Column_78 Column_79 Column_80 Column_81 Column_82 Column_83 Column_84 Column_85 Column_86 Column_87 Column_88 Column_89 Column_90 Column_91 Column_92 Column_93 Column_94 Column_95 Column_96 Column_97 Column_98 Column_99 Column_100 Column_101 Column_102 Column_103 Column_104 Column_105 Column_106 Column_107 Column_108 Column_109 Column_110 Column_111 Column_112 Column_113 Column_114 Column_115 Column_116 Column_117 Column_118 Column_119 Column_120 Column_121 Column_122 Column_123 Column_124 Column_125 Column_126 Column_127 Column_128 Column_129 Column_130 Column_131 Column_132 Column_133 Column_134 Column_135 Column_136 Column_137 Column_138 Column_139 Column_140 Column_141 Column_142 Column_143 Column_144 Column_145 Column_146 Column_147 Column_148 Column_149 Column_150 Column_151 Column_152 Column_153 Column_154 Column_155 Column_156 Column_157 Column_158 Column_159 Column_160 Column_161 Column_162 Column_163 Column_164 Column_165 Column_166 Column_167 Column_168 Column_169 Column_170 Column_171 Column_172 Column_173 Column_174 Column_175 Column_176 Column_177 Column_178 Column_179 Column_180 Column_181 Column_182 Column_183 Column_184 Column_185 Column_186 Column_187 Column_188 Column_189 Column_190 Column_191 Column_192 Column_193 Column_194 Column_195 Column_196 Column_197 Column_198 Column_199 Column_200 Column_201 Column_202 Column_203 Column_204 Column_205 Column_206 Column_207 Column_208 Column_209 Column_210 Column_211 Column_212 Column_213 Column_214 Column_215 Column_216 Column_217 Column_218 Column_219 Column_220 Column_221 Column_222 Column_223 Column_224 Column_225 Column_226 Column_227 Column_228 Column_229 Column_230 Column_231 Column_232 Column_233 Column_234 Column_235 Column_236 Column_237 Column_238 Column_239 Column_240 Column_241 Column_242 Column_243 Column_244 Column_245 Column_246 Column_247 Column_248 Column_249 Column_250 Column_251 Column_252 Column_253 Column_254 Column_255 Column_256 Column_257 Column_258 Column_259 Column_260 Column_261 Column_262 Column_263 Column_264 Column_265 Column_266 Column_267 Column_268 Column_269 Column_270 Column_271 Column_272 Column_273 Column_274 Column_275 Column_276 Column_277 Column_278 Column_279 Column_280 Column_281 Column_282 Column_283 Column_284 Column_285 Column_286 Column_287 Column_288 Column_289 Column_290 Column_291 Column_292 Column_293 Column_294 Column_295 Column_296 Column_297 Column_298 Column_299 Column_300 Column_301 Column_302 Column_303 Column_304 Column_305 Column_306 Column_307 Column_308 Column_309 Column_310 Column_311 Column_312 Column_313 Column_314 Column_315 Column_316 Column_317 Column_318 Column_319 Column_320 Column_321 Column_322 Column_323 Column_324 Column_325 Column_326 Column_327 Column_328 Column_329 Column_330 Column_331 Column_332 Column_333 Column_334 Column_335 Column_336 Column_337 Column_338 Column_339 Column_340 Column_341 Column_342 Column_343 Column_344 Column_345 Column_346 Column_347 Column_348 Column_349 Column_350 Column_351 Column_352 Column_353 Column_354 Column_355 Column_356 Column_357 Column_358 Column_359 Column_360 Column_361 Column_362 Column_363 Column_364 Column_365 Column_366 Column_367 Column_368 Column_369 Column_370 Column_371 Column_372 Column_373 Column_374 Column_375 Column_376 Column_377 Column_378 Column_379 Column_380 Column_381 Column_382 Column_383 Column_384 Column_385 Column_386 Column_387 Column_388 Column_389 Column_390 Column_391 Column_392 Column_393 Column_394 Column_395 Column_396 Column_397 Column_398 Column_399 Column_400 Column_401 Column_402 Column_403 Column_404 Column_405 Column_406 Column_407 Column_408 Column_409 Column_410 Column_411 Column_412 Column_413 Column_414 Column_415 Column_416 Column_417 Column_418 Column_419 Column_420 Column_421 Column_422 Column_423 Column_424 Column_425 Column_426 Column_427 Column_428 Column_429 Column_430 Column_431 Column_432 Column_433 Column_434 Column_435 Column_436 Column_437 Column_438 Column_439 Column_440 Column_441 Column_442 Column_443 Column_444 Column_445 Column_446 Column_447 Column_448 Column_449 Column_450 Column_451 Column_452 Column_453 Column_454 Column_455 Column_456 Column_457 Column_458 Column_459 Column_460 Column_461 Column_462 Column_463 Column_464 Column_465 Column_466 Column_467 Column_468 Column_469 Column_470 Column_471 Column_472 Column_473 Column_474 Column_475 Column_476 Column_477 Column_478 Column_479 Column_480 Column_481 Column_482 Column_483 Column_484 Column_485 Column_486 Column_487 Column_488 Column_489 Column_490 Column_491 Column_492 Column_493 Column_494 Column_495 Column_496 Column_497 Column_498 Column_499 Column_500 Column_501 Column_502 Column_503 Column_504 Column_505 Column_506 Column_507 Column_508 Column_509 Column_510 Column_511 Column_512 Column_513 Column_514 Column_515 Column_516 Column_517 Column_518 Column_519 Column_520
feature_infos=[-3.5788025915210353:3.192726175709518] [-2.7422247989741302:2.6092056920404736] [-4.4336803656360484:2.6704083317824421] [-7.4230993991807894:2.7438158349725863] [-2.2718654763252535:1.9550080803518151] [-1.9987681913704078:4.2007609244933439] [-3.5586190694515767:2.936521948458283] [-2.7990611459257164:1.9161468434872437] [-3.2709383935115719:3.2080848130681652] [-2.5881805715951391:2.7519656760476869] [-2.7771196643603218:3.6461476419691534] [-5.4737318520005793:4.5418217543450154] [-2.7861013866685216:6.553702045531538] [-3.8558091101480505:3.3026751017955793] [-1.2119416256304916:2.8061472242759553] [-3.1673419722273355:2.2027213995575803] [-3.4051229027007239:2.3943687615621645] [-2.6238050097336147:3.2728915978937074] [-2.6533448125191748:2.3326745865719838] [-5.4249127206368417:4.5803025659383172] [-4.4149556584397551:3.0123158952333773] [-4.8729160052686336:1.7608414772210772] [-2.7110364600084167:2.9397189815306777] [-5.0719469490269695:2.4501512701741652] [-1.7875397725188562:5.712437109931769] [-1.7917691746590807:5.4935616717260096] [-2.820556498999145:1.5377125474680646] [-2.4201926934007907:3.405226612888447] [-2.3948227687176007:3.0040323920260761] [-2.2299070700530086:2.9173972757180628] [-5.9193026684654306:2.7309621547790282] [-2.2726974765781494:2.2956637287882042] [-5.159834105094987:1.2364493884682433] [-2.3940288116340236:2.3656571351619839] [-4.0275647778090411:2.3764109761288497] [-3.1527111518289117:2.6080017055112776] [-2.3575386132278626:3.562802367538525] [-2.5386319149016527:3.4325765387211606] [-4.5548778205679055:3.2584016422524438] [-5.0339128003750782:2.9043057990865457] [-4.2390467366307121:2.4887087504580339] [-3.3662428176666856:2.9304198492701965] [-3.0016360076819382:2.4747235807635413] [-3.3539485080155793:2.3452761006112532] [-1.9617586043221864:2.2535171698754044] [-2.1000596853463875:3.8787591590676005] [-3.0813121464970687:3.5510303914708046] [-1.7745123733776889:3.9668859932618084] [-3.3546225196626636:3.1690769597872195] [-3.599648096542968:2.45498159054483] [-4.2021248552730457:2.8329721377669443] [-4.9824241994665428:3.2368535976387767] [-4.8344763605812684:2.2747213931880572] [-2.2993423089127618:2.8286966505572626] [-1.8005597569087883:4.5225251692936288] [-3.3687948595878452:3.0301254917148057] [-2.4852640536784807:2.0185784048578324] [-2.7549392569985467:2.8066995757351871] [-2.8823551909758338:5.1224537782324795] [-3.1032344690528619:2.4626251472361309] [-3.7360668738649521:2.7109116332154342] [-1.5590895224184733:4.697862457721012] [-2.8088736313185878:2.629227443230941] [-2.9212999292394435:4.0920201413424895] [-1.3503931484971479:5.460913203584246] [-3.0187240642244708:3.0306556223927861] [-4.2759789800190466:3.3243063892861331] [-3.861066587795972:2.2858650414865598] [-3.859510898154483:1.1300051750838083] [-2.4375411442640642:2.4439753712768715] [-2.3508603913397561:2.3989175295086529] [-1.8644201315580373:2.9680064475170105] [-6.3085297839567094:1.8220395842964874] [-2.6720797199349775:4.2978952113515758] [-3.9210153606871123:2.436296869114897] [-4.7084590966303184:2.0855149641682256] [-2.6149611822484675:2.4525509896677171] [-2.2711584280598087:3.9385458919766854] [-1.2849664779563503:3.8965637779199911] [-2.1996395567293905:3.1597947088409741] [-3.2783259738507815:3.0535269047498472] [-1.8805903428668478:4.3262474146678978] [-1.9574015139966927:2.7590709327688216] [-3.9614531396108603:1.7263433374534822] [-1.6161544415906486:5.3847785056610462] [-2.1857832271772137:2.3254024526200481] [-2.2607664653833854:3.5601111863085149] [-4.0582851950186489:2.9695884905875238] [-2.3268111141378403:3.3198061412086459] [-3.9727150304613001:2.8202508986677652] [-3.2743362231156099:2.6552889018922823] [-3.282611935976822:2.330384161658674] [-4.2640980643299349:5.2171878746279479] [-2.4230952330379418:3.1697220116960478] [-4.8509194156739479:4.8468998081100443] [-5.42599569072049:2.6512027737757955] [-2.3066070669850007:3.1438619852766143] [-6.5110456423314691:2.8889159072455666] [-4.884656887174045:6.4307730733205997] [-1.4004188726228679:2.4343895983925656] [-1.8527656370156673:4.3299973160736123] [-4.5310275576176933:3.0121508042606324] [-4.081901678923308:2.2911843998172396] [-3.7696605572128861:3.575004557295975] [-1.0383836143253353:4.1556803766449812] [-2.4571932460902399:4.8773944411938013] [-1.9849335611922911:0.9732470769853202] [-2.3606707682249586:3.9279507647347978] [-3.1295567907185666:2.1714462665283794] [-3.6775261477469567:2.4600564429453406] [-2.6791272117680296:2.4809537104187909] [-3.9095694381027992:2.1782452777735437] [-2.7552042206132343:2.9200902571121694] [-2.0399032034853182:1.5597998029134599] [-3.5641198181136073:5.4079558595793014] [-3.1870302270748736:3.2306409424621552] [-5.3173786417943472:0.90501113127080379] [-4.0509109010048094:2.4625249778288079] [-2.8919060519941517:3.323207003232886] [-6.1761508499794022:2.0840332743882803] [-2.2025710679281034:3.3409256634034383] [-2.473145438331791:3.5802337565985933] [-3.098124811741755:2.6634995945356352] [-4.0521149061597495:4.7866190064696976] [-2.876183443330159:5.4809629899957288] [-3.9627657072445239:3.3981382243910727] [-4.9263797585583022:2.0054597646714636] [-2.1300265915801302:2.3598161908501694] [-2.8462481524275782:5.2825891445527535] [-4.3663898595750243:1.6652789064618068] [-1.1734669727828069:5.5726041165049773] [-3.9056979122926125:2.8673376387263554] [-1.9348274199646296:5.3144506018673336] [-6.2487212423632057:0.93111329447717461] [-6.6510127215959081:1.5135059651430922] [-7.5806993227958381:1.8070193290210783] [-4.6365640212470991:2.980455647317271] [-2.5825247697331655:4.1955059774070147] [-7.4420563419797965:4.1995817301217429] [-7.5044016823842385:2.0526108880854403] [-0.049587793791080026:3.4690198235925136] [-3.0564613109601675:4.9739982435191417] [-2.3354491183138899:3.739598165654527] [-4.1171186094932359:0.37287423048043089] [-4.3022435797838119:3.4162235313504028] [-2.7504517181521373:1.5835112023493343] [-2.6596541628583457:2.5624075652903584] [-3.7255930763641705:1.9632043348059787] [-3.0349035608534791:2.3823967751994455] [-3.0915720644809928:2.3414083615632402] [-2.8567412553284406:2.0391812151330933] [-3.4819161126942562:3.4989598594380569] [-5.7676267441074307:1.9060420350317389] [-7.0416060190462124:1.849504407851551] [-2.9240968830423499:4.0062675247168622] [-2.292763550771308:2.6979643569336709] [-5.9609953718709559:1.9926146617030269] [-1.7667804953802615:1.764146610720454] [-2.6513850706968292:3.708899305450283] [-1.3167311577668519:6.0824059589057056] [-2.9141497520569812:4.7804819879732108] [-1.5316345307144659:3.0665678283060065] [-3.5062068683893894:2.2391694029678337] [-6.2118998392403428:3.0249616705826599] [-3.5053014251612233:3.8415165388179782] [-7.7477625792257889:3.0539698563547253] [-6.1434586342181676:2.3860587946744212] [-3.3016545065717811:2.6211935515284734] [-2.7597229860797148:2.655847907779453] [-6.6718741021652868:2.919075288819394] [-6.9359037839657187:2.9052865151284113] [-3.9842106168653362:1.809129084608285] [-2.2591866802925114:3.3256411801501105] [-2.4469518286383183:3.2621022739592975] [-3.4826213232749521:3.1747726637256046] [-2.5346664411546316:3.506013720387684] [-3.599906384739326:7.0024366308775932] [-3.1507728041426435:4.1931669558645916] [-2.5434436693597324:3.081329021208675] [-1.974191598315723:2.0906350507406755] [-3.3651071484550372:2.3630984792831486] [-3.0052248711192684:2.3184618790154725] [-4.6411635756877816:2.3002954974887109] [-2.5861529817092714:3.014148343052875] [-3.4184675980498245:2.8294631430499804] [-1.9131420384613171:3.7821378186331822] [-1.9315411484578844:4.9399162257972602] [-1.6507112084861142:2.7007774246049183] [-5.2597433769936641:2.382988732823065] [-4.2567073163161036:1.578632606190276] [-5.7151031802100674:1.1726126765635376] [-1.0202063978940139:2.875351528809583] [-2.1990234624341949:3.0091785342702955] [-2.8060499030001766:3.6298582788645257] [-1.9115648293218932:1.2960011604902875] [-2.5619344204077836:2.637320105700141] [-5.0969067603155969:2.5473817844851641] [-4.4171445694074922:1.0391188243136928] [-1.1628188898429364:2.1132801073081233] [-2.87277741905109:3.1463086345152838] [-3.3227137758983982:2.1684530888023414] [-3.1736096312033446:3.8965887499614289] [-2.2456096786916495:3.1822189534086283] [-2.8324723134626666:2.3925142663406902] [-3.2237412306659858:3.0380350341528652] [-3.0910767354665056:3.4492276719581758] [-6.5159467936187712:1.8902259169814282] [-3.3506457857295824:1.5636899831294886] [-4.657062262203393:1.4510866657846169] [-3.3491404182139299:2.5361285259765327] [-4.8511469564094085:1.0022559125650159] [-1.9417089515555059:5.1461489609771185] [-1.0464627474136121:2.0135198745751772] [-3.7200904824281911:2.6586839143793233] [-5.4544654479355064:1.8021470809244853] [-2.5190975719312525:3.0600151902730617] [-4.8655975170871759:3.1955479685878112] [-4.0127109718889367:2.8863134253022631] [-4.3745269397433653:6.9056024532321194] [-6.6004817934788163:1.6611606142697728] [-1.529610010207421:2.9153318826048706] [-2.474343375619354:2.6049649134584767] [-1.9902937768198377:2.0494330862358252] [-4.1301887445278496:3.8783606139500653] [-2.2591172265217989:4.6264372341691224] [-3.3423936635248079:2.4402068381752264] [-2.3847417279089509:3.3091469694962057] [-2.8213511095330062:3.9263680023508769] [-3.2027305609065304:2.2957726463794677] [-0.64528553472109207:5.3365052393175985] [-5.3401657538244551:2.3401270137858576] [-2.9491596637818889:2.5387935136020308] [-7.4611278889760033:2.1229004246021419] [-5.0689217539105167:0.7070215839647187] [-1.7491315617355627:2.9884880208656504] [-7.2002810832037873:2.8225234069551273] [-4.8109193104694699:0.56017601286225449] [-6.08488610306454:2.6325621391228227] [-2.6581882030639061:6.8789381338522748] [-2.7147000350734078:2.6069920379824367] [-4.3835388101055157:3.198627060217051] [-4.8955268063261075:1.9206238274645424] [-3.6951765264737335:2.2034707415013419] [-2.2566741535962551:3.1590582136866643] [-3.3293950499048783:3.2392342746202156] [-6.57030634236102:2.3302496052650223] [-5.1894172639775142:3.1986477914496798] [-4.9525791075703083:2.8140426413936166] [-6.4304418052076731:1.7508833586697707] [-2.871355082643869:2.3391797482151775] [-5.3639760184722283:2.5876145867835176] [-2.190484932370321:3.516979501281202] [-4.1928861501764159:3.8652008868014405] [-6.218071984394193:2.0339545006971336] [-2.7618515544054651:2.8920190487952184] [-2.5991787644053845:2.8510595349619607] [-1.9555273233691355:2.5255413868498411] [-4.2986138215431033:2.8570884052505532] [-6.4224064064467044:1.6928986644412005] [-2.9358126023988933:2.971377356429028] [-4.3050228294082169:1.6573157652208426] [-5.2298573369978669:2.546637280196014] [-3.8710135260296696:1.0501033740504511] [-5.9237263448161572:1.2231809533469564] [-4.8910680747468103:3.3501635680036248] [-3.3288662719269193:2.0544923163533952] [-6.2987240258485713:1.4519900511404231] [-2.1834058544416779:2.9990932240740631] [-2.151895618471221:3.0715030411424986] [-5.3519361203668296:2.7028411321004269] [-3.8808066803021477:2.3768901078202176] [-1.1293643341357538:2.7910358055260791] [-2.0331059512239875:3.0867966687090562] [-4.7943986319703313:1.890912270179145] [-2.8321799937252821:3.6391631900256698] [-2.4246899189515272:3.0258596301289864] [-5.5968034957726713:2.7648714619406056] [-2.5601087129473328:1.89536654594686] [-2.6238944592836728:2.8532925580938131] [-2.1037197410255608:2.5501146695618142] [-2.8342466439938496:2.8794100048637081] [-1.9659983776231487:1.9608199670994015] [-5.3088133019389208:2.32508165093508] [-7.0757437757070587:3.9914573299901885] [-2.9970046019012391:3.0998157176874099] [-2.6350936933548939:2.3588676865894791] [-3.1890763695523789:2.8917518737999095] [-3.131922913247231:5.3705860120238329] [-3.4163266541150459:2.8999885231950562] [-2.9251406510345941:2.5689872504431115] [-3.2928053608232823:2.4266780146300233] [-5.0809746164096614:2.8560489942888987] [-4.2071883400819035:6.2361252100557669] [-3.3592650330268583:2.5398224523938655] [-3.6453366219594456:1.9189757092615833] [-2.087718241126804:3.3269350995441886] [-3.0823583024955843:2.3913335119286239] [-3.0093004884483547:1.8658940151298746] [-4.3667473449485712:1.7760401550848464] [-3.6880637816895487:2.0867975076196128] [-3.9123249538661482:2.1704095444817764] [-2.467792386114962:4.3932758142697184] [-3.6813913492636279:3.6145682593217892] [-6.5875345630533593:0.60367841649267517] [-7.8489021473652354:0.84293384457383203] [-2.9483683481828535:3.6258407631447214] [-2.6057004916567914:2.5279654878338325] [-3.7710950050508387:2.4719900067777187] [-2.9123054612081569:3.1984159912766619] [-1.7325097869664166:1.6895446597923462] [-3.4452309001668957:3.0413150939594757] [-2.8545851659545201:3.0023717738284241] [-3.7157865783777577:3.2114780078706389] [-2.8807938297870641:3.2721952335237279] [-3.5018736152854002:3.3446794826303821] [-2.9963699283490475:2.9852175530370024] [-2.926494686428887:5.4030161533085952] [-3.2006648706966851:3.4941551788901193] [-3.2218176421067248:3.5419993779823966] [-2.0687012472498036:4.1895081064088515] [-3.9812692040493669:2.2095184852959151] [-4.6250557707019251:2.6322847391240227] [-3.9316808136790624:2.2396165082921295] [-3.3052707832045347:1.9918462333017222] [-7.0016641050822113:1.6620661607293425] [-3.2603596139690576:2.9768111292347248] [-7.0626154586188159:2.7333253262421038] [-4.1813962689650159:3.8522345326824565] [-5.010787557373436:3.4655990589569368] [-2.81484504680737:2.7472646705951469] [-2.7191057714468996:2.2863417408111415] [-4.0172370274567539:2.2515020811820512] [-2.9518728314046339:2.5751181508086303] [-2.5444001265701681:3.7852041138290797] [-6.0894607563054253:3.1448146196386473] [-3.5607110449741506:2.6787305977573479] [-4.8986308028517644:2.747424475111127] [-2.8135880528589849:2.3950883948892763] [-2.7416264872658647:2.1745964294861633] [-4.2838930181945214:2.7964912881895954] [-4.119617368229636:3.5629460027441207] [-4.6349840265098141:3.1244146100191799] [-4.4875046841507142:2.7935824846097983] [-2.8615012799640605:3.071366159655248] [-2.8402788966801955:2.3374551161270714] [-2.3064862470724847:2.7869599930090705] [-1.6185017708886091:3.3435835379480712] [-2.7610479276152708:2.3412025413558517] [-6.4068409182549937:2.0794588930634017] [-2.1751459113434137:4.7376916654939638] [-3.2462119606202471:2.0368314302861115] [-6.7702384565956093:1.2692928501701153] [-1.5462826146709605:3.812144096469718] [-4.1212484069008566:2.7166428980863677] [-3.7167978618089395:1.8681289597427166] [-3.7714176047389865:2.4943470726672672] [-5.0397420868756804:2.9345451054236906] [-3.1236727893000151:2.0456650946674615] [-2.0468561976070947:3.7241828358818134] [-2.2921017059737823:0.86566576561804653] [-0.97428479735849605:1.8931953430782167] [-4.4395619854776909:2.5425499207151576] [-3.2793867816412603:2.2627184813871746] [-2.7642168127863309:3.264705071372485] [-3.6221573921584906:1.7741933660335045] [-3.2732494703228507:2.5604563483720866] [-1.6549316664585616:6.4611112483105684] [-1.8963637324045708:4.0899184367790582] [-6.153717351615887:2.4484217417878757] [-3.9911077172958755:2.8666778919506348] [-7.1569387504019817:2.3803064307425545] [-3.6028414698230544:2.049565224650864] [-2.4321002821404853:3.8530258320569875] [-6.3491940117136956:1.6025559266965799] [-3.5649514111574354:6.0790237770605726] [-2.6485036674420859:2.9131763561911299] [-2.5944792255702676:4.9036512819912375] [-1.7701779254721894:4.3352068970423092] [-3.7860669819812598:2.6737382539203662] [-3.116875513814839:2.5780220427782772] [-2.8686221449673748:2.3966470652895695] [-4.3677096240996747:3.3639309096309127] [-2.6005155033098797:2.0971057477526083] [-6.8338870999185071:1.9573865252491554] [-2.1447935255934869:1.0089237992750313] [-6.2271306813883243:3.4196793398620851] [-3.1627070425001764:2.6744359207730821] [-3.4049324736328104:3.0100154507335306] [-2.5636885438635484:2.7147855087385908] [-6.227153556627294:1.8592578366408248] [-2.0416518908302046:2.7448337651595542] [-2.8835430164510294:3.1467623981673998] [-2.6496309505305811:2.4136711655062588] [-3.83677097464279:5.2032012533531473] [-3.5256731285033274:3.0459837562280749] [-4.5742844724208842:2.16731758967626] [-4.8756546281723887:2.4614631664154634] [-2.6171491920789736:3.4588194109513695] [-3.6065694320724577:2.5743716980180329] [-6.7899048924235412:2.1564856440503677] [-2.6762536552710547:3.0581749536169531] [-3.5193439428631628:3.0693176853351503] [-3.1863800264281643:3.0936102158433791] [-2.4451898223813342:4.7439422072294883] [-3.0842604499540185:2.7080156979428276] [-2.2364939721826502:2.8185177246376933] [-3.8442888518345204:2.8485366778365315] [-2.6373641400705115:3.1491819799243252] [-4.4802150822356435:2.5099547519346297] [-4.1967751795909862:5.6352158152239067] [-3.3334575364151866:2.9661816204768092] [-3.918638356131166:2.9691742007672168] [-3.2455030699755167:4.0451649410904098] [-7.2243876144128842:2.277561010605313] [-3.6639105968834729:2.5276866453584015] [-3.183200992243997:3.3196982351535747] [-3.5831508717205058:2.6471761333979873] [-2.9408981339843017:2.2707706641495902] [-3.0784030022338369:2.7669763811075025] [-3.2868076273892655:2.8690214032924608] [-3.41146030974368:3.2503594553891397] [-3.6119374276863701:2.4079257228366635] [-3.3698113444440123:2.5967190412466139] [-4.2593958078262153:2.8192644108543061] [-3.1940512124918721:1.0312557308919068] [-2.8476431282485115:2.597615297401402] [-3.7516904105234419:3.2713898975541711] [-3.4811372200297193:3.845600764299471] [-5.7599130277096666:1.2841245089064759] [-3.1898318114591691:3.1245108924752487] [-3.6128969297134033:2.285425516821483] [-4.1637990930577793:2.2587472997622706] [-3.1869774947639704:3.1403617203467613] [-3.9458822062356136:2.5955449413162306] [-3.5455252221544846:3.0981111944648441] [-4.5392289818529807:1.2330161098834993] [-2.8406969072116497:2.9800316291014397] [-7.5985127319333774:1.5594340999621066] [-3.6046811576220015:2.3742878892876615] [-4.1525044371419746:2.4619248708941881] [-3.492597928831326:2.0209416991498004] [-3.0029442443539529:3.0514293844245834] [-5.4537006763136535:2.3701986564543125] [-6.6973280040476828:6.6398421649557511] [-5.5338192759109575:2.0719679912672309] [-4.324646675848931:1.8363583230546767] [-3.1192173556183835:2.3986624763247284] [-3.7553891352943496:2.2782603267050967] [-2.2683258309139349:5.4642387761546365] [-2.8044428580586218:2.4597895055372723] [-1.8600586504098349:3.2572878359207937] [-3.7284455410648509:3.2057375445400931] [-5.3104230935368015:1.9931083067407949] [-3.5377268835016227:0.80579091694864979] [-3.4367591897835368:2.183152501813165] [-2.9964180235628821:2.31602115815069] [-2.9418732380125974:2.3846557137099404] [-3.0276374267477224:2.7150796645842568] [-3.1499893599997582:2.8066242984683414] [-5.5387786833583306:2.2177394240321719] [-3.9135684102548778:1.7799272693886177] [-2.4481487165071201:3.9192430880049307] [-3.4256366986791185:3.4736727716282312] [-1.6196336411080192:2.8291003393858132] [-3.1010565114520805:2.6983272157999969] [-2.7323896955139855:2.1517305310734924] [-6.7633515016911838:2.8562658047372835] [-1.8431206966759073:1.3171473948388068] [-2.3034450111443951:4.2835711685623901] [-1.008418772940135:3.7351267249593398] [-4.2307982847887917:2.1713449170846228] [-1.9404451664002462:3.2267091002969681] [-3.5186514740618144:3.3381515677884921] [-2.7018723277400931:3.1758287418091635] [-4.0197443494666221:2.3303137666195024] [-3.1520098038643183:2.4809381415937484] [-5.2957054448747849:2.031832579221192] [-1.3014405540367275:1.496110706763943] [-2.2474502308384747:3.1257795885126929] [-2.6114845975110828:2.7913836793823279] [-2.6615796544885142:2.8356076401447154] [-0.94395026243000058:3.3407795514376266] [-1.9623952719140745:1.875151056572776] [-3.2062737784099546:3.5094087058214742] [-2.9145929930508805:2.7322589074988781] [-3.972699975959848:2.4697337106117883] [-3.2091710696997122:2.6869449938389369] [-2.584477717365433:3.3949563478518794] [-5.6779716740160602:3.0339109712917525] [-3.3051486271855706:1.2099143925520635] [-2.8390232174440673:3.3890587312264366] [-0.16247254954170848:2.8216920183515706] [-2.3331752960301806:2.9535263044367168] [-3.3299909305915425:3.430780313806733] [-3.9613910831684382:4.9657581836168125] [-3.7931305221745126:0.69418139038018156] [-2.9744233327640757:3.2793269624105945] [-3.3956762813874102:2.5114464365429443] [-2.435729679843631:4.130566846942938] [-1.5280401650731461:1.624749821211015] [-5.3161003151301429:0.7790975005359484] [-4.5054705265008392:2.445494359916855] [-5.2335964429244255:2.0789115012478288] [-1.3277019106100223:4.8681269503806206] [-2.5322577639064554:2.6193706296062724] [-1.2425826837247256:1.8086339718265088] [-3.5738868398327135:2.6413480085796701] [-6.512475351756053:3.3353009140767882] [-4.6568894511896541:2.12857881355017] [-3.0365273867711702:2.7973478834041825] [-1.0887715029748248:2.2137901017507167] [-5.8529550819706868:2.4269746080317103] [-3.2748732667229805:2.6424743474576524] [-3.3331439708229338:2.1281247987831731] [-4.4992309988811154:2.5281672321399746] [-4.8678477325572791:3.9162731630894023] [-3.3755375637627072:4.2385886151661509] [-2.2793916817141064:2.8233062878850936] [-2.4776650091059982:3.209954478860678] [-2.2702539647219613:3.3129122388133538] [-2.0048797338275928:0.66591962034765262]
tree_sizes=2013 2671 2578 2458 2361 2468 2462 2367 2582 2354 2574 2481 2465 2469 2365 2469 2586 2467 2472 2463 2584 2468 2577 2462 2583

Tree=0
num_leaves=18
num_cat=0
split_feature=135 382 485 466 88 317 10 251 13 212 29 258 407 37 4 1 0
split_gain=29.063 18.9074 15.0659 12.9335 13.3954 12.3012 12.1775 11.4102 9.46971 8.56941 9.49555 6.2511 7.64763 2.28204 0.898987 0.269954 7.10543e-15
threshold=-0.33833511654046849 -0.53647690823798044 -0.69836279701511506 -0.18985147817798059 -0.34910567634785283 0.85116762981040262 0.11991487557845508 -0.043079171976986054 0.44971277335665277 0.85975687409237544 -0.53130912768909033 0.2566317157470886 0.25636537168480555 -0.40897761803029486 1.0000000180025095e-35 0.59357758209497968 0.11220118074425545
decision_type=2 2 2 2 2 2 2 2 2 2 2 2 2 2 2 2 2
left_child=9 5 6 15 -5 7 -3 -2 13 11 -11 -1 -13 -6 -8 -4 -9
right_child=1 2 3 4 8 -7 14 16 -10 10 -12 12 -14 -15 -16 -17 -18
leaf_value=-0.43060964118152445 -0.32760076394053306 -0.3672195628793759 -0.43060964118152445 -0.25402299448268212 -0.3688043148369296 -0.37442298086825643 -0.26579543759593821 -0.22459188669954158 -0.30942272678035809 -0.41000786573332615 -0.27609632532003731 -0.43060964118152451 -0.31043261773370112 -0.43060964118152456 -0.22459188669954161 -0.41000786573332615 -0.22459188669954161
leaf_weight=11.406783536076551 3.8831603527069083 3.1550677865743655 4.6112529188394573 3.3977653086185482 2.4269752204418182 2.6696727424859992 2.4269752204418182 5.824740529060362 4.125857874751091 2.4269752204418182 2.912370264530181 2.4269752204418173 2.9123702645301819 3.8831603527069039 2.9123702645301819 2.4269752204418182 2.9123702645301819
leaf_count=47 16 13 19 14 10 11 10 24 17 10 12 10 12 16 12 10 12
internal_value=-0.345206 -0.322002 -0.345478 -0.368325 -0.340251 -0.276914 -0.28934 -0.256287 -0.368325 -0.392123 -0.336965 -0.409709 -0.365059 -0.406838 -0.243321 -0.423506 -0.224592
internal_weight=0 44.6563 29.3664 20.872 13.8338 15.2899 8.49441 12.6203 10.436 22.0855 5.33935 16.7461 5.33935 6.31014 5.33935 7.03823 8.73711
internal_count=275 184 121 86 57 63 35 52 43 91 22 69 22 26 22 29 36
is_linear=0
shrinkage=1


Tree=1
num_leaves=24
num_cat=0
split_feature=135 446 324 453 491 252 298 70 42 369 258 467 129 5 26 448 348 173 144 298 35 6 2
split_gain=26.3733 14.9204 17.0885 16.0506 12.9299 12.4373 10.2172 8.7922 7.8099 5.02927 7.51649 4.47825 4.21988 1.26419 0.339943 0.327434 0.0180627 0.0108061 0.00341617 0.00258655 0.000199008 0.000168499 1.77636e-15
threshold=-0.33833511654046849 0.17873776517314591 0.57126975977115146 0.36721685963715561 2.0619614312679579 -1.0863873421218935 -0.61760964631695503 -1.0238255983546511 0.69725354272415696 0.26079471939935289 0.18194276334252915 0.72997750325835853 0.5873817880748774 -0.56753685191172876 -0.84645701057094735 -0.51453057931531199 -0.34586992078793027 0.55925162232993475 -1.3520308690606984 -0.023290152320592804 -0.46422427942346528 -0.2853921033615166 0.090697937558506192
decision_type=2 2 2 2 2 2 2 2 2 2 2 2 2 2 2 2 2 2 2 2 2 2 2
left_child=7 3 5 4 6 -3 -2 -1 11 14 -11 15 13 -8 -9 -7 -15 21 -16 -17 -20 -18 -22
right_child=1 2 -4 -5 -6 8 12 9 -10 10 -12 -13 -14 16 18 19 17 -19 20 -21 22 -23 -24
leaf_value=0.018615636922091724 -0.010122706647123402 0.075975951080902451 0.089950005124615956 -0.066144286157118412 -0.03353051996817457 -0.063084158805803647 0.07528797754284175 -0.062177743426401345 0.024512637840534632 -0.082752344522464855 0.033787990771040451 -0.0030573994508190754 0.0358216594099088 0.11901553503831426 -0.084865926955457791 -0.085616966684734661 0.11259058821186026 0.1168469817521005 -0.083064136718583481 -0.083658207914783775 -0.08250563396517277 0.11315005720746343 -0.082505633965172465
leaf_weight=4.3493570089340237 2.6623580902814945 2.4467207789421144 3.666687309741973 2.659138783812522 2.9036663919687262 2.4043177068233508 2.4488824754953447 2.3941348344087645 3.1590995937585822 2.6304428726434699 2.9188449531793594 2.4248873442411414 2.4405598193407068 2.4349808990955397 2.4166079312562969 2.6710866838693637 2.9624846577644393 2.4467207789421082 2.3949535638093975 4.5671076327562279 2.3875992000102908 2.4661460667848409 2.3875992000102997
leaf_count=18 11 10 15 11 12 10 10 10 13 11 12 10 10 10 10 11 12 10 10 19 10 10 10
internal_value=0 0.0219631 -0.00828055 0.0495149 0.0643255 -0.0286606 0.0802329 -0.0450171 -0.0454745 -0.0608048 -0.0214538 -0.0637962 0.0960594 0.107582 -0.0790313 -0.0790708 0.115252 0.114088 -0.0832401 -0.084381 -0.0826922 0.112845 -0.0825056
internal_weight=0 44.7648 21.3399 23.4249 20.7658 17.6732 17.8621 21.8795 15.2265 17.5302 5.54929 12.0674 15.1998 12.7592 11.9809 9.64251 10.3103 7.87535 9.58676 7.23819 7.17015 5.42863 4.7752
internal_count=275 184 88 96 85 73 73 91 63 73 23 50 62 52 50 40 42 32 40 30 30 22 20
is_linear=0
shrinkage=0.05


Tree=2
num_leaves=23
num_cat=0
split_feature=362 81 126 236 121 122 318 402 357 391 54 109 455 497 321 150 407 161 70 100 135 0
split_gain=24.0896 16.9658 13.4841 11.3567 10.5112 10.4229 11.9899 9.53698 9.35892 6.98231 6.79096 10.3512 4.12489 2.30531 1.783 1.16649 0.0323097 0.00576625 0.00560373 0.00436309 0.000645778 5.66179e-05
threshold=-0.77868112075414875 0.27466145876930842 0.053494914333948922 0.097895720450225848 -0.28041976271747221 0.27558147311850023 -0.29423753306770428 -0.7365935181453086 0.93393442825479733 -0.6446083849138281 -0.52468910059397167 -0.45409418960486087 -0.52263920840457845 0.76614029104767012 0.39973191421387805 0.65714257440757584 -0.51227324590321988 0.22474100955364498 -0.84383954877745138 0.40361854085302473 -0.38717864723232359 -0.086078549443259059
decision_type=2 2 2 2 2 2 2 2 2 2 2 2 2 2 2 2 2 2 2 2 2 2
left_child=2 5 4 7 -1 10 -7 -3 12 -8 11 -2 -9 18 -5 16 -4 -14 -12 20 21 -20
right_child=1 3 15 14 -6 6 9 8 -10 -11 13 -13 17 -15 -16 -17 -18 -19 19 -21 -22 -23
leaf_value=0.079444569704745255 0.062310143830983315 0.068436972851876166 0.10683222336742373 0.053441480820378522 -0.041556043765258066 0.094686938991251593 0.036457019827014873 -0.002354731348838878 0.056938378753482378 -0.07066336788822862 -0.083670349069978001 -0.067834027367683014 -0.080396326824311762 -0.032374022479192847 0.11226582794740879 0.069968611435537273 0.11442966413864307 -0.083798006100922834 -0.080234792796743962 -0.0824691604485389 -0.081061364349129444 -0.079917627888912227
leaf_weight=2.9511720240116119 2.675712451338768 3.4564619362354287 2.4893355667591086 2.450832948088645 4.5805051624774924 2.7101479321718216 2.4329488724470139 2.4080954492092133 2.4335142523050308 4.0594471096992475 2.4037273079156884 3.5614982694387427 2.5858415961265564 2.8842127025127402 2.7154514491558075 2.4732216596603394 3.1960727572441092 2.4039704203605652 2.8178300261497489 3.5746395587921143 2.3627700805664107 2.8105615824460983
leaf_count=12 11 14 10 10 19 11 10 10 10 17 10 15 11 12 11 10 13 10 12 15 10 12
internal_value=0 -0.016789 0.0540985 0.0214547 0.00585619 -0.0386434 0.00635253 -0.00300276 -0.028119 -0.0305213 -0.0565758 -0.0120032 -0.0560984 -0.0730712 0.0843602 0.0986336 0.111103 -0.0820352 -0.0814737 -0.0810172 -0.0803676 -0.0800764
internal_weight=0 50.7477 15.6903 18.4542 7.53168 32.2935 9.20254 13.2879 9.83142 6.4924 23.091 6.23721 7.39791 16.8537 5.16628 8.15863 5.68541 4.98981 13.9695 11.5658 7.99116 5.62839
internal_count=275 211 64 76 31 135 38 55 41 27 97 26 31 71 21 33 23 21 59 49 34 24
is_linear=0
shrinkage=0.05


Tree=3
num_leaves=22
num_cat=0
split_feature=135 446 324 453 252 419 76 8 70 280 31 480 367 435 107 446 158 371 258 329 298
split_gain=22.5784 12.7337 14.4313 13.502 10.3892 8.66197 11.546 8.09733 7.62841 6.25278 5.73115 5.34401 5.21371 9.57252 0.341726 0.335553 0.0262474 0.011384 0.00647286 0.00572568 0.000715591
threshold=-0.33833511654046849 0.17873776517314591 0.57126975977115146 0.36721685963715561 -1.0863873421218935 -0.51789786763019752 -0.19618526117019972 0.27069175970214177 -1.0238255983546511 -0.29171914215587508 0.6412813070841995 0.29749916496331147 0.31195665434079928 0.01356987078550225 -0.18332977592633035 0.49638952341402376 -0.18169128551352057 0.078705888010119435 0.1508285687157184 -0.075747271041473177 -0.41108446773974022
decision_type=2 2 2 2 2 2 2 2 2 2 2 2 2 2 2 2 2 2 2 2 2
left_child=8 3 4 5 -3 16 7 -7 -1 -6 15 17 14 -14 18 -11 -2 -8 20 -17 -10
right_child=1 2 -4 -5 9 6 11 -9 12 10 -12 -13 13 -15 -16 19 -18 -19 -20 -21 -22
leaf_value=0.016794940564140003 0.10285092450150733 0.067741311198250595 0.08141973695608351 -0.062032669005304499 0.02687801498237527 -0.068292841220934916 0.10297386211683934 0.05135129209811401 -0.078865739054961262 -0.059181252233013626 0.0071807508201542046 0.022828772351996558 0.056951361668057948 -0.081339802215988022 -0.057848449773882919 -0.082379566981085617 0.10914226444920005 0.1076436199151095 -0.080823996396786543 -0.079579869838285452 -0.077743807363953685
leaf_weight=4.3598095923662212 3.7447886765003204 2.4807736724615159 3.722561001777648 2.5958074927330008 2.6534322947263762 3.3367739468812969 2.7466232925653404 2.4543347358703613 2.3186873793602016 2.3363835960626513 2.6633542776107797 3.1576798409223557 2.4244211912155142 2.5861857831478119 2.3198814839124671 3.5740735679864901 2.9747617542743745 2.4867196381092072 3.7633893489837646 3.7341799736022931 3.6720803976058951
leaf_count=18 15 10 15 11 11 14 11 10 10 10 11 13 10 11 10 15 12 10 16 16 16
internal_value=0 0.0201797 -0.00795103 0.0455178 -0.0270248 0.0588746 0.0367188 -0.0175864 -0.0422386 -0.0427381 -0.0577463 0.0741979 -0.0573033 -0.0144265 -0.0750967 -0.0756759 0.105636 0.105193 -0.0791989 -0.0809491 -0.078178
internal_weight=0 44.6622 21.1648 23.4975 17.4422 20.9017 14.1821 5.79111 21.4445 14.9614 12.308 8.39102 17.0846 5.01061 12.074 9.64464 6.71955 5.23334 9.75416 7.30825 5.99077
internal_count=275 184 88 96 73 85 58 24 91 63 52 34 73 21 52 41 27 21 42 31 26
is_linear=0
shrinkage=0.05


Tree=4
num_leaves=21
num_cat=0
split_feature=135 382 467 485 466 88 303 155 70 494 367 41 108 510 273 176 268 345 258 286
split_gain=20.5916 12.9154 12.1755 11.0753 10.3144 9.88171 9.40491 9.33361 7.0557 5.05484 4.88952 7.20148 4.60278 0.347025 0.338559 0.32644 0.0323494 0.00505715 0.00494456 0.000627888
threshold=-0.33833511654046849 -0.53647690823798044 0.46315379754757652 -0.69836279701511506 -0.18985147817798059 -0.34910567634785283 0.05357056963574431 0.94060550455523895 -1.0238255983546511 -0.023837325762222281 0.31195665434079928 -0.072620168721743469 -0.77180446306999007 -1.0539159532265017 -0.44924731659910755 -0.17787220808839196 0.52409786632622313 -0.38824671584512555 0.1508285687157184 -0.39642136669322825
decision_type=2 2 2 2 2 2 2 2 2 2 2 2 2 2 2 2 2 2 2 2
left_child=8 2 12 6 14 -6 -3 9 -1 -7 13 -12 -2 -10 -5 -14 -17 -11 19 -15
right_child=1 3 -4 4 5 7 -8 -9 10 17 11 -13 15 18 -16 16 -18 -19 -20 -21
leaf_value=0.015912031327452014 0.021508218288048456 -0.0016518402055944533 -0.027954029326381403 -0.055734876361483193 0.077250191362178713 0.0066159494252850271 0.10332819646781827 0.059662458159484767 -0.055336400808586109 -0.077630614924739036 0.041888729954784897 -0.078753194333367055 0.08017156015671234 -0.076826876148222964 -0.079433135223599349 0.09874703459555878 0.1058507386492899 -0.08085334374229293 -0.078512745746811441 -0.075764595905237139
leaf_weight=4.3713298141956356 2.6785983592271796 4.5868055075407046 3.3768693655729285 2.2873550802469254 3.469584837555888 2.6493014395236969 3.98868627846241 2.681842103600502 2.27176006138325 2.5175627022981644 2.6785915791988373 2.2984006851911536 2.4826635569334012 2.2708419412374523 4.4181063324213055 4.4960696697235107 2.4903300851583481 2.3569379746913857 3.6892183870077133 3.5904765278100923
leaf_count=18 11 19 14 10 14 11 16 11 10 11 11 10 10 10 19 18 10 10 16 16
internal_value=0 0.0192335 0.0560294 -0.000494182 -0.0205526 0.00435479 0.0471771 -0.0204273 -0.0406744 -0.0489751 -0.0553987 -0.0138243 0.0793756 -0.0729008 -0.0713492 0.095745 0.101279 -0.0791889 -0.0770787 -0.0761762
internal_weight=0 44.4807 15.5245 28.9562 20.3807 13.6752 8.57549 10.2056 21.1706 7.5238 16.7993 4.97699 12.1477 11.8223 6.70546 9.46906 6.9864 4.8745 9.55054 5.86132
internal_count=275 184 63 121 86 57 35 43 91 32 73 21 49 52 29 38 28 21 42 26
is_linear=0
shrinkage=0.05


Tree=5
num_leaves=22
num_cat=0
split_feature=135 382 467 485 443 81 373 303 212 29 258 407 95 136 189 446 70 515 40 501 286
split_gain=18.8062 11.6586 10.9854 10.0349 9.62081 9.78705 10.3228 8.48078 6.60452 7.54204 5.27354 6.09993 4.55619 2.48628 0.353108 0.0319871 0.021547 0.0172344 0.00542091 0.00242867 0.000283548
threshold=-0.33833511654046849 -0.53647690823798044 0.46315379754757652 -0.69836279701511506 0.87665506915493507 0.47170890531864468 0.031077584165476697 0.05357056963574431 0.85975687409237544 -0.53130912768909033 0.2566317157470886 0.25636537168480555 1.0542157918111055 -0.40494699004323781 -0.58929175706853354 0.17873776517314591 -0.82394190546891688 -0.31689742315883457 0.19757742008554488 0.45869451999606914 -0.22046838019015494
decision_type=2 2 2 2 2 2 2 2 2 2 2 2 2 2 2 2 2 2 2 2 2
left_child=8 2 12 7 5 13 -7 -3 10 -10 16 -12 14 -5 -2 -16 -1 -15 -19 20 -18
right_child=1 3 -4 4 -6 6 -8 -9 9 -11 11 -13 -14 17 15 -17 19 18 -20 -21 -22
leaf_value=-0.080079963018526781 0.075553210257748277 -0.0015696153365511176 -0.026680335407880104 -0.019777061895349377 0.057082698942838211 0.076928952573395062 -0.049956100849233617 0.098112200015757156 -0.058166304558640448 0.062493905839886781 -0.075976725148599586 0.033984970484030361 0.017966184480970464 -0.082067579867454096 0.09500652461588846 0.10206835384750293 -0.074503327898919433 -0.07559476532129504 -0.078701790848113407 -0.07593802540678013 -0.073779357042060026
leaf_weight=2.3275830894708625 2.4755024313926679 4.5857581198215502 3.3615696728229514 2.3253468424081829 3.3890823423862448 3.1953917592763892 3.2164388298988342 3.9905598908662796 2.3168919682502747 2.9365690648555747 2.2366571277379981 2.8918106853961945 2.6841984093189231 2.3637107014656094 4.48359514772892 2.4963596910238266 2.2063500434160224 3.1341658681631079 2.542846292257309 2.4644987285137177 3.4945893585681942
leaf_count=10 10 19 14 10 14 13 14 16 10 12 10 12 11 10 18 10 10 14 11 11 16
internal_value=0 0.0183578 0.053308 -0.000490742 -0.0197566 -0.0352778 0.0132782 0.0448123 -0.0392171 0.0092801 -0.0555265 -0.0139722 0.0754574 -0.0653117 0.0917779 0.0975322 -0.0758362 -0.0784801 -0.0769865 -0.0746265 -0.0740595
internal_weight=0 44.2445 15.5012 28.7433 20.167 16.7779 6.41183 8.57632 20.875 5.25346 15.6215 5.12847 12.1397 10.3661 9.45546 6.97995 10.493 8.04072 5.67701 8.16544 5.70094
internal_count=275 184 63 121 86 72 27 35 91 22 69 22 49 45 38 28 47 35 25 37 26
is_linear=0
shrinkage=0.05


Tree=6
num_leaves=22
num_cat=0
split_feature=491 30 236 505 45 295 37 90 477 465 387 422 208 266 193 325 50 466 398 360 143
split_gain=16.4844 13.8069 13.0633 9.61889 8.43342 8.25997 7.75157 7.55842 5.07428 8.76605 4.90345 3.29115 5.01086 2.75622 2.50403 0.868782 0.326897 0.0339225 0.0330979 0.0171725 0.0119792
threshold=1.1872179906737841 1.2873375826842588 0.06989136569429906 -1.2157052556609973 0.87053746503927443 -0.13853641787042054 -0.59844047899852049 -0.43442107766768578 0.63226358569825958 -0.070152131476588955 -0.42037738885640208 -0.7087031323867945 0.15436207857525999 -0.069851739528043313 0.98079856300107282 -0.60520103606073461 0.86598264053255869 0.049995001502333679 0.31246924851678265 -0.94323323875123111 0.033245441691558401
decision_type=2 2 2 2 2 2 2 2 2 2 2 2 2 2 2 2 2 2 2 2 2
left_child=1 2 3 -1 8 -6 -5 -4 11 -10 -8 12 -2 -9 17 -3 19 -12 -15 -13 -21
right_child=4 15 7 6 5 -7 10 13 9 -11 14 16 -14 18 -16 -17 -18 -19 -20 20 -22
leaf_value=0.052068935006343811 0.027241900939267556 0.06118436675719089 -0.025021017232353823 0.037329547930751765 -0.041169836758289655 0.082077099546264409 0.015229431082659726 0.031714853089762393 0.052153596711875007 -0.076933829553132896 -0.074241126786429842 -0.07261750612092871 -0.074408881117447687 0.092380614199459532 -0.019048847469182367 0.09832239613555023 -0.055112615071208571 -0.080613727289504417 0.1001619948445055 -0.080262026049800511 -0.076054131409990816
leaf_weight=4.1027973890304592 2.4419708847999635 2.4291552305221558 2.3777111023664474 3.105289548635489 2.5068677216768265 2.9701559692621222 2.3262049257755324 2.3693862855434418 3.1459034830331802 2.2599132657051078 3.948528364300719 2.1430557966232353 2.4077072143554688 2.7266785949468595 2.3335292637348184 4.4772068262100211 2.207293063402175 4.4326722919940948 2.7395736873149872 2.8081221729516948 4.252982884645462
leaf_count=17 10 10 10 13 11 12 10 10 13 10 18 10 11 11 10 18 10 19 11 12 19
internal_value=0 0.0214304 0.00695911 -0.0162948 -0.0297659 0.0256662 -0.0336662 0.0530625 -0.0437782 -0.00181168 -0.0505717 -0.0577295 -0.0232244 0.0767567 -0.0648573 0.0852599 -0.0723935 -0.0776115 0.0962805 -0.0765378 -0.0777276
internal_weight=0 37.3687 30.4624 20.249 27.144 5.47702 16.1462 10.2133 21.6669 5.40582 13.0409 16.2611 4.84968 7.83564 10.7147 6.90636 11.4115 8.3812 5.46625 9.20416 7.06111
internal_count=275 157 129 87 118 23 70 42 95 23 57 72 21 32 47 28 51 37 22 41 31
is_linear=0
shrinkage=0.05


Tree=7
num_leaves=21
num_cat=0
split_feature=362 135 414 485 126 387 438 140 106 66 351 489 105 308 122 23 337 300 493 34
split_gain=16.4929 11.6566 10.6605 11.6143 9.85507 8.56854 10.8707 8.41073 7.82392 4.89979 4.32183 3.93219 2.46488 0.997182 0.249926 0.0561301 0.0244405 0.0272096 0.0110583 0.00445471
threshold=-0.77868112075414875 0.020426694217420455 0.43821122161267106 -0.69836279701511506 0.053494914333948922 -0.14828985541102579 -0.41408788062455371 2.0412646684492266 0.081723308972685163 -0.17765405442304114 -0.26459183148194182 0.24819765956014181 -0.75401788661122404 -0.49577951803131465 0.13355601362087563 -0.023351166479134624 0.022212972574969826 0.036073595244998743 0.69347191146141174 -0.18800793916753186
decision_type=2 2 2 2 2 2 2 2 2 2 2 2 2 2 2 2 2 2 2 2
left_child=4 5 3 -3 8 6 -2 11 -1 -5 -4 18 -7 -6 -11 -15 -14 -18 19 -8
right_child=1 2 10 9 13 12 7 -9 -10 14 -12 -13 16 15 -16 -17 17 -19 -20 -21
leaf_value=0.042754004385273846 0.060038939833974805 0.060985599569040351 0.01297821076252592 0.0095032399612976319 0.057795640858004406 -0.02002739232186564 -0.071261655279915959 0.048775469758545631 -0.063764420273058051 -0.054968964907098294 0.097461147796340949 0.00065224895239425007 -0.072679459074288952 0.090380669121702839 -0.07622167654002171 0.10057081973828637 -0.074712629789591617 -0.081302293364388767 -0.0768394439942897 -0.074292072928606651
leaf_weight=4.6056494116783133 4.0934973061084774 3.9075542539358148 2.360118106007576 3.0362628400325775 2.6810031533241263 2.4570742547512046 2.7178016901016235 2.4232614189386359 2.7551888078451157 2.1737625002861023 4.221540465950965 2.3439969718456268 4.0578883588314074 2.9498037546873084 3.8041997253894806 2.4938716143369675 3.5159328132867813 2.8253590017557144 2.2618808448314667 2.1898133456706983
leaf_count=19 17 16 10 13 11 11 13 10 12 10 17 10 19 12 17 10 16 12 10 10
internal_value=0 -0.0144952 0.0153703 -0.0110119 0.0447898 -0.0346596 -0.0102724 -0.0343844 0.00288377 -0.0422219 0.0671664 -0.0555667 -0.0650677 0.082756 -0.0684936 0.095049 -0.0757096 -0.0776487 -0.073947 -0.0726138
internal_weight=0 48.3899 19.5034 12.9218 15.4855 28.8865 16.0303 11.9368 7.36084 9.01423 6.58166 9.51349 12.8563 8.12468 5.97796 5.44368 10.3992 6.34129 7.1695 4.90762
internal_count=275 211 83 56 64 128 70 53 31 40 27 43 58 33 27 22 47 28 33 23
is_linear=0
shrinkage=0.05


Tree=8
num_leaves=23
num_cat=0
split_feature=135 368 443 313 465 64 290 438 311 226 465 42 5 332 516 501 519 384 324 349 515 150
split_gain=15.0935 9.18194 10.1676 8.29302 8.50029 7.58081 7.27622 7.11433 6.48461 6.01029 10.0151 4.22302 3.97111 2.20377 0.904507 0.777837 0.366216 0.0514452 0.0292656 0.0125279 0.0111229 0.00977814
threshold=-0.33833511654046849 -0.85066518497239563 0.3046845244519667 0.51569093077602279 -0.94000560598177707 -0.15290431576503319 0.12414592861883936 1.0425031317137152 0.59735998310937843 -0.16927121274522552 -0.57565010195824551 0.74866703180384231 -0.15945569053583616 0.65549982478945545 -0.10256943781450971 -0.091329680158490967 -0.90678323815487738 -0.2618390924802832 0.20311439554917488 -0.3277625861206705 -0.31689742315883457 -0.63334483579190737
decision_type=2 2 2 2 2 2 2 2 2 2 2 2 2 2 2 2 2 2 2 2 2 2
left_child=9 14 3 4 -3 -5 -7 8 15 16 -11 13 -12 18 -2 -4 -1 -17 20 -14 -6 -18
right_child=1 2 7 5 11 6 -8 -9 -10 10 12 -13 19 -15 -16 17 21 -19 -20 -21 -22 -23
leaf_value=-0.049498000516031482 0.052818449957862196 0.041941353378675161 0.058662936086857222 0.092996018617771958 -0.076079825646481192 -0.07603574827273879 0.042668399612509914 -0.037750770627306134 -0.0037199311824857176 0.048386335911125927 0.0068920081186654826 0.0093007043143982313 -0.070986359378921587 -0.020661181251704588 0.093408759221133494 0.088478593759491922 -0.071172500898762647 0.098079125651193005 -0.08067721456500701 -0.076026725131185566 -0.071571029813486162 -0.07516399860680123
leaf_weight=2.0773145407438278 2.3895973414182663 3.077650472521781 2.3878681510686857 2.9641556292772293 3.3531901538371987 2.2138551473617536 3.0967982560396194 2.2786695659160605 2.9806170463562003 4.2585025727748871 2.2325975745916367 2.4005337059497824 2.4910963475704193 2.2762543261051169 3.2244989126920691 3.1858820319175702 2.4974325746297836 2.4828533232212084 2.5661135613918304 2.4406381994485837 2.3102545738220286 3.9788232892751711
leaf_count=10 10 13 10 12 15 10 13 10 13 18 10 10 12 10 13 13 12 10 11 11 11 18
internal_value=0 0.0164888 0.00757743 -0.0116926 -0.0327269 0.0289382 -0.00681587 0.0426835 0.0592894 -0.0360717 -0.0123391 -0.0505323 -0.0484345 -0.0642039 0.0761318 0.0826003 -0.0677654 0.0926835 -0.0762476 -0.0734808 -0.0742406 -0.0736248
internal_weight=0 43.1888 37.5747 24.2588 15.984 8.27481 5.31065 13.3159 11.0372 19.9764 11.4228 12.9063 7.16433 10.5058 5.6141 8.0566 8.55357 5.66874 8.22956 4.93173 5.66344 6.47626
internal_count=275 184 161 105 70 35 23 56 46 91 51 57 33 47 23 33 40 23 37 23 26 30
is_linear=0
shrinkage=0.05


Tree=9
num_leaves=21
num_cat=0
split_feature=362 485 95 13 511 446 367 342 282 8 7 456 167 425 416 186 167 366 199 50
split_gain=14.285 10.152 11.4081 8.44258 8.31541 8.27544 7.136 8.56287 5.5228 7.92358 4.10222 3.16276 0.358245 0.271183 0.227153 0.0518837 0.0276754 0.0134089 0.00866543 0.00834943
threshold=-0.77868112075414875 -0.69836279701511506 -0.33830327271675398 1.7975014126917157 -1.6119394773193008 0.41779463900552777 0.86948219564198026 0.036932463875343956 0.35686690287069112 0.32089994718698034 -0.24578570518007123 0.30927482213213969 1.2729632410789018 -1.3341774848949399 0.12980025422552074 -0.43497133004714733 -0.60033472604338822 -0.16277113156497428 -0.4228413588113889 0.1236910560487378
decision_type=2 2 2 2 2 2 2 2 2 2 2 2 2 2 2 2 2 2 2 2
left_child=5 2 -2 4 -3 11 8 -8 12 14 -4 13 16 -1 -10 -15 -6 -12 -18 -20
right_child=1 3 10 -5 6 -7 7 -9 9 -11 17 -13 -14 15 -16 -17 18 -19 19 -21
leaf_value=0.069048926535901542 -0.048690917641313704 0.045710684268221058 0.0082613756449613981 0.063810724992942033 -0.077522846962381042 -0.018010270888457313 -0.058952584274018463 0.057740419035227079 -0.051192177405910991 0.031853973076897288 0.090737251726105361 0.025861655221675037 -0.051136940426549697 0.084676691328382125 -0.073120456746327708 0.094741374776658532 -0.070224697890317572 0.085622559984739777 -0.071325537755996024 -0.074824080793102515
leaf_weight=2.358184501528739 3.2884617298841476 3.0702508389949754 2.3449564427137375 2.4240388572216025 3.1533614397048906 4.1742158830165854 2.801537573337554 3.5821719914674759 2.0531288236379606 3.9206967949867249 2.4683310985565186 3.5649063289165497 2.0786308646202079 2.6524397134780875 2.7802413702011108 2.4755573719739914 3.6756363660097078 2.6648979932069761 3.1295269280672242 3.747554749250412
leaf_count=10 15 13 10 10 14 18 13 15 10 17 10 15 10 11 13 10 18 11 15 17
internal_value=0 -0.0137316 0.0289226 -0.0263423 -0.0327711 0.0419685 -0.0405635 0.00652884 -0.0528145 -0.0209625 0.0630524 0.0646237 -0.0704793 0.0830821 -0.0638057 0.0895355 -0.0734127 0.088082 -0.0721845 -0.073232
internal_weight=0 47.1834 10.7666 36.4168 33.9927 15.2253 30.9225 6.38371 24.5388 8.75407 7.47819 11.0511 15.7847 7.48618 4.83337 5.128 13.7061 5.13323 10.5527 6.87708
internal_count=275 211 46 165 155 64 142 28 114 40 31 46 74 31 23 21 64 21 50 32
is_linear=0
shrinkage=0.05


Tree=10
num_leaves=23
num_cat=0
split_feature=135 382 467 10 402 443 442 70 18 290 95 491 394 265 21 337 383 326 24 53 219 329
split_gain=13.0643 8.14008 8.39964 7.98683 8.45382 6.91737 6.21429 5.72311 5.12184 3.76334 3.34233 3.10267 2.26169 1.56729 0.304947 0.272142 0.196323 0.0178942 0.0169681 0.015541 0.00418682 0.00138518
threshold=-0.33833511654046849 -0.53647690823798044 0.46315379754757652 -0.093959728049486949 -0.4550397769961726 0.77901629409013484 0.66804106295698185 -1.0238255983546511 0.89260893917022888 0.71889460410521044 1.0542157918111055 -0.081775984987159461 -0.96456704060037424 0.24487333924252164 -0.77965664185289574 0.80648012241055478 -0.19912487207615068 0.20567220448391985 -0.020674393525780627 0.24287918753544838 -0.18589787300497959 0.28808527704064224
decision_type=2 2 2 2 2 2 2 2 2 2 2 2 2 2 2 2 2 2 2 2 2 2
left_child=7 2 10 5 11 15 8 -1 13 12 14 -5 -9 -6 -2 19 -13 -16 20 -3 -14 -22
right_child=1 3 -4 4 6 -7 -8 9 -10 -11 -12 16 18 -15 17 -17 -18 -19 -20 -21 21 -23
leaf_value=0.017484116166397508 0.063691078628288253 -0.071210687317533411 -0.025906392824619203 0.011298207746218585 -0.073436426513375549 0.026888889176780725 0.061373126250670477 -0.014283040715709797 0.033486903837862875 0.0055051244849997714 0.01473572099725288 0.070892734607686775 -0.070247021088490985 -0.020492453176189421 0.082678688130058312 -0.052391448741355678 0.090534929543997125 0.088035987332509946 -0.073422673069874059 -0.077202169997262135 -0.06712762200693051 -0.06884930522800857
leaf_weight=4.1962724924087551 2.3449887782335264 2.0755207538604754 3.2531593441963187 2.2927927076816559 3.8637138009071332 2.8065195083618164 2.3824012875556937 2.2232719510793677 2.2913221418857574 2.6592231541872016 2.5803199112415305 2.3984417915344238 2.8622409403324118 2.1902335584163666 4.2887262850999832 2.0956201702356339 2.7089536339044598 2.4486223757266998 2.5725355595350257 2.2616969794034958 2.8488748371601105 1.9803761690855024
leaf_count=18 10 10 14 10 18 12 10 10 10 12 11 10 14 10 18 10 11 10 12 10 15 10
internal_value=0 0.0154207 0.0451369 -0.00077538 0.0185083 -0.0386104 -0.00985078 -0.0341874 -0.0301837 -0.0485027 0.0649535 0.059619 -0.0600039 -0.054282 0.0792206 -0.0671865 0.0813109 0.0846257 -0.0699075 -0.074335 -0.0687317 -0.0678336
internal_weight=0 42.283 14.9158 27.3672 18.1279 9.23936 10.7277 19.3428 8.34527 15.1465 11.6627 7.40019 12.4873 6.05395 9.08234 6.43284 5.1074 6.73735 10.264 4.33722 7.69149 4.82925
internal_count=275 184 63 121 79 42 48 91 38 73 49 31 61 28 38 30 21 28 51 20 39 25
is_linear=0
shrinkage=0.05


Tree=11
num_leaves=22
num_cat=0
split_feature=362 81 126 121 153 54 63 144 435 214 467 497 471 515 492 380 178 107 493 229 137
split_gain=12.2541 10.1488 7.92134 6.48392 6.35423 5.9558 5.87074 6.98885 7.12407 5.22978 4.46754 4.13718 3.21924 1.05384 0.86385 0.0643183 0.0274122 0.0185755 0.00669311 0.00545308 0.00248617
threshold=-0.77868112075414875 0.27466145876930842 0.053494914333948922 -0.28041976271747221 0.93098407366384128 0.32911115001099939 0.29277494551026167 -0.087045567868376292 0.57562608467606546 0.088878298187722235 -1.7844598739593514 -0.50099350878761717 0.61165782226120702 -0.55704663440856483 0.86669410457386931 -0.075626539041398072 0.14055002398908575 -0.40709540771015607 0.55322582300434642 -0.57355970314921167 -0.033655510580491835
decision_type=2 2 2 2 2 2 2 2 2 2 2 2 2 2 2 2 2 2 2 2 2
left_child=2 6 3 -1 5 11 10 -8 -9 -7 -2 -3 13 -12 15 -4 -13 19 -19 -15 -21
right_child=1 4 14 -5 -6 9 7 8 -10 -11 12 16 -14 17 -16 -17 -18 18 -20 20 -22
leaf_value=0.058972574619640811 0.0040771814966256981 0.018347718169087712 0.078872147636350157 -0.038208312745363099 -0.048340731745284853 -0.05826002528583344 -0.072243879641583436 0.077335826171500879 -0.038062245369359385 0.038874977609629061 -0.031517468911865694 0.08385399523878255 9.0942331904862329e-05 -0.066444334827657006 0.048476873285350448 0.089729918265764097 0.091363207490179565 -0.070639110935777571 -0.07411216507245337 -0.068110886590656575 -0.070489619601655798
leaf_weight=2.8770936876535416 3.7619192302227047 3.8641149699687958 2.5430915653705597 4.2544994950294477 3.0450781732797614 2.7496789544820777 2.1065477728843689 3.5854373872280112 2.1331230998039246 2.7935054898262024 2.0713162124156996 2.3991871178150195 2.2126526385545722 2.6005069166421926 2.3524476438760757 2.941597118973732 2.4629863053560257 3.2820277661085093 2.4028226137161255 2.1385292559862172 2.2585381716489756
leaf_count=12 17 17 11 19 14 13 10 15 10 12 10 10 10 14 10 12 10 16 11 11 11
internal_value=0 -0.0129742 0.0391269 0.000997305 0.0172286 0.031221 -0.0312889 0.00561093 0.0342903 -0.00930853 -0.0452189 0.0569664 -0.0561492 -0.0645836 0.0738239 0.0846955 0.0876579 -0.0699841 -0.0721071 -0.0682593 -0.0693327
internal_weight=0 45.868 14.9687 7.13159 17.3146 14.2695 28.5534 7.82511 5.71856 5.54318 20.7283 8.72629 16.9664 14.7537 7.83714 5.48469 4.86217 12.6824 5.68485 6.99757 4.39707
internal_count=275 211 64 31 76 62 135 35 25 25 100 37 83 73 33 23 20 63 27 36 22
is_linear=0
shrinkage=0.05


Tree=12
num_leaves=22
num_cat=0
split_feature=135 446 324 453 252 40 226 465 493 380 5 62 364 519 519 467 107 438 107 371 453
split_gain=11.3404 7.24895 9.27916 7.99309 6.46174 5.5677 5.07703 8.32931 4.75326 7.789 3.50596 3.4661 2.30387 2.00833 0.376385 0.0434075 0.0247985 0.0180933 0.0167339 0.00890065 0.00567509
threshold=-0.33833511654046849 0.17873776517314591 0.57126975977115146 0.36721685963715561 -1.0863873421218935 0.40984138266910547 -0.16927121274522552 -0.57565010195824551 0.52838885833128668 0.52490828609417617 -0.15945569053583616 -0.8736757978372417 0.43228252489369062 0.47780677711087144 -0.90678323815487738 -0.26259289460242891 0.72725913336690162 -0.58268000714012491 -0.31834294586991924 -0.50662256407599748 -0.054371852030182931
decision_type=2 2 2 2 2 2 2 2 2 2 2 2 2 2 2 2 2 2 2 2 2
left_child=6 3 4 8 -3 13 14 -8 11 -10 -9 -2 15 16 -1 17 20 -13 -12 -16 -6
right_child=1 2 -4 -5 5 -7 7 10 9 -11 18 12 -14 -15 19 -17 -18 -19 -20 -21 -22
leaf_value=-0.043695663105473653 0.0074444374327365843 0.052220852068605564 0.064889364491178061 -0.053330392544688333 -0.071237689820666583 0.017169196416860294 0.04509360213808232 0.007636022777673686 0.056066113693756137 -0.071624822237629629 -0.066676564945596581 0.077718512268709933 0.028202988212978255 -0.023773071650121644 -0.071773762895235543 0.087328840252402451 -0.076054024911982543 0.083030248087426997 -0.072741641710094479 -0.067796775726624264 -0.06771557520366063
leaf_weight=1.8870489597320554 2.6640347540378597 2.3580105304718026 3.5884318798780432 2.3266601860523215 2.4854783862829199 3.4638646543025979 4.1747570782899865 2.1572202891111383 2.824320673942565 2.0692521333694458 2.2407314628362665 4.1149128377437609 2.5336351990699759 3.2149426341056824 2.2870625704526901 2.6619258224964142 2.2165660262107849 2.626481682062149 2.3094051033258394 3.6555466502904919 2.1185031533241263
leaf_count=10 12 10 15 11 12 15 18 10 12 10 12 18 11 15 11 11 10 11 11 19 11
internal_value=0 0.014482 -0.00771699 0.0342644 -0.0241474 -0.0374871 -0.0324452 -0.0103534 0.0447187 0.00207187 -0.0448644 0.059012 0.0705206 -0.0563523 -0.0631498 0.0819227 -0.0717089 0.079788 -0.0697549 -0.0693274 -0.069617
internal_weight=0 41.267 19.4458 21.8212 15.8574 13.4994 18.7118 10.8821 19.4946 4.89357 6.70736 14.601 11.937 10.0355 7.82966 9.40332 6.82055 6.74139 4.55014 5.94261 4.60398
internal_count=275 184 88 96 73 63 91 51 85 22 33 63 51 48 40 40 33 29 23 30 23
is_linear=0
shrinkage=0.05


Tree=13
num_leaves=22
num_cat=0
split_feature=362 485 95 446 299 245 211 256 226 381 472 8 6 303 451 167 298 83 498 442 520
split_gain=10.6102 7.81727 9.00501 6.57014 6.29598 8.3632 5.30428 5.78148 6.40652 4.28408 3.40924 2.73413 2.19721 0.723574 0.284012 0.0202825 0.0194619 0.017318 0.0127547 0.0103897 0.00471921
threshold=-0.77868112075414875 -0.69836279701511506 -0.33830327271675398 0.41779463900552777 0.62251406906730333 -0.09325073648445964 1.4117967270243217 -0.30144347392823007 -0.31736562599373391 0.21470947503786988 0.47713897136703964 -0.56000025303056444 -0.51069741359943033 -0.006312576019164442 -0.38920210103129921 -0.47558302563756144 0.17345282087145175 0.087280585894649446 0.069633199970258325 0.24531635901884799 0.092970201263398597
decision_type=2 2 2 2 2 2 2 2 2 2 2 2 2 2 2 2 2 2 2 2 2
left_child=3 2 -2 11 6 -6 7 8 13 -10 17 -1 -9 -3 -13 -14 -16 -4 20 -20 -17
right_child=1 4 10 -5 5 -7 -8 12 9 -11 -12 14 15 -15 16 18 -18 -19 19 -21 -22
leaf_value=0.020566028729017485 -0.04516437850812477 -0.069726971276801497 0.077084211828563343 -0.017405848090463888 -0.044075935991476835 0.069461135679317304 0.032637448620495113 -0.023135333461741805 0.077754247427450088 -0.017714112855306503 0.0060164158739269219 0.060221369602329246 -0.073672173819910092 -0.029465349899095009 0.0846414817701652 -0.065233258282008377 0.078350818605097003 0.083049068480008217 -0.067712883376139552 -0.072376118697883532 -0.068240831186571274
leaf_weight=3.3922032713890067 3.1023646146059036 2.5945671945810318 2.2668489813804609 4.0419054776430121 2.8705378323793411 3.7288981676101676 2.6737843602895728 3.2161485552787772 2.3894135057926178 2.312290832400322 2.2581151276826859 2.2272069305181494 2.3553091734647724 1.95815072953701 2.6519975066184998 2.4966863542795235 2.2922333925962448 2.6270759254693985 2.1032409071922302 2.7643691003322601 2.7310139238834381
leaf_count=15 15 13 10 18 14 16 12 16 10 11 10 10 11 10 11 14 10 11 11 13 14
internal_value=0 -0.0123129 0.0259775 0.0368082 -0.0237956 0.0200762 -0.0342877 -0.0414681 -0.0101338 0.0308031 0.056837 0.0575518 -0.0599774 -0.0524102 0.0750467 -0.0694941 0.081725 0.0802862 -0.0685194 -0.0703612 -0.0668045
internal_weight=0 44.4488 10.2544 14.6055 34.1944 6.59944 27.595 24.9212 9.25442 4.7017 7.15204 10.5636 15.6668 4.55272 7.17144 12.4506 4.94423 4.89392 10.0953 4.86761 5.2277
internal_count=275 211 46 64 165 30 135 123 44 21 31 46 79 23 31 63 21 21 52 24 28
is_linear=0
shrinkage=0.05


Tree=14
num_leaves=21
num_cat=0
split_feature=491 30 468 5 131 170 174 396 76 515 450 13 167 131 362 184 307 24 324 327
split_gain=10.1906 8.88721 7.03195 7.12044 7.49324 8.28088 6.65414 6.63507 4.47561 3.64475 2.10192 1.6219 0.869629 0.0671072 0.0513377 0.027022 0.00995461 0.00841402 0.00787895 0.00368166
threshold=1.1872179906737841 1.1849083597655079 0.53598726331570445 0.79290381096352391 0.50520287579955625 -0.84977412099825422 -0.75758105566802081 1.1124436675542437 0.36265898848515171 -0.64228501755935641 -0.15874400705673927 0.57787788916689975 1.1740727761917653 -0.11932237813432207 -0.71644851278250699 0.67542843504165451 0.50214562403322482 -0.29928024193018471 -0.090264379371658043 0.52734086530998614
decision_type=2 2 2 2 2 2 2 2 2 2 2 2 2 2 2 2 2 2 2 2
left_child=1 2 3 4 5 -1 -2 9 -4 -8 -3 14 15 -12 -11 16 -7 19 -19 -16
right_child=6 10 8 -5 -6 12 7 -9 -10 11 13 -13 -14 -15 17 -17 -18 18 -20 -21
leaf_value=0.041840610901043872 0.036960746642724529 0.023085180282125875 0.083235957634008498 0.055671885620631814 0.03897707512105026 -0.070469954546406172 0.0037583514888430594 0.020829170364563592 0.0058066896628548694 -0.075895072957159332 0.087275354988448253 -0.023982326309731766 -0.034316532778620748 0.076159548886647069 -0.063778587178528329 -0.07493656172134408 -0.065897168102365372 -0.065907653808940952 -0.069938041281208646 -0.066996606889117516
leaf_weight=2.2751880437135723 3.6491234749555614 2.1881359070539474 3.7517449557781211 3.1859947741031638 3.4465648084878913 3.4504230022430438 2.5849909335374894 4.0547325462102881 3.7136652171611786 2.1888995468616548 2.3985175341367722 2.4321104288101187 2.0150361210107794 3.1291472613811484 1.6911613792181062 2.8500359803438187 1.8168302923440931 1.8195786327123684 3.6350181549787344 1.8733656406402586
leaf_count=10 17 10 16 14 16 17 12 19 17 10 10 12 10 14 10 13 10 10 18 10
internal_value=0 0.0173375 0.00358985 -0.0125364 -0.0262433 -0.0443603 -0.0251965 -0.036381 0.0447188 -0.0506781 0.0645635 -0.0609945 -0.0637165 0.0809828 -0.0690261 -0.0710147 -0.0688927 -0.067359 -0.0685936 -0.0654698
internal_weight=0 34.2213 26.5055 19.0401 15.8541 12.4075 23.929 20.2799 7.46541 16.2251 7.7158 13.6401 10.1323 5.52766 11.208 8.11729 5.26725 9.01912 5.4546 3.56453
internal_count=275 157 123 90 76 60 118 101 33 82 34 70 50 24 58 40 27 48 28 20
is_linear=0
shrinkage=0.05


Tree=15
num_leaves=22
num_cat=0
split_feature=362 81 126 256 106 235 69 195 122 203 54 109 374 497 107 489 485 451 282 32 55
split_gain=9.45025 8.14872 6.31182 6.19073 5.70174 5.58426 8.14066 5.31967 5.08582 5.77036 4.61898 5.8042 3.87019 1.32275 0.832215 0.0451166 0.0415065 0.0135256 0.00481181 0.00514759 0.00268735
threshold=-0.77868112075414875 0.27466145876930842 0.053494914333948922 0.31658746249214115 0.081723308972685163 0.1798146850317319 0.32871670282527116 0.21526660877956141 0.27558147311850023 0.69649446404624371 -0.52468910059397167 -0.45409418960486087 0.086306462730891417 0.76614029104767012 -0.093653304843486634 -0.22528184055315995 0.11321143428914339 -0.664159212629294 0.22723796458737228 0.15025146742863552 -0.10724929553459818
decision_type=2 2 2 2 2 2 2 2 2 2 2 2 2 2 2 2 2 2 2 2 2
left_child=2 8 4 5 -1 15 -7 -5 10 12 11 -2 -10 17 -4 -3 -16 -12 19 20 -19
right_child=1 3 14 7 -6 6 -8 -9 9 -11 13 -13 -14 -15 16 -17 -18 18 -20 -21 -22
leaf_value=0.035386151333392908 0.0518928567323583 0.086216848482886688 0.041394805806524486 0.026789525834705199 -0.059318707769531791 -0.071528669207121878 0.060482561893064446 -0.060407841648094818 -0.068963373412106815 0.070333894958084647 -0.070110310141638557 -0.052733516130649333 0.013946148869831136 -0.025773425669232176 0.073898093607919921 0.076341026817200855 0.082864190728936776 -0.064120310023474805 -0.063792644022662451 -0.068418955655482686 -0.06667810383979754
leaf_weight=4.3063612878322584 2.4813732206821442 2.4030281603336334 2.2150671929121017 3.2820892930030814 2.5189052224159241 2.0296280682086945 2.7503373175859451 3.7448340356349945 2.5320281684398633 2.3428054004907608 2.1976732760667792 2.8458048999309566 3.1694240272045135 2.4279826134443274 2.8288616687059402 2.2293185889720935 2.3739900141954422 2.048277720808982 2.3608276546001434 2.1573887020349503 2.059404760599139
leaf_count=19 11 10 10 15 12 10 12 19 13 10 11 15 15 12 13 10 10 12 14 11 11
internal_value=0 -0.0118483 0.0351344 0.015831 0.000434759 0.0423425 0.00442908 -0.0196803 -0.0289397 0.0042717 -0.0433196 -0.00399907 -0.0228742 -0.0591267 0.0670617 0.0814641 0.0779892 -0.0666086 -0.0657164 -0.0664413 -0.0654027
internal_weight=0 43.0622 14.2432 16.4392 6.82527 9.41231 4.77997 7.02692 26.623 8.04426 18.5787 5.32718 5.70145 13.2516 7.41792 4.63235 5.20285 10.8236 8.6259 6.26507 4.10768
internal_count=275 211 64 76 31 42 22 34 135 38 97 26 28 71 33 20 23 59 48 34 23
is_linear=0
shrinkage=0.05


Tree=16
num_leaves=23
num_cat=0
split_feature=135 446 324 195 256 252 74 326 27 396 324 493 391 146 105 13 382 306 192 374 502 252
split_gain=9.1368 5.96608 7.45901 6.52856 6.52016 5.17862 4.42757 5.61403 3.98821 6.85605 3.04572 3.03941 3.39752 0.803453 0.286942 0.24404 0.0447255 0.017754 0.0137143 0.0114595 0.00681616 0.00262093
threshold=-0.33833511654046849 0.17873776517314591 0.57126975977115146 0.74451202633228808 -0.55684056694600004 -1.0863873421218935 -1.0152722983188454 0.96613728387270392 0.14041876895897371 1.0000000180025095e-35 -0.41730668146227418 1.0205585749277681 -1.2508310855064655 0.56257510723495241 1.3415798350243804 -0.62254095249595753 -0.33025015017208276 -0.78718063003147221 0.74191127827905701 -0.15584826609437455 -0.25360996178940109 -1.0000000180025095e-35
decision_type=2 2 2 2 2 2 2 2 2 2 2 2 2 2 2 2 2 2 2 2 2 2
left_child=6 3 5 11 -5 -3 -1 10 13 -10 -8 12 -2 17 18 -14 20 -7 19 -12 -17 -21
right_child=1 2 -4 4 -6 8 7 -9 9 -11 14 -13 15 -15 -16 16 -18 -19 -20 21 -22 -23
leaf_value=0.037425243615709133 0.0057917497912274261 0.047406001598623258 0.059320801082404152 0.053282879020670776 -0.051745947467690102 -0.072279480752413514 0.00073775878921664194 0.033991613045450023 -0.07007031386822854 0.045201661075845903 -0.068594862152168881 -0.0066415122516966258 0.05756827364791206 -0.031275992354405806 -0.044514422448633191 0.071477432187429954 0.081248642118192604 -0.066409158330921342 -0.069695605547669737 -0.065395361305462238 0.075366767197217063 -0.062975606874400625
leaf_weight=2.1243229657411602 2.3454925119876853 2.2459915429353723 3.4148088097572318 2.4199701249599457 3.7949645668268195 2.1078481376171112 2.2619673013687125 2.2168471217155448 2.1851453483104706 3.148614227771759 1.9527903348207454 1.9960023164749134 2.0947033315896979 1.9513722360134123 1.7520945370197285 2.0881386250257483 3.2679373472929036 3.3113908767700195 2.5815160870552063 1.9659025818109488 2.4460962861776352 2.5978436917066596
leaf_count=10 11 10 15 11 19 10 11 10 11 14 10 10 10 10 10 10 14 18 13 11 11 16
internal_value=0 0.0133331 -0.00735308 0.0319073 -0.0108498 -0.022582 -0.0302236 -0.0395985 -0.0349551 -0.00202319 -0.0520403 0.0505705 0.0598983 -0.0587864 -0.0630431 0.0727212 0.0767895 -0.0686925 -0.0666113 -0.0653895 0.0735756 -0.064018
internal_weight=0 38.8185 18.3652 20.4533 6.21493 14.9504 17.4533 15.329 12.7044 5.33376 13.1121 14.2384 12.2424 7.37061 10.8501 9.89688 7.80217 5.41924 9.09805 6.51654 4.53423 4.56375
internal_count=275 184 88 96 30 73 91 81 63 25 71 66 56 38 60 45 35 28 50 37 21 27
is_linear=0
shrinkage=0.05


Tree=17
num_leaves=22
num_cat=0
split_feature=491 30 446 409 67 174 396 139 375 515 350 13 325 12 373 362 421 355 499 283 483
split_gain=8.48873 7.38564 6.80572 6.76763 6.30789 5.71495 5.65582 3.57046 3.26226 3.23367 2.41532 1.49645 0.671467 0.288364 0.233863 0.041295 0.0312861 0.0120767 0.0100941 0.00551345 0.00148746
threshold=1.1872179906737841 1.2873375826842588 0.28393627820235384 0.59267494055547199 0.70800501873739186 -0.75758105566802081 1.1124436675542437 -0.89965852215737863 -1.0284200348743948 -0.64228501755935641 0.25738310877598475 0.57787788916689975 -0.60520103606073461 -0.14153198179927562 0.43205012343836019 -0.71644851278250699 -0.29977325982527103 0.62539306456572497 -0.49436461301009932 0.18376983736194935 0.37271172130531161
decision_type=2 2 2 2 2 2 2 2 2 2 2 2 2 2 2 2 2 2 2 2 2
left_child=1 2 3 8 7 -2 9 -4 -1 -7 14 15 -3 -9 16 -11 -10 -15 -17 20 -20
right_child=5 12 4 -5 -6 6 -8 13 10 11 -12 -13 -14 17 -16 18 -18 -19 19 -21 -22
leaf_value=-0.0065451946720101479 0.034709928789322303 0.042813657809697071 0.010152963236830096 -0.044008922740101056 0.040969642550232804 0.0036809172078331254 0.019241656221753251 -0.046412342775598803 0.07409862758084157 -0.072872395208289156 0.016512098558851739 -0.022197802677247573 0.077792849444585005 -0.067448998092796503 0.058489771281194473 -0.067818987538479078 0.082236270981565884 -0.07252267611895101 -0.06361851184396021 -0.065698230817264294 -0.061557944804405053
leaf_weight=2.5954930037260047 3.5368775874376324 2.0871932059526443 2.2174165397882453 2.7267096936702719 2.8382234573364249 2.5063331127166775 3.9014045745134345 1.8454195261001576 2.163384094834325 2.0753371119499233 2.6892071217298508 2.325876757502555 4.003753960132598 2.6418807357549667 2.092815563082695 2.2859214693307885 2.6013537794351622 2.1092464625835419 1.836562991142267 2.5282308757305145 1.6741905212402342
leaf_count=13 17 10 11 14 13 12 19 10 10 10 13 12 18 14 10 12 11 10 11 14 11
internal_value=0 0.0161554 0.00475237 0.0271744 -0.0238596 -0.0236795 -0.0344728 -0.0447355 0.0431595 -0.0482304 0.0566729 -0.058454 0.0658065 -0.0631862 0.072422 -0.0665622 0.0785415 -0.0697014 -0.0649891 -0.0639179 -0.0626359
internal_weight=0 32.6121 26.5211 14.869 11.6522 22.6707 19.1339 8.81396 12.1423 15.2325 9.54676 12.7261 6.09095 6.59655 6.85755 10.4002 4.76474 4.75113 8.32491 6.03898 3.51075
internal_count=275 157 129 71 58 118 101 45 57 82 44 70 28 34 31 58 21 24 48 36 22
is_linear=0
shrinkage=0.05


Tree=18
num_leaves=22
num_cat=0
split_feature=135 443 136 190 70 58 65 322 324 465 367 435 169 254 240 400 384 83 499 105 208
split_gain=8.12375 5.70899 5.55073 5.91258 4.21114 3.99506 3.67229 3.5683 6.22605 3.51873 3.24309 5.28763 1.82958 0.943777 0.370488 0.181822 0.0234037 0.0161558 0.0158374 0.00735686 0.00211467
threshold=-0.33833511654046849 0.3046845244519667 -0.52448499167115326 0.6046240433249358 -1.0238255983546511 0.42835086062907884 0.24224751346217246 0.51283841105181271 -0.47792387730485547 0.23712074391644469 0.31195665434079928 -1.0000000180025095e-35 -0.75070292817003403 0.63121722267421876 -0.88507114984174806 -0.55567963165604539 0.37353180629930743 0.038108326548962075 -0.56874367936321224 0.1318687330263352 0.58557794834176724
decision_type=2 2 2 2 2 2 2 2 2 2 2 2 2 2 2 2 2 2 2 2 2
left_child=4 2 5 7 -1 -2 12 8 -4 -8 14 -12 -3 16 -6 -14 19 -17 -16 -10 -20
right_child=1 6 3 -5 10 -7 9 -9 13 -11 11 -13 15 -15 18 17 -18 -19 20 -21 -22
leaf_value=0.016774976754550277 0.072992622513389574 0.017920814407881999 0.020210170877973728 0.053646049737112268 -0.038458130238622303 -0.0032097685040877104 -0.050221527141637072 0.023639399668569497 -0.065328098804396481 0.043441646731501221 0.046463106243711805 -0.066239288623969925 0.058119657034114904 -0.028970679089066937 -0.067633813522855218 0.073211111144691088 -0.073060874670827378 0.079090037417299419 -0.061937423090518917 -0.06920123140250993 -0.064195864237800299
leaf_weight=3.8722878247499493 3.6151322871446636 2.1757768243551245 3.2349550575017938 2.5931185632944098 1.6515180617570875 3.2810187786817551 1.8629651516675938 2.7354647219181052 3.2107134908437729 2.1716010421514511 2.2212014943361282 1.9582302123308171 2.0062416493892661 1.8909926265478132 2.8321357816457748 2.366672158241272 2.1012295484542847 2.3085245192050934 2.6301715075969678 1.9834549874067304 1.7105952948331831
leaf_count=18 17 11 16 12 10 16 10 13 18 10 10 11 10 10 15 11 10 10 17 10 10
internal_value=0 0.0127714 -0.00133114 -0.0161214 -0.0289955 0.0367374 0.0397322 -0.0280577 -0.0394425 0.000192578 -0.042625 -0.00634245 0.057743 -0.060449 -0.0598092 0.0707108 -0.0686083 0.076114 -0.0647252 -0.0668071 -0.0628274
internal_weight=0 37.5379 24.6461 17.7499 16.8761 6.89615 12.8918 15.1568 12.4213 4.03457 13.0039 4.17943 8.85722 9.18639 8.82442 6.68144 7.2954 4.6752 7.1729 5.19417 4.34077
internal_count=275 184 122 89 91 33 62 77 64 20 73 21 42 48 52 31 38 21 42 28 27
is_linear=0
shrinkage=0.05


Tree=19
num_leaves=22
num_cat=0
split_feature=362 81 126 256 121 78 122 318 54 109 12 89 240 93 96 9 397 21 252 254 461
split_gain=7.70201 6.62109 5.05591 4.99994 4.55348 4.42407 4.10243 4.86574 4.15432 4.83994 3.6216 3.33028 2.1821 1.23945 0.770157 0.0356364 0.0271242 0.00948913 0.00429617 0.00279931 0.00187118
threshold=-0.77868112075414875 0.27466145876930842 0.053494914333948922 0.31658746249214115 -0.28041976271747221 0.44414102766022051 0.27558147311850023 -0.29423753306770428 -0.52468910059397167 -0.45409418960486087 0.4547200310805059 -0.26740011019910648 0.27584028982916059 0.2950196476764787 1.1507555626986272 0.57409906164075275 0.38925492588247806 0.23225174250687752 0.13373436702915606 -0.47431630920582718 -0.12330089759149289
decision_type=2 2 2 2 2 2 2 2 2 2 2 2 2 2 2 2 2 2 2 2 2
left_child=2 6 4 10 -1 -5 8 -8 9 -2 12 -9 15 17 16 -3 -4 18 19 -10 -20
right_child=1 3 14 5 -6 -7 7 11 13 -11 -12 -13 -14 -15 -16 -17 -18 -19 20 -21 -22
leaf_value=0.051650672730014925 0.048785378813517168 0.080570487128289486 0.069820945931796927 0.016452193633620743 -0.033967230838901595 -0.066636188467863608 0.062577003334809825 0.013456168351989248 -0.063093944781899045 -0.049369331933530436 -0.016069725021378337 -0.066855857391443424 0.014004351289626071 -0.023772847671127983 0.036686052233741016 0.071740093755134904 0.077313868727193188 -0.066750416635042012 -0.060848799807697473 -0.065950840947787345 -0.063195630417694687
leaf_weight=2.6171125918626785 2.4024458378553391 2.544482007622717 2.6222260445356369 3.8193768560886374 3.8191312402486783 2.7596156448125839 2.3860152512788773 2.7912799715995789 1.6278645545244219 2.6316175907850274 2.2203789800405502 2.4012300819158545 1.992691323161125 2.3271953463554391 2.0428841859102249 2.0736925452947617 2.23915995657444 2.9335400760173798 1.6003468036651605 1.8117021024227158 1.8099773377180106
leaf_count=12 11 11 13 19 19 15 11 14 10 15 11 13 10 13 10 10 10 16 11 10 11
internal_value=0 -0.0111261 0.0327274 0.0145974 0.000846816 -0.0184 -0.0271597 0.00347473 -0.0407012 -0.00252618 0.0391794 -0.0236834 0.0577358 -0.0565695 0.0624468 0.0766054 0.0732722 -0.0643709 -0.0633519 -0.0645987 -0.0620943
internal_weight=0 40.1335 13.3405 15.4102 6.43624 6.57899 24.7232 7.57853 17.1447 5.03406 8.83124 5.19251 6.61087 12.1106 6.90427 4.61817 4.86139 9.78343 6.84989 3.43957 3.41032
internal_count=275 211 64 76 31 34 135 38 97 26 42 27 31 71 33 21 23 58 42 20 22
is_linear=0
shrinkage=0.05


Tree=20
num_leaves=23
num_cat=0
split_feature=491 30 387 174 385 468 432 380 264 403 46 502 169 47 18 325 298 127 167 107 229 53
split_gain=7.17715 6.25948 5.15511 5.07029 5.03085 5.62029 4.45036 4.02111 3.82193 4.1744 3.04564 2.48228 2.17545 3.51144 2.16421 0.607362 0.142858 0.142028 0.0288145 0.00622765 0.00608592 0.00365378
threshold=1.3186014388743181 1.2873375826842588 -0.28446224430860129 -0.75758105566802081 0.73389141168992045 0.17831271983557154 0.78183857668473189 -0.52919383813873344 -0.7609027446142822 0.76936005627109993 -1.0000000180025095e-35 -0.42176965881364864 0.16237353888723396 0.35250317224002531 -0.21648949947209181 -0.60520103606073461 0.22946955349873596 -0.59942514130392144 -0.18642362910569324 -0.054834238306432491 -0.56891396667596983 -0.033542743302227139
decision_type=2 2 2 2 2 2 2 2 2 2 2 2 2 2 2 2 2 2 2 2 2 2
left_child=1 2 6 -2 5 7 11 -4 9 -5 -7 -1 18 17 -9 -3 -13 -14 -10 -16 -20 -22
right_child=3 15 4 8 -6 10 -8 14 12 -11 -12 16 13 -15 19 -17 -18 -19 20 -21 21 -23
leaf_value=0.0039295105811880003 0.032274553410263342 0.039336690548859334 0.028169472861914752 -0.048426300938512037 -0.068166194622196086 -0.0086885918506860466 -0.033114489027008767 -0.00089714132908112949 -0.070111628333424866 0.05482034819411577 0.068566024879409229 0.077853656905782748 -0.065878487167864611 0.025140679224738095 -0.063351630840777606 0.073614371419052832 0.060826097129609985 -0.045079852303654966 -0.060461481475487772 -0.067215317356841331 -0.062728133912143436 -0.065787134849686887
leaf_weight=1.8639914542436598 3.4034378677606609 1.9661612212657926 2.608911246061326 1.7779211252927845 3.2047841846942893 1.9986169040203092 1.8837130665779112 1.8564960062503821 2.16448371112347 2.1786593347787857 3.5273383408784857 3.1601747870445269 1.7991052120923998 2.198004886507988 1.8159714788198478 3.7706559002399436 2.0186341851949692 1.5095037966966627 1.4162183254957232 2.4500413239002219 1.9149489402771032 1.9911983460187752
leaf_count=10 17 10 13 10 17 11 10 10 11 10 16 14 10 11 11 18 10 10 10 13 12 11
internal_value=0 0.0145309 0.00424033 -0.0234175 -0.0115602 0.00116371 0.0351496 -0.0238104 -0.0346001 0.00842564 0.0406247 0.0534079 -0.0477017 -0.0238461 -0.04596 0.0618665 0.0712165 -0.0563894 -0.0652475 -0.0655706 -0.0632694 -0.0642875
internal_weight=0 32.1255 26.3887 20.3535 17.4622 14.2574 8.92651 8.73142 16.95 3.95658 5.52596 7.0428 12.9935 5.50661 6.12251 5.73682 5.17881 3.30861 7.48685 4.26601 5.32237 3.90615
internal_count=275 163 135 112 91 74 44 47 95 20 27 34 75 31 34 28 24 20 44 24 33 23
is_linear=0
shrinkage=0.05


Tree=21
num_leaves=22
num_cat=0
split_feature=362 59 73 61 286 317 99 502 490 197 298 462 229 105 515 178 387 467 39 118 483
split_gain=6.77459 5.98256 5.94555 5.58161 4.96047 4.67576 4.54234 4.45551 4.09123 2.98185 2.94036 2.51031 2.48992 0.51963 0.27575 0.0379108 0.0256243 0.0148553 0.00965956 0.00525107 0.000889392
threshold=-0.77868112075414875 -0.30798513827176571 -0.416474560586232 -0.45258956989370436 0.4853676250731197 0.74740154223778477 0.57268901703847919 -0.68825091514421111 0.26295772377527044 -0.77829107786158758 -0.14223757760065103 0.56993495941211347 0.40764899951737676 -0.33872943597621435 1.0474090887447687 0.094924887162287655 0.20243844545285558 0.69088861611068431 -0.4802442856913105 0.13679717088875262 0.32872756499743516
decision_type=2 2 2 2 2 2 2 2 2 2 2 2 2 2 2 2 2 2 2 2 2
left_child=5 2 -2 -4 6 10 9 -6 12 -3 -1 15 -9 -12 17 -5 -15 18 -11 20 -20
right_child=1 4 3 11 7 -7 -8 8 -10 14 13 -13 -14 16 -16 -17 -18 -19 19 -21 -22
leaf_value=0.0093801100425321415 -0.050126226791660539 0.00029819844538959289 -0.039384583592328208 0.071900241424925154 -0.066023950900580303 -0.039080026631221954 0.021506928466341564 0.072202332242518708 -0.033203421699935919 -0.066027280245147923 0.040800649491559773 0.019237732011478326 -0.0025210355834206001 0.068670048595019434 -0.041840012020422278 0.080751999479901901 0.075810852182483845 -0.068420078891038835 -0.061932640257651383 -0.064103237668527033 -0.060271449585110076
leaf_weight=3.9098181873559943 2.5916496664285651 2.3294329196214667 2.0285494178533545 2.5245478898286802 1.7643717527389524 1.9999652504920948 2.5073892921209326 3.3834935277700406 2.2732578217983246 2.7046620845794633 1.847657874226569 3.2295673489570618 1.6626836806535719 2.9389542788267136 1.5471870154142369 2.322309136390686 2.1943106800317764 1.9312398582696904 1.5469013005495171 2.5488578826189041 1.6816813647747038
leaf_count=19 15 12 12 12 10 10 13 16 13 15 10 16 10 15 10 10 10 10 10 15 12
internal_value=0 -0.0106765 0.0174356 0.0347633 -0.0244675 0.0311909 -0.0405648 0.00529885 0.0224914 -0.0514562 0.0440953 0.053387 0.0475815 0.0635384 -0.0615359 0.0761414 0.0717225 -0.0644623 -0.0635612 -0.0624067 -0.0610674
internal_weight=0 38.5778 12.6966 10.105 25.8812 12.8907 16.7974 9.08381 7.31944 14.29 10.8907 8.07642 5.04618 6.98092 11.9605 4.84686 5.13326 10.4133 8.4821 5.77744 3.22858
internal_count=275 211 65 50 146 64 97 49 39 84 54 38 26 35 72 22 25 62 52 37 22
is_linear=0
shrinkage=0.05


Tree=22
num_leaves=23
num_cat=0
split_feature=135 443 446 250 202 226 465 5 490 273 413 34 354 80 170 457 512 143 371 47 118 35
split_gain=6.40651 4.60261 4.47305 5.02373 3.7696 3.6155 5.34396 3.36245 3.21969 3.10063 3.01697 3.20289 1.58992 1.52705 0.394153 0.378473 0.126004 0.0135073 0.009324 0.00824334 0.00782792 0.00319831
threshold=-0.33833511654046849 0.3046845244519667 0.35540045466057663 -0.14909654679378301 -0.43455762345813725 -0.16927121274522552 -0.57565010195824551 0.74749166484595364 1.7264619357853888 -0.055046578767381123 0.30555648996903878 0.18429103774345598 -0.3202073280788949 0.58831387319848472 -0.32822858835772811 0.68414151721405181 0.77546041242520747 -0.020444413224202446 -0.54327547917142294 -0.083206384593354388 0.028475438664295725 -0.14937672648683845
decision_type=2 2 2 2 2 2 2 2 2 2 2 2 2 2 2 2 2 2 2 2 2 2
left_child=5 2 3 4 -2 15 -7 12 19 -5 13 -12 -4 16 -11 18 20 -14 -1 -8 -3 -20
right_child=1 10 7 9 -6 6 8 -9 -10 14 11 -13 17 -15 -16 -17 -18 -19 21 -21 -22 -23
leaf_value=-0.065791378029568109 -0.067759757921163538 0.068717288566116697 -0.012407498046863946 -0.0040597595441237708 0.014713441222630333 0.038746860028038003 -0.065520499083636038 0.020227165573815514 0.020499835691674927 0.042657205176386354 -0.050769237889809762 0.041725550777686186 -0.068549289495183061 0.016238350938035297 0.070831888816489982 -0.03301802180014695 0.055362504953157622 -0.062936500664272518 -0.062665622403480836 -0.060906615288486038 0.072984619161110223 -0.059402628003027341
leaf_weight=1.8021797835826872 2.3920615166425705 2.1507142037153226 2.0967746376991272 2.6123126745223955 3.292661070823665 3.7698910087347022 1.7388000935316079 2.4928756803274155 1.6385912299156187 1.8315902799367858 1.712785899639129 2.0635494887828827 1.9253040105104444 2.0401971936225891 3.8518717288971089 1.3503874391317365 1.8911658227443693 2.4182021617889387 1.7413792461156843 2.1840419471263885 2.1479530483484268 1.3204120323061936
leaf_count=10 13 11 11 14 17 18 10 13 8 10 10 10 10 11 19 9 10 15 11 15 10 10
internal_value=0 0.0116979 -0.00144202 0.016217 -0.0199903 -0.0268887 -0.00721091 -0.0290786 -0.038364 0.0410282 0.036775 -0.000226171 -0.0481636 0.0537529 0.0617521 -0.0564363 0.0661179 -0.0654244 -0.062938 -0.0629517 0.0708496 -0.0612584
internal_weight=0 34.92 22.9137 13.9805 5.68472 15.5457 9.33132 8.93316 5.56143 8.29577 12.0064 3.77634 6.44028 8.23003 5.68346 6.21436 6.18983 4.34351 4.86397 3.92284 4.29867 3.06179
internal_count=275 184 122 73 30 91 51 49 33 43 62 20 36 42 29 40 31 25 31 25 21 21
is_linear=0
shrinkage=0.05


Tree=23
num_leaves=22
num_cat=0
split_feature=491 30 505 236 225 174 429 290 397 12 343 226 450 183 347 431 179 404 485 281 326
split_gain=6.04061 5.49737 4.84753 4.58871 4.4948 4.34527 3.43861 3.47627 3.34697 2.80958 4.23 1.94029 1.61061 0.888544 0.295788 0.270522 0.0269026 0.0265614 0.00979209 0.00953274 0.00215571
threshold=1.3186014388743181 1.1849083597655079 -1.2157052556609973 0.06989136569429906 0.38034656723261839 -0.75758105566802081 -0.36827834191796266 0.741305788288108 1.5118182463505114 -0.62315072902752233 -0.1953784618866784 -0.11032983672883952 -0.15874400705673927 -1.2325993363858332 -0.6092969237461987 0.65211875477557912 -0.34596289438015887 -0.58735611716304847 -0.31510803802780946 1.073573145377708 1.0000000180025095e-35
decision_type=2 2 2 2 2 2 2 2 2 2 2 2 2 2 2 2 2 2 2 2 2
left_child=1 2 11 6 14 -2 -4 15 9 10 -7 -1 -3 -11 -5 18 -14 -15 -8 20 -19
right_child=5 12 3 4 -6 8 7 -9 -10 13 -12 -13 16 17 -16 -17 -18 19 -20 -21 -22
leaf_value=0.0081693360429888166 0.030510403089477757 0.015163169358771248 0.015270928273715876 0.044610621043624427 -0.025338579314708471 0.034959327085505802 -0.067267794695298477 0.012478953711950009 0.028344213486108202 -0.022859187809756799 -0.062573551864621865 0.07483757988327637 0.066219325831743725 -0.068673574761463518 0.072254073284057793 -0.04150772341764266 0.073807100280792237 -0.059592195584294898 -0.062985470630862836 -0.065395001312856832 -0.061878687335210972
leaf_weight=1.7935653477907179 3.2492144405841854 1.8818221390247343 3.6235044598579469 1.7808911949396136 2.5899556130170822 2.4686509221792221 2.615057468414312 2.1972734481096268 1.9540014564990986 1.5872004181146611 2.0223951563239089 2.7875481843948426 2.3785424232482906 2.1060363948345167 2.1192186027765265 1.5759744942188261 2.2956009954214092 1.8685316666960723 2.7269826978444947 1.5987862944602964 2.299353189766407
leaf_count=10 17 10 19 10 14 13 14 12 10 10 13 13 13 11 10 10 11 14 17 9 15
internal_value=0 0.0136781 0.00251483 -0.008497 0.0257229 -0.022179 -0.0259311 -0.0423097 -0.0329429 -0.041527 -0.0089614 0.0487361 0.0542211 -0.0569873 0.0596314 -0.0597114 0.0699459 -0.0638678 -0.0650818 -0.0621127 -0.0608536
internal_weight=0 30.3659 23.81 19.2289 6.49007 19.1542 12.7388 9.11529 15.905 13.951 4.49105 4.58111 6.55597 9.45991 3.90011 6.91801 4.67414 7.87271 5.34204 5.76667 4.16788
internal_count=275 163 129 106 34 112 72 53 95 85 26 23 34 59 20 41 24 49 31 38 29
is_linear=0
shrinkage=0.05


Tree=24
num_leaves=23
num_cat=0
split_feature=298 490 40 308 10 318 492 91 387 231 192 470 234 331 113 457 326 192 353 430 292 35
split_gain=5.51018 5.47526 5.3595 5.05872 4.95677 4.70845 3.94709 3.66701 3.25378 2.57226 2.51384 2.22519 1.62165 0.876017 0.817553 0.433611 0.191036 0.0186738 0.0173984 0.00867546 0.00397457 0.00203124
threshold=-0.062694087222411835 -0.85895042969152058 0.38769761684092968 -0.26119474560820016 0.41064132734634179 0.38555783455653442 -0.68015706142916688 0.54593598883866179 -0.14828985541102579 0.39163890610125079 0.60440914779267929 -0.89942132679633857 0.71434830154324092 -0.11106069031052217 0.028571303072587911 -1.0000000180025095e-35 0.17103426255671392 0.59729693986336629 -0.37043654516625091 -0.16163780017419163 -0.51241338069827169 0.24401389947579868
decision_type=2 2 2 2 2 2 2 2 2 2 2 2 2 2 2 2 2 2 2 2 2 2
left_child=3 13 4 11 10 6 -5 15 -7 -6 12 -1 19 18 -8 -4 -10 20 -2 -3 -13 -21
right_child=1 2 7 5 9 8 14 -9 16 -11 -12 17 -14 -15 -16 -17 -18 -19 -20 21 -22 -23
leaf_value=-0.0074571767839611714 0.065685051903048006 -0.06512343478509261 0.042192276555317924 -0.031930142969671609 0.071409867615940328 0.015010074432738527 0.076905236614994196 -0.022316960926120982 -0.042071334786002952 -0.0090987253535767271 0.0073101437657059568 -0.060086433589755586 -0.011016716800551675 0.02704304386495214 0.033568719359696374 0.07287274875742375 -0.064749589516951311 -0.067424983408755954 0.072088131653355078 -0.06188476742583654 -0.063285152687679203 -0.059382902739219437
leaf_weight=2.4036469906568527 1.9798848479986189 1.9316084086895013 1.8165698051452634 1.7061488330364225 2.0804165601730342 2.6353244483470917 2.447912931442259 1.7623215615749357 1.4594046995043752 1.8966210037469862 2.8556087911128998 1.7779227793216708 2.1439057439565659 1.7426880300045038 1.9594206660985944 3.1462395638227454 2.5532360896468163 2.4129044860601425 2.28559809923172 2.1443599313497539 2.1400745660066622 1.3050200790166853
leaf_count=13 11 11 10 10 10 15 11 10 10 11 17 13 12 10 10 15 15 13 11 14 13 10
internal_value=0 0.0148058 0.0028061 -0.019096 -0.0144475 0.000970996 0.0326418 0.039641 -0.0281535 0.0330159 -0.0326319 -0.0484145 -0.0477895 0.0569126 0.0576386 0.0616426 -0.0565015 -0.0639647 0.0691161 -0.0624406 -0.0618336 -0.0609382
internal_weight=0 27.0908 21.0827 21.496 14.3575 12.7614 6.11348 6.72513 6.64797 3.97704 10.3805 8.73455 7.52489 6.00817 4.40733 4.96281 4.01264 6.3309 4.26548 5.38099 3.918 3.44938
internal_count=275 152 120 123 85 71 31 35 40 21 64 52 47 32 21 25 25 39 22 35 26 24
is_linear=0
shrinkage=0.05


end of trees

feature_importances:
Column_135=13
Column_362=10
Column_446=10
Column_324=8
Column_485=8
Column_70=7
Column_298=7
Column_467=7
Column_491=7
Column_107=6
Column_252=6
Column_465=6
Column_515=6
Column_5=5
Column_13=5
Column_30=5
Column_81=5
Column_126=5
Column_167=5
Column_226=5
Column_258=5
Column_382=5
Column_387=5
Column_443=5
Column_54=4
Column_95=4
Column_105=4
Column_122=4
Column_174=4
Column_256=4
Column_326=4
Column_367=4
Column_453=4
Column_493=4
Column_8=3
Column_10=3
Column_12=3
Column_35=3
Column_40=3
Column_109=3
Column_121=3
Column_192=3
Column_229=3
Column_236=3
Column_286=3
Column_290=3
Column_303=3
Column_318=3
Column_325=3
Column_371=3
Column_380=3
Column_396=3
Column_407=3
Column_435=3
Column_438=3
Column_466=3
Column_490=3
Column_497=3
Column_502=3
Column_519=3
Column_0=2
Column_6=2
Column_18=2
Column_21=2
Column_24=2
Column_29=2
Column_34=2
Column_37=2
Column_42=2
Column_47=2
Column_50=2
Column_53=2
Column_76=2
Column_83=2
Column_88=2
Column_106=2
Column_118=2
Column_131=2
Column_136=2
Column_143=2
Column_144=2
Column_150=2
Column_169=2
Column_170=2
Column_178=2
Column_195=2
Column_208=2
Column_212=2
Column_240=2
Column_254=2
Column_273=2
Column_282=2
Column_308=2
Column_317=2
Column_329=2
Column_337=2
Column_373=2
Column_374=2
Column_384=2
Column_391=2
Column_397=2
Column_402=2
Column_442=2
Column_450=2
Column_451=2
Column_457=2
Column_468=2
Column_483=2
Column_489=2
Column_492=2
Column_499=2
Column_501=2
Column_505=2
Column_1=1
Column_2=1
Column_4=1
Column_7=1
Column_9=1
Column_23=1
Column_26=1
Column_27=1
Column_31=1
Column_32=1
Column_39=1
Column_41=1
Column_45=1
Column_46=1
Column_55=1
Column_58=1
Column_59=1
Column_61=1
Column_62=1
Column_63=1
Column_64=1
Column_65=1
Column_66=1
Column_67=1
Column_69=1
Column_73=1
Column_74=1
Column_78=1
Column_80=1
Column_89=1
Column_90=1
Column_91=1
Column_93=1
Column_96=1
Column_99=1
Column_100=1
Column_108=1
Column_113=1
Column_127=1
Column_129=1
Column_137=1
Column_139=1
Column_140=1
Column_146=1
Column_153=1
Column_155=1
Column_158=1
Column_161=1
Column_173=1
Column_176=1
Column_179=1
Column_183=1
Column_184=1
Column_186=1
Column_189=1
Column_190=1
Column_193=1
Column_197=1
Column_199=1
Column_202=1
Column_203=1
Column_211=1
Column_214=1
Column_219=1
Column_225=1
Column_231=1
Column_234=1
Column_235=1
Column_245=1
Column_250=1
Column_251=1
Column_264=1
Column_265=1
Column_266=1
Column_268=1
Column_280=1
Column_281=1
Column_283=1
Column_292=1
Column_295=1
Column_299=1
Column_300=1
Column_306=1
Column_307=1
Column_311=1
Column_313=1
Column_321=1
Column_322=1
Column_327=1
Column_331=1
Column_332=1
Column_342=1
Column_343=1
Column_345=1
Column_347=1
Column_348=1
Column_349=1
Column_350=1
Column_351=1
Column_353=1
Column_354=1
Column_355=1
Column_357=1
Column_360=1
Column_364=1
Column_366=1
Column_368=1
Column_369=1
Column_375=1
Column_381=1
Column_383=1
Column_385=1
Column_394=1
Column_398=1
Column_400=1
Column_403=1
Column_404=1
Column_409=1
Column_413=1
Column_414=1
Column_416=1
Column_419=1
Column_421=1
Column_422=1
Column_425=1
Column_429=1
Column_430=1
Column_431=1
Column_432=1
Column_448=1
Column_455=1
Column_456=1
Column_461=1
Column_462=1
Column_470=1
Column_471=1
Column_472=1
Column_477=1
Column_480=1
Column_494=1
Column_498=1
Column_510=1
Column_511=1
Column_512=1
Column_516=1
Column_520=1

parameters:
[boosting: gbdt]
[objective: binary]
[metric: binary_logloss]
[tree_learner: serial]
[device_type: cpu]
[linear_tree: 0]
[data: ]
[valid: ]
[num_iterations: 10000]
[learning_rate: 0.05]
[num_leaves: 63]
[num_threads: 0]
[deterministic: 0]
[force_col_wise: 0]
[force_row_wise: 0]
[histogram_pool_size: -1]
[max_depth: -1]
[min_data_in_leaf: 10]
[min_sum_hessian_in_leaf: 0.001]
[bagging_fraction: 0.9]
[pos_bagging_fraction: 1]
[neg_bagging_fraction: 1]
[bagging_freq: 0]
[bagging_seed: 29216]
[feature_fraction: 0.8]
[feature_fraction_bynode: 1]
[feature_fraction_seed: 17795]
[extra_trees: 0]
[extra_seed: 19650]
[early_stopping_round: 50]
[first_metric_only: 0]
[max_delta_step: 0]
[lambda_l1: 0]
[lambda_l2: 0]
[linear_lambda: 0]
[min_gain_to_split: 0]
[drop_rate: 0.1]
[max_drop: 50]
[skip_drop: 0.5]
[xgboost_dart_mode: 0]
[uniform_drop: 0]
[drop_seed: 24198]
[top_rate: 0.2]
[other_rate: 0.1]
[min_data_per_group: 100]
[max_cat_threshold: 32]
[cat_l2: 10]
[cat_smooth: 10]
[max_cat_to_onehot: 4]
[top_k: 20]
[monotone_constraints: ]
[monotone_constraints_method: basic]
[monotone_penalty: 0]
[feature_contri: ]
[forcedsplits_filename: ]
[refit_decay_rate: 0.9]
[cegb_tradeoff: 1]
[cegb_penalty_split: 0]
[cegb_penalty_feature_lazy: ]
[cegb_penalty_feature_coupled: ]
[path_smooth: 0]
[interaction_constraints: ]
[verbosity: -1]
[saved_feature_importance_type: 0]
[max_bin: 255]
[max_bin_by_feature: ]
[min_data_in_bin: 3]
[bin_construct_sample_cnt: 200000]
[data_random_seed: 45]
[is_enable_sparse: 1]
[enable_bundle: 1]
[use_missing: 1]
[zero_as_missing: 0]
[feature_pre_filter: 1]
[pre_partition: 0]
[two_round: 0]
[header: 0]
[label_column: ]
[weight_column: ]
[group_column: ]
[ignore_column: ]
[categorical_feature: ]
[forcedbins_filename: ]
[objective_seed: 29484]
[num_class: 1]
[is_unbalance: 0]
[scale_pos_weight: 1]
[sigmoid: 1]
[boost_from_average: 1]
[reg_sqrt: 0]
[alpha: 0.9]
[fair_c: 1]
[poisson_max_delta_step: 0.7]
[tweedie_variance_power: 1.5]
[lambdarank_truncation_level: 30]
[lambdarank_norm: 1]
[label_gain: ]
[eval_at: ]
[multi_error_top_k: 1]
[auc_mu_weights: ]
[num_machines: 1]
[local_listen_port: 12400]
[time_out: 120]
[machine_list_filename: ]
[machines: ]
[gpu_platform_id: -1]
[gpu_device_id: -1]
[gpu_use_dp: 0]
[num_gpu: 1]

end of parameters

pandas_categorical:null
