tree
version=v3
num_class=1
num_tree_per_iteration=1
label_index=0
max_feature_idx=7
objective=binary sigmoid:1
feature_names=Column_0 Column_1 Column_2 Column_3 Column_4 Column_5 Column_6 Column_7
feature_infos=[-1.8805903428668478:4.3262474146678978] [-2.3606707682249586:3.9279507647347978] [-4.4171445694074922:1.0391188243136928] [-2.7147000350734078:2.6069920379824367] [-7.0016641050822113:1.6620661607293425] [-4.1212484069008566:2.7166428980863677] [-2.6005155033098797:2.0971057477526083] [-0.16247254954170848:2.8216920183515706]
tree_sizes=2500 2304 2309 2422 2527 2521 2515 2426 2424 2312 2411 2525 2321 2215 2534 2426 2418 2428 2531 2420 2436 2430 2333 2431 2640 2313

Tree=0
num_leaves=23
num_cat=0
split_feature=7 6 0 1 3 5 4 0 4 6 3 1 3 3 7 6 4 3 6 5 0 0
split_gain=24.2608 14.0844 17.7178 9.57302 8.39937 6.96759 5.66976 3.15077 6.7424 3.14703 5.59369 2.85255 4.05696 2.8352 2.47221 3.29628 1.85416 1.42628 1.10367 1.60533 1.01424 3.55271e-15
threshold=1.1872179906737841 -0.49140706935988726 0.25784494881931358 -0.10256564167629541 -0.5972275624915776 -0.7300890574368869 0.4620454337052799 -0.075754457105493542 0.054891251234917358 -1.0801531685268781 0.16265829570215912 -0.22107326226021112 0.22601696086380299 0.1378717160770796 2.088300449923763 -0.30205283776121988 0.34817978450997983 0.092609650604678087 0.31087478515435552 0.06102899857047412 -0.64602927639907759 0.25784494881931358
decision_type=2 2 2 2 2 2 2 2 2 2 2 2 2 2 2 2 2 2 2 2 2 2
left_child=1 6 11 5 -4 -2 9 14 -9 20 -11 17 -13 -6 15 -5 -15 -3 19 -7 -1 -20
right_child=3 2 4 7 13 18 -8 8 -10 10 -12 12 -14 16 -16 -17 -18 -19 21 -21 -22 -23
leaf_value=-0.26579543759593816 -0.32760076394053306 -0.38306708245491305 -0.3672195628793759 -0.30699898849233476 -0.23832640366500707 -0.37442298086825637 -0.34820253938873136 -0.26204966024172027 -0.37442298086825643 -0.34820253938873136 -0.24332077347063097 -0.41000786573332609 -0.32760076394053306 -0.32760076394053306 -0.41000786573332615 -0.3894060902851279 -0.26579543759593821 -0.43060964118152445 -0.43060964118152451 -0.43060964118152445 -0.22459188669954161 -0.43060964118152445
leaf_weight=2.4269752204418173 2.4269752204418209 3.1550677865743619 3.1550677865743628 2.4269752204418182 3.6404628306627256 2.6696727424860027 2.4269752204418173 2.6696727424859983 2.6696727424860001 2.4269752204418173 2.6696727424860001 2.4269752204418218 3.8831603527069092 2.4269752204418182 2.4269752204418182 2.4269752204418182 2.4269752204418182 3.1550677865743637 6.0674380511045438 2.4269752204418182 3.8831603527069092 2.4269752204418182
leaf_count=10 10 13 13 10 15 11 10 11 11 10 11 10 16 10 10 10 10 13 25 10 16 10
internal_value=-0.345206 -0.319071 -0.342022 -0.379978 -0.297557 -0.405638 -0.278807 -0.34741 -0.318236 -0.264042 -0.293264 -0.383067 -0.359296 -0.271682 -0.368804 -0.348203 -0.296698 -0.406838 -0.419573 -0.401179 -0.240439 -0.43061
internal_weight=0 38.1035 24.2698 28.6383 11.6495 16.018 13.8338 12.6203 5.33935 11.4068 5.09665 12.6203 6.31014 8.49441 7.28093 4.85395 4.85395 6.31014 13.5911 5.09665 6.31014 8.49441
internal_count=275 157 100 118 48 66 57 52 22 47 21 52 26 35 30 20 20 26 56 21 26 35
is_linear=0
shrinkage=1


Tree=1
num_leaves=21
num_cat=0
split_feature=7 6 0 1 3 5 2 3 6 7 6 3 7 5 1 3 2 0 0 6
split_gain=21.9505 12.5265 15.9692 8.8015 7.4645 6.43292 4.77348 3.28098 2.91226 4.63325 3.0651 2.47473 2.39718 1.78529 1.2482 1.97894 1.05988 0.323388 0.218748 0.000617896
threshold=1.1872179906737841 -0.49140706935988726 0.25784494881931358 -0.10256564167629541 -0.5972275624915776 -0.7300890574368869 -0.10235127721326191 -0.5972275624915776 -0.30205283776121988 1.9051317141880759 0.17121962946962449 0.1378717160770796 -0.081775984987159461 0.31476118264769992 -0.45011926399173624 0.22601696086380299 0.92508841024254995 -1.075444465819442 1.1281452211180965 0.31087478515435552
decision_type=2 2 2 2 2 2 2 2 2 2 2 2 2 2 2 2 2 2 2 2
left_child=1 7 6 5 -4 -2 -3 -1 9 -5 -10 -6 13 -9 -8 -16 17 -7 -13 -19
right_child=3 2 4 8 11 16 14 12 10 -11 -12 18 -14 -15 15 -17 -18 19 -20 -21
leaf_value=0.015412319245619258 0.016674607690661866 0.012160798739745859 -0.020996378362047076 0.076616103384004264 0.099932609561604893 -0.061990079495675324 -0.083036568847335457 0.077372053019872461 -0.065539374212416748 -0.016762704498556845 0.0019394093870772893 0.056309588378705193 0.103423913216474 0.02448241504316441 -0.068535514010682627 -0.010891414919362675 -0.041566183892141666 -0.083450205277893402 0.035160242178957933 -0.082505633965172478
leaf_weight=2.9299022704362878 2.4341054260730735 3.6215194910764685 3.1428505629301062 2.4439137130975723 3.6972505599260312 2.3929567635059348 2.8742731809616062 3.9256734251976004 2.6543966531753522 2.9103175103664398 4.5979102849960327 2.4430073201656342 4.423833861947057 2.6880794763565063 3.3612281233072325 2.6728653460741043 2.3983143270015708 2.4009931087493914 2.4474582672119141 6.2077579200267792
leaf_count=12 10 15 13 10 15 10 12 16 11 12 19 10 18 11 14 11 10 10 10 26
internal_value=0 0.0247263 0.00300907 -0.0332823 0.0449343 -0.058101 -0.0362417 0.0624475 -0.00210937 0.0258596 -0.0227583 0.069063 0.0749329 0.0558757 -0.0559187 -0.0430015 -0.071684 -0.0782495 0.0457253 -0.0827691
internal_weight=0 38.2279 24.2605 28.4407 11.7306 15.8341 12.5299 13.9675 12.6065 5.35423 7.25231 8.58772 11.0376 6.61375 8.90837 6.03409 13.4 11.0017 4.89047 8.60875
internal_count=275 157 100 118 48 66 52 57 52 22 30 35 45 27 37 25 56 46 20 36
is_linear=0
shrinkage=0.05


Tree=2
num_leaves=21
num_cat=0
split_feature=7 2 1 7 5 7 0 7 3 4 4 0 2 7 1 4 1 2 0 0
split_gain=19.8923 10.5534 8.11452 6.16984 5.9565 4.88929 5.42496 3.6174 8.767 3.19451 6.78506 7.82588 2.886 3.14444 3.33951 2.34586 1.02791 1.00223 0.308344 0.00018825
threshold=1.1872179906737841 -0.10235127721326191 -0.10256564167629541 -0.11511515324867873 -0.7300890574368869 -0.096808245989803074 -0.15528849777700079 -0.069119819963675819 0.16265829570215912 0.48552362973146096 0.054891251234917358 -0.075754457105493542 0.90683917435042871 -0.090038534453971794 -0.33404373023530848 -0.44002571023829656 0.54873488930526471 0.92508841024254995 -1.075444465819442 -0.070993939758160415
decision_type=2 2 2 2 2 2 2 2 2 2 2 2 2 2 2 2 2 2 2 2
left_child=1 5 4 -3 -2 6 -1 12 -9 10 11 -4 13 14 -5 -7 -17 18 -6 -20
right_child=2 3 9 7 17 15 -8 8 -10 -11 -12 -13 -14 -15 -16 16 -18 -19 19 -21
leaf_value=0.061834638209998009 0.015798010718653898 -0.066384205410574743 -0.029985749456355959 -0.040597038958095764 -0.05972522990205939 0.043531903322754389 -0.031674402978168828 -0.0073871431823679312 0.11101502807476488 0.046658782000347038 -0.08367093183687957 0.077252467002751346 0.03942555626928354 -0.049213258656732588 0.033732744579250566 0.1157459513909409 0.073384104025552496 -0.03984493463119676 -0.080401878357341736 -0.0799298216643511
leaf_weight=3.6703220903873444 2.4405384063720694 2.8765032291412345 4.5805572271347037 2.3794588297605523 2.3603448271751395 2.9660906642675391 2.6862678825855246 3.6763050258159664 2.7202237844467163 2.6589634716510764 2.6432964503765106 2.7065011709928504 3.160593479871749 4.1151399165391931 4.1407907456159592 3.4298183172941199 2.4584692567586899 2.377361148595809 4.2316133677959415 4.2162750512361571
leaf_count=15 10 12 19 10 10 12 11 15 11 11 11 11 13 17 17 14 10 10 18 18
internal_value=0 0.0234439 -0.0318885 0.00212596 -0.0559561 0.0557747 0.0223181 0.0118855 0.0429652 -0.00201525 -0.0150483 0.00984381 -0.00252465 -0.0149913 0.0066073 0.0797933 0.0980591 -0.0692372 -0.0757023 -0.0801663
internal_weight=0 38.28 28.2155 23.069 15.6261 15.211 6.35659 20.1925 6.39653 12.5893 9.93035 7.28706 13.796 10.6354 6.52025 8.85438 5.88829 13.1856 10.8082 8.44789
internal_count=275 157 118 95 66 62 26 83 26 52 41 30 57 44 27 36 24 56 46 36
is_linear=0
shrinkage=0.05


Tree=3
num_leaves=22
num_cat=0
split_feature=6 0 4 1 0 3 1 6 4 3 6 5 0 1 6 5 4 6 3 3 0
split_gain=18.2856 16.5234 8.24992 6.95213 5.97923 5.01451 4.17706 3.21466 4.23402 2.7996 2.53458 2.57736 5.99276 2.23836 1.6996 2.27023 1.36498 1.06901 0.908928 0.263208 0.00151643
threshold=-0.53647690823798044 0.25784494881931358 0.03044860634683157 -0.49379022165349923 1.3173814111012805 -0.19937295998011587 -0.22107326226021112 0.17121962946962449 -0.3169945126907478 0.1378717160770796 -1.6873807801421619 -0.29180332961385785 1.0000000180025095e-35 0.16065967647845195 0.35470617216735656 0.37326896933398718 0.26061154054746261 0.091244090252921975 0.40884547808491128 -0.63237987169915144 -0.32284991867389423
decision_type=2 2 2 2 2 2 2 2 2 2 2 2 2 2 2 2 2 2 2 2 2
left_child=2 6 10 -3 5 -5 14 13 -9 16 -1 -12 -13 -8 15 17 -4 -2 -7 -16 -21
right_child=1 3 9 4 -6 18 7 8 -10 -11 11 12 -14 -15 19 -17 -18 -19 -20 20 -22
leaf_value=0.10805341694200142 -0.043353017810481093 -0.040467086475837188 -0.046343303417560822 0.014616159605340351 -0.0092234086023285922 0.069472985184579894 -0.009830524697101866 0.057004615676317372 -0.025485240425512375 0.03865707321149027 0.083881167065026851 -0.017981450110091324 0.087813958883555213 -0.069633385221203867 -0.060835635934645617 -0.080864923699371094 0.0042405420029567658 0.0030952124702506977 0.11053205614441371 -0.080557948223249479 -0.078906475150995248
leaf_weight=2.7279177606105796 2.6050132066011455 3.5427239686250713 2.6356683224439603 3.4199014902114868 4.4058136940002433 2.4688044637441617 2.6553808599710447 2.4333824068307877 4.3122684806585312 3.1567859202623367 3.963547781109809 2.9052713364362743 2.4821472316980362 3.8093380481004715 2.7761534750461569 2.3555983304977417 2.6997259706258774 2.3618957847356796 2.9686671644449234 2.5792789012193671 3.0146859139204025
leaf_count=11 11 15 11 14 18 10 11 10 18 13 16 12 10 16 12 10 11 10 12 11 13
internal_value=0 -0.0176677 0.0390981 0.0217562 0.0383767 0.0620538 -0.0405911 -0.0198742 0.00427162 0.00133474 0.065648 0.0532772 0.0307617 -0.0450694 -0.058031 -0.0404383 -0.0207477 -0.0212657 0.0918898 -0.0734217 -0.0796679
internal_weight=0 45.7089 20.5711 16.8059 13.2632 8.85737 28.903 13.2104 6.74565 8.49218 12.0789 9.35097 5.38742 6.46472 15.6926 7.32251 5.33539 4.96691 5.43747 8.37012 5.59396
internal_count=275 191 84 69 54 36 122 55 28 35 49 38 22 27 67 31 22 21 22 36 24
is_linear=0
shrinkage=0.05


Tree=4
num_leaves=23
num_cat=0
split_feature=7 6 0 5 1 4 2 0 4 6 1 1 2 4 1 4 6 5 0 4 2 0
split_gain=16.9981 9.59761 12.3948 7.378 6.64866 4.5649 4.10327 2.80871 2.71651 2.63868 2.59127 3.10392 1.95553 1.82009 1.57984 1.14054 1.04905 0.810863 0.312716 0.230668 0.0039169 0.00014625
threshold=1.1872179906737841 -0.49140706935988726 0.25784494881931358 -0.7300890574368869 -0.10256564167629541 0.4620454337052799 -0.10235127721326191 0.058609211282547855 0.57126975977115146 -1.0801531685268781 0.4360835078552347 -0.014305842171430281 -0.063214709655815673 -0.29064863739770447 0.24747776943269839 -0.17023470651469633 -0.45157760486761123 0.090722795013395321 -1.075444465819442 0.04779573493432248 0.84765209125811014 0.15540698332693045
decision_type=2 2 2 2 2 2 2 2 2 2 2 2 2 2 2 2 2 2 2 2 2 2
left_child=1 5 6 12 16 9 -3 14 10 17 11 -4 -2 -11 -6 -8 -5 -1 -18 -17 21 -20
right_child=3 2 8 4 7 -7 15 -9 -10 13 -12 -13 -14 -15 -16 19 18 -19 20 -21 -22 -23
leaf_value=0.10261462767388213 -0.0055964249119603831 0.011876445238219263 0.01065420540202777 -0.035160992722505363 -0.010776917149013734 -0.0076582461185487677 -0.032002794435784791 0.020242643995212948 0.078118221085282838 0.068907771282031724 -0.011496869269575792 0.086517527498336355 0.057828675737521817 0.00966479486081122 -0.062613054196225926 -0.079518730163380041 -0.056090766768560167 0.066215703000203172 -0.07596949028499507 -0.057222477976225296 -0.078501724097727765 -0.076496394703464893
leaf_weight=3.9867177158594123 2.4311560690402985 3.6192769408226004 2.9554191082715979 2.3082289546728161 3.3766929656267113 2.4567271322011939 4.011701270937917 4.1377308219671249 3.2140924781560889 2.7334009855985641 3.1914695799350739 2.4794688671827307 2.4300379902124432 2.4661777168512335 2.6030179411172867 2.327595174312596 2.2960346639156368 2.4830308556556702 3.1489304900169355 2.3125165551900864 2.7696179449558258 2.2636887282133102
leaf_count=16 10 15 12 10 14 10 17 17 13 11 13 10 10 10 11 10 10 10 14 10 12 10
internal_value=0 0.0215615 0.00238789 -0.0298377 -0.0417119 0.0542887 -0.0328265 -0.0114273 0.038883 0.0673303 0.0242644 0.0452641 0.0261088 0.0408086 -0.0333416 -0.0515269 -0.0656749 0.0886451 -0.0723967 -0.0684068 -0.0769724 -0.0761899
internal_weight=0 38.2376 24.1115 27.7651 22.9039 14.1261 12.2711 10.1174 11.8405 11.6693 8.62636 5.43489 4.86119 5.19958 5.97971 8.65181 12.7865 6.46975 10.4783 4.64011 8.18224 5.41262
internal_count=275 157 100 118 98 57 52 42 48 47 35 22 20 21 25 37 56 26 46 20 36 24
is_linear=0
shrinkage=0.05


Tree=5
num_leaves=23
num_cat=0
split_feature=7 6 0 5 1 3 4 0 0 3 4 4 6 3 3 1 4 6 3 0 1 7
split_gain=15.4506 8.63973 11.2208 6.75463 6.23284 6.14882 4.10929 2.59124 2.55085 2.513 2.43817 2.77724 2.38302 4.24532 1.53555 1.46465 1.42574 1.00401 1.00239 0.30375 0.00101303 0.000857966
threshold=1.1872179906737841 -0.49140706935988726 0.25784494881931358 -0.7300890574368869 -0.10256564167629541 -0.5972275624915776 0.4620454337052799 0.020497648548708006 0.058609211282547855 0.1378717160770796 0.054891251234917358 -0.17023470651469633 -1.0801531685268781 0.16265829570215912 -0.41238865190966983 0.24747776943269839 0.34817978450997983 -0.45157760486761123 0.35163629143136149 -1.075444465819442 -0.92986316458824125 2.110761570259386
decision_type=2 2 2 2 2 2 2 2 2 2 2 2 2 2 2 2 2 2 2 2 2 2
left_child=1 6 7 14 17 -4 12 10 15 -7 11 -3 18 -14 -2 -6 -11 -5 -1 -19 -21 -22
right_child=3 2 5 4 8 9 -8 -9 -10 16 -12 -13 13 -15 -16 -17 -18 19 -20 20 21 -23
leaf_value=0.09967219848719204 -0.0035661719126604376 -0.012324507956566779 -0.022902854163911173 -0.03374562770808897 -0.010258872067621118 0.08952279395085487 -0.0072825526633260298 -0.079072337017384725 0.019178152914568748 0.0083906847160030301 0.016889359826091837 -0.078420485791388883 -0.0089703991247171693 0.081453075332447167 0.052530102479746058 -0.060403065609528253 0.061963853748463429 -0.054205840024641572 0.059225060763725815 -0.07422146137061246 -0.076010995970227979 -0.074715813611235665
leaf_weight=3.9883287549018851 2.4209530055522919 4.2672492265701267 3.1575913876295081 2.2853794693946865 3.37002089619636 3.7369599491357786 2.4543535858392707 2.3156380802392951 4.1487333327531815 2.4773481786251068 3.0457126945257187 2.5324864983558699 2.4618774205446234 2.7457509189844131 2.4590917378664043 2.5643274933099747 2.4902591556310654 2.2580532431602496 2.486981526017189 2.8573070913553256 2.6941307336091977 2.433659166097641
leaf_count=16 10 18 13 10 14 15 10 10 17 10 13 11 10 11 10 11 10 10 10 13 12 11
internal_value=0 0.0205179 0.00226716 -0.0286476 -0.0401613 0.0368666 0.051531 -0.0314818 -0.0108995 0.0585481 -0.0202886 -0.0369412 0.0638866 0.0387059 0.0247012 -0.031927 0.0352469 -0.0637115 0.0841376 -0.0703972 -0.0749759 -0.0753963
internal_weight=0 38.1605 24.0232 27.4917 22.6116 11.8622 14.1373 12.1611 10.0831 8.70457 9.84545 6.79974 11.6829 5.20763 4.88004 5.93435 4.96761 12.5285 6.47531 10.2432 7.9851 5.12779
internal_count=275 157 100 118 98 48 57 52 42 35 42 29 47 21 20 25 20 56 26 46 36 23
is_linear=0
shrinkage=0.05


Tree=6
num_leaves=23
num_cat=0
split_feature=7 2 6 0 1 2 6 3 4 4 1 4 4 7 1 2 2 4 7 2 2 3
split_gain=14.0634 8.09087 8.90761 6.84238 6.09818 3.94302 3.28 3.19482 2.91569 4.78733 3.72208 2.83265 6.12095 4.4641 1.66681 1.50932 1.31301 1.44014 1.19572 1.81949 1.97201 0.00734651
threshold=1.1872179906737841 -0.10235127721326191 -1.315432317732802 0.44372979084424324 -0.10256564167629541 -1.3990985077678613 -0.74915373315008094 0.16265829570215912 0.13603316072703805 -0.56614759976165197 0.069237757380822176 0.48552362973146096 -0.16863708300522176 1.9242754754902112 0.32068169843047573 0.92791692957190564 0.82538607808172226 -0.34739303705939178 2.1275988415897404 0.11106287432240411 -0.037984748216227084 -0.41238865190966983
decision_type=2 2 2 2 2 2 2 2 2 2 2 2 2 2 2 2 2 2 2 2 2 2
left_child=1 5 -3 6 15 -1 -4 -5 9 -7 -11 12 13 -6 -14 18 17 -8 19 20 -2 -20
right_child=4 2 3 7 11 8 16 -9 -10 10 -12 -13 14 -15 -16 -17 -18 -19 21 -21 -22 -23
leaf_value=-0.010251829038016042 -0.056747137942794262 0.081320947700747562 0.015843089025141477 -0.00098184493314764894 -0.022743477866604671 0.098037462828538174 -0.030213464875648979 0.067694601047363828 0.094618309968181241 -0.029855788752532121 0.049869519842103104 0.043767169688730852 -0.0810143181128926 0.073308061043722464 -0.023044348260019335 -0.011896476687988412 -0.018654495485958274 -0.0761815292259716 -0.07658976667351379 -0.074543848518255573 0.0092804536074057014 -0.072731513499729422
leaf_weight=2.4598808735609046 2.2543998807668677 2.975835487246516 2.7138976007699993 3.9164736568927756 2.3956970721483222 2.7281091064214689 2.8364919424057016 2.9834594428539276 3.9452850073575965 2.4180053174495697 3.710456594824791 2.676182508468627 2.5889975428581229 2.4434353858232498 2.379779577255249 2.275115728378295 3.0611369907855988 4.2670245170593235 2.9002299904823303 2.8663963824510574 2.268965661525729 2.1472418606281281
leaf_count=10 10 12 11 16 10 11 12 12 16 10 15 11 11 10 10 10 13 19 13 13 10 10
internal_value=0 0.0195607 0.000669778 -0.0114649 -0.0275305 0.047726 -0.032991 0.0287131 0.0588665 0.0429403 0.0184136 -0.00182796 -0.014269 0.0257561 -0.0532498 -0.0493403 -0.0460294 -0.0578261 -0.0561898 -0.043377 -0.023627 -0.0749484
internal_weight=0 38.0161 22.7543 19.7785 27.1964 15.2617 12.8786 6.89993 12.8019 8.85657 6.12846 12.4841 9.80791 4.83913 4.96878 14.7123 10.1647 7.10352 12.4372 7.38976 4.52337 5.04747
internal_count=275 157 95 83 118 62 55 28 52 36 25 52 41 20 21 66 44 31 56 33 20 23
is_linear=0
shrinkage=0.05


Tree=7
num_leaves=22
num_cat=0
split_feature=7 2 5 1 7 7 0 3 7 3 7 3 4 4 4 4 2 2 1 0 7
split_gain=12.8027 7.29043 6.14268 5.50772 4.80907 3.63244 4.3625 2.53139 6.39877 3.04442 4.56454 7.09714 2.79363 2.34875 3.17164 2.19898 1.73601 0.96136 0.929172 0.285797 0.00189921
threshold=1.1872179906737841 -0.10235127721326191 -0.7300890574368869 -0.10256564167629541 -0.11511515324867873 -0.096808245989803074 -0.15528849777700079 0.16265829570215912 -0.069119819963675819 -0.078993773757624938 -0.096808245989803074 -0.47368389338175404 -0.090264379371658043 -0.16863708300522176 0.4620454337052799 -0.44002571023829656 -0.063214709655815673 0.92508841024254995 0.54873488930526471 -1.075444465819442 2.110761570259386
decision_type=2 2 2 2 2 2 2 2 2 2 2 2 2 2 2 2 2 2 2 2 2
left_child=1 5 16 17 -3 6 -1 9 12 10 -6 -12 -9 -5 -15 -7 -2 19 -17 -4 -21
right_child=2 4 3 13 7 15 -8 8 -10 -11 11 -13 -14 14 -16 18 -18 -19 -20 20 -22
leaf_value=0.051624576967766234 -0.0056631964096047404 -0.061688101285497024 -0.051335610596579741 0.021895183650328897 0.060198277687006786 0.030760724646814858 -0.032440658812121596 0.031624501370338613 0.093384221679709487 -0.05059338798957394 -0.066265391425518877 0.040800615998394157 -0.042066281775560266 -0.056060109623948112 0.016544349197435828 0.10015976146136392 0.054009644943859285 -0.030890012214679394 0.06006361309490961 -0.072567393971264257 -0.070983045029105726
leaf_weight=3.6875274181365967 2.4248218834400177 2.7227863669395438 2.191410571336748 3.6191188246011734 2.9257810860872278 2.9630889296531668 2.6540008783340445 2.8739248663187027 2.711383029818534 2.8360065221786526 3.2678310722112665 2.9406840950250626 2.3278843611478806 3.9652815610170311 2.4234907627105713 3.47388070821762 2.450583994388583 2.2331345528364173 2.4737909883260727 4.0644413679838216 3.5380857586860657
leaf_count=15 10 12 10 15 12 12 11 12 11 12 14 12 10 17 10 14 10 10 10 19 17
internal_value=0 0.0186543 -0.0264546 -0.0376913 0.000631652 0.0453666 0.0164423 0.00916553 0.0311077 -0.00533976 0.00871053 -0.0155532 -0.00135318 -0.0102877 -0.0285186 0.0659511 0.0243309 -0.0604943 0.0834827 -0.0672444 -0.0718301
internal_weight=0 37.8586 26.9104 22.035 22.6063 15.2523 6.34153 19.8835 7.91319 11.9703 9.1343 6.20852 5.20181 10.0079 6.38877 8.91076 4.87541 12.0271 5.94767 9.79394 7.60253
internal_count=275 157 118 98 95 62 26 83 33 50 38 26 22 42 27 36 20 56 24 46 36
is_linear=0
shrinkage=0.05


Tree=8
num_leaves=22
num_cat=0
split_feature=6 0 4 4 6 7 0 7 4 4 6 6 3 7 2 2 3 4 0 3 0
split_gain=12.4108 11.1611 5.91 4.2009 3.8581 4.20897 4.0025 3.70283 3.07875 3.56038 4.30467 3.37338 2.49925 2.31611 1.96916 1.63296 1.32724 0.80321 0.369192 0.239896 0.0221816
threshold=-0.53647690823798044 0.25784494881931358 0.03044860634683157 0.57126975977115146 0.53527260816597544 1.1872179906737841 0.99423650911465244 1.8845177896391814 -0.34739303705939178 0.054891251234917358 0.35470617216735656 0.062086419149244933 -0.54629941035400675 1.0213648039100616 0.61033914743314976 1.0000000180025095e-35 0.12960918293071458 -0.46284768756230238 -0.82319470703450526 -0.63237987169915144 -0.32284991867389423
decision_type=2 2 2 2 2 2 2 2 2 2 2 2 2 2 2 2 2 2 2 2 2
left_child=2 8 13 4 6 -6 -3 15 12 18 11 -11 -2 16 -14 -4 -1 -18 -10 -12 -20
right_child=1 3 7 -5 5 -7 -8 -9 9 10 19 -13 14 -15 -16 -17 17 -19 20 -21 -22
leaf_value=0.094377019376919224 0.03182466750383018 0.070129113493869646 0.045009340184308709 0.062317399271504807 0.0088460540859768549 -0.073672682289623023 -0.010594871083294493 -0.054737090296250818 -0.051284230000064948 -0.033301104259858272 -0.050791473240816509 0.041830754159608886 -0.00066567549084286181 0.021163360745924516 -0.06035998993537095 -0.0067036678267261675 0.072212315827946835 0.032680739560567648 -0.07850687280959702 -0.073925294649586623 -0.072606624252299176
leaf_weight=3.2163417935371417 2.5776168704032898 3.2168937176466006 3.1809123605489713 3.9539290070533744 3.9176835268735886 2.5518442541360855 2.9379727393388748 2.2574066072702408 2.1745312809944153 3.1999811232089979 2.1347901225090027 2.8024438470602036 3.0490796566009539 3.5893074721097937 2.5260508954524994 2.9352111965417862 2.7063415497541419 2.4464997649192819 2.7244762629270554 2.3589812815189362 3.8352737873792666
leaf_count=13 11 13 13 16 16 12 12 10 10 14 10 12 13 15 11 12 11 10 12 11 18
internal_value=0 -0.0150353 0.0322066 0.0173434 0.00325761 -0.0237027 0.0315962 -8.33384e-06 -0.0346379 -0.0455541 -0.0259286 0.00177685 -0.00888907 0.054764 -0.0277127 0.0201916 0.0691744 0.0534433 -0.0691386 -0.0629354 -0.0750572
internal_weight=0 43.9615 20.332 16.5783 12.6244 6.46953 6.15487 8.37353 27.3832 19.2305 10.4962 6.00242 8.15275 11.9585 5.57513 6.11612 8.36918 5.15284 8.73428 4.49377 6.55975
internal_count=275 191 84 69 53 28 25 35 122 87 47 26 35 49 24 25 34 21 40 21 30
is_linear=0
shrinkage=0.05


Tree=9
num_leaves=21
num_cat=0
split_feature=6 0 4 1 0 3 7 1 6 4 7 1 3 2 3 3 4 3 6 0
split_gain=11.2769 10.2049 5.35838 4.17907 4.75326 4.13151 3.38587 3.24521 2.87575 3.05646 2.13803 1.971 1.6286 2.70913 1.52253 1.21674 0.741782 0.65457 0.547465 0.00368437
threshold=-0.53647690823798044 0.25784494881931358 0.03044860634683157 -0.49379022165349923 1.3173814111012805 -0.19937295998011587 1.8845177896391814 -0.22107326226021112 0.17121962946962449 -0.3169945126907478 1.0213648039100616 0.16065967647845195 -0.63237987169915144 0.064989202802259463 -1.0000000180025095e-35 0.12960918293071458 -0.46284768756230238 0.40884547808491128 0.19269289034839276 -0.35553997642281016
decision_type=2 2 2 2 2 2 2 2 2 2 2 2 2 2 2 2 2 2 2 2
left_child=2 7 10 -3 5 -5 14 12 11 -10 15 -9 13 -2 -4 -1 -17 -7 -14 -20
right_child=1 3 6 4 -6 17 -8 8 9 -11 -12 -13 18 -15 -16 16 -18 -19 19 -21
leaf_value=0.090428276261489485 -0.057520569642546641 -0.034169601365569909 -0.0031479161378291675 0.0074409471521154347 -0.013466673303391694 0.058275149912686598 -0.052929711701219961 -0.0063334899275261777 0.052312633270894485 -0.018293748566892663 0.020051424773245577 -0.063536243378298787 -0.046542459317770402 0.0147716974893678 0.047038048166515189 0.069236393830733864 0.031136999265564225 0.093283174829598414 -0.07368227125116332 -0.071092523894672646
leaf_weight=3.1895892471075076 3.1601369976997367 3.2592970132827785 3.3985815197229385 3.4521631747484207 4.3950180560350409 2.4323217272758466 2.2187545597553253 2.6012657433748227 2.4484038501977921 4.0984872132539749 3.5986817926168433 3.5761165767908096 3.3004895001649874 2.1968544274568558 2.7214211374521238 2.6821348518133155 2.4395811557769784 2.9603632092475891 2.3481538593769065 3.3083322793245324
leaf_count=13 15 15 14 14 18 10 10 11 10 18 15 16 15 10 11 11 10 12 11 16
internal_value=0 -0.0144405 0.0307241 0.016548 0.0290333 0.0501516 -1.51282e-05 -0.0333502 -0.0149779 0.0081116 0.0522461 -0.0394484 -0.0496822 -0.0278742 0.0191686 0.066186 0.0510889 0.0774931 -0.0627252 -0.0721676
internal_weight=0 43.5374 20.2487 16.4992 13.2399 8.84485 8.33876 27.0382 12.7243 6.54689 11.91 6.17738 14.314 5.35699 6.12 8.31131 5.12172 5.39268 8.95698 5.65649
internal_count=275 191 84 69 54 36 35 122 55 28 49 27 67 25 25 34 21 22 42 27
is_linear=0
shrinkage=0.05


Tree=10
num_leaves=22
num_cat=0
split_feature=6 0 4 1 3 0 7 1 3 1 7 6 3 1 2 6 3 4 3 4 7
split_gain=10.2545 9.33808 4.86884 3.79162 4.42761 5.34823 3.09868 3.0421 2.69407 2.59166 1.98361 1.55425 1.55092 2.65117 1.41677 1.3121 1.12826 0.688895 0.684771 0.544949 0.00478209
threshold=-0.53647690823798044 0.25784494881931358 0.03044860634683157 -0.49379022165349923 -0.19937295998011587 1.562176073148194 1.8845177896391814 -0.22107326226021112 0.22601696086380299 0.38988427721867586 1.0213648039100616 0.17121962946962449 -0.63237987169915144 -0.8997680325364964 1.0000000180025095e-35 0.3236216209484713 0.12960918293071458 -0.46284768756230238 0.40884547808491128 0.11937154734837156 -0.088597373710286878
decision_type=2 2 2 2 2 2 2 2 2 2 2 2 2 2 2 2 2 2 2 2 2
left_child=2 7 10 -3 9 18 14 12 15 -5 16 -10 13 -2 -4 -9 -1 -18 -6 20 -14
right_child=1 3 6 4 5 -7 -8 8 11 -11 -12 -13 19 -15 -16 -17 17 -19 -20 -21 -22
leaf_value=0.086974618217010288 -0.071167014163486031 -0.03279120716412795 0.04131204109388107 0.02583347824941817 0.055523794445013847 -0.012028527159125887 -0.051218130730399374 -0.052915249709397885 -0.016909956877243556 -0.046981280824586913 0.019004273173629172 0.038234585021802305 -0.07308797356286699 0.0013992128198307547 -0.0068472167483618887 -0.010906367304035328 0.066519350745778014 0.029676431299109046 0.090237007535346025 -0.04602486699855457 -0.070037949863017201
leaf_weight=3.1513730287551898 2.0584159344434738 3.2273158729076412 3.1840639859437925 2.4769102632999429 2.4253731966018641 2.4577005654573441 2.1792664527893066 4.0242454856634122 2.3212845772504807 2.4120414704084396 3.606903910636901 2.842432901263237 2.3606540113687506 3.2395319640636435 2.934688076376915 3.4542741030454636 2.6528415828943244 2.4318638890981683 3.429573655128479 3.5630501955747604 2.8207705467939403
leaf_count=13 10 15 13 10 10 10 10 18 10 10 15 12 11 15 12 15 11 10 14 17 14
internal_value=0 -0.0138661 0.029348 0.0157903 0.0276667 0.0498731 -2.0754e-05 -0.0321246 -0.0143322 -0.0100908 0.0499258 0.013445 -0.048143 -0.026795 0.0182138 -0.0335117 0.0634676 0.0488985 0.0758573 -0.0610769 -0.0714275
internal_weight=0 43.1136 20.141 16.4289 13.2016 8.31265 8.29802 26.6847 12.6422 4.88895 11.843 5.16372 14.0424 5.29795 6.11875 7.47852 8.23608 5.08471 5.85495 8.74447 5.18142
internal_count=275 191 84 69 54 34 35 122 55 20 49 22 67 25 25 33 34 21 24 42 25
is_linear=0
shrinkage=0.05


Tree=11
num_leaves=23
num_cat=0
split_feature=6 0 5 1 0 1 3 0 1 3 7 5 6 5 4 5 0 6 3 3 3 5
split_gain=9.33165 8.54202 4.51069 8.22545 3.64391 3.44606 4.02885 4.88864 2.86041 2.45688 2.3957 1.74001 1.55193 2.1818 1.43033 1.23771 1.19015 0.956699 0.676575 0.645656 0.235928 0.00333387
threshold=-0.53647690823798044 0.25784494881931358 0.26758615815918857 0.1260374921994202 0.91705389680495897 -0.49379022165349923 -0.19937295998011587 1.562176073148194 -0.22107326226021112 0.22601696086380299 -0.047647948642013015 0.56146337798253321 0.35470617216735656 0.37326896933398718 -0.013895441559067348 -0.30633147435577218 -0.53675676905183489 0.091244090252921975 0.18176621095588932 0.40884547808491128 -0.63237987169915144 -0.22688307390935303
decision_type=2 2 2 2 2 2 2 2 2 2 2 2 2 2 2 2 2 2 2 2 2 2
left_child=2 8 4 -4 14 -3 10 19 12 15 -7 -11 13 17 18 -10 -17 -2 -1 -8 -14 -22
right_child=1 5 3 -5 -6 6 7 -9 9 11 -12 -13 20 -15 -16 16 -18 -19 -20 -21 21 -23
leaf_value=0.055373435463894144 -0.031821442048812203 -0.031469609113454755 -0.067106315288775975 0.048839384701257649 -0.0086418598694408232 -0.045047737054457658 0.052974090618415681 -0.011438757630143315 -0.059406329246880274 0.039183783438579194 0.0250607344014953 -0.019055026157254209 -0.050085518502860429 -0.071500287886425457 0.032448496228630566 0.0094771515970304004 -0.04070200117785986 0.014145115549154527 0.086114230761555027 0.086808506775128413 -0.070509569726713239 -0.067842674941137451
leaf_weight=3.8498992621898651 2.3590451180934924 3.1955311596393612 2.9854148328304282 3.1369137167930603 2.6737572252750388 2.411274641752243 2.4152540713548625 2.4552595168352127 2.6674011051654816 2.8249344676733017 2.46335293352604 2.3489623367786407 2.4044573605060577 2.0909970253705978 4.0263490080833453 2.2543520778417587 2.4833753854036313 2.1761735081672668 3.3450698852539062 3.3878033012151718 2.6159758865833282 2.1228054165840149
leaf_count=16 11 15 13 13 11 10 10 10 12 12 10 10 12 10 17 10 11 10 14 14 13 11
internal_value=0 -0.0133194 0.028058 -0.00769891 0.0438129 0.0150963 0.0264268 0.0477035 -0.030929 -0.0136928 -0.009619 0.0127432 -0.046675 -0.0292464 0.0563115 -0.0321634 -0.0168253 -0.00976491 0.0696654 0.0727265 -0.0628422 -0.0693149
internal_weight=0 42.677 20.0174 6.12233 13.8951 16.3285 13.1329 8.25832 26.3485 12.579 4.87463 5.1739 13.7695 6.62622 11.2213 7.40513 4.73773 4.53522 7.19497 5.80306 7.14324 4.73878
internal_count=275 191 84 26 58 69 54 34 122 55 20 22 67 31 47 33 21 21 30 24 36 24
is_linear=0
shrinkage=0.05


Tree=12
num_leaves=21
num_cat=0
split_feature=7 5 3 7 1 6 1 4 4 4 5 5 5 1 3 0 4 5 1 6
split_gain=8.6735 5.25029 4.56186 5.06821 4.48069 3.48605 3.38374 3.0886 3.77606 2.33124 2.2632 2.13324 5.08907 2.0071 1.01819 0.569759 0.39137 0.459893 0.0298655 0.0097493
threshold=1.1872179906737841 -0.7300890574368869 -0.5972275624915776 -0.083318390832486447 0.4681023952608791 0.25718867998284484 -0.27529611250665359 0.75969091470853289 -0.51877413716363607 -0.46284768756230238 0.38621260456919171 0.45511326292787685 -0.16707513598489485 -0.014305842171430281 -0.41238865190966983 1.2788338777979658 0.13603316072703805 -0.10352946250993776 -0.25392828534430284 0.31087478515435552
decision_type=2 2 2 2 2 2 2 2 2 2 2 2 2 2 2 2 2 2 2 2
left_child=2 14 6 5 7 11 -1 8 -3 -5 -8 12 -4 -11 -2 -15 18 -18 19 -10
right_child=1 4 3 9 -6 -7 10 -9 16 13 -12 -13 -14 15 -16 -17 17 -19 -20 -21
leaf_value=0.023427638805720172 0.0010227852078963618 0.0067838192506204237 -0.012144065488694643 0.086935214977435379 0.016074447157816332 -0.033896934630374652 -0.066890675645814732 0.0093286827501035102 -0.071145373463689973 0.0099602214603367878 -0.0019982850310717396 -0.010596305336619809 0.070775356270049036 0.072419766784994455 0.047061842157556377 0.039494438664527225 -0.071638891544743385 -0.040850998552713125 -0.075233695511838117 -0.06655191381164792
leaf_weight=3.4403715431690216 2.3436843901872635 2.2519124299287858 3.2073162347078297 3.0963659137487403 3.750853329896926 3.9856927543878546 3.211990609765051 2.3177082985639563 2.0745791643858009 3.9712415635585776 2.3098695427179337 3.7051331996917725 4.3737549632787713 2.8085910379886654 2.4629740864038494 2.4689675718545914 1.9966243356466291 3.0902197957038879 2.6458948105573583 2.6063917279243469
leaf_count=15 10 10 14 13 16 18 14 11 10 17 10 16 18 12 10 10 10 15 12 14
internal_value=0 -0.0224696 0.0155011 0.0255598 -0.0333846 0.00630182 -0.0154948 -0.0443078 -0.0527844 0.0493834 -0.0397453 0.0204979 0.0356947 0.0368115 0.0246136 0.0570165 -0.0635903 -0.0529355 -0.0709877 -0.0685877
internal_weight=0 25.5408 36.5793 27.6171 20.7342 15.2719 8.96223 16.9833 14.6656 12.3452 5.52186 11.2862 7.58107 9.2488 4.80666 5.27756 12.4137 5.08684 7.32687 4.68097
internal_count=275 118 157 118 98 66 39 82 71 52 24 48 32 39 20 22 61 25 36 24
is_linear=0
shrinkage=0.05


Tree=13
num_leaves=20
num_cat=0
split_feature=6 0 1 0 5 1 3 0 1 6 6 5 4 1 3 3 0 4 6
split_gain=8.06881 8.8621 3.98342 4.40741 3.47034 5.86498 3.24188 2.85956 2.4487 2.65013 2.75029 1.78983 2.66794 1.58492 1.52723 2.59237 0.7703 0.494201 0.00348925
threshold=-0.65658902130433994 0.25784494881931358 -0.49379022165349923 1.3173814111012805 0.26758615815918857 0.20378561711448703 -0.19937295998011587 0.40788246235832193 -0.22107326226021112 0.17121962946962449 0.89231753620877374 -0.87968063557580167 -0.013895441559067348 0.4681023952608791 -0.63237987169915144 -1.4978698506717192 0.96289901489861651 0.11937154734837156 0.50848912863282247
decision_type=2 2 2 2 2 2 2 2 2 2 2 2 2 2 2 2 2 2 2
left_child=4 8 -3 6 7 -6 -4 11 14 13 -11 -1 -13 -10 15 -2 -8 18 -16
right_child=1 2 3 -5 5 -7 16 -9 9 10 -12 12 -14 -15 17 -17 -18 -19 -20
leaf_value=0.087236833245969134 -0.068750175415791911 -0.032698548854155761 0.0087531297467895227 -0.013435031131397511 -0.062727374296523683 0.042364521913865888 0.084566550866963061 0.0037329990709018372 -0.019627378595152525 0.031589120365808708 -0.036691869157855543 0.065443014758129289 -0.0020493584731298173 -0.072974128941194219 -0.069526000502555238 0.0046818752683132408 0.047714582073474954 -0.043949744470306279 -0.066768483019112007
leaf_weight=3.0946231037378311 1.9442395865917204 3.3502638041973141 3.4218547940254211 4.3511639237403861 2.4720529466867438 2.8676679581403732 3.5613480359315854 3.6086350232362738 4.0910179615020734 4.249615490436554 2.2585384994745255 4.0143838971853256 2.3049307465553301 2.1105971485376358 2.9715427309274691 3.1478052139282218 2.3561414033174515 3.5753645151853561 1.8685684502124784
leaf_count=13 10 16 14 18 11 12 15 15 18 18 10 17 10 10 15 15 10 18 10
internal_value=0 -0.0119014 0.0161694 0.028128 0.0276571 -0.00628835 0.0474921 0.041576 -0.0301469 -0.0143939 0.00789342 0.0560823 0.0408256 -0.0377829 -0.0449695 -0.0233559 0.0698934 -0.0580475 -0.0684614
internal_weight=0 43.2581 17.0408 13.6905 18.3623 5.33972 9.33934 13.0226 26.2173 12.7098 6.50815 9.41394 6.31931 6.20162 13.5075 5.09204 5.91749 8.41548 4.84011
internal_count=275 197 73 57 78 23 39 55 124 56 28 40 27 28 68 25 25 43 25
is_linear=0
shrinkage=0.05


Tree=14
num_leaves=23
num_cat=0
split_feature=7 5 1 3 7 4 4 7 7 5 2 2 0 0 0 2 0 4 1 4 7 1
split_gain=7.56996 6.11481 3.97263 4.06537 4.21652 3.98214 4.35004 3.68705 3.31086 3.10778 3.09977 4.76544 2.89285 2.73724 2.43854 1.88064 1.69199 1.60513 0.946327 0.20005 0.0548329 0.0293698
threshold=2.1275988415897404 -1.245981662430389 0.098762108260238249 -0.54629941035400675 1.8297172964207538 -0.60425349817561225 0.11937154734837156 -0.10337915855001381 1.0000000180025095e-35 -1.0000000180025095e-35 0.39265217562337373 0.064989202802259463 0.27466145876930842 0.10104918827510387 1.3173814111012805 -0.079903669549337544 -0.61611185083635622 -0.36985064094602538 -0.45011926399173624 -1.0000000180025095e-35 1.7720376456243827 -0.27529611250665359
decision_type=2 2 2 2 2 2 2 2 2 2 2 2 2 2 2 2 2 2 2 2 2 2
left_child=1 15 5 9 7 -3 8 -5 12 -4 11 16 18 21 17 -1 -8 -9 -7 -19 -10 -2
right_child=13 2 3 4 -6 6 10 14 20 -11 -12 -13 -14 -15 -16 -17 -18 19 -20 -21 -22 -23
leaf_value=0.08910284677622661 -0.066588988030474458 0.037273155133399266 -0.061336492119482978 -0.003273125407547579 -0.029810079239263362 -0.067970462591348299 0.01965680832068362 0.036298279935033394 -0.078561794983241007 0.018283603366954265 -0.040419107005468136 0.073956124142832882 0.022440377622101881 -0.0068259638946774198 0.011827159510587874 0.031387762494273642 -0.042559325789762598 0.072234002084877832 -0.022520108615522481 0.091903469131331239 -0.067895810758514558 -0.074475792586869205
leaf_weight=2.3595061451196671 2.5609326660633087 3.4029593169689205 2.6320436894893646 3.9897771328687694 2.7375383824110022 2.1211065798997888 2.2388287037611008 2.8064012229442614 2.3625044524669647 2.2935743182897594 2.8378852903842926 2.6805148869752884 2.6106095612049103 2.6534849405288696 2.6916335076093665 3.5128160566091529 2.1347509920597059 2.3264326155185717 2.4893784970045099 2.9091639667749352 2.4593576639890671 2.1897638887166968
leaf_count=10 14 15 12 17 12 11 10 12 11 10 14 11 11 13 11 15 10 10 11 12 13 10
internal_value=0 0.00643201 0.000507853 0.0158551 0.0271719 -0.0130517 -0.0208591 0.0377666 -0.0410392 -0.024262 0.0037091 0.021462 -0.0196162 -0.0475038 0.0530214 0.0545778 -0.010711 0.0668089 -0.0434301 0.0831634 -0.0731217 -0.0702243
internal_weight=0 53.5968 47.7245 22.3866 17.4609 25.3379 21.9349 14.7234 12.043 4.92562 9.89198 7.05409 7.22109 7.40418 10.7336 5.87232 4.37358 8.042 4.61049 5.2356 4.82186 4.7507
internal_count=275 238 213 96 74 117 102 62 57 22 45 31 33 37 45 25 20 34 22 22 24 24
is_linear=0
shrinkage=0.05


Tree=15
num_leaves=22
num_cat=0
split_feature=6 0 1 0 4 3 4 4 6 6 3 2 2 1 5 0 1 0 2 6 1
split_gain=7.04913 7.63109 3.55214 3.91821 3.04587 2.93013 2.17925 3.22626 3.54782 3.13403 2.54215 1.98087 1.9536 1.72213 2.94815 3.37101 0.785252 0.700938 0.410089 0.239389 0.0330333
threshold=-0.65658902130433994 0.25784494881931358 -0.49379022165349923 1.3173814111012805 -0.56614759976165197 -0.19937295998011587 -0.34739303705939178 0.054891251234917358 0.35470617216735656 0.062086419149244933 -0.54629941035400675 0.61033914743314976 0.39265217562337373 0.63199279849983625 0.26758615815918857 0.25784494881931358 0.4360835078552347 0.96289901489861651 0.82538607808172226 0.81912587835716744 -0.024814243580339818
decision_type=2 2 2 2 2 2 2 2 2 2 2 2 2 2 2 2 2 2 2 2 2
left_child=4 6 -3 5 16 -4 10 18 9 -9 -2 -12 13 14 15 -6 -1 -7 20 -10 -8
right_child=1 2 3 -5 12 17 7 8 19 -11 11 -13 -14 -15 -16 -17 -18 -19 -20 -21 -22
leaf_value=0.08177487703806495 0.034665676630557439 -0.031683872929833268 0.0079720175414197385 -0.012958071156349471 0.072730055035819904 0.08060309919033784 -0.065739112714314693 -0.028679763809842353 -0.043191768164709626 0.044339079655339973 0.0020669319786729653 -0.058129125806155681 -0.024231245133543484 0.058761465220539315 -0.038123500112383808 -0.0029257839170401196 0.040535840254619947 0.045076105118093228 -0.042457668592204789 -0.067801629662586849 -0.073313892646887244
leaf_weight=2.3007850050926235 2.5227096974849701 3.2945559918880489 3.4168502390384674 4.3391458988189688 2.6185879260301572 3.4663280397653562 3.0541528463363647 3.1789198368787748 1.8875290453433993 2.7328034937381744 2.9345216155052203 2.5579414218664169 2.6747846305370322 2.6213663369417182 2.1457975953817368 3.363662526011467 2.3166083246469498 2.3159761726856232 1.8863492906093595 2.0738646239042282 2.7221329361200359
leaf_count=10 11 16 14 18 11 15 17 15 10 12 13 12 12 11 10 14 10 10 10 11 13
internal_value=0 -0.0112621 0.0148769 0.0262074 0.0260552 0.0446814 -0.0284823 -0.0383545 -0.0194607 0.00507455 -0.00688369 -0.0259675 0.0140064 0.0235212 0.0121559 0.0301908 0.0610847 0.0663735 -0.0626987 -0.0560755 -0.0693088
internal_weight=0 42.3838 16.8329 13.5383 18.0416 9.19915 25.5509 17.5358 9.87312 5.91172 8.01517 5.49246 13.4242 10.7494 8.12805 5.98225 4.61739 5.7823 7.66264 3.96139 5.77629
internal_count=275 197 73 57 78 39 124 88 48 27 36 25 58 46 35 25 20 25 40 21 30
is_linear=0
shrinkage=0.05


Tree=16
num_leaves=22
num_cat=0
split_feature=7 6 5 5 1 0 0 4 6 2 7 4 0 6 2 5 0 0 1 1 1
split_gain=6.6856 5.9146 5.87536 4.0927 5.92116 2.72869 2.61359 2.96664 3.74584 4.59464 2.9395 2.88943 2.56893 1.86033 1.77904 1.61449 2.66506 1.26522 1.01306 0.05241 0.0215402
threshold=2.1275988415897404 -0.49140706935988726 -1.245981662430389 0.26758615815918857 0.1260374921994202 0.91705389680495897 0.27466145876930842 0.054891251234917358 0.35470617216735656 0.78587988680427989 1.1872179906737841 -0.60425349817561225 0.10104918827510387 -0.92796276409692979 0.062027125104443449 0.082373280903279958 0.96289901489861651 -0.46936415715104052 0.24747776943269839 -0.29894302959573665 -0.27529611250665359
decision_type=2 2 2 2 2 2 2 2 2 2 2 2 2 2 2 2 2 2 2 2 2
left_child=1 3 -3 5 -5 13 7 11 9 -9 15 -4 20 14 18 -8 -17 -13 -1 -19 -2
right_child=12 2 6 4 -6 -7 10 8 -10 -11 -12 17 -14 -15 -16 16 -18 19 -20 -21 -22
leaf_value=0.048641838893603365 -0.065079154977769171 0.056955927077567241 0.0032643762934167864 -0.061506939182795088 0.040815782758679038 -0.0036492449417563455 -0.004916745086722258 0.075269111463372632 -0.04855662402827543 -0.026075787816882287 -0.044122255331599122 -0.03108847470984985 -0.0060298395399653723 0.092014090884567287 0.072242229579452949 0.069495543096603399 -0.0026834943141679896 -0.064717522782581888 0.0026898761965046159 -0.074611236158971361 -0.071992634712040121
leaf_weight=2.2399444431066513 2.4253056198358536 3.3039374053478232 2.9085991531610498 2.642954856157302 3.0402036160230637 2.4329864084720603 4.292631581425665 2.409845918416976 2.4549261331558228 2.086856946349144 2.4106341004371634 3.5801094025373459 2.6122697591781616 2.5779949724674243 3.1735622137784958 2.8055529445409775 2.3501327186822891 2.7847117334604263 2.5819649249315262 2.5775034278631246 2.1041437834501258
leaf_count=10 14 14 13 12 13 10 18 10 13 10 11 18 13 11 14 12 10 16 11 12 10
internal_value=0 0.00603619 -0.00639447 0.028627 -0.00676944 0.0440934 -0.0132208 -0.0248141 0.00111738 0.0282364 0.00516053 -0.0400252 -0.0455172 0.0550791 0.0431701 0.0177345 0.0365939 -0.0541057 0.0240362 -0.0694732 -0.0682908
internal_weight=0 52.6551 33.9654 18.6896 5.68316 13.0065 30.6615 18.8026 6.95163 4.4967 11.859 11.8509 7.14172 10.5735 7.99547 9.44832 5.15569 8.94232 4.82191 5.36222 4.52945
internal_count=275 238 157 81 25 56 143 92 33 20 51 59 37 46 35 40 22 46 21 28 24
is_linear=0
shrinkage=0.05


Tree=17
num_leaves=22
num_cat=0
split_feature=7 2 6 7 5 2 4 4 4 4 3 2 7 2 7 7 6 7 3 6 7
split_gain=6.24844 4.63437 5.03642 4.16521 4.0089 3.33969 2.98827 2.57767 2.42246 3.17262 2.38568 1.99481 1.79049 1.74058 1.62941 2.5477 0.774053 0.580822 0.635855 0.0154287 0.00380839
threshold=1.1872179906737841 -0.10235127721326191 -1.315432317732802 -0.083318390832486447 -0.7300890574368869 -1.3990985077678613 -0.59414455350434459 0.75969091470853289 0.13603316072703805 -0.56614759976165197 -0.19937295998011587 -0.46716465126645834 -0.090687135886365913 -0.063214709655815673 -0.11511515324867873 -0.099656291791721099 0.41765614379893673 1.6076509308797557 -0.69842506691328154 0.31087478515435552 2.0619614312679579
decision_type=2 2 2 2 2 2 2 2 2 2 2 2 2 2 2 2 2 2 2 2 2
left_child=1 5 -3 14 13 -1 -6 11 9 -7 -5 -8 -11 -2 -4 -16 -12 -13 -19 -20 -21
right_child=4 2 3 10 6 8 7 -9 -10 12 16 17 -14 -15 15 -17 -18 18 19 20 -22
leaf_value=-0.018423444044471861 -0.008869417659785387 0.062332844823411532 -0.071219759806335478 -0.02117382668695833 0.01674261514270169 0.078851797940574536 -0.0016525305645303638 0.011984262936498999 0.07962002157838402 -0.024766188893129176 0.018054838646589272 -0.029325169076169472 0.032879378901286713 0.051898739820001233 0.0040235196960907698 -0.053673715704495299 0.056343220158509157 -0.040563104745924963 -0.069881685735616247 -0.066704028360739728 -0.063368035192436847
leaf_weight=2.3993880003690711 2.3502196222543716 2.6795719265937832 2.1758179962635049 2.9379040598869324 2.9243518859148088 2.4179710894823057 2.1556860953569474 2.2201513797044745 3.7286077439784995 2.2055491060018522 3.0019733309745771 2.0073419660329739 3.460608124732973 2.3632999509573009 4.2050378471612939 3.5105790346860886 2.3559543788433075 3.2409027367830321 3.3667904138565001 1.7984412759542467 1.6317500472068784
leaf_count=10 10 12 11 13 13 11 10 11 16 10 13 10 15 10 19 17 10 17 17 10 10
internal_value=0 0.0133351 -0.00166327 -0.011092 -0.0197496 0.0353563 -0.0298242 -0.0381171 0.0462799 0.0309026 0.0150359 -0.0459499 0.0104409 0.021599 -0.0330051 -0.0222285 0.0348908 -0.0538776 -0.0587875 -0.0674772 -0.0651171
internal_weight=0 35.079 20.8668 18.1873 24.0589 14.2121 19.3454 16.4211 11.8127 8.08413 8.29583 14.2009 5.66616 4.71352 9.89143 7.71562 5.35793 12.0452 10.0379 6.79698 3.43019
internal_count=275 157 95 83 118 62 98 85 52 36 36 74 25 20 47 36 23 64 54 37 20
is_linear=0
shrinkage=0.05


Tree=18
num_leaves=23
num_cat=0
split_feature=7 6 5 5 1 4 4 3 6 4 5 5 2 3 1 7 7 5 3 2 6 3
split_gain=5.94932 5.14382 5.05126 3.56234 5.20944 2.30229 3.11684 2.75174 2.54137 2.40738 2.30455 2.76585 2.24362 1.7797 1.5731 1.48547 1.07886 0.987371 0.81816 0.427397 0.0966007 0.00576509
threshold=2.1275988415897404 -0.49140706935988726 -1.245981662430389 0.26758615815918857 0.1260374921994202 0.04779573493432248 -0.17023470651469633 -0.47368389338175404 0.81912587835716744 0.3069109384417586 -1.0000000180025095e-35 0.47393890841903069 0.062027125104443449 0.16265829570215912 -0.45011926399173624 1.54615402336054 -0.074906082986161707 0.31476118264769992 0.079829341373593987 0.3612783047667712 0.31087478515435552 -0.41238865190966983
decision_type=2 2 2 2 2 2 2 2 2 2 2 2 2 2 2 2 2 2 2 2 2 2
left_child=1 3 -3 12 -5 6 10 8 -7 -9 15 -12 13 16 21 18 -1 -11 -4 -14 -8 -2
right_child=14 2 5 4 -6 7 20 9 -10 17 11 -13 19 -15 -16 -17 -18 -19 -20 -21 -22 -23
leaf_value=0.029372426169610062 -0.066272369537833636 0.052916195402489666 -0.03900246723055658 -0.058852611731517651 0.038346341528598601 0.0053492875329011411 -0.054843722313278602 -0.017009665187192071 -0.071447369045468154 0.015411043887072127 0.05362268637511363 -0.015515175858139885 0.084679021971686599 0.053815429878412792 -0.016529848074786756 -0.070332769179177398 -0.017809418209259728 0.056842140566578117 0.0042026225987953853 0.053992962024211305 -0.069962820539718598 -0.062348805743194395
leaf_weight=2.5041780769824982 2.3325595259666447 3.2799749672412863 2.1957077085971841 2.5579496920108786 2.9896628707647324 2.3882132470607749 2.4704499095678356 3.0063562691211683 1.9625142961740492 2.6243191212415695 2.2596003115177163 4.0202709138393402 2.3284562975168219 3.3772051185369492 3.0001828819513312 1.9042653590440748 2.3472629934549349 3.181212991476059 2.1872773766517639 2.213348776102066 1.8459071367979047 1.5639779120683668
leaf_count=11 13 14 10 12 13 11 14 14 10 12 10 18 10 15 14 10 10 14 10 10 10 10
internal_value=0 0.00569878 -0.00600026 0.0269828 -0.00647114 -0.0124319 -0.0246526 0.00324344 -0.0292919 0.0193073 -0.0120622 0.00936176 0.0415156 0.0259455 -0.0437438 -0.033461 0.00654453 0.0381137 -0.0174415 0.0697248 -0.0613095 -0.0646975
internal_weight=0 51.6441 33.3261 18.3181 5.54761 30.0461 16.8835 13.1626 4.35073 8.81189 12.5671 6.27987 12.7705 8.22865 6.89672 6.28725 4.85144 5.80553 4.38299 4.54181 4.31636 3.89654
internal_count=275 238 157 81 25 143 82 61 21 40 58 28 56 36 37 30 21 26 20 20 24 23
is_linear=0
shrinkage=0.05


Tree=19
num_leaves=22
num_cat=0
split_feature=7 6 5 4 0 7 7 4 6 5 0 0 6 3 5 0 0 5 0 0 1
split_gain=5.48888 4.69592 4.588 3.24616 2.53215 2.19572 3.88171 3.58489 2.08042 2.04411 2.72433 3.37049 2.48898 1.40954 1.35164 1.33075 1.26532 0.847746 0.686128 0.333532 0.0184041
threshold=2.1275988415897404 -0.49140706935988726 -1.245981662430389 0.034788771962305447 0.10104918827510387 1.6076509308797557 1.9682253413311035 0.57126975977115146 -1.2589234256334552 -0.50948038121743133 0.52364811847739223 -0.46936415715104052 0.33589931895334341 0.1378717160770796 0.31476118264769992 0.40788246235832193 1.2788338777979658 0.20739834015023953 -0.58652843498412033 -0.61611185083635622 -0.27529611250665359
decision_type=2 2 2 2 2 2 2 2 2 2 2 2 2 2 2 2 2 2 2 2 2
left_child=1 3 -3 14 20 7 19 9 -5 -4 11 -11 17 -10 15 18 -12 -13 -1 -7 -2
right_child=4 2 5 8 -6 6 -8 -9 13 10 16 12 -14 -15 -16 -17 -18 -19 -20 -21 -22
leaf_value=0.042440934140764941 -0.063075796159863834 0.050493486495671772 -0.048670823864130873 -0.03631251131580359 -0.0029078858229742983 -0.043683124720271811 0.015091324338484167 0.048025835140601186 -0.0076461924984235485 0.022217908635975052 0.048195586162206878 0.0070997371751314337 -0.07527315576053524 0.048371700863083227 0.011604915272000131 0.020142521432657594 -0.00042361673714770456 -0.036044998433056273 0.07732359742033984 -0.070189220437685079 -0.069687204719598356
leaf_weight=2.2005634754896164 2.2156263291835785 3.2658366113901129 3.1367658823728624 2.5816749334335327 2.5238233953714371 1.8886265456676481 2.5669457316398621 2.884834110736846 2.2744933217763892 3.3833670616149973 2.7543219327926627 2.1902067363262159 2.7913244068622589 2.2180371433496475 2.6388226300477973 2.2947306632995605 2.602826789021492 2.3711480498313904 3.9224422872066516 3.1938543617725363 2.0052835196256629
leaf_count=10 14 14 15 11 13 10 13 13 10 16 12 10 14 10 12 10 11 12 18 17 10
internal_value=0 0.0054596 -0.00576356 0.0259056 -0.0425271 -0.0119363 -0.035027 -0.00394928 -0.00054396 -0.0117465 -0.00454944 -0.0190814 -0.0380854 0.0200108 0.0428285 0.0526166 0.0245734 -0.0153284 0.064787 -0.0603397 -0.0662168
internal_weight=0 51.1608 33.0301 18.1308 6.74473 29.7642 7.64943 22.1148 7.07421 19.23 16.0932 10.736 7.35268 4.49253 11.0566 8.41774 5.35715 4.56135 6.12301 5.08248 4.22091
internal_count=275 238 157 81 37 143 40 103 31 90 75 52 36 20 50 38 23 22 28 27 24
is_linear=0
shrinkage=0.05


Tree=20
num_leaves=22
num_cat=0
split_feature=7 6 5 5 0 0 0 2 7 3 0 0 5 7 7 6 2 4 7 4 7
split_gain=5.06329 4.27865 4.17038 3.15782 2.44035 2.42848 2.21904 2.04287 3.70515 2.12931 2.68532 2.13754 2.11094 1.71124 2.24484 1.66884 1.53074 0.885223 0.620303 0.0565559 0.00536419
threshold=2.1275988415897404 -0.49140706935988726 -1.245981662430389 0.26758615815918857 0.91705389680495897 0.10104918827510387 -1.0000000180025095e-35 -0.10235127721326191 0.97401953593649926 -1.3200744555507129 0.36665335846356656 -0.80788370190587511 0.45511326292787685 -0.099656291791721099 1.7932616773743175 -0.92796276409692979 0.062027125104443449 -0.16863708300522176 -0.057982858783059595 -0.13650683684134643 2.3551904476255534
decision_type=2 2 2 2 2 2 2 2 2 2 2 2 2 2 2 2 2 2 2 2 2
left_child=1 3 -3 4 15 20 -5 8 12 -9 11 -11 -4 -13 19 16 17 -1 -12 -15 -2
right_child=5 2 7 6 -6 -7 -8 9 -10 10 18 13 -14 14 -16 -17 -18 -19 -20 -21 -22
leaf_value=0.041761126974234578 -0.066617800699608612 0.048225917129682355 0.050711802834712189 -0.032918666671922725 -0.0065115413232515688 -0.0027650296373728941 0.032009320188590755 -0.067575746070955053 -0.042684425066167098 0.011306271901598868 0.031824352380560403 -0.005177613232863594 -0.0048584877529755941 -0.076759861970180865 -0.010603555395657877 0.085122076464799773 0.065977256050485655 -0.0018282694371167846 -0.0036358223563811246 -0.065822302714684422 -0.062885514459860542
leaf_weight=2.3344208896160126 2.5179968625307074 3.2488553375005713 3.9449138939380664 3.2773062139749527 2.4116578251123419 2.5215663313865662 2.1988808512687674 2.1531922668218639 2.6657285094261169 2.8151826113462475 2.7860348671674728 2.8238470107316997 3.0151174813508987 2.1629523187875774 2.29558464884758 2.4771346747875231 2.9633826315402985 2.3245792537927628 2.2128203064203253 2.6057197451591421 1.5586136281490324
leaf_count=11 14 14 17 15 10 13 10 12 13 14 12 14 14 10 12 11 14 10 10 15 10
internal_value=0 0.00522795 -0.0055381 0.0248179 0.0386782 -0.0413341 -0.00684781 -0.011463 0.00744042 -0.0206272 -0.0149167 -0.0271328 0.0266385 -0.0380765 -0.0512274 0.049469 0.0378824 0.0200125 0.0161274 -0.0707833 -0.0651908
internal_weight=0 50.7173 32.7299 17.9874 12.5112 6.59818 5.47619 29.4811 9.62576 19.8553 17.7021 12.7033 6.96003 9.8881 7.06426 10.0995 7.62238 4.659 4.99886 4.76867 4.07661
internal_count=275 238 157 81 56 37 25 143 44 99 87 65 31 51 37 46 35 21 22 25 24
is_linear=0
shrinkage=0.05


Tree=21
num_leaves=22
num_cat=0
split_feature=1 7 2 6 2 3 5 4 7 3 4 1 4 4 4 1 1 2 2 3 1
split_gain=5.10581 4.02564 4.23692 4.50984 3.64993 3.56458 3.21196 2.57225 2.56093 3.18276 2.64295 2.12046 1.89197 1.819 2.12865 1.79643 1.65962 1.4219 0.49159 0.416984 0.0206539
threshold=-1.0548269076213219 1.3487835528466163 -0.10235127721326191 -1.5365739085028236 -1.3990985077678613 -1.2325084651242877 -0.94620845354876093 -0.59414455350434459 -0.083318390832486447 -0.17955423435820275 -0.34739303705939178 0.16680675879933829 0.57126975977115146 0.13603316072703805 -0.56614759976165197 0.63199279849983625 -0.29894302959573665 -0.8221059294459091 0.078108749828894555 -0.50181070384268456 -0.25392828534430284
decision_type=2 2 2 2 2 2 2 2 2 2 2 2 2 2 2 2 2 2 2 2 2
left_child=18 2 4 -4 -2 -5 -3 -8 9 -7 -11 16 15 14 -6 19 -10 -16 -1 -9 -21
right_child=1 6 3 5 13 8 7 12 11 10 -12 -13 -14 -15 17 -17 -18 -19 -20 20 -22
leaf_value=-0.068063766445751767 -0.015389214981634418 0.033041385654782346 0.073238194704078136 -0.072134923878435619 0.074182365118699398 0.029983415532163233 0.015122178789767449 -0.03772227354909588 0.025796984633742262 -0.0086540177906175193 -0.076709655091124263 0.04572021188556636 -0.00047607241884350742 0.075841841863585391 0.046254778280873966 -0.0087019711947445063 -0.035617066822798492 -0.0068857929561404706 -0.031279126791565505 -0.06245947032021705 -0.068911234843065064
leaf_weight=2.5425676926970477 2.8462465405464163 2.957430616021159 1.8755560219287861 1.9464202672243143 2.2373491674661627 2.2219301164150274 3.3416367918252972 1.7346231341361988 2.2002689838409424 3.0473952740430863 2.6822622567415215 3.9023447781801224 3.0878443941473952 3.8539450913667679 2.1940537542104712 2.4192763417959213 2.1999465674161911 2.9530759900808334 1.4130212143063543 2.1798037886619559 2.8786083310842479
leaf_count=15 12 13 9 10 11 10 15 10 10 15 13 17 16 17 10 11 10 13 9 14 15
internal_value=0 0.00397383 0.0141649 -0.000584197 0.035188 -0.00819154 -0.0147438 -0.0237787 -0.000534379 -0.0208143 -0.0405134 0.0188882 -0.0343471 0.0479972 0.0334652 -0.0457002 -0.00490779 0.0157663 -0.0549235 -0.0588767 -0.066131
internal_weight=0 52.76 34.1608 20.0761 14.0847 18.2006 18.5992 15.6418 16.2541 7.95159 5.72966 8.30256 12.3002 11.2384 7.38448 9.21231 4.40022 5.14713 3.95559 6.79304 5.05841
internal_count=275 251 157 94 63 85 94 81 75 38 28 37 66 51 34 50 20 23 24 39 29
is_linear=0
shrinkage=0.05


Tree=22
num_leaves=21
num_cat=0
split_feature=1 7 2 2 7 5 4 4 3 7 3 7 3 1 1 4 4 2 3 1
split_gain=4.7417 3.67714 3.86774 3.35129 2.96886 2.92554 2.37317 1.78188 1.75378 3.94058 2.58656 3.25565 5.29008 2.08045 1.73009 1.67877 2.03231 0.479853 0.411447 0.0171194
threshold=-1.0548269076213219 1.3487835528466163 -0.10235127721326191 -1.3990985077678613 -0.11511515324867873 -0.94620845354876093 -0.59414455350434459 0.57126975977115146 0.16265829570215912 -0.069119819963675819 -0.078993773757624938 -0.093394387718813074 -0.47368389338175404 -0.22107326226021112 0.63199279849983625 0.13603316072703805 -0.45271916262978823 0.078108749828894555 -0.50181070384268456 -0.25392828534430284
decision_type=2 2 2 2 2 2 2 2 2 2 2 2 2 2 2 2 2 2 2 2
left_child=17 2 3 -2 -4 -3 -7 14 10 13 11 -6 -13 -10 18 16 -5 -1 -8 -20
right_child=1 5 4 15 8 6 7 -9 9 -11 -12 12 -14 -15 -16 -17 -18 -19 19 -21
leaf_value=-0.067009042075296177 -0.014624986643829399 0.031341928393848813 -0.055113755540513426 0.061440654954937848 0.054781220884258325 0.014328899440928645 -0.036570050678263827 -0.00045233784037580218 -0.041055607124358059 0.075757188394831629 -0.050010600393813859 -0.060600895828437008 0.03797057362948749 0.027046478063034403 -0.0082796631482638765 0.073167449121160244 0.0083955426803661096 -0.030238529748670639 -0.061714378547521744 -0.067694496796981099
leaf_weight=2.4556627348065372 2.8452531397342673 2.9617821425199535 2.2162986248731604 3.2729333043098441 2.4971380084753045 3.3500812202692059 1.7006870955228794 3.0873937532305709 1.9614715278148649 2.5171048641204825 2.5933382958173796 2.8874499648809442 2.5749496072530738 2.6185576468706131 2.4156345427036285 3.7965256720781326 4.0278310179710379 1.3891816288232801 2.0978900194168082 2.786174982786175
leaf_count=15 12 13 12 16 11 15 10 16 10 12 12 14 11 12 11 17 18 9 14 15
internal_value=0 0.00381095 0.0136001 0.033787 -0.000567507 -0.0141763 -0.0229091 -0.0332294 0.00628182 0.0255007 -0.00664349 0.00748618 -0.0141348 -0.00211934 -0.0444729 0.0461995 0.0321757 -0.0537235 -0.0577505 -0.0651258
internal_weight=0 52.2085 33.8089 13.9425 19.8663 18.3996 15.4379 12.0878 17.65 7.09713 10.5529 7.95954 5.4624 4.58003 9.00039 11.0973 7.30076 3.84484 6.58475 4.88407
internal_count=275 251 157 63 94 94 81 66 82 34 48 36 25 22 50 51 34 24 39 29
is_linear=0
shrinkage=0.05


Tree=23
num_leaves=22
num_cat=0
split_feature=1 6 0 5 1 4 5 3 6 4 4 6 6 3 2 1 1 0 3 2 0
split_gain=4.40563 3.5183 3.55777 2.44516 4.18164 1.58183 1.57655 4.17329 1.76513 1.42181 2.32913 2.47512 3.05811 1.65205 1.35421 0.765306 1.21664 0.618211 0.469892 0.465705 0.0105594
threshold=-1.0548269076213219 -0.53647690823798044 0.25784494881931358 0.26758615815918857 0.1260374921994202 0.073989402606309887 -0.99862896230271503 -0.5972275624915776 0.65996439965114351 -0.34739303705939178 0.054891251234917358 0.35470617216735656 0.062086419149244933 -0.54629941035400675 0.61033914743314976 0.63199279849983625 0.24747776943269839 0.65507390776984165 -0.41238865190966983 0.82538607808172226 -0.32284991867389423
decision_type=2 2 2 2 2 2 2 2 2 2 2 2 2 2 2 2 2 2 2 2 2
left_child=18 3 9 5 -5 15 -4 -8 -9 13 19 12 -12 -3 -15 16 -2 -10 -1 20 -11
right_child=1 2 6 4 -6 -7 7 8 17 10 11 -13 -14 14 -16 -17 -18 -19 -20 -21 -22
leaf_value=-0.065969823469127012 0.059704156861250961 0.031783020975607805 0.047534714801429817 -0.055424687518172422 0.034325600335499418 0.010465547749088066 -0.046905734257800306 0.045209198399669269 -0.019515288878414024 -0.067477544896041824 -0.031707467093202775 -0.049626052128914237 0.048059915140728826 0.0035277146268178211 -0.050458429703615706 0.072121237336500499 0.011373166115845138 0.017154700688029694 -0.029104134581486352 -0.031436979947730259 -0.062072509352234934
leaf_weight=2.3778908625245099 2.8723411113023776 2.4489950835704803 2.721993923187255 2.3710449486970893 2.8672458976507187 4.3025178462266922 2.8905105441808692 4.3161678910255414 2.0731506496667862 2.0117420107126236 2.3086447864770889 2.7536701709032059 2.5056185871362686 2.8225977867841712 1.9739947617053983 2.3498615026473999 2.3819058686494827 2.5793597847223282 1.3579788208007801 1.4355279579758642 1.6404567956924458
leaf_count=15 14 11 12 12 13 19 13 19 10 11 12 16 11 13 10 12 11 12 9 9 11
internal_value=0 0.00365829 -0.00554547 0.0221692 -0.00629871 0.0346936 0.0132176 0.00534092 0.0221795 -0.0192927 -0.0294049 -0.0118177 0.00980805 -0.00163008 -0.0186898 0.0484022 0.0377943 0.000814616 -0.0525692 -0.0555657 -0.0650498
internal_weight=0 51.6273 34.4824 17.1449 5.23829 11.9066 14.5812 11.8592 8.96868 19.9012 12.6557 7.56793 4.81426 7.24559 4.79659 7.60411 5.25425 4.65251 3.73587 5.08773 3.6522
internal_count=275 251 170 81 25 56 66 54 41 104 70 39 23 34 23 37 25 22 24 31 22
is_linear=0
shrinkage=0.05


Tree=24
num_leaves=24
num_cat=0
split_feature=1 7 2 6 2 3 0 6 1 2 0 1 6 6 7 0 7 7 3 0 7 2 2
split_gain=4.09457 3.22223 3.98869 4.00696 3.27043 2.93995 2.76706 2.47434 2.5287 2.21856 1.98176 1.97693 2.37676 2.16434 1.87166 1.76554 1.23444 1.24549 1.14636 0.802165 0.629804 0.470034 0.00187091
threshold=-1.0548269076213219 1.3186014388743181 -0.10235127721326191 -1.5365739085028236 -1.3990985077678613 -1.2325084651242877 0.44372979084424324 -0.30205283776121988 0.13673385845145306 0.89587751155146378 0.99423650911465244 -0.55757623700206438 0.17121962946962449 0.56076653653460606 -0.10980558591309007 -0.096987981784775509 -0.088597373710286878 -0.066224842838601305 0.35163629143136149 1.0000000180025095e-35 1.8845177896391814 0.078108749828894555 0.77545006315546339
decision_type=2 2 2 2 2 2 2 2 2 2 2 2 2 2 2 2 2 2 2 2 2 2 2
left_child=21 2 4 -4 -2 -5 9 8 20 14 -8 22 -13 -14 -7 -6 -17 -18 -16 -15 -3 -1 -9
right_child=1 7 3 5 15 6 10 11 -10 -11 -12 12 13 19 18 16 17 -19 -20 -21 -22 -23 -24
leaf_value=-0.06517419479329549 -0.013940115515456437 0.0022957153520315955 0.070313703924914511 -0.069313123491837519 0.072421231382165802 0.00047055377297315387 0.062205480970116606 -0.060770245436766152 0.045557492686728832 0.019196218828442441 0.0020786195065695674 -0.055202407798114465 0.042627630970428196 -0.044123060152269709 -0.075954155269194967 0.00090876009908976818 0.074413190687736178 0.020089857599558149 -0.024564461821085966 0.0012363348479819823 -0.038110997519355747 -0.027850256987980094 -0.063266316137642484
leaf_weight=2.2951677739620204 2.8227588385343543 2.1586479246616395 1.7558730095624913 1.8069418072700525 4.0791731774806967 2.5942379534244528 2.2508020848035803 1.430347576737405 2.9554062485694885 2.840938076376915 3.5036454796791077 2.5799810737371409 2.133867010474205 1.8299639821052553 2.4389286041259792 2.2896923124790183 2.0533768832683554 2.1704122722148904 1.955144941806793 2.085498720407486 1.7430551648139951 1.3336641192436216 1.579969026148319
leaf_count=15 12 10 9 10 19 13 10 10 13 14 15 13 10 10 12 11 10 10 10 10 10 9 10
internal_value=0 0.00350982 0.0129767 -0.00167162 0.0338828 -0.00893973 -0.00193939 -0.0131558 0.0106702 -0.0180602 0.0255967 -0.0271921 -0.0150214 0.00211535 -0.0332059 0.0466268 0.0304725 0.0464989 -0.0530883 -0.0199632 -0.0157557 -0.0514569 -0.0620803
internal_weight=0 51.0587 32.5619 19.1465 13.4154 17.3906 15.5837 18.4967 6.85711 9.82925 5.75445 11.6396 8.62931 6.04933 6.98831 10.5927 6.51348 4.22379 4.39407 3.91546 3.9017 3.62883 3.01032
internal_count=275 251 155 93 62 84 74 96 33 49 25 63 43 30 35 50 31 20 22 20 20 24 20
is_linear=0
shrinkage=0.05


Tree=25
num_leaves=21
num_cat=0
split_feature=7 6 5 5 1 0 3 0 7 2 6 3 0 6 6 6 0 6 7 1
split_gain=3.80888 3.05972 3.24363 2.38088 3.7997 2.36895 2.31383 3.09169 4.02674 2.93418 3.14515 2.10068 1.96033 1.72664 2.76418 1.38986 1.13709 1.42279 1.25427 0.0108891
threshold=2.1275988415897404 -0.45157760486761123 -1.245981662430389 0.26758615815918857 0.1260374921994202 0.10104918827510387 -0.5972275624915776 0.27466145876930842 -0.030751617669034555 0.84765209125811014 0.31087478515435552 0.1378717160770796 0.91705389680495897 0.14926002651486978 0.44398589236679475 -0.092251182978381072 -0.66452849211157916 -1.315432317732802 1.2631112134009548 -0.27529611250665359
decision_type=2 2 2 2 2 2 2 2 2 2 2 2 2 2 2 2 2 2 2 2
left_child=1 3 -3 12 -5 19 13 9 11 10 15 -9 16 -4 -15 -8 -1 -18 -19 -2
right_child=5 2 6 4 -6 -7 7 8 -10 -11 -12 -13 -14 14 -16 -17 17 18 -20 -21
leaf_value=0.076659817867843746 -0.060303464580744363 0.043313863316625657 -0.066956141718018017 -0.054250092823827506 0.031893292399416615 0.0013852935982980065 -0.0067972257827798553 0.08218995046979348 -0.021087166575700502 -0.064786733705845895 -0.040689420835099702 0.019134712179103244 -0.0079185556438651598 0.027870880660517062 -0.04465723346101403 0.049362035570554373 0.0029017271693759237 0.028475102538543701 0.07682020928299392 -0.065772675851014581
leaf_weight=1.9873657673597325 1.8625821694731715 3.1169906407594707 2.5498152822256106 2.3486180156469336 2.8136971443891525 2.3535875976085663 2.0345571786165273 2.4457447975873947 3.4728521257638914 2.6604055166244507 3.3276745602488518 2.8718401491641998 2.3530287742614737 2.1088309213519096 3.4841171428561211 2.4028784781694394 2.4756563156843177 3.2372084408998516 2.2911204397678375 1.779639184474944
leaf_count=10 14 14 15 12 13 13 10 11 16 16 19 13 10 10 19 11 13 16 10 10
internal_value=0 0.00455657 -0.00501306 0.0212154 -0.00729802 -0.0377116 -0.010519 -0.00105348 0.0207879 -0.0194694 -0.00394322 0.048136 0.0331395 -0.0328564 -0.0173104 0.0236131 0.0428089 0.0344038 0.0485109 -0.0629758
internal_weight=0 47.9824 30.4757 17.5067 5.16232 5.99581 27.3587 19.216 8.79044 10.4255 7.76511 5.31758 12.3444 8.14276 5.59295 4.43744 9.99135 8.00399 5.52833 3.64222
internal_count=275 238 154 84 25 37 140 96 40 56 40 24 59 44 29 21 49 39 26 24
is_linear=0
shrinkage=0.05


end of trees

feature_importances:
Column_0=80
Column_4=77
Column_6=73
Column_7=73
Column_1=72
Column_3=72
Column_2=52
Column_5=48

parameters:
[boosting: gbdt]
[objective: binary]
[metric: binary_logloss]
[tree_learner: serial]
[device_type: cpu]
[linear_tree: 0]
[data: ]
[valid: ]
[num_iterations: 10000]
[learning_rate: 0.05]
[num_leaves: 63]
[num_threads: 0]
[deterministic: 0]
[force_col_wise: 0]
[force_row_wise: 0]
[histogram_pool_size: -1]
[max_depth: -1]
[min_data_in_leaf: 10]
[min_sum_hessian_in_leaf: 0.001]
[bagging_fraction: 0.9]
[pos_bagging_fraction: 1]
[neg_bagging_fraction: 1]
[bagging_freq: 0]
[bagging_seed: 29216]
[feature_fraction: 0.9]
[feature_fraction_bynode: 1]
[feature_fraction_seed: 17795]
[extra_trees: 0]
[extra_seed: 19650]
[early_stopping_round: 50]
[first_metric_only: 0]
[max_delta_step: 0]
[lambda_l1: 0]
[lambda_l2: 0]
[linear_lambda: 0]
[min_gain_to_split: 0]
[drop_rate: 0.1]
[max_drop: 50]
[skip_drop: 0.5]
[xgboost_dart_mode: 0]
[uniform_drop: 0]
[drop_seed: 24198]
[top_rate: 0.2]
[other_rate: 0.1]
[min_data_per_group: 100]
[max_cat_threshold: 32]
[cat_l2: 10]
[cat_smooth: 10]
[max_cat_to_onehot: 4]
[top_k: 20]
[monotone_constraints: ]
[monotone_constraints_method: basic]
[monotone_penalty: 0]
[feature_contri: ]
[forcedsplits_filename: ]
[refit_decay_rate: 0.9]
[cegb_tradeoff: 1]
[cegb_penalty_split: 0]
[cegb_penalty_feature_lazy: ]
[cegb_penalty_feature_coupled: ]
[path_smooth: 0]
[interaction_constraints: ]
[verbosity: -1]
[saved_feature_importance_type: 0]
[max_bin: 255]
[max_bin_by_feature: ]
[min_data_in_bin: 3]
[bin_construct_sample_cnt: 200000]
[data_random_seed: 45]
[is_enable_sparse: 1]
[enable_bundle: 1]
[use_missing: 1]
[zero_as_missing: 0]
[feature_pre_filter: 1]
[pre_partition: 0]
[two_round: 0]
[header: 0]
[label_column: ]
[weight_column: ]
[group_column: ]
[ignore_column: ]
[categorical_feature: ]
[forcedbins_filename: ]
[objective_seed: 29484]
[num_class: 1]
[is_unbalance: 0]
[scale_pos_weight: 1]
[sigmoid: 1]
[boost_from_average: 1]
[reg_sqrt: 0]
[alpha: 0.9]
[fair_c: 1]
[poisson_max_delta_step: 0.7]
[tweedie_variance_power: 1.5]
[lambdarank_truncation_level: 30]
[lambdarank_norm: 1]
[label_gain: ]
[eval_at: ]
[multi_error_top_k: 1]
[auc_mu_weights: ]
[num_machines: 1]
[local_listen_port: 12400]
[time_out: 120]
[machine_list_filename: ]
[machines: ]
[gpu_platform_id: -1]
[gpu_device_id: -1]
[gpu_use_dp: 0]
[num_gpu: 1]

end of parameters

pandas_categorical:null
