tree
version=v3
num_class=1
num_tree_per_iteration=1
label_index=0
max_feature_idx=520
objective=binary sigmoid:1
feature_names=Column_0 Column_1 Column_2 Column_3 Column_4 Column_5 Column_6 Column_7 Column_8 Column_9 Column_10 Column_11 Column_12 Column_13 Column_14 Column_15 Column_16 Column_17 Column_18 Column_19 Column_20 Column_21 Column_22 Column_23 Column_24 Column_25 Column_26 Column_27 Column_28 Column_29 Column_30 Column_31 Column_32 Column_33 Column_34 Column_35 Column_36 Column_37 Column_38 Column_39 Column_40 Column_41 Column_42 Column_43 Column_44 Column_45 Column_46 Column_47 Column_48 Column_49 Column_50 Column_51 Column_52 Column_53 Column_54 Column_55 Column_56 Column_57 Column_58 Column_59 Column_60 Column_61 Column_62 Column_63 Column_64 Column_65 Column_66 Column_67 Column_68 Column_69 Column_70 Column_71 Column_72 Column_73 Column_74 Column_75 Column_76 Column_77 Column_78 Column_79 Column_80 Column_81 Column_82 Column_83 Column_84 Column_85 Column_86 Column_87 Column_88 Column_89 Column_90 Column_91 Column_92 Column_93 Column_94 Column_95 Column_96 Column_97 Column_98 Column_99 Column_100 Column_101 Column_102 Column_103 Column_104 Column_105 Column_106 Column_107 Column_108 Column_109 Column_110 Column_111 Column_112 Column_113 Column_114 Column_115 Column_116 Column_117 Column_118 Column_119 Column_120 Column_121 Column_122 Column_123 Column_124 Column_125 Column_126 Column_127 Column_128 Column_129 Column_130 Column_131 Column_132 Column_133 Column_134 Column_135 Column_136 Column_137 Column_138 Column_139 Column_140 Column_141 Column_142 Column_143 Column_144 Column_145 Column_146 Column_147 Column_148 Column_149 Column_150 Column_151 Column_152 Column_153 Column_154 Column_155 Column_156 Column_157 Column_158 Column_159 Column_160 Column_161 Column_162 Column_163 Column_164 Column_165 Column_166 Column_167 Column_168 Column_169 Column_170 Column_171 Column_172 Column_173 Column_174 Column_175 Column_176 Column_177 Column_178 Column_179 Column_180 Column_181 Column_182 Column_183 Column_184 Column_185 Column_186 Column_187 Column_188 Column_189 Column_190 Column_191 Column_192 Column_193 Column_194 Column_195 Column_196 Column_197 Column_198 Column_199 Column_200 Column_201 Column_202 Column_203 Column_204 Column_205 Column_206 Column_207 Column_208 Column_209 Column_210 Column_211 Column_212 Column_213 Column_214 Column_215 Column_216 Column_217 Column_218 Column_219 Column_220 Column_221 Column_222 Column_223 Column_224 Column_225 Column_226 Column_227 Column_228 Column_229 Column_230 Column_231 Column_232 Column_233 Column_234 Column_235 Column_236 Column_237 Column_238 Column_239 Column_240 Column_241 Column_242 Column_243 Column_244 Column_245 Column_246 Column_247 Column_248 Column_249 Column_250 Column_251 Column_252 Column_253 Column_254 Column_255 Column_256 Column_257 Column_258 Column_259 Column_260 Column_261 Column_262 Column_263 Column_264 Column_265 Column_266 Column_267 Column_268 Column_269 Column_270 Column_271 Column_272 Column_273 Column_274 Column_275 Column_276 Column_277 Column_278 Column_279 Column_280 Column_281 Column_282 Column_283 Column_284 Column_285 Column_286 Column_287 Column_288 Column_289 Column_290 Column_291 Column_292 Column_293 Column_294 Column_295 Column_296 Column_297 Column_298 Column_299 Column_300 Column_301 Column_302 Column_303 Column_304 Column_305 Column_306 Column_307 Column_308 Column_309 Column_310 Column_311 Column_312 Column_313 Column_314 Column_315 Column_316 Column_317 Column_318 Column_319 Column_320 Column_321 Column_322 Column_323 Column_324 Column_325 Column_326 Column_327 Column_328 Column_329 Column_330 Column_331 Column_332 Column_333 Column_334 Column_335 Column_336 Column_337 Column_338 Column_339 Column_340 Column_341 Column_342 Column_343 Column_344 Column_345 Column_346 Column_347 Column_348 Column_349 Column_350 Column_351 Column_352 Column_353 Column_354 Column_355 Column_356 Column_357 Column_358 Column_359 Column_360 Column_361 Column_362 Column_363 Column_364 Column_365 Column_366 Column_367 Column_368 Column_369 Column_370 Column_371 Column_372 Column_373 Column_374 Column_375 Column_376 Column_377 Column_378 Column_379 Column_380 Column_381 Column_382 Column_383 Column_384 Column_385 Column_386 Column_387 Column_388 Column_389 Column_390 Column_391 Column_392 Column_393 Column_394 Column_395 Column_396 Column_397 Column_398 Column_399 Column_400 Column_401 Column_402 Column_403 Column_404 Column_405 Column_406 Column_407 Column_408 Column_409 Column_410 Column_411 Column_412 Column_413 Column_414 Column_415 Column_416 Column_417 Column_418 Column_419 Column_420 Column_421 Column_422 Column_423 Column_424 Column_425 Column_426 Column_427 Column_428 Column_429 Column_430 Column_431 Column_432 Column_433 Column_434 Column_435 Column_436 Column_437 Column_438 Column_439 Column_440 Column_441 Column_442 Column_443 Column_444 Column_445 Column_446 Column_447 Column_448 Column_449 Column_450 Column_451 Column_452 Column_453 Column_454 Column_455 Column_456 Column_457 Column_458 Column_459 Column_460 Column_461 Column_462 Column_463 Column_464 Column_465 Column_466 Column_467 Column_468 Column_469 Column_470 Column_471 Column_472 Column_473 Column_474 Column_475 Column_476 Column_477 Column_478 Column_479 Column_480 Column_481 Column_482 Column_483 Column_484 Column_485 Column_486 Column_487 Column_488 Column_489 Column_490 Column_491 Column_492 Column_493 Column_494 Column_495 Column_496 Column_497 Column_498 Column_499 Column_500 Column_501 Column_502 Column_503 Column_504 Column_505 Column_506 Column_507 Column_508 Column_509 Column_510 Column_511 Column_512 Column_513 Column_514 Column_515 Column_516 Column_517 Column_518 Column_519 Column_520
feature_infos=[-3.5788025915210353:3.192726175709518] [-2.7422247989741302:2.8029594938274722] [-4.4336803656360484:2.6704083317824421] [-7.6820154118493376:2.7438158349725863] [-2.2718654763252535:1.9550080803518151] [-1.9987681913704078:4.8311804468101887] [-2.2384622642204985:2.936521948458283] [-2.7990611459257164:2.0180821144882857] [-3.2709383935115719:3.4007506059592938] [-3.2577461146902276:2.7519656760476869] [-2.7771196643603218:3.6461476419691534] [-2.8932977479000082:4.2959075173708232] [-2.1614452272327389:6.553702045531538] [-3.8558091101480505:3.7837421310476764] [-1.2119416256304916:2.8849901157827658] [-3.1673419722273355:2.1324834255649674] [-4.9605118155053578:2.3560089321308535] [-2.9126760733989112:3.2728915978937074] [-2.6533448125191748:2.6087772950165911] [-5.4249127206368417:4.5721475109510283] [-4.4149556584397551:2.311391568454733] [-4.8729160052686336:1.7608414772210772] [-2.7110364600084167:2.9397189815306777] [-5.0719469490269695:2.2654310972710134] [-1.7875397725188562:5.712437109931769] [-2.4156282570323588:5.4935616717260096] [-2.8861602214954476:1.6746269819462491] [-2.4201926934007907:4.0138267570724455] [-2.3948227687176007:3.1775237255344004] [-2.2299070700530086:3.0066479570761588] [-5.9143342755520045:2.2889236544076903] [-3.6037351659410173:2.2956637287882042] [-5.2075227524149152:1.2364493884682433] [-2.3940288116340236:2.8944369559905847] [-4.0275647778090411:2.3764109761288497] [-3.1527111518289117:2.6080017055112776] [-2.0535543460859853:2.9159155496556699] [-2.4903480363544959:3.2068969317421878] [-4.3253923070563873:3.2584016422524438] [-5.5471270675923225:2.2994246280565043] [-4.3575917504518884:2.56000983991549] [-3.3662428176666856:2.9304198492701965] [-3.5817389714623853:2.4747235807635413] [-3.3539485080155793:2.3452761006112532] [-2.4418116890212396:2.2535171698754044] [-1.7154302673950084:3.8787591590676005] [-3.0813121464970687:3.5510303914708046] [-1.7745123733776889:3.4072871470346677] [-3.7652901783637063:3.1690769597872195] [-3.599648096542968:2.45498159054483] [-4.2021248552730457:2.8329721377669443] [-4.9824241994665428:3.2368535976387767] [-4.8344763605812684:2.2747213931880572] [-2.3192024730019791:3.2481653226504532] [-1.6034841641215134:4.5225251692936288] [-3.3687948595878452:3.0301254917148057] [-2.7264058593153657:2.710561392998196] [-2.7549392569985467:2.8066995757351871] [-2.8823551909758338:3.5457609071091833] [-4.456678070729315:2.4626251472361309] [-3.7360668738649521:2.1538274227325624] [-1.3732615425763246:4.697862457721012] [-2.8088736313185878:3.3930404297090275] [-2.9212999292394435:2.665400203205829] [-1.3503931484971479:5.460913203584246] [-3.379525908203092:3.0306556223927861] [-3.2942991963842059:3.8929848816094932] [-4.9515910879519742:2.2858650414865598] [-3.859510898154483:1.1376710672727837] [-2.629388163580046:2.9360887080905491] [-2.9451847847053276:2.3989175295086529] [-2.0404266931567911:2.4819431014714688] [-6.3085297839567094:1.8220395842964874] [-2.6720797199349775:4.2978952113515758] [-3.9210153606871123:2.3362089361389859] [-4.7084590966303184:2.0855149641682256] [-2.6149611822484675:2.4525509896677171] [-2.429043904434034:2.6841388771502879] [-1.7162166367602605:4.3425966395761888] [-2.1996395567293905:3.377577289703352] [-3.2783259738507815:4.1920861235844038] [-1.9010943200205972:4.3262474146678978] [-2.6033671018307016:2.7590709327688216] [-7.9724665019021064:1.3534435863331846] [-1.6161544415906486:5.3847785056610462] [-2.20504374255359:2.3254024526200481] [-2.2607664653833854:3.5601111863085149] [-4.0582851950186489:2.9695884905875238] [-2.3268111141378403:3.3198061412086459] [-4.021011475119459:2.9649325938362341] [-3.2743362231156099:2.6552889018922823] [-3.282611935976822:2.7146100583318238] [-4.2640980643299349:5.2171878746279479] [-5.3273303847604163:3.1697220116960478] [-4.8509194156739479:4.8468998081100443] [-5.4589359154336865:2.5891129915919153] [-1.8643949787618472:3.1438619852766143] [-3.1185901963244378:2.8889159072455666] [-2.3460384218220578:6.4307730733205997] [-1.4267223990252942:2.4343895983925656] [-3.3447552532537617:4.3299973160736123] [-4.5310275576176933:2.792588438354271] [-4.081901678923308:2.2911843998172396] [-2.5089467158500067:2.7021344102016522] [-1.0447826927434809:4.1556803766449812] [-2.4571932460902399:4.8773944411938013] [-1.9849335611922911:0.74555787521201489] [-2.3606707682249586:3.1749263667006828] [-3.1295567907185666:2.2980351526015772] [-3.102827915399494:2.0588416138003911] [-2.6791272117680296:2.6427864692673433] [-4.9248385079388441:2.1782452777735437] [-2.7552042206132343:2.9200902571121694] [-2.0468519921411108:1.5597998029134599] [-3.5641198181136073:5.4079558595793014] [-3.1870302270748736:3.2306409424621552] [-5.3093283715446278:0.90501113127080379] [-4.0509109010048094:2.2943035662960418] [-2.8919060519941517:3.4416495934735987] [-6.1761508499794022:2.0840332743882803] [-2.2025710679281034:3.3409256634034383] [-2.7177519687362657:3.634040434996495] [-3.098124811741755:2.6634995945356352] [-4.0521149061597495:4.7866190064696976] [-2.876183443330159:5.4809629899957288] [-2.9462483858464363:3.3981382243910727] [-4.2780484651662327:2.0054597646714636] [-2.1300265915801302:2.3598161908501694] [-2.8462481524275782:5.2825891445527535] [-4.3663898595750243:1.6652789064618068] [-1.1734669727828069:5.5726041165049773] [-3.9056979122926125:2.4068959128470491] [-1.9348274199646296:5.1892159586045086] [-4.1915430992369176:1.0426578352077325] [-6.6510127215959081:1.5135059651430922] [-7.5806993227958381:2.0048308300392388] [-4.6365640212470991:2.3377696177336604] [-2.4186969882366856:3.6502374041605949] [-7.4420563419797965:4.8462317603578668] [-7.5044016823842385:2.6741380215214878] [-0.049587793791080026:3.4690198235925136] [-3.0564613109601675:4.9739982435191417] [-2.6421547443503597:3.739598165654527] [-4.1171186094932359:0.34108253807225875] [-3.6279385608863683:3.4162235313504028] [-2.7504517181521373:1.5835112023493343] [-2.8352813041502247:2.5624075652903584] [-5.6933904491490841:2.1071589473241921] [-4.0921725270990272:2.3319729680130794] [-3.3582963564592925:2.3414083615632402] [-2.8567412553284406:2.1922100649324827] [-4.0994899328138779:3.014983641221864] [-5.7676267441074307:1.8495437491935927] [-7.0416060190462124:1.8711620769825033] [-2.9240968830423499:4.0062675247168622] [-2.292763550771308:3.1306118464678696] [-5.9609953718709559:2.4985054600364496] [-1.7810600999539388:1.57920885421524] [-2.7598669032005039:3.708899305450283] [-1.3167311577668519:5.3644963552777236] [-2.9141497520569812:4.7804819879732108] [-1.5316345307144659:2.8018100605615381] [-5.7885429205525627:2.2391694029678337] [-6.2118998392403428:3.0249616705826599] [-3.5053014251612233:3.8415165388179782] [-7.7477625792257889:3.0539698563547253] [-6.1434586342181676:2.2442168819418162] [-3.3016545065717811:2.6211935515284734] [-2.7597229860797148:2.4712786441860937] [-6.9749077456433:2.919075288819394] [-6.9359037839657187:2.9840114941708187] [-3.9842106168653362:2.3001777211886729] [-2.172503515871806:3.3256411801501105] [-3.7576789770997872:3.2621022739592975] [-3.4996070887171422:2.7200771791937757] [-2.8332921905732991:3.5763903427102428] [-3.599906384739326:7.0024366308775932] [-3.1507728041426435:4.1931669558645916] [-2.4227452322979657:2.7228649536301357] [-2.3702557095619916:2.2010084775376568] [-3.3651071484550372:2.3630984792831486] [-3.0052248711192684:2.3184618790154725] [-5.0440712412356579:2.3002954974887109] [-3.5274231792091468:2.5992028304153525] [-3.4184675980498245:2.8294631430499804] [-1.5019981298509935:3.4975405054491597] [-2.7461272214217201:4.696023804114124] [-1.9820997446534356:2.7007774246049183] [-3.1430410025429349:2.382988732823065] [-4.2514202390622513:2.0528392641331514] [-5.7064115984011003:1.1043715144445976] [-1.0202063978940139:2.8794634440639442] [-2.1990234624341949:2.9622551862471531] [-2.8060499030001766:2.7267544356769231] [-1.9132152979733432:1.2960011604902875] [-2.5619344204077836:2.637320105700141] [-5.9333797008839246:2.5473817844851641] [-4.379306473517417:1.0391188243136928] [-1.1803197478380192:2.1132801073081233] [-3.2893016012162137:3.1463086345152838] [-3.3543197072480244:2.1578836433259716] [-3.1736096312033446:3.8965887499614289] [-2.2456096786916495:3.1822189534086283] [-2.8324723134626666:2.3858051119963788] [-3.2237412306659858:2.5701026394194435] [-3.2854456479677547:3.4492276719581758] [-6.3622528780335337:2.3600300940064463] [-6.4872868333120941:1.5636899831294886] [-4.6368487863684189:1.6248521543357493] [-3.3491404182139299:2.5361285259765327] [-4.9055978675803988:0.89726411453338095] [-2.480007566453784:5.1461489609771185] [-1.0464627474136121:1.993705065195887] [-3.7200904824281911:2.6586839143793233] [-5.4493818856856366:1.8021470809244853] [-2.5190975719312525:3.0600151902730617] [-4.8655975170871759:3.1955479685878112] [-4.0127109718889367:2.8863134253022631] [-4.3745269397433653:3.6762077216753792] [-6.6004817934788163:1.6611606142697728] [-1.8082461839563961:2.9153318826048706] [-2.474343375619354:2.6049649134584767] [-2.0068356578699702:1.752725722397104] [-3.5082560798554332:3.8783606139500653] [-2.2591172265217989:4.6264372341691224] [-3.6162999555544015:2.4402068381752264] [-2.3847417279089509:3.3091469694962057] [-2.6736286506226357:3.9263680023508769] [-3.5546069255116843:1.8750004485399319] [-0.66182485784700162:3.6640887785160263] [-3.4171102468211476:2.3401270137858576] [-2.9491596637818889:2.5387935136020308] [-7.4611278889760033:1.8082028556813465] [-5.0689217539105167:0.7070215839647187] [-1.7491315617355627:2.9884880208656504] [-7.2002810832037873:2.8225234069551273] [-4.8109193104694699:0.56017601286225449] [-6.08488610306454:1.9556381581078983] [-2.6581882030639061:6.8789381338522748] [-2.9028278458524301:2.6069920379824367] [-6.0365331784809735:3.4520166712644489] [-4.8955268063261075:2.3154650155319798] [-5.011850709314257:2.4009383112769989] [-2.2566741535962551:3.7254891290818692] [-3.3293950499048783:3.2392342746202156] [-6.57030634236102:2.3302496052650223] [-5.1894172639775142:3.1986477914496798] [-4.9525791075703083:2.9949955929288015] [-6.4304418052076731:1.3958395076440404] [-2.871355082643869:2.3391797482151775] [-4.9385346545016677:2.5876145867835176] [-2.190484932370321:3.516979501281202] [-4.1928861501764159:2.1103190204389577] [-6.218071984394193:2.0339545006971336] [-2.9508814831510639:2.8281507183850025] [-2.5991787644053845:2.0753622561663816] [-1.9555273233691355:2.5255413868498411] [-3.3859596685752225:2.8570884052505532] [-6.4224064064467044:1.6928986644412005] [-2.3092419462984335:2.8235052820469408] [-4.3050228294082169:2.0680761130538086] [-5.2298573369978669:2.546637280196014] [-3.8710135260296696:0.99328500672640496] [-5.9237263448161572:1.1874390649407067] [-2.9851976931305741:3.3501635680036248] [-5.5166122183802502:1.4402796766546473] [-6.2982590902587887:1.4519900511404231] [-2.1834058544416779:2.9990932240740631] [-2.1668826726631711:3.8695920926048335] [-5.3519361203668296:2.2583855029155928] [-3.8808066803021477:2.893763093003189] [-1.1888209673168557:2.4720970180730979] [-5.6825656097392478:3.1919834845874675] [-3.7153591678955196:2.0080074320079233] [-2.8321799937252821:3.321068713993883] [-2.4246899189515272:3.5149706688273574] [-5.5968034957726713:2.787306639081363] [-2.5601087129473328:1.89536654594686] [-2.9142472157521775:2.9139114308447467] [-2.5714903412057133:2.5501146695618142] [-2.8342466439938496:2.708080874266964] [-1.9659983776231487:1.7573840430947698] [-5.3088133019389208:2.32508165093508] [-7.1692748571773564:3.4821183573715966] [-2.9970046019012391:3.0998157176874099] [-2.687291488788679:2.3588676865894791] [-3.3920757809224811:2.8917518737999095] [-3.131922913247231:5.3705860120238329] [-3.4163266541150459:2.8999885231950562] [-2.9251406510345941:2.5689872504431115] [-3.1885722579708387:2.4266780146300233] [-5.0683320716818008:2.4810218087661564] [-1.6510381180753462:6.2361252100557669] [-3.1178417767028352:2.2837936849126037] [-3.1424588988880195:1.9189757092615833] [-2.087718241126804:3.1280363751101534] [-3.0823583024955843:2.3913335119286239] [-3.3619003830519851:1.9108225960532541] [-4.2026757705953992:1.470164118105058] [-3.6880637816895487:2.06641583684346] [-3.9123249538661482:1.6342571554407801] [-2.467792386114962:4.7879626742989831] [-3.6813913492636279:3.6145682593217892] [-6.5875345630533593:0.60367841649267517] [-7.8489021473652354:0.84293384457383203] [-2.9483683481828535:3.5838929589296828] [-3.7304458327706866:2.5279654878338325] [-4.1176535250979711:2.4719900067777187] [-2.9123054612081569:3.1984159912766619] [-1.7325097869664166:2.0899106861131553] [-3.4452309001668957:3.0413150939594757] [-2.8545851659545201:3.0023717738284241] [-3.7157865783777577:3.2114780078706389] [-2.8807938297870641:3.6198683093019874] [-3.5018736152854002:3.3446794826303821] [-2.6505783415911335:2.9852175530370024] [-2.926494686428887:5.4030161533085952] [-3.2006648706966851:4.1466935713618271] [-3.2792731815477687:3.5419993779823966] [-2.1629105103756374:4.1895081064088515] [-4.9831267452438004:2.2095184852959151] [-4.6250557707019251:2.6322847391240227] [-3.9316808136790624:2.3938039249689762] [-2.3709625098240137:1.9918462333017222] [-7.0016641050822113:1.6620661607293425] [-3.2603596139690576:2.9768111292347248] [-7.0626154586188159:2.7333253262421038] [-3.0500218035660129:2.970876604335098] [-5.010787557373436:3.4655990589569368] [-2.7836014708941765:2.7472646705951469] [-2.7191057714468996:2.2863417408111415] [-4.0172370274567539:2.2515020811820512] [-2.9518728314046339:2.5751181508086303] [-2.5444001265701681:3.7852041138290797] [-2.5752919705581423:3.1448146196386473] [-3.5607110449741506:2.6787305977573479] [-4.8986308028517644:2.747424475111127] [-2.8135880528589849:2.3950883948892763] [-6.281226593598717:2.1745964294861633] [-3.7824255364187196:2.7964912881895954] [-4.119617368229636:3.5629460027441207] [-5.0113692337021485:3.1244146100191799] [-3.000053864394832:2.7935824846097983] [-2.8615012799640605:3.071366159655248] [-2.8402788966801955:2.3374551161270714] [-2.3064862470724847:2.7869599930090705] [-1.6185017708886091:3.7638323683679364] [-2.7610479276152708:2.3412025413558517] [-6.4068409182549937:2.0794588930634017] [-2.2846483695250024:4.7376916654939638] [-4.2602036250803614:2.1678209339918642] [-6.7702384565956093:1.2692928501701153] [-1.4878281940809244:3.812144096469718] [-4.1212484069008566:2.7166428980863677] [-3.7166372092124664:1.8681289597427166] [-3.7714176047389865:3.2428546541304808] [-5.0397420868756804:2.9345451054236906] [-3.1236727893000151:2.0456650946674615] [-2.0468561976070947:3.5841468199526223] [-2.2921017059737823:0.86566576561804653] [-0.97428479735849605:1.7579363758730471] [-4.4395619854776909:2.6423365301839032] [-3.2793867816412603:2.0844198157575238] [-2.4629813407731125:3.264705071372485] [-3.6221573921584906:1.7741933660335045] [-3.2732494703228507:2.5604563483720866] [-1.6549316664585616:7.9655272209804933] [-1.8963637324045708:4.0899184367790582] [-4.8936088095764125:2.4967849364642576] [-3.9911077172958755:4.3438335864191613] [-7.1569387504019817:2.3434582757827771] [-3.6028414698230544:2.1797715953327965] [-3.0287016327092182:3.6638271039015913] [-6.3491940117136956:1.6025559266965799] [-3.5649514111574354:5.4785568711179691] [-3.2971491722246671:2.7877483576096203] [-2.2774628057550146:4.615898212318184] [-1.7701779254721894:4.3352068970423092] [-3.7860669819812598:2.6737382539203662] [-2.9212723659050188:2.5780220427782772] [-2.8686221449673748:2.3966470652895695] [-3.6419849079129269:3.3639309096309127] [-2.7983124176521406:2.3332795198691647] [-6.2008478143819472:1.9573865252491554] [-2.1447935255934869:1.0089237992750313] [-5.1336237933239328:3.6184082640930173] [-3.0972672750210219:2.6744359207730821] [-3.4049324736328104:3.0170219249428993] [-2.5636885438635484:2.7147855087385908] [-6.2071877446389232:1.9691527747442445] [-1.7185133760776714:2.7448337651595542] [-2.628963023226456:3.4318549813291694] [-2.6496309505305811:2.4136711655062588] [-3.83677097464279:5.2032012533531473] [-3.5256731285033274:2.6319601151966836] [-4.5742844724208842:2.16731758967626] [-4.8756546281723887:2.4614631664154634] [-2.6171491920789736:3.4588194109513695] [-3.6065694320724577:2.7866273290018362] [-6.7899048924235412:2.1564856440503677] [-4.0110283574186854:3.0581749536169531] [-4.3407705536583778:3.0693176853351503] [-3.1863800264281643:3.0936102158433791] [-2.4451898223813342:4.7439422072294883] [-3.2029848665588236:2.4937908341945443] [-2.9011572853198504:2.8185177246376933] [-3.8442888518345204:2.8485366778365315] [-2.6373641400705115:3.1491819799243252] [-4.4802150822356435:2.6241868984708403] [-4.1967751795909862:3.8703303642545892] [-2.9645971499614281:2.9661816204768092] [-3.918638356131166:3.3582434539387793] [-3.2455030699755167:4.0451649410904098] [-7.2243876144128842:2.277561010605313] [-3.6639105968834729:2.5276866453584015] [-2.8878193905872624:3.3196982351535747] [-3.5831508717205058:2.6471761333979873] [-2.9408981339843017:2.2707706641495902] [-3.0784030022338369:2.3139940384837003] [-3.3709660171412668:2.8690214032924608] [-2.1927553435688751:3.2503594553891397] [-3.6119374276863701:2.4079257228366635] [-3.3698113444440123:2.5967190412466139] [-4.2593958078262153:2.8192644108543061] [-3.2414240800562943:1.0312557308919068] [-3.326199843442422:2.597615297401402] [-3.7516904105234419:3.2713898975541711] [-3.4811372200297193:3.845600764299471] [-5.3521095213592336:1.2841245089064759] [-3.1898318114591691:3.1245108924752487] [-4.5991248788708745:2.285425516821483] [-4.0151120294929417:2.9794563226191979] [-3.1869774947639704:3.1403617203467613] [-3.2422337608411058:2.2033536963774174] [-3.5455252221544846:2.811002869639708] [-4.5392289818529807:1.2330161098834993] [-2.8406969072116497:2.9800316291014397] [-3.9819770196787738:2.0585222345201508] [-3.6046811576220015:2.4652690304819123] [-4.1525044371419746:2.4619248708941881] [-3.6673024219912169:1.7929018548858773] [-3.0029442443539529:3.0514293844245834] [-5.4537006763136535:2.3701986564543125] [-6.6973280040476828:6.6398421649557511] [-5.9604457441868437:2.0719679912672309] [-4.324646675848931:2.1263809483765019] [-3.1192173556183835:2.3986624763247284] [-5.0543816522290035:2.2782603267050967] [-2.2683258309139349:5.4642387761546365] [-2.8044428580586218:2.4597895055372723] [-1.8600586504098349:3.4766149103471888] [-3.7284455410648509:3.2556280946507328] [-5.3104230935368015:2.6948049117547872] [-3.5377268835016227:0.80579091694864979] [-3.4367591897835368:2.183152501813165] [-2.9964180235628821:2.3528490205548782] [-2.9418732380125974:2.1865438574692284] [-3.0276374267477224:2.7150796645842568] [-3.1499893599997582:2.8066242984683414] [-5.5387786833583306:2.2177394240321719] [-3.9135684102548778:1.934370482739139] [-2.4481487165071201:3.9192430880049307] [-3.4256366986791185:3.4736727716282312] [-1.6196336411080192:2.9123590595318074] [-2.719265653102358:2.5653811236661821] [-2.7323896955139855:2.1794116455745605] [-6.7633515016911838:3.4443914300019567] [-1.8584062459206476:1.4797758481052488] [-2.5059003150407877:4.2835711685623901] [-1.2011953008809171:3.1390687032373927] [-3.8447178443195202:2.240815320674912] [-1.9404451664002462:3.3350017394401146] [-3.5186514740618144:4.6417694804727052] [-2.7018723277400931:3.1758287418091635] [-4.0197443494666221:2.3303137666195024] [-3.1520098038643183:2.4809381415937484] [-5.2957054448747849:1.457838131173822] [-1.3014405540367275:1.496110706763943] [-2.2474502308384747:3.0522272829151174] [-2.6114845975110828:2.8198369249316841] [-2.5652141601440741:2.8356076401447154] [-0.95645225488167118:3.3707644581666871] [-1.9623952719140745:1.6522015148693474] [-3.2062737784099546:3.5094087058214742] [-2.9145929930508805:2.7322589074988781] [-3.972699975959848:2.4898611012805718] [-3.2091710696997122:2.6869449938389369] [-3.0439861277577163:3.3949563478518794] [-5.7020721171545405:3.0339109712917525] [-3.3051486271855706:1.2099143925520635] [-2.8390232174440673:3.3890587312264366] [-0.17610583525968493:3.0334588040734487] [-2.3331752960301806:3.1518112513979339] [-3.3299909305915425:3.430780313806733] [-2.1206246345034661:3.5172439806783551] [-3.8108982775306588:0.69418139038018156] [-2.6273476534027309:2.8096942402833576] [-2.7282381795855808:2.9400483160764339] [-2.6356038937251114:4.130566846942938] [-1.5280401650731461:1.624749821211015] [-5.2797306752547817:0.79254547895503946] [-4.5054705265008392:2.6988742670407331] [-4.4347134495907561:1.9970382551770229] [-1.3277019106100223:4.8681269503806206] [-3.1544444864745884:2.5794443550860158] [-1.2478277590588351:1.8086339718265088] [-3.5738868398327135:2.6413480085796701] [-6.512475351756053:3.3353009140767882] [-4.6568894511896541:2.3016102743962383] [-3.1812238829365889:1.9946133667615] [-1.0936842623700034:2.2137901017507167] [-5.3393134780872673:2.8020423083205777] [-3.2748732667229805:2.6424743474576524] [-3.6222039083196833:2.1281247987831731] [-4.4992309988811154:2.5281672321399746] [-4.8678477325572791:3.9162731630894023] [-3.3755375637627072:4.2385886151661509] [-2.2793916817141064:2.4499193417537324] [-2.4776650091059982:2.928352871407006] [-2.2823695732493285:3.4125959013525216] [-2.017737230829646:0.70860389409957547]
tree_sizes=549 556 555 555 558 664 557 669 559 560 557 554 668 661 557 562 556 668 558 558 559 559 554 563 558 556 559 560 560 667 557 560 558 559 560 558 559 559 555 557 557 556 560 666 559 658 557 563 556 560 667 561 559 659 557

Tree=0
num_leaves=4
num_cat=0
split_feature=485 68 102
split_gain=20.1682 12.5122 10.0452
threshold=-0.65707870467381502 0.15939589607203 -0.50870073430077711
decision_type=2 2 2
left_child=-1 2 -2
right_child=1 -3 -4
leaf_value=-0.29816965615739266 -0.34577880110070802 -0.32893854156703944 -0.40385408865139683
leaf_weight=16.988826543092728 12.377573624253275 18.687709197402 18.687709197402
leaf_count=70 51 77 77
internal_value=-0.345206 -0.361267 -0.380715
internal_weight=0 49.753 31.0653
internal_count=275 205 128
is_linear=0
shrinkage=1


Tree=1
num_leaves=4
num_cat=0
split_feature=362 297 236
split_gain=25.2721 13.9935 12.4657
threshold=-0.77868112075414875 0.55639485697804103 0.047024238645360809
decision_type=2 2 2
left_child=-1 2 -2
right_child=1 -3 -4
leaf_value=0.056974540908581651 -0.05381643471926522 0.029118928982936127 0.0042454039488514896
leaf_weight=15.064888179302214 23.978198543190956 12.63002188503742 15.044460400938986
leaf_count=62 99 52 62
internal_value=0 -0.016626 -0.0314318
internal_weight=0 51.6527 39.0227
internal_count=275 213 161
is_linear=0
shrinkage=0.05


Tree=2
num_leaves=4
num_cat=0
split_feature=362 297 236
split_gain=22.6687 12.679 11.4283
threshold=-0.77868112075414875 0.55639485697804103 0.047024238645360809
decision_type=2 2 2
left_child=-1 2 -2
right_child=1 -3 -4
leaf_value=0.053644360886195758 -0.051660150771266004 0.027530725889123822 0.0040301652765258661
leaf_weight=15.196499064564703 23.73625835776329 12.689112484455107 15.0552621781826
leaf_count=62 99 52 62
internal_value=0 -0.0158546 -0.0300463
internal_weight=0 51.4806 38.7915
internal_count=275 213 161
is_linear=0
shrinkage=0.05


Tree=3
num_leaves=4
num_cat=0
split_feature=362 61 68
split_gain=20.3693 12.507 14.8942
threshold=-0.77868112075414875 -0.27822641461498104 0.075903814695771413
decision_type=2 2 2
left_child=-1 -2 -3
right_child=1 2 -4
leaf_value=0.050610670094576218 -0.045184364877463336 -0.026569449288765951 0.043489157125775238
leaf_weight=15.299218967556952 20.66397887468338 16.751671403646473 13.86577859520912
leaf_count=62 86 70 57
internal_value=0 -0.0151275 0.00515812
internal_weight=0 51.2814 30.6174
internal_count=275 213 127
is_linear=0
shrinkage=0.05


Tree=4
num_leaves=4
num_cat=0
split_feature=382 107 81
split_gain=18.8354 15.4679 9.12391
threshold=-0.5663322516861431 -0.61509624985873568 0.25784494881931358
decision_type=2 2 2
left_child=-1 -2 -3
right_child=1 2 -4
leaf_value=0.042149657571582316 -0.066106573020225143 -0.020182633086189537 0.031928907432704316
leaf_weight=18.930784970521927 11.927144259214399 22.034596353769302 13.573748692870138
leaf_count=77 50 92 56
internal_value=0 -0.016825 -0.000317937
internal_weight=0 47.5355 35.6083
internal_count=275 198 148
is_linear=0
shrinkage=0.05


Tree=5
num_leaves=5
num_cat=0
split_feature=439 126 47 487
split_gain=17.6589 12.2339 10.4665 6.30811
threshold=-0.34044147827803245 0.38437327519366965 0.083631877418492512 0.011178186806927413
decision_type=2 2 2 2
left_child=2 3 -1 -2
right_child=1 -3 -4 -5
leaf_value=0.063680686450043197 -0.011536627990663051 0.020181158725716554 -0.00047568397784567582 -0.059376412647184122
leaf_weight=13.14787817001343 12.082594662904741 12.778937816619871 12.308372750878332 16.035868614912033
leaf_count=54 50 53 51 67
internal_value=0 -0.020384 0.0326604 -0.0388195
internal_weight=0 40.8974 25.4563 28.1185
internal_count=275 170 105 117
is_linear=0
shrinkage=0.05


Tree=6
num_leaves=4
num_cat=0
split_feature=362 485 463
split_gain=16.6353 11.575 11.3686
threshold=-0.77868112075414875 -0.65707870467381502 0.14578204305479439
decision_type=2 2 2
left_child=-1 -2 -3
right_child=1 2 -4
leaf_value=0.045465117143624764 0.027637916550287928 -0.049296661249838954 0.0066425640756057891
leaf_weight=15.413875564932821 12.64573399722576 23.360896617174149 14.860424771904944
leaf_count=62 52 99 62
internal_value=0 -0.0138282 -0.0275475
internal_weight=0 50.8671 38.2213
internal_count=275 213 161
is_linear=0
shrinkage=0.05


Tree=7
num_leaves=5
num_cat=0
split_feature=439 126 362 226
split_gain=15.5259 11.1938 8.41384 6.17518
threshold=-0.34044147827803245 0.38437327519366965 -0.014637943231174363 -1.0000000180025095e-35
decision_type=2 2 2 2
left_child=2 3 -1 -2
right_child=1 -3 -4 -5
leaf_value=0.060195164643634717 -0.063033578265624543 0.019472685305908222 0.0027440791108503436 -0.015686406791820092
leaf_weight=12.335930094122888 12.552241623401642 12.782076910138128 13.183876797556875 15.257030859589577
leaf_count=50 53 53 55 64
internal_value=0 -0.0192563 0.0305152 -0.0370574
internal_weight=0 40.5913 25.5198 27.8093
internal_count=275 170 105 117
is_linear=0
shrinkage=0.05


Tree=8
num_leaves=4
num_cat=0
split_feature=382 10 387
split_gain=14.4386 13.8979 9.96093
threshold=-0.5663322516861431 -0.21949161788386293 1.0000000180025095e-35
decision_type=2 2 2
left_child=-1 -2 -3
right_child=1 2 -4
leaf_value=0.036695466969211346 -0.048665509220840786 0.038681628059957979 -0.020631711581918788
leaf_weight=19.026644438505173 18.504816934466362 13.253397673368456 15.19236323237419
leaf_count=77 79 55 64
internal_value=0 -0.0149376 0.00700345
internal_weight=0 46.9506 28.4458
internal_count=275 198 119
is_linear=0
shrinkage=0.05


Tree=9
num_leaves=4
num_cat=0
split_feature=485 195 68
split_gain=14.0763 11.8671 10.254
threshold=-0.65707870467381502 -0.53835657760848765 -0.024648068259046012
decision_type=2 2 2
left_child=-1 -2 -3
right_child=1 2 -4
leaf_value=0.038909686230127104 0.027022991935436114 -0.057793492707554787 -0.0039657299451793639
leaf_weight=17.143382340669632 13.045054435729979 16.380037277936935 19.239711984992027
leaf_count=70 55 70 80
internal_value=0 -0.0137767 -0.0287189
internal_weight=0 48.6648 35.6197
internal_count=275 205 150
is_linear=0
shrinkage=0.05


Tree=10
num_leaves=4
num_cat=0
split_feature=362 458 115
split_gain=13.3542 10.4084 13.4882
threshold=-0.77868112075414875 0.56250134646584204 -0.17562432865640276
decision_type=2 2 2
left_child=-1 2 -2
right_child=1 -3 -4
leaf_value=0.04065245152530364 -0.037221203222586222 -0.050549476936452391 0.024862922274827726
leaf_weight=15.418209716677664 14.182032093405718 13.26027552783489 22.834468096494678
leaf_count=62 60 57 96
internal_value=0 -0.0125394 0.0010768
internal_weight=0 50.2768 37.0165
internal_count=275 213 156
is_linear=0
shrinkage=0.05


Tree=11
num_leaves=4
num_cat=0
split_feature=491 298 225
split_gain=12.9196 11.22 11.5262
threshold=1.6779292690116991 0.32028792781610782 0.10648275697380895
decision_type=2 2 2
left_child=1 2 -1
right_child=-2 -3 -4
leaf_value=0.024226567414674407 -0.033822606912020478 0.054960876972361961 -0.035489660797630843
leaf_weight=19.412421748042107 19.77942630648613 12.483525335788725 13.842688009142874
leaf_count=81 85 51 58
internal_value=0 0.014542 -0.000630759
internal_weight=0 45.7386 33.2551
internal_count=275 190 139
is_linear=0
shrinkage=0.05


Tree=12
num_leaves=5
num_cat=0
split_feature=439 126 47 226
split_gain=12.3968 9.88786 8.46782 5.75856
threshold=-0.34044147827803245 0.38437327519366965 0.083631877418492512 -1.0000000180025095e-35
decision_type=2 2 2 2
left_child=2 3 -1 -2
right_child=1 -3 -4 -5
leaf_value=0.055037748354823161 -0.059909201441711912 0.018990011210334806 -0.0026881835019366114 -0.013683352582315256
leaf_weight=13.18096335232258 12.223324492573738 12.702322185039518 12.263589575886725 15.011152863502502
leaf_count=54 53 53 51 64
internal_value=0 -0.0174394 0.0272154 -0.0344303
internal_weight=0 39.9368 25.4446 27.2345
internal_count=275 170 105 117
is_linear=0
shrinkage=0.05


Tree=13
num_leaves=5
num_cat=0
split_feature=257 458 107 11
split_gain=11.8595 13.9232 10.7973 6.70955
threshold=0.58221744081946758 0.56250134646584204 -0.44309710810291825 0.071823121620097088
decision_type=2 2 2 2
left_child=1 2 -1 -4
right_child=-2 -3 3 -5
leaf_value=-0.012461408303723958 -0.040733407525031136 -0.030960777115817552 0.020679504994964928 0.07223851524515508
leaf_weight=11.680868431925768 14.060035541653631 14.201134622097014 13.017859160900121 12.245458617806433
leaf_count=50 60 61 54 50
internal_value=0 0.0111165 0.0272908 0.0456708
internal_weight=0 51.1453 36.9442 25.2633
internal_count=275 215 154 104
is_linear=0
shrinkage=0.05


Tree=14
num_leaves=4
num_cat=0
split_feature=362 61 68
split_gain=11.4777 9.57513 11.2502
threshold=-0.77868112075414875 -0.27822641461498104 0.075903814695771413
decision_type=2 2 2
left_child=-1 -2 -3
right_child=1 2 -4
leaf_value=0.037771249989999214 -0.038873424828677665 -0.022227008342547955 0.03914394469416127
leaf_weight=15.320911675691603 19.645845860242844 16.228275969624523 13.832495182752607
leaf_count=62 86 70 57
internal_value=0 -0.0117278 0.0060129
internal_weight=0 49.7066 30.0608
internal_count=275 213 127
is_linear=0
shrinkage=0.05


Tree=15
num_leaves=4
num_cat=0
split_feature=485 195 68
split_gain=11.1396 10.7758 8.58144
threshold=-0.65707870467381502 -0.53835657760848765 -0.024648068259046012
decision_type=2 2 2
left_child=-1 -2 -3
right_child=1 2 -4
leaf_value=0.034676880270633696 0.026511600839284055 -0.054187612608671977 -0.0043231784197665457
leaf_weight=17.011166170239449 12.942727297544478 15.779723167419432 19.037813678383827
leaf_count=70 55 70 80
internal_value=0 -0.0124421 -0.0269223
internal_weight=0 47.7603 34.8175
internal_count=275 205 150
is_linear=0
shrinkage=0.05


Tree=16
num_leaves=4
num_cat=0
split_feature=380 107 446
split_gain=10.7706 11.6027 9.34363
threshold=-0.7510144372758536 -0.5563060159630635 0.35612055379952096
decision_type=2 2 2
left_child=-1 -2 -3
right_child=1 2 -4
leaf_value=0.040994430064622445 -0.049761465963786722 0.023781436331973074 -0.026928614852705708
leaf_weight=12.803343951702116 13.659706994891165 23.218341171741486 14.921655327081679
leaf_count=53 61 97 64
internal_value=0 -0.0102198 0.00394195
internal_weight=0 51.7997 38.14
internal_count=275 222 161
is_linear=0
shrinkage=0.05


Tree=17
num_leaves=5
num_cat=0
split_feature=257 222 322 161
split_gain=10.6774 12.1337 10.0397 6.44183
threshold=0.58221744081946758 -0.050977357372693884 -1.0000000180025095e-35 0.084341267778663229
decision_type=2 2 2 2
left_child=1 2 -1 -3
right_child=-2 3 -4 -5
leaf_value=-0.046808862874331385 -0.039030734937742971 0.061325825030368764 0.015108098105890059 0.0096551316538719192
leaf_weight=11.931752726435661 13.814517572522162 12.400711163878443 14.507009491324425 11.745068445801733
leaf_count=53 60 51 61 50
internal_value=0 0.0105674 -0.0128349 0.036192
internal_weight=0 50.5845 26.4388 24.1458
internal_count=275 215 114 101
is_linear=0
shrinkage=0.05


Tree=18
num_leaves=4
num_cat=0
split_feature=491 136 202
split_gain=10.0983 9.97746 12.8224
threshold=1.7467474629433997 -0.65907580359986906 0.23327339675012407
decision_type=2 2 2
left_child=1 -1 -3
right_child=-2 2 -4
leaf_value=0.051100525816329262 -0.033015019252653932 -0.027680156105729048 0.033467188305825006
leaf_weight=12.056589260697363 17.077097281813622 20.122957959771156 14.937566936016081
leaf_count=50 76 87 62
internal_value=0 0.0118643 -0.00162828
internal_weight=0 47.1171 35.0605
internal_count=275 199 149
is_linear=0
shrinkage=0.05


Tree=19
num_leaves=4
num_cat=0
split_feature=257 458 222
split_gain=9.62027 11.8117 9.04921
threshold=0.58221744081946758 0.56250134646584204 -0.076188295364332803
decision_type=2 2 2
left_child=1 2 -1
right_child=-2 -3 -4
leaf_value=-0.00093098823687806718 -0.037321920821368836 -0.029304606178747358 0.04891097322697481
leaf_weight=17.543070629239079 13.639180555939673 13.842423185706137 18.936933070421222
leaf_count=75 60 61 79
internal_value=0 0.0100203 0.0249422
internal_weight=0 50.3224 36.48
internal_count=275 215 154
is_linear=0
shrinkage=0.05


Tree=20
num_leaves=4
num_cat=0
split_feature=485 195 68
split_gain=9.28614 9.64284 7.27964
threshold=-0.65707870467381502 -0.53835657760848765 -0.024648068259046012
decision_type=2 2 2
left_child=-1 -2 -3
right_child=1 2 -4
leaf_value=0.031796205891293172 0.02537301165933897 -0.051151364266149357 -0.0046619410375256356
leaf_weight=16.824453607201576 12.870316877961157 15.217842489480971 18.852125123143196
leaf_count=70 55 70 80
internal_value=0 -0.0114985 -0.0254271
internal_weight=0 46.9403 34.07
internal_count=275 205 150
is_linear=0
shrinkage=0.05


Tree=21
num_leaves=4
num_cat=0
split_feature=362 10 374
split_gain=9.31218 8.44574 8.42778
threshold=-0.77868112075414875 -0.21949161788386293 0.094395079567574022
decision_type=2 2 2
left_child=-1 -2 -3
right_child=1 2 -4
leaf_value=0.034267281177940812 -0.036742721917387686 -0.015872130505991826 0.038649459861027767
leaf_weight=15.060396417975424 18.998128637671471 17.667326420545582 11.836512759327887
leaf_count=62 86 77 50
internal_value=0 -0.0107415 0.00600114
internal_weight=0 48.502 29.5038
internal_count=275 213 127
is_linear=0
shrinkage=0.05


Tree=22
num_leaves=4
num_cat=0
split_feature=382 107 51
split_gain=8.67091 12.378 8.75772
threshold=-0.46422172850206767 -0.5563060159630635 0.12202618438568355
decision_type=2 2 2
left_child=-1 -2 -3
right_child=1 2 -4
leaf_value=0.026591567842625247 -0.057049634685299222 -0.02152752891477603 0.031558360771535392
leaf_weight=20.576678931713104 11.5815522223711 16.489409223198894 14.690883710980414
leaf_count=86 55 72 62
internal_value=0 -0.0129106 0.00348438
internal_weight=0 42.7618 31.1803
internal_count=275 189 134
is_linear=0
shrinkage=0.05


Tree=23
num_leaves=4
num_cat=0
split_feature=257 439 126
split_gain=8.63573 9.31917 8.47134
threshold=0.58221744081946758 -0.34044147827803245 1.0000000180025095e-35
decision_type=2 2 2
left_child=1 -1 -3
right_child=-2 2 -4
leaf_value=0.034953604492850551 -0.035734695360890321 -0.042271976945919082 0.013128785960521791
leaf_weight=20.880982995033264 13.380034059286116 11.461043059825899 17.339552372694016
leaf_count=88 60 52 75
internal_value=0 0.00952127 -0.00891765
internal_weight=0 49.6816 28.8006
internal_count=275 215 127
is_linear=0
shrinkage=0.05


Tree=24
num_leaves=4
num_cat=0
split_feature=380 95 260
split_gain=8.25584 8.31746 11.3217
threshold=-0.7510144372758536 -0.49544143336754454 0.021590487326906816
decision_type=2 2 2
left_child=-1 -2 -3
right_child=1 2 -4
leaf_value=0.036204308946571999 -0.041209990773836198 0.029187617215119935 -0.027262855665845676
leaf_weight=12.546243041753767 14.41623795032501 19.715311601758003 16.164442002773285
leaf_count=53 66 84 72
internal_value=0 -0.00913271 0.00375571
internal_weight=0 50.296 35.8798
internal_count=275 222 156
is_linear=0
shrinkage=0.05


Tree=25
num_leaves=4
num_cat=0
split_feature=491 387 95
split_gain=7.96413 8.07401 7.97333
threshold=1.7467474629433997 -0.14714434852014693 0.26461796803902354
decision_type=2 2 2
left_child=1 -1 -3
right_child=-2 2 -4
leaf_value=0.033609291373745027 -0.029966581219800639 -0.039844040006668892 0.016635194639966589
leaf_weight=20.841319397091866 16.43926052749157 11.228160157799723 14.091059580445288
leaf_count=89 76 50 60
internal_value=0 0.0105608 -0.00841131
internal_weight=0 46.1605 25.3192
internal_count=275 199 110
is_linear=0
shrinkage=0.05


Tree=26
num_leaves=4
num_cat=0
split_feature=485 195 68
split_gain=7.7646 8.24567 6.50508
threshold=-0.65707870467381502 -0.53835657760848765 -0.024648068259046012
decision_type=2 2 2
left_child=-1 -2 -3
right_child=1 2 -4
leaf_value=0.02935478895838391 0.023447219814044403 -0.048788407832563906 -0.0041532354573119981
leaf_weight=16.483168795704842 12.79004395008087 14.592234149575232 18.526172608137131
leaf_count=70 55 70 80
internal_value=0 -0.0106513 -0.0238198
internal_weight=0 45.9085 33.1184
internal_count=275 205 150
is_linear=0
shrinkage=0.05


Tree=27
num_leaves=4
num_cat=0
split_feature=197 236 277
split_gain=7.79095 9.22709 3.99587
threshold=-0.11791116384064149 0.036148056706302396 -0.10261788770313225
decision_type=2 2 2
left_child=-1 2 -2
right_child=1 -3 -4
leaf_value=0.026616147962332512 -0.055416649949661251 0.011950281836745404 -0.012988900693961159
leaf_weight=18.980520337820053 11.145189046859743 20.988401547074318 11.053089022636412
leaf_count=83 50 91 51
internal_value=0 -0.011818 -0.0342908
internal_weight=0 43.1867 22.1983
internal_count=275 192 101
is_linear=0
shrinkage=0.05


Tree=28
num_leaves=4
num_cat=0
split_feature=353 491 282
split_gain=7.60291 8.47219 7.65385
threshold=-0.69583866191724797 1.6779292690116991 -0.15436905215607011
decision_type=2 2 2
left_child=-1 2 -2
right_child=1 -3 -4
leaf_value=0.032774989321176132 -0.028026035002516676 -0.041675540566746293 0.021638364524110679
leaf_weight=13.714171305298803 11.965725719928736 14.315591782331465 22.058931306004528
leaf_count=59 53 68 95
internal_value=0 -0.00940505 0.00417248
internal_weight=0 48.3402 34.0247
internal_count=275 216 148
is_linear=0
shrinkage=0.05


Tree=29
num_leaves=5
num_cat=0
split_feature=257 222 322 69
split_gain=7.32354 8.58384 8.39313 5.07728
threshold=0.58221744081946758 -0.076188295364332803 1.0000000180025095e-35 -0.15362318066467126
decision_type=2 2 2 2
left_child=1 2 -1 -3
right_child=-2 3 -4 -5
leaf_value=-0.045693261947279101 -0.033414225531519084 0.053413383882636334 0.013283386076435814 0.007571940306166181
leaf_weight=10.549163565039636 13.012191176414488 11.810898870229723 14.090049907565115 12.362698152661322
leaf_count=50 60 50 61 54
internal_value=0 0.00880112 -0.0119672 0.0299695
internal_weight=0 48.8128 24.6392 24.1736
internal_count=275 215 111 104
is_linear=0
shrinkage=0.05


Tree=30
num_leaves=4
num_cat=0
split_feature=441 197 105
split_gain=7.40484 12.0553 7.25134
threshold=0.44806255821077695 -0.19635220090445549 0.49381210400519798
decision_type=2 2 2
left_child=1 -1 -3
right_child=-2 2 -4
leaf_value=0.054945424441980278 -0.02622859323911499 -0.025022882579950292 0.023968551784148289
leaf_weight=11.593394428491591 18.807730659842491 18.279279947280887 12.871422678232191
leaf_count=50 85 83 57
internal_value=0 0.0114194 -0.0047797
internal_weight=0 42.7441 31.1507
internal_count=275 190 140
is_linear=0
shrinkage=0.05


Tree=31
num_leaves=4
num_cat=0
split_feature=386 516 141
split_gain=7.19529 8.20961 6.83805
threshold=0.63076982684893712 -0.18729751202768946 -0.015618973473603167
decision_type=2 2 2
left_child=1 -1 -3
right_child=-2 2 -4
leaf_value=0.014859231672986393 0.035052353292719066 -0.056930716017222639 -0.006411768904448209
leaf_weight=21.460595235228539 11.77501657605171 11.014468833804132 17.093336373567581
leaf_count=97 51 52 75
internal_value=0 -0.0084282 -0.0262084
internal_weight=0 49.5684 28.1078
internal_count=275 224 127
is_linear=0
shrinkage=0.05


Tree=32
num_leaves=4
num_cat=0
split_feature=236 302 215
split_gain=6.87559 11.492 9.59321
threshold=0.036148056706302396 -0.29449820468929705 0.28228518027377553
decision_type=2 2 2
left_child=2 -2 -1
right_child=1 -3 -4
leaf_value=-0.037588532405729354 -0.012452468521465518 0.053333657546850759 0.015602502443337399
leaf_weight=19.764633774757385 13.871764212846758 12.730876684188841 14.842309430241583
leaf_count=93 62 54 66
internal_value=0 0.0190299 -0.0147758
internal_weight=0 26.6026 34.6069
internal_count=275 116 159
is_linear=0
shrinkage=0.05


Tree=33
num_leaves=4
num_cat=0
split_feature=260 440 383
split_gain=6.71849 8.76861 9.41854
threshold=0.50961686479938628 0.12084814248660632 0.057372023796759104
decision_type=2 2 2
left_child=1 2 -1
right_child=-2 -3 -4
leaf_value=0.056043442143366984 -0.030390912479941252 -0.016652936996374875 -0.0025503932112225804
leaf_weight=13.939888417720796 14.06689205765724 19.475912749767303 13.500546112656592
leaf_count=61 65 89 60
internal_value=0 0.00900489 0.0272156
internal_weight=0 46.9163 27.4404
internal_count=275 210 121
is_linear=0
shrinkage=0.05


Tree=34
num_leaves=4
num_cat=0
split_feature=362 441 195
split_gain=6.4812 6.79983 9.66182
threshold=-0.77868112075414875 0.31653651128289195 -0.43858565258719323
decision_type=2 2 2
left_child=-1 2 -2
right_child=1 -3 -4
leaf_value=0.029130313270133285 0.041265171211120222 -0.036163485284340935 -0.016917151013764384
leaf_weight=14.467224776744841 11.267695933580397 15.542164370417593 19.456220388412479
leaf_count=62 49 74 90
internal_value=0 -0.00921278 0.00442065
internal_weight=0 46.2661 30.7239
internal_count=275 213 139
is_linear=0
shrinkage=0.05


Tree=35
num_leaves=4
num_cat=0
split_feature=257 458 215
split_gain=6.09121 8.26447 7.51578
threshold=0.58221744081946758 0.56250134646584204 0.039394704973439186
decision_type=2 2 2
left_child=1 2 -1
right_child=-2 -3 -4
leaf_value=-0.0014807383369387767 -0.03096586109595241 -0.026011296910906336 0.044984483773938377
leaf_weight=18.194409802556038 12.62859697639942 12.964225918054579 16.682282045483589
leaf_count=82 60 61 72
internal_value=0 0.00807439 0.0207446
internal_weight=0 47.8409 34.8767
internal_count=275 215 154
is_linear=0
shrinkage=0.05


Tree=36
num_leaves=4
num_cat=0
split_feature=386 218 137
split_gain=6.23989 7.72788 7.62727
threshold=0.63076982684893712 -0.40642844556769014 0.13344748195021436
decision_type=2 2 2
left_child=1 -1 -3
right_child=-2 2 -4
leaf_value=-0.044565878886630897 0.032728042401994721 0.024521745055386207 -0.020657233972625443
leaf_weight=11.122131153941153 11.683821946382521 19.521091267466545 17.915464878082275
leaf_count=54 51 88 82
internal_value=0 -0.00797098 0.0029011
internal_weight=0 48.5587 37.4366
internal_count=275 224 170
is_linear=0
shrinkage=0.05


Tree=37
num_leaves=4
num_cat=0
split_feature=236 302 215
split_gain=6.17872 10.0233 8.11784
threshold=0.036148056706302396 -0.29449820468929705 0.28228518027377553
decision_type=2 2 2
left_child=2 -2 -1
right_child=1 -3 -4
leaf_value=-0.035585814780463569 -0.011565131749783329 0.050320200423031161 0.013827331468872562
leaf_weight=19.194755420088768 13.628269866108896 12.585079699754713 14.659918159246443
leaf_count=93 62 54 66
internal_value=0 0.0181461 -0.0141887
internal_weight=0 26.2133 33.8547
internal_count=275 116 159
is_linear=0
shrinkage=0.05


Tree=38
num_leaves=4
num_cat=0
split_feature=491 387 68
split_gain=5.8826 6.21127 6.78128
threshold=1.7467474629433997 -0.14714434852014693 0.24231321175415241
decision_type=2 2 2
left_child=1 -1 -3
right_child=-2 2 -4
leaf_value=0.029711295917978827 -0.026540809743876567 -0.033201637682081279 0.019861946251336679
leaf_weight=20.143377929925919 15.542964413762091 12.624942004680635 11.510014668107031
leaf_count=89 76 60 50
internal_value=0 0.00921282 -0.0078955
internal_weight=0 44.2783 24.135
internal_count=275 199 110
is_linear=0
shrinkage=0.05


Tree=39
num_leaves=4
num_cat=0
split_feature=107 225 260
split_gain=5.93097 7.12747 5.68864
threshold=-0.71784658319726546 0.43240429699725869 0.077367311509360395
decision_type=2 2 2
left_child=-1 2 -2
right_child=1 -3 -4
leaf_value=-0.035779767787987318 0.03959340933790953 -0.018354433534932071 -0.00295028731928473
leaf_weight=9.7322695180773717 18.022516295313839 17.913582280278206 13.930927082896231
leaf_count=51 80 80 64
internal_value=0 0.00689191 0.0210454
internal_weight=0 49.867 31.9534
internal_count=275 224 144
is_linear=0
shrinkage=0.05


Tree=40
num_leaves=4
num_cat=0
split_feature=483 197 75
split_gain=5.58454 9.49253 7.50708
threshold=0.1463830255176011 -0.063310931539199339 -0.33488707576706295
decision_type=2 2 2
left_child=1 -1 -2
right_child=2 -3 -4
leaf_value=0.04775996067258461 0.017701286361232568 -0.0092475957623931477 -0.034600807096263168
leaf_weight=12.783694952726366 10.817845061421396 17.03017820417881 18.755953744053841
leaf_count=57 49 80 89
internal_value=0 0.0151963 -0.0154691
internal_weight=0 29.8139 29.5738
internal_count=275 137 138
is_linear=0
shrinkage=0.05


Tree=41
num_leaves=4
num_cat=0
split_feature=441 121 4
split_gain=5.68484 7.9841 5.92219
threshold=0.44806255821077695 -0.12711456643778302 0.088995857034532277
decision_type=2 2 2
left_child=1 -1 -3
right_child=-2 2 -4
leaf_value=0.037484469272217054 -0.023551609973050863 0.014020064985379249 -0.035016339772406223
leaf_weight=16.213320344686508 17.955360323190689 13.983974277973177 11.001054033637045
leaf_count=75 85 64 51
internal_value=0 0.0101603 -0.00757095
internal_weight=0 41.1983 24.985
internal_count=275 190 115
is_linear=0
shrinkage=0.05


Tree=42
num_leaves=4
num_cat=0
split_feature=386 516 141
split_gain=5.4746 6.64453 5.7939
threshold=0.63076982684893712 -0.18729751202768946 -0.015618973473603167
decision_type=2 2 2
left_child=1 -1 -3
right_child=-2 2 -4
leaf_value=0.013769169838499799 0.030829714486633256 -0.053377750630806291 -0.0056152166021039606
leaf_weight=20.606394380331039 11.530246451497076 10.317474514245989 16.509556755423546
leaf_count=97 51 52 75
internal_value=0 -0.00758316 -0.0239843
internal_weight=0 47.4334 26.827
internal_count=275 224 127
is_linear=0
shrinkage=0.05


Tree=43
num_leaves=5
num_cat=0
split_feature=236 213 53 374
split_gain=5.46723 9.50875 7.08483 4.04691
threshold=0.036148056706302396 -0.80891735950084709 -0.15311287449421565 0.057914678742985566
decision_type=2 2 2 2
left_child=1 -1 -2 -3
right_child=2 3 -4 -5
leaf_value=0.025143700597285851 0.042241453894943881 -0.051185006261917888 -0.010277242435897017 -0.0083480984668197859
leaf_weight=10.734741017222403 13.470237404108049 12.389400005340578 12.271867528557776 9.9345516934990865
leaf_count=47 60 61 56 51
internal_value=0 -0.0135267 0.0172046 -0.0321218
internal_weight=0 33.0587 25.7421 22.324
internal_count=275 159 116 112
is_linear=0
shrinkage=0.05


Tree=44
num_leaves=4
num_cat=0
split_feature=195 514 157
split_gain=5.30457 6.63029 8.27017
threshold=-0.53835657760848765 -0.11180487285001929 0.10802654928488264
decision_type=2 2 2
left_child=-1 -2 -3
right_child=1 2 -4
leaf_value=0.023445313539979473 -0.034984029712162551 -0.020527168673399598 0.036500374491531151
leaf_weight=17.006711259484291 15.96716485917568 13.621139734983446 11.921835184097288
leaf_count=76 80 66 53
internal_value=0 -0.00970962 0.00608966
internal_weight=0 41.5101 25.543
internal_count=275 199 119
is_linear=0
shrinkage=0.05


Tree=45
num_leaves=5
num_cat=0
split_feature=446 107 374 338
split_gain=5.27324 7.56368 7.4715 4.65813
threshold=0.73077009964133532 -0.5563060159630635 0.1702061791320629 -0.1570135508804138
decision_type=2 2 2 2
left_child=1 -1 3 -3
right_child=-2 2 -4 -5
leaf_value=-0.026866190071616669 -0.028001338546800821 -0.020125644617635201 0.053521756281840506 0.025382133504382599
leaf_weight=11.563213787972925 13.10433656722307 10.856209419667717 11.13006056845188 11.665531426668171
leaf_count=61 61 50 50 53
internal_value=0 0.00802054 0.0200081 0.00344591
internal_weight=0 45.215 33.6518 22.5217
internal_count=275 214 153 103
is_linear=0
shrinkage=0.05


Tree=46
num_leaves=4
num_cat=0
split_feature=257 458 126
split_gain=5.11013 6.65744 5.9568
threshold=0.58221744081946758 0.56250134646584204 0.34879608430357678
decision_type=2 2 2
left_child=1 2 -1
right_child=-2 -3 -4
leaf_value=0.0025990619182416162 -0.028955774985508304 -0.023829803052406801 0.045941418649150481
leaf_weight=20.866583898663521 12.121316708624361 12.370982468128203 12.784123122692106
leaf_count=97 60 61 57
internal_value=0 0.00753463 0.0190651
internal_weight=0 46.0217 33.6507
internal_count=275 215 154
is_linear=0
shrinkage=0.05


Tree=47
num_leaves=4
num_cat=0
split_feature=222 387 395
split_gain=5.00057 7.52982 6.11272
threshold=-0.076188295364332803 -0.064687464510201673 0.034023627451609487
decision_type=2 2 2
left_child=2 -2 -1
right_child=1 -3 -4
leaf_value=-0.041223993605818743 0.047267016465972832 -0.0042969183523279015 0.006842526091615818
leaf_weight=12.631976641714575 10.791874296963217 20.584198392927647 13.884722746908663
leaf_count=64 49 97 65
internal_value=0 0.0134386 -0.0160553
internal_weight=0 31.3761 26.5167
internal_count=275 146 129
is_linear=0
shrinkage=0.05


Tree=48
num_leaves=4
num_cat=0
split_feature=362 81 88
split_gain=4.84253 5.58774 8.41853
threshold=-0.77868112075414875 0.27466145876930842 0.12998309684798237
decision_type=2 2 2
left_child=-1 2 -2
right_child=1 -3 -4
leaf_value=0.02575876819685069 -0.047524361173780769 0.015309460873468808 0.0075783046232580954
leaf_weight=13.805420458316801 14.811982542276384 16.042930148541927 13.028522275388239
leaf_count=62 77 74 62
internal_value=0 -0.00819415 -0.021738
internal_weight=0 43.8834 27.8405
internal_count=275 213 139
is_linear=0
shrinkage=0.05


Tree=49
num_leaves=4
num_cat=0
split_feature=195 483 104
split_gain=4.85204 6.11058 6.72084
threshold=-0.53835657760848765 -0.56342734436614128 -0.23309533408522479
decision_type=2 2 2
left_child=-1 -2 -3
right_child=1 2 -4
leaf_value=0.022551352833278009 0.022778456354728093 0.0093443402424525038 -0.039609642543615133
leaf_weight=16.775438636541367 10.81742127239704 11.27663540095091 18.535138703882694
leaf_count=76 52 55 92
internal_value=0 -0.00941179 -0.0210923
internal_weight=0 40.6292 29.8118
internal_count=275 199 147
is_linear=0
shrinkage=0.05


Tree=50
num_leaves=5
num_cat=0
split_feature=236 302 213 43
split_gain=4.78598 8.19867 7.68091 3.82959
threshold=0.036148056706302396 -0.29449820468929705 -0.80891735950084709 -0.051357356549096241
decision_type=2 2 2 2
left_child=2 -2 -1 -4
right_child=1 -3 3 -5
leaf_value=0.021952000114534513 -0.011237976320923986 0.045828774761994845 -0.0096919011905974208 -0.051976346096737597
leaf_weight=10.585093051195143 13.078608207404615 12.132344186305998 11.093923524022102 10.350471168756485
leaf_count=47 62 54 56 56
internal_value=0 0.0162244 -0.0128986 -0.0301011
internal_weight=0 25.211 32.0295 21.4444
internal_count=275 116 159 112
is_linear=0
shrinkage=0.05


Tree=51
num_leaves=4
num_cat=0
split_feature=424 260 516
split_gain=4.77469 6.31741 5.28909
threshold=0.32582935237816046 0.50961686479938628 1.0000000180025095e-35
decision_type=2 2 2
left_child=1 2 -1
right_child=-2 -3 -4
leaf_value=0.041165150803536485 -0.021546270376913847 -0.024358260437505622 -0.0016787656724321161
leaf_weight=15.733208343386652 17.793414644896984 10.103021286427973 13.286955796182154
leaf_count=73 88 51 63
internal_value=0 0.00969405 0.021549
internal_weight=0 39.1232 29.0202
internal_count=275 187 136
is_linear=0
shrinkage=0.05


Tree=52
num_leaves=4
num_cat=0
split_feature=221 195 236
split_gain=4.58488 7.44815 6.05444
threshold=0.63178772017661744 -0.53835657760848765 0.036148056706302396
decision_type=2 2 2
left_child=1 -1 -3
right_child=-2 2 -4
leaf_value=0.024732734205719909 0.027138184024138947 -0.041020953584350581 0.0026986873470689269
leaf_weight=12.785164162516592 12.16382350027561 16.83635483682156 14.950783021748064
leaf_count=58 56 90 71
internal_value=0 -0.00749532 -0.0204578
internal_weight=0 44.5723 31.7871
internal_count=275 219 161
is_linear=0
shrinkage=0.05


Tree=53
num_leaves=5
num_cat=0
split_feature=446 107 374 338
split_gain=4.55714 6.52584 6.53882 4.09673
threshold=0.73077009964133532 -0.5563060159630635 0.1702061791320629 -0.1570135508804138
decision_type=2 2 2 2
left_child=1 -1 3 -3
right_child=-2 2 -4 -5
leaf_value=-0.025810560010840689 -0.026402331509366342 -0.019395378912002603 0.050448765660647391 0.0238344067232233
leaf_weight=10.966118879616259 12.730975620448588 10.562454886734482 10.87299372255802 11.390299789607528
leaf_count=61 61 50 50 53
internal_value=0 0.00758373 0.0187398 0.00303462
internal_weight=0 43.7919 32.8257 21.9528
internal_count=275 214 153 103
is_linear=0
shrinkage=0.05


Tree=54
num_leaves=4
num_cat=0
split_feature=167 95 446
split_gain=4.39227 6.36223 6.52365
threshold=-0.37813717577533684 -0.46017261217782973 0.35612055379952096
decision_type=2 2 2
left_child=-1 -2 -3
right_child=1 2 -4
leaf_value=0.019036227831895583 -0.043684681638631817 0.022514637268875721 -0.02840553715577725
leaf_weight=19.609405644237995 10.264825269579886 16.156954303383831 10.299759924411772
leaf_count=91 55 77 52
internal_value=0 -0.0102724 0.0026911
internal_weight=0 36.7215 26.4567
internal_count=275 184 129
is_linear=0
shrinkage=0.05


end of trees

feature_importances:
Column_362=10
Column_68=8
Column_195=8
Column_236=8
Column_107=7
Column_257=7
Column_485=6
Column_126=5
Column_458=5
Column_491=5
Column_222=4
Column_260=4
Column_374=4
Column_387=4
Column_439=4
Column_446=4
Column_95=3
Column_197=3
Column_215=3
Column_302=3
Column_382=3
Column_386=3
Column_441=3
Column_516=3
Column_10=2
Column_47=2
Column_61=2
Column_81=2
Column_141=2
Column_213=2
Column_225=2
Column_226=2
Column_297=2
Column_322=2
Column_338=2
Column_380=2
Column_483=2
Column_4=1
Column_11=1
Column_43=1
Column_51=1
Column_53=1
Column_69=1
Column_75=1
Column_88=1
Column_102=1
Column_104=1
Column_105=1
Column_115=1
Column_121=1
Column_136=1
Column_137=1
Column_157=1
Column_161=1
Column_167=1
Column_202=1
Column_218=1
Column_221=1
Column_277=1
Column_282=1
Column_298=1
Column_353=1
Column_383=1
Column_395=1
Column_424=1
Column_440=1
Column_463=1
Column_487=1
Column_514=1

parameters:
[boosting: gbdt]
[objective: binary]
[metric: binary_logloss]
[tree_learner: serial]
[device_type: cpu]
[linear_tree: 0]
[data: ]
[valid: ]
[num_iterations: 10000]
[learning_rate: 0.05]
[num_leaves: 15]
[num_threads: 0]
[deterministic: 0]
[force_col_wise: 0]
[force_row_wise: 0]
[histogram_pool_size: -1]
[max_depth: -1]
[min_data_in_leaf: 50]
[min_sum_hessian_in_leaf: 0.001]
[bagging_fraction: 0.5]
[pos_bagging_fraction: 1]
[neg_bagging_fraction: 1]
[bagging_freq: 0]
[bagging_seed: 10961]
[feature_fraction: 0.8]
[feature_fraction_bynode: 1]
[feature_fraction_seed: 53]
[extra_trees: 0]
[extra_seed: 11644]
[early_stopping_round: 50]
[first_metric_only: 0]
[max_delta_step: 0]
[lambda_l1: 0]
[lambda_l2: 0]
[linear_lambda: 0]
[min_gain_to_split: 0]
[drop_rate: 0.1]
[max_drop: 50]
[skip_drop: 0.5]
[xgboost_dart_mode: 0]
[uniform_drop: 0]
[drop_seed: 30626]
[top_rate: 0.2]
[other_rate: 0.1]
[min_data_per_group: 100]
[max_cat_threshold: 32]
[cat_l2: 10]
[cat_smooth: 10]
[max_cat_to_onehot: 4]
[top_k: 20]
[monotone_constraints: ]
[monotone_constraints_method: basic]
[monotone_penalty: 0]
[feature_contri: ]
[forcedsplits_filename: ]
[refit_decay_rate: 0.9]
[cegb_tradeoff: 1]
[cegb_penalty_split: 0]
[cegb_penalty_feature_lazy: ]
[cegb_penalty_feature_coupled: ]
[path_smooth: 0]
[interaction_constraints: ]
[verbosity: -1]
[saved_feature_importance_type: 0]
[max_bin: 255]
[max_bin_by_feature: ]
[min_data_in_bin: 3]
[bin_construct_sample_cnt: 200000]
[data_random_seed: 4071]
[is_enable_sparse: 1]
[enable_bundle: 1]
[use_missing: 1]
[zero_as_missing: 0]
[feature_pre_filter: 1]
[pre_partition: 0]
[two_round: 0]
[header: 0]
[label_column: ]
[weight_column: ]
[group_column: ]
[ignore_column: ]
[categorical_feature: ]
[forcedbins_filename: ]
[objective_seed: 602]
[num_class: 1]
[is_unbalance: 0]
[scale_pos_weight: 1]
[sigmoid: 1]
[boost_from_average: 1]
[reg_sqrt: 0]
[alpha: 0.9]
[fair_c: 1]
[poisson_max_delta_step: 0.7]
[tweedie_variance_power: 1.5]
[lambdarank_truncation_level: 30]
[lambdarank_norm: 1]
[label_gain: ]
[eval_at: ]
[multi_error_top_k: 1]
[auc_mu_weights: ]
[num_machines: 1]
[local_listen_port: 12400]
[time_out: 120]
[machine_list_filename: ]
[machines: ]
[gpu_platform_id: -1]
[gpu_device_id: -1]
[gpu_use_dp: 0]
[num_gpu: 1]

end of parameters

pandas_categorical:null
